{"learner":{"attributes":{"best_iteration":"494","best_score":"-0.304757"},"feature_names":[],"feature_types":[],"gradient_booster":{"model":{"gbtree_model_param":{"num_parallel_tree":"1","num_trees":"545"},"iteration_indptr":[0,1,2,3,4,5,6,7,8,9,10,11,12,13,14,15,16,17,18,19,20,21,22,23,24,25,26,27,28,29,30,31,32,33,34,35,36,37,38,39,40,41,42,43,44,45,46,47,48,49,50,51,52,53,54,55,56,57,58,59,60,61,62,63,64,65,66,67,68,69,70,71,72,73,74,75,76,77,78,79,80,81,82,83,84,85,86,87,88,89,90,91,92,93,94,95,96,97,98,99,100,101,102,103,104,105,106,107,108,109,110,111,112,113,114,115,116,117,118,119,120,121,122,123,124,125,126,127,128,129,130,131,132,133,134,135,136,137,138,139,140,141,142,143,144,145,146,147,148,149,150,151,152,153,154,155,156,157,158,159,160,161,162,163,164,165,166,167,168,169,170,171,172,173,174,175,176,177,178,179,180,181,182,183,184,185,186,187,188,189,190,191,192,193,194,195,196,197,198,199,200,201,202,203,204,205,206,207,208,209,210,211,212,213,214,215,216,217,218,219,220,221,222,223,224,225,226,227,228,229,230,231,232,233,234,235,236,237,238,239,240,241,242,243,244,245,246,247,248,249,250,251,252,253,254,255,256,257,258,259,260,261,262,263,264,265,266,267,268,269,270,271,272,273,274,275,276,277,278,279,280,281,282,283,284,285,286,287,288,289,290,291,292,293,294,295,296,297,298,299,300,301,302,303,304,305,306,307,308,309,310,311,312,313,314,315,316,317,318,319,320,321,322,323,324,325,326,327,328,329,330,331,332,333,334,335,336,337,338,339,340,341,342,343,344,345,346,347,348,349,350,351,352,353,354,355,356,357,358,359,360,361,362,363,364,365,366,367,368,369,370,371,372,373,374,375,376,377,378,379,380,381,382,383,384,385,386,387,388,389,390,391,392,393,394,395,396,397,398,399,400,401,402,403,404,405,406,407,408,409,410,411,412,413,414,415,416,417,418,419,420,421,422,423,424,425,426,427,428,429,430,431,432,433,434,435,436,437,438,439,440,441,442,443,444,445,446,447,448,449,450,451,452,453,454,455,456,457,458,459,460,461,462,463,464,465,466,467,468,469,470,471,472,473,474,475,476,477,478,479,480,481,482,483,484,485,486,487,488,489,490,491,492,493,494,495,496,497,498,499,500,501,502,503,504,505,506,507,508,509,510,511,512,513,514,515,516,517,518,519,520,521,522,523,524,525,526,527,528,529,530,531,532,533,534,535,536,537,538,539,540,541,542,543,544,545],"tree_info":[0,0,0,0,0,0,0,0,0,0,0,0,0,0,0,0,0,0,0,0,0,0,0,0,0,0,0,0,0,0,0,0,0,0,0,0,0,0,0,0,0,0,0,0,0,0,0,0,0,0,0,0,0,0,0,0,0,0,0,0,0,0,0,0,0,0,0,0,0,0,0,0,0,0,0,0,0,0,0,0,0,0,0,0,0,0,0,0,0,0,0,0,0,0,0,0,0,0,0,0,0,0,0,0,0,0,0,0,0,0,0,0,0,0,0,0,0,0,0,0,0,0,0,0,0,0,0,0,0,0,0,0,0,0,0,0,0,0,0,0,0,0,0,0,0,0,0,0,0,0,0,0,0,0,0,0,0,0,0,0,0,0,0,0,0,0,0,0,0,0,0,0,0,0,0,0,0,0,0,0,0,0,0,0,0,0,0,0,0,0,0,0,0,0,0,0,0,0,0,0,0,0,0,0,0,0,0,0,0,0,0,0,0,0,0,0,0,0,0,0,0,0,0,0,0,0,0,0,0,0,0,0,0,0,0,0,0,0,0,0,0,0,0,0,0,0,0,0,0,0,0,0,0,0,0,0,0,0,0,0,0,0,0,0,0,0,0,0,0,0,0,0,0,0,0,0,0,0,0,0,0,0,0,0,0,0,0,0,0,0,0,0,0,0,0,0,0,0,0,0,0,0,0,0,0,0,0,0,0,0,0,0,0,0,0,0,0,0,0,0,0,0,0,0,0,0,0,0,0,0,0,0,0,0,0,0,0,0,0,0,0,0,0,0,0,0,0,0,0,0,0,0,0,0,0,0,0,0,0,0,0,0,0,0,0,0,0,0,0,0,0,0,0,0,0,0,0,0,0,0,0,0,0,0,0,0,0,0,0,0,0,0,0,0,0,0,0,0,0,0,0,0,0,0,0,0,0,0,0,0,0,0,0,0,0,0,0,0,0,0,0,0,0,0,0,0,0,0,0,0,0,0,0,0,0,0,0,0,0,0,0,0,0,0,0,0,0,0,0,0,0,0,0,0,0,0,0,0,0,0,0,0,0,0,0,0,0,0,0,0,0,0,0,0,0,0,0,0,0,0,0,0,0,0,0,0,0,0,0,0,0,0,0,0,0,0,0,0,0,0,0,0,0,0,0,0,0,0,0,0,0,0,0,0,0,0,0,0,0,0,0,0,0,0,0,0,0,0,0,0,0,0,0,0,0,0,0,0,0,0,0,0,0,0,0],"trees":[{"base_weights":[-9.1499254E-2,-4.694674E-1,2.5661778E-2,-5.7186747E-1,-9.968646E-2,-3.5128787E-1,1.5359609E-1,-6.93095E-1,-4.669492E-1,-1.953873E-1,4.1852336E-2,-2.8633404E-1,-7.823808E-1,-1.1409331E-1,3.8166714E-1,-4.17312E-1,-7.79172E-1,-3.1973532E-1,-6.141483E-1,-3.0318153E-1,1.5530636E-2,-4.508186E-2,-4.5777562E-1,-1.367121E-1,-8.8304415E-2,-2.6524175E-2,-3.56821E-1,4.903845E-1,-6.2245633E-2,-9.085936E-2,-2.945301E-2,-1.3524455E-1,-7.301679E-1,-5.703093E-1,-9.227145E-3,-1.2660797E-1,-5.04221E-1,-7.155706E-2,-2.4699548E-2,-3.645992E-1,1.6672489E-1,-5.2420753E-1,5.676746E-4,-3.125682E-1,1.1492149E-1,-1.0087455E-1,-2.7947003E-1,1.0112531E-1,6.476515E-1,-2.3427957E-1,2.4352582E-1,-8.274485E-2,-8.084697E-1,-1.1466181E-1,-5.777864E-2,-3.4629516E-2,4.23766E-2,-3.3527993E-2,-6.2799406E-1,-8.632903E-2,-2.1448534E-2,3.938294E-1,-2.366566E-2,-4.2303258E-1,-7.0853156E-1,-9.635048E-2,-2.2546935E-1,3.6387965E-1,-1.4833067E-1,-1.3333592E-1,-5.276636E-1,1.7992786E-1,-5.4944146E-2,7.2061014E-1,1.03960834E-1,-6.265837E-2,-6.274124E-2,6.362216E-2,4.606048E-3,-1.480708E-1,-7.206068E-1,-1.14049636E-1,-7.53417E-2,1.2952618E-2,9.1621794E-2,-5.062518E-1,-6.5280306E-3,-7.8378594E-1,-8.1302784E-2,-8.2906544E-2,-8.9114696E-2,1.9966012E-1,1.18526846E-1,-3.006096E-1,3.0651957E-2,-1.1474884E-2,-5.362323E-2,-1.0358053E-1,-5.4334823E-2,-5.9597008E-2,3.7673247E-1,7.760626E-1,5.6943456E-3,5.948292E-2,-3.2472845E-2,-4.5365382E-2,2.5450429E-2,-9.022395E-2,-1.239739E-1,-9.39987E-2,-3.8921937E-2,-8.852695E-2,-1.450458E-1,3.6783073E-2,-3.2599322E-2,8.5055724E-2,1.529196E-2,-7.7977896E-2,-3.319686E-2,-2.9206872E-2,2.925224E-2,-5.548635E-2,1.8711217E-2,2.21038E-2,1.1086315E-1,1.05333455E-1,1.8898037E-1],"categories":[],"categories_nodes":[],"categories_segments":[],"categories_sizes":[],"default_left":[0,0,0,0,0,0,0,0,0,0,0,0,0,0,0,0,0,0,0,0,0,0,0,0,0,0,0,0,0,0,0,0,0,0,0,0,0,0,0,0,0,0,0,0,0,0,0,0,0,0,0,0,0,0,0,0,0,0,0,0,0,0,0,0,0,0,0,0,0,0,0,0,0,0,0,0,0,0,0,0,0,0,0,0,0,0,0,0,0,0,0,0,0,0,0,0,0,0,0,0,0,0,0,0,0,0,0,0,0,0,0,0,0,0,0,0,0,0,0,0,0,0,0,0,0,0,0],"id":0,"left_children":[1,3,5,7,9,11,13,15,17,19,-1,21,23,25,27,29,31,33,35,37,-1,39,41,-1,-1,43,45,47,49,-1,-1,-1,51,53,55,-1,57,-1,-1,59,61,63,-1,65,67,-1,69,71,73,75,77,-1,79,-1,-1,-1,-1,-1,81,-1,-1,83,-1,85,87,-1,89,91,93,95,97,99,-1,101,103,105,-1,-1,-1,-1,107,-1,-1,-1,-1,109,-1,111,-1,113,-1,115,-1,117,-1,119,-1,-1,-1,121,123,125,-1,-1,-1,-1,-1,-1,-1,-1,-1,-1,-1,-1,-1,-1,-1,-1,-1,-1,-1,-1,-1,-1,-1,-1,-1],"loss_changes":[2.3192165E2,4.6868378E1,1.9289095E2,1.2017548E1,9.838621E0,2.8156563E1,1.8235513E2,1.0311996E1,1.1141266E1,6.9944353E0,0E0,3.647648E1,2.7658691E0,2.9206816E1,7.7857574E1,4.408308E0,1.384079E0,2.0509928E1,6.158684E0,3.752553E0,0E0,2.4943958E1,1.5815468E1,0E0,0E0,4.0948437E1,8.708427E0,7.924155E1,1.6791933E1,0E0,0E0,0E0,3.025711E0,4.9481354E0,7.744888E0,0E0,6.069538E0,0E0,0E0,6.7836704E0,1.640722E1,8.108116E0,0E0,9.472801E0,4.4446342E1,0E0,1.0605402E1,1.3840769E1,3.6518616E1,6.4187613E0,4.4088893E0,0E0,1.9649124E0,0E0,0E0,0E0,0E0,0E0,1.6725807E0,0E0,0E0,8.671495E0,0E0,9.249348E0,1.5586777E0,0E0,1.3952167E1,2.4233486E1,1.7780508E1,5.0930033E0,2.6798859E0,1.5139697E1,0E0,3.0753967E1,1.0429106E1,5.9995537E0,0E0,0E0,0E0,0E0,9.909363E-1,0E0,0E0,0E0,0E0,6.9883957E0,0E0,3.2162704E0,0E0,8.578693E0,0E0,9.019323E0,0E0,3.8981762E0,0E0,4.6508837E0,0E0,0E0,0E0,8.369657E0,1.4534355E1,2.5981873E1,0E0,0E0,0E0,0E0,0E0,0E0,0E0,0E0,0E0,0E0,0E0,0E0,0E0,0E0,0E0,0E0,0E0,0E0,0E0,0E0,0E0,0E0,0E0,0E0,0E0],"parents":[2147483647,0,0,1,1,2,2,3,3,4,4,5,5,6,6,7,7,8,8,9,9,11,11,12,12,13,13,14,14,15,15,16,16,17,17,18,18,19,19,21,21,22,22,25,25,26,26,27,27,28,28,32,32,33,33,34,34,36,36,39,39,40,40,41,41,43,43,44,44,46,46,47,47,48,48,49,49,50,50,52,52,58,58,61,61,63,63,64,64,66,66,67,67,68,68,69,69,70,70,71,71,73,73,74,74,75,75,80,80,85,85,87,87,89,89,91,91,93,93,95,95,99,99,100,100,101,101],"right_children":[2,4,6,8,10,12,14,16,18,20,-1,22,24,26,28,30,32,34,36,38,-1,40,42,-1,-1,44,46,48,50,-1,-1,-1,52,54,56,-1,58,-1,-1,60,62,64,-1,66,68,-1,70,72,74,76,78,-1,80,-1,-1,-1,-1,-1,82,-1,-1,84,-1,86,88,-1,90,92,94,96,98,100,-1,102,104,106,-1,-1,-1,-1,108,-1,-1,-1,-1,110,-1,112,-1,114,-1,116,-1,118,-1,120,-1,-1,-1,122,124,126,-1,-1,-1,-1,-1,-1,-1,-1,-1,-1,-1,-1,-1,-1,-1,-1,-1,-1,-1,-1,-1,-1,-1,-1,-1],"split_conditions":[1E0,2.3E1,1E0,-5.758E3,1E1,1E0,-8.05E2,7.6495E4,4.545E5,-2.961E3,4.1852336E-2,4.545E5,1.2E1,6.795E5,6.795E5,8E0,2.6955E5,2.7252E5,1E0,3E0,1.5530636E-2,2.81493E5,1E0,-1.367121E-1,-8.8304415E-2,2.844E5,8.84124E5,-6.184E3,1.5E1,-9.085936E-2,-2.945301E-2,-1.3524455E-1,4.545E5,1.2E1,-5.53E2,-1.2660797E-1,1E0,-7.155706E-2,-2.4699548E-2,1.2E1,1E0,9.045E5,5.676746E-4,1.4391E5,4.545E5,-1.0087455E-1,2.115E5,1E0,1E0,1.89E5,9.045E5,-8.274485E-2,6.75E5,-1.1466181E-1,-5.777864E-2,-3.4629516E-2,4.23766E-2,-3.3527993E-2,1.2E1,-8.632903E-2,-2.1448534E-2,-6.9E2,-2.366566E-2,9.423E5,1.6E1,-9.635048E-2,2.295E5,4.90536E5,7.33315E5,1.125E6,3.66142E5,2E0,-5.4944146E-2,-1.24E2,1.35E5,-4.721E3,-6.274124E-2,6.362216E-2,4.606048E-3,-1.480708E-1,-9.101E3,-1.14049636E-1,-7.53417E-2,1.2952618E-2,9.1621794E-2,1.5E1,-6.5280306E-3,1.4391E5,-8.1302784E-2,9.7614E4,-8.9114696E-2,2.475E5,1.18526846E-1,-7.387E3,3.0651957E-2,1.02474E6,-5.362323E-2,-1.0358053E-1,-5.4334823E-2,-9.101E3,-4.23E2,-2.61E2,5.6943456E-3,5.948292E-2,-3.2472845E-2,-4.5365382E-2,2.5450429E-2,-9.022395E-2,-1.239739E-1,-9.39987E-2,-3.8921937E-2,-8.852695E-2,-1.450458E-1,3.6783073E-2,-3.2599322E-2,8.5055724E-2,1.529196E-2,-7.7977896E-2,-3.319686E-2,-2.9206872E-2,2.925224E-2,-5.548635E-2,1.8711217E-2,2.21038E-2,1.1086315E-1,1.05333455E-1,1.8898037E-1],"split_indices":[38,21,40,11,29,0,23,20,8,11,0,8,21,8,8,21,6,6,40,29,0,6,43,0,0,6,6,11,21,0,0,0,8,21,23,0,37,0,0,21,2,8,0,6,8,0,5,0,0,5,8,0,6,0,0,0,0,0,21,0,0,23,0,6,21,0,8,6,6,8,20,29,0,23,5,11,0,0,0,0,11,0,0,0,0,21,0,20,0,20,0,8,0,11,0,6,0,0,0,11,23,23,0,0,0,0,0,0,0,0,0,0,0,0,0,0,0,0,0,0,0,0,0,0,0,0,0],"split_type":[0,0,0,0,0,0,0,0,0,0,0,0,0,0,0,0,0,0,0,0,0,0,0,0,0,0,0,0,0,0,0,0,0,0,0,0,0,0,0,0,0,0,0,0,0,0,0,0,0,0,0,0,0,0,0,0,0,0,0,0,0,0,0,0,0,0,0,0,0,0,0,0,0,0,0,0,0,0,0,0,0,0,0,0,0,0,0,0,0,0,0,0,0,0,0,0,0,0,0,0,0,0,0,0,0,0,0,0,0,0,0,0,0,0,0,0,0,0,0,0,0,0,0,0,0,0,0],"sum_hessian":[5.2359727E3,1.238262E3,3.9977107E3,9.692969E2,2.6896515E2,1.0125515E3,2.9851592E3,4.4709555E2,5.222013E2,2.1509346E2,5.3871674E1,8.814113E2,1.3114017E2,1.373531E3,1.611628E3,1.0774335E2,3.393522E2,2.6267355E2,2.5952777E2,1.58076E2,5.7017464E1,3.6668127E2,5.1473004E2,7.648205E1,5.465812E1,1.01019214E3,3.6333887E2,1.294493E3,3.1713507E2,5.7214073E1,5.052927E1,9.201439E1,2.4733781E2,1.44903E2,1.1777055E2,8.1790565E1,1.777372E2,6.901079E1,8.906521E1,1.4588606E2,2.2079521E2,4.498481E2,6.488194E1,3.3384708E2,6.763451E2,6.999385E1,2.93345E2,3.7297284E2,9.2152014E2,2.0310013E2,1.1403493E2,7.785833E1,1.6947949E2,6.9207405E1,7.5695595E1,6.704467E1,5.072588E1,5.5247955E1,1.2248924E2,7.392609E1,7.195997E1,1.2976389E2,9.103133E1,2.9255856E2,1.5728955E2,6.842095E1,2.6542612E2,3.474133E2,3.2893176E2,1.8560167E2,1.0774335E2,3.19691E2,5.3281837E1,8.122039E2,1.0931624E2,1.0577722E2,9.7322914E1,6.1146313E1,5.288861E1,5.2495388E1,1.1698411E2,5.7214073E1,6.527516E1,5.4264896E1,7.5498985E1,2.3966995E2,5.288861E1,1.0577722E2,5.151233E1,1.9228648E2,7.313964E1,2.518599E2,9.5553406E1,2.2983936E2,9.9092415E1,1.2091634E2,6.4685326E1,5.2692E1,5.5051342E1,1.4450978E2,1.7518124E2,7.510576E2,6.1146313E1,5.7017464E1,5.2298775E1,5.1905552E1,5.3871674E1,5.8197136E1,5.8786972E1,1.6004211E2,7.962784E1,5.3478447E1,5.2298775E1,5.564118E1,1.366453E2,5.1905552E1,1.9995435E2,5.9573418E1,1.7026595E2,6.409549E1,5.682085E1,5.3478447E1,9.103133E1,1.08136566E2,6.704467E1,6.537347E2,9.7322914E1],"tree_param":{"num_deleted":"0","num_feature":"54","num_nodes":"127","size_leaf_vector":"1"}},{"base_weights":[-8.6284705E-2,-2.7971384E-1,1.6822404E-1,-3.7746707E-1,1.290989E-1,5.404713E-2,7.037365E-1,-5.272882E-1,-2.7243114E-1,-1.327177E-1,2.711489E-1,-3.5293397E-2,4.247672E-1,9.456273E-3,8.2987434E-1,-6.5908986E-1,-4.3820286E-1,-3.318688E-1,5.0818477E-2,-5.9796885E-2,4.6028063E-2,3.8204166E-1,-2.3632498E-2,8.544449E-2,-2.2915447E-1,5.897013E-1,1.7407385E-1,7.0728624E-1,1.9202824E-1,-5.667851E-1,-1.3680577E-1,-3.2334995E-1,-6.4561E-1,-1.63972E-1,-4.143821E-1,-1.9265752E-1,7.448076E-2,-4.4185206E-2,6.0790807E-2,1.9521483E-3,4.812321E-1,-3.4811231E-1,1.4040573E-1,-8.405262E-2,-1.8174264E-1,3.145225E-2,7.27254E-1,-4.938205E-4,6.8017446E-2,5.0829715E-1,9.080243E-1,-7.024061E-1,-3.6536744E-1,-4.0199852E-1,2.1232923E-3,-1.344261E-1,-5.5035216E-1,-6.7428365E-2,-7.0094615E-2,-1.13990285E-1,-3.6581537E-1,-1.0588838E-2,-6.048599E-2,7.489101E-3,6.068237E-1,-2.023901E-2,-8.348866E-2,1.9622216E-1,-2.5317413E-1,-4.258925E-1,-1.1966861E-1,5.994721E-1,1.4152293E-1,1.0551852E-1,3.6929436E-2,1.6531946E-1,1.0476957E-1,-8.072713E-1,-8.019719E-2,-7.74427E-2,-3.6984164E-2,-4.657917E-1,-1.783638E-2,-4.2179728E-1,-1.173726E-1,-4.9427588E-2,3.371255E-2,-3.2739723E-1,-1.16935976E-1,4.015047E-1,1.5272534E-1,3.4890258E-1,1.8803045E-2,-5.8170002E-2,-1.6683334E-2,-8.668447E-2,-3.9752774E-2,-5.6811955E-2,-3.9936475E-2,1.19559586E-1,5.863059E-2,-1.06798746E-1,-1.3228112E-1,-4.064263E-2,-8.403047E-2,-7.856735E-2,-4.6816528E-2,2.1328058E-2,-2.954654E-2,-7.6115936E-2,-3.8229745E-2,8.6047396E-2,3.642683E-2,-2.2008814E-2,6.7559496E-2,-1.6650677E-2,4.551372E-2,-1.5035116E-2,4.026285E-2],"categories":[],"categories_nodes":[],"categories_segments":[],"categories_sizes":[],"default_left":[0,0,0,0,0,0,0,0,0,0,0,0,0,0,0,0,0,0,0,0,0,0,0,0,0,0,0,0,0,0,0,0,0,0,0,0,0,0,0,0,0,0,0,0,0,0,0,0,0,0,0,0,0,0,0,0,0,0,0,0,0,0,0,0,0,0,0,0,0,0,0,0,0,0,0,0,0,0,0,0,0,0,0,0,0,0,0,0,0,0,0,0,0,0,0,0,0,0,0,0,0,0,0,0,0,0,0,0,0,0,0,0,0,0,0,0,0,0,0],"id":1,"left_children":[1,3,5,7,9,11,13,15,17,19,21,23,25,-1,27,29,31,33,35,-1,37,39,-1,41,43,45,47,49,-1,51,-1,53,55,57,59,61,-1,-1,-1,-1,63,65,67,-1,69,-1,71,-1,-1,73,75,77,79,81,-1,-1,83,85,-1,-1,87,-1,-1,-1,89,-1,-1,91,93,95,97,99,-1,-1,-1,-1,-1,101,-1,-1,-1,103,-1,105,-1,-1,107,109,-1,111,-1,113,115,-1,-1,-1,-1,-1,117,-1,-1,-1,-1,-1,-1,-1,-1,-1,-1,-1,-1,-1,-1,-1,-1,-1,-1,-1,-1],"loss_changes":[2.5822998E2,1.1914493E2,1.384699E2,3.7708313E1,2.145198E1,6.18931E1,3.211429E1,1.133844E1,2.722432E1,9.677534E0,1.78224E1,3.52789E1,1.4901833E1,0E0,1.7447891E1,8.761597E0,1.3937897E1,1.6504898E1,2.4058228E1,0E0,1.5098432E1,1.0870098E1,0E0,2.2185757E1,8.980595E0,1.1267075E1,7.2074404E0,1.0066391E1,0E0,7.768715E0,0E0,1.0204441E1,4.534607E0,1.1560389E1,1.3171936E1,3.66075E0,0E0,0E0,0E0,0E0,1.26537895E1,4.5829277E0,1.8177649E1,0E0,7.639639E0,0E0,3.8552094E0,0E0,0E0,6.7133293E0,4.5154724E0,2.6380005E0,2.029728E0,5.572525E0,0E0,0E0,4.3018723E0,8.001637E0,0E0,0E0,1.0944954E1,0E0,0E0,0E0,1.49001465E1,0E0,0E0,1.9585497E1,1.923861E0,2.352684E0,8.371075E0,3.9466553E0,0E0,0E0,0E0,0E0,0E0,1.2138367E-1,0E0,0E0,0E0,4.5202866E0,0E0,9.7826004E-1,0E0,0E0,5.4935117E0,8.312706E0,0E0,3.2081604E0,0E0,1.9617767E1,1.2432281E1,0E0,0E0,0E0,0E0,0E0,5.8197083E0,0E0,0E0,0E0,0E0,0E0,0E0,0E0,0E0,0E0,0E0,0E0,0E0,0E0,0E0,0E0,0E0,0E0,0E0,0E0,0E0],"parents":[2147483647,0,0,1,1,2,2,3,3,4,4,5,5,6,6,7,7,8,8,9,9,10,10,11,11,12,12,14,14,15,15,16,16,17,17,18,18,20,20,21,21,23,23,24,24,25,25,26,26,27,27,29,29,31,31,32,32,33,33,34,34,35,35,40,40,41,41,42,42,44,44,46,46,49,49,50,50,51,51,52,52,53,53,56,56,57,57,60,60,64,64,67,67,68,68,69,69,70,70,71,71,77,77,81,81,83,83,86,86,87,87,89,89,91,91,92,92,98,98],"right_children":[2,4,6,8,10,12,14,16,18,20,22,24,26,-1,28,30,32,34,36,-1,38,40,-1,42,44,46,48,50,-1,52,-1,54,56,58,60,62,-1,-1,-1,-1,64,66,68,-1,70,-1,72,-1,-1,74,76,78,80,82,-1,-1,84,86,-1,-1,88,-1,-1,-1,90,-1,-1,92,94,96,98,100,-1,-1,-1,-1,-1,102,-1,-1,-1,104,-1,106,-1,-1,108,110,-1,112,-1,114,116,-1,-1,-1,-1,-1,118,-1,-1,-1,-1,-1,-1,-1,-1,-1,-1,-1,-1,-1,-1,-1,-1,-1,-1,-1,-1],"split_conditions":[-1.4548E4,2E0,3E0,-1.9618E4,-6.957E3,2E0,1.6666666E0,3.09568E0,3E0,3E0,3.7255E4,1E0,1E0,9.456273E-3,2E0,1E0,3.2337E4,1E0,-2.805E3,-5.9796885E-2,-1.9424E4,1E0,-2.3632498E-2,2E0,2E0,1.8421053E0,4E0,-1.1621E4,1.9202824E-1,-2.1438E4,-1.3680577E-1,2.7985E4,1E0,1E0,2E0,1E0,7.448076E-2,-4.4185206E-2,6.0790807E-2,1.9521483E-3,-2.105E4,1E0,1E0,-8.405262E-2,1E0,3.145225E-2,-2.302E3,-4.938205E-4,6.8017446E-2,4.401338E0,2.5578E4,-4.849E3,-7.222E3,1E0,2.1232923E-3,-1.344261E-1,4.4644E4,2.198E0,-7.0094615E-2,-1.13990285E-1,1E0,-1.0588838E-2,-6.048599E-2,7.489101E-3,-1.716E3,-2.023901E-2,-8.348866E-2,2E0,-3.807E3,-1.26E4,1.7391304E0,7E0,1.4152293E-1,1.0551852E-1,3.6929436E-2,1.6531946E-1,1.0476957E-1,2.02E0,-8.019719E-2,-7.74427E-2,-3.6984164E-2,2E0,-1.783638E-2,6.25E0,-1.173726E-1,-4.9427588E-2,3E0,1E0,-1.16935976E-1,-4.21E3,1.5272534E-1,1E0,1E0,-5.8170002E-2,-1.6683334E-2,-8.668447E-2,-3.9752774E-2,-5.6811955E-2,-9.883E3,1.19559586E-1,5.863059E-2,-1.06798746E-1,-1.3228112E-1,-4.064263E-2,-8.403047E-2,-7.856735E-2,-4.6816528E-2,2.1328058E-2,-2.954654E-2,-7.6115936E-2,-3.8229745E-2,8.6047396E-2,3.642683E-2,-2.2008814E-2,6.7559496E-2,-1.6650677E-2,4.551372E-2,-1.5035116E-2,4.026285E-2],"split_indices":[9,25,17,9,11,25,53,53,17,25,7,2,2,0,25,30,7,32,11,0,9,28,0,17,17,53,25,9,0,9,0,7,28,30,17,2,0,0,0,0,9,32,0,0,28,0,11,0,0,53,7,11,11,25,0,0,7,53,0,0,36,0,0,0,11,0,0,29,11,9,53,29,0,0,0,0,0,53,0,0,0,12,0,53,0,0,29,28,0,11,0,28,25,0,0,0,0,0,9,0,0,0,0,0,0,0,0,0,0,0,0,0,0,0,0,0,0,0,0],"split_type":[0,0,0,0,0,0,0,0,0,0,0,0,0,0,0,0,0,0,0,0,0,0,0,0,0,0,0,0,0,0,0,0,0,0,0,0,0,0,0,0,0,0,0,0,0,0,0,0,0,0,0,0,0,0,0,0,0,0,0,0,0,0,0,0,0,0,0,0,0,0,0,0,0,0,0,0,0,0,0,0,0,0,0,0,0,0,0,0,0,0,0,0,0,0,0,0,0,0,0,0,0,0,0,0,0,0,0,0,0,0,0,0,0,0,0,0,0,0,0],"sum_hessian":[5.2434854E3,2.9791802E3,2.2643054E3,2.4043428E3,5.7483746E2,1.8672821E3,3.9702332E2,9.89261E2,1.4150818E3,2.0220781E2,3.7262964E2,1.5053982E3,3.618839E2,6.5553894E1,3.3146942E2,3.9639557E2,5.928654E2,1.1952737E3,2.1980815E2,8.078703E1,1.2142078E2,2.9613608E2,7.649355E1,9.2799585E2,5.7740234E2,2.1746129E2,1.4442262E2,2.6256302E2,6.89064E1,2.9279202E2,1.0360354E2,3.832162E2,2.0964925E2,3.948422E2,8.0043146E2,1.425225E2,7.728564E1,6.2420486E1,5.900029E1,6.297512E1,2.3316096E2,1.03805084E2,8.2419073E2,7.095135E1,5.0645096E2,5.846451E1,1.5899678E2,8.894363E1,5.5478996E1,1.3362975E2,1.2893327E2,1.73489E2,1.1930303E2,3.1063748E2,7.2578705E1,5.5432613E1,1.5421663E2,3.0043942E2,9.440277E1,9.683091E1,7.036005E2,9.1069046E1,5.1453465E1,5.289776E1,1.802632E2,5.213758E1,5.1667503E1,7.222628E2,1.01927895E2,1.0147359E2,4.049774E2,1.02309555E2,5.6687225E1,7.563112E1,5.7998627E1,6.472373E1,6.420955E1,1.04410255E2,6.907874E1,5.1076305E1,6.822673E1,2.5298323E2,5.765425E1,1.0106422E2,5.3152416E1,8.302827E1,2.1741115E2,6.454598E2,5.8140766E1,1.2156252E2,5.8700676E1,3.876762E2,3.345866E2,5.142499E1,5.0502907E1,5.0842308E1,5.063128E1,9.442079E1,3.1055658E2,5.1092587E1,5.1216965E1,5.04813E1,5.3928955E1,8.383642E1,1.691468E2,5.041449E1,5.0649723E1,1.4813768E2,6.927346E1,1.8363593E2,4.6182385E2,5.704898E1,6.451354E1,6.581836E1,3.2185788E2,2.3020633E2,1.043803E2,2.6032587E2,5.023071E1],"tree_param":{"num_deleted":"0","num_feature":"54","num_nodes":"119","size_leaf_vector":"1"}},{"base_weights":[-8.617806E-2,-3.155153E-1,2.0978284E-1,-4.408415E-1,-7.979535E-2,-1.4325535E-1,3.2522288E-1,-5.308835E-1,-1.8651365E-1,-2.2582664E-1,1.5421505E-1,-2.688525E-1,1.1976647E-1,1.4785036E-1,5.398037E-1,-6.1526346E-1,-3.2005206E-1,-3.8508895E-1,2.4722016E-1,-3.1654906E-1,7.414583E-2,-2.7505627E-1,3.2204098E-1,-3.9867803E-1,-3.9409243E-2,-3.0572833E-2,7.0596434E-2,-3.090274E-1,2.5448546E-1,7.0791566E-1,2.5061157E-1,-5.7927203E-1,-8.81418E-1,2.1597326E-2,-4.3110213E-1,-7.594426E-1,-2.0944549E-1,6.568765E-2,-1.1723208E-2,-4.2108002E-1,4.686622E-2,4.6257727E-2,-2.5594732E-2,-3.5754747E-3,-8.087427E-2,4.4486132E-1,-2.7527347E-2,-2.0130515E-1,-5.7660735E-1,3.785179E-2,-3.178E-2,3.789894E-2,-5.155948E-2,-4.394161E-1,2.139813E-4,1.6041389E-1,6.242904E-1,7.8797597E-1,8.539053E-3,-2.1583918E-2,3.7251216E-1,-7.275962E-1,-5.262569E-1,-1.1041994E-1,-1.4683542E-1,-2.324725E-1,-5.414724E-1,-1.353323E-1,-8.6602286E-2,-7.376254E-2,-3.4645447E-1,-1.08116746E-1,-3.2067582E-1,-2.7540708E-2,3.9391473E-2,3.3515692E-1,1.03793904E-1,-1.1183325E-2,-5.4320827E-2,-1.15398E-1,-6.1030664E-2,-8.71708E-2,-4.5224488E-2,4.384032E-1,-4.534585E-3,1.2592009E-1,4.8989076E-2,3.303281E-2,8.827659E-1,5.598112E-1,5.924037E-3,-8.4862095E-1,-6.8524E-2,-3.3401644E-1,-5.975247E-1,-5.9378177E-2,-1.5583303E-2,-1.07719444E-1,-3.8571066E-1,-2.9524261E-2,1.0142761E-2,-8.161315E-2,-2.8328763E-2,-9.436972E-2,-2.2058599E-1,3.1150823E-2,7.707603E-2,1.0748168E-2,5.5877876E-1,-1.7898066E-1,2.610198E-1,1.0414479E0,6.109484E-1,6.179078E-2,1.1814882E-1,-1.5020876E-1,-1.1501828E-1,-8.9176364E-2,-1.4343449E-2,-8.198223E-2,-1.334743E-1,-7.6747924E-2,-3.375132E-2,-5.4308437E-2,1.7546316E-3,1.10033445E-1,6.330999E-2,-3.5386696E-3,-8.2061455E-2,1.7255554E-2,5.6933496E-2,1.3243687E-1,2.0139708E-1,5.9542906E-2,1.389131E-1],"categories":[],"categories_nodes":[],"categories_segments":[],"categories_sizes":[],"default_left":[0,0,0,0,0,0,0,0,0,0,0,0,0,0,0,0,0,0,0,0,0,0,0,0,0,0,0,0,0,0,0,0,0,0,0,0,0,0,0,0,0,0,0,0,0,0,0,0,0,0,0,0,0,0,0,0,0,0,0,0,0,0,0,0,0,0,0,0,0,0,0,0,0,0,0,0,0,0,0,0,0,0,0,0,0,0,0,0,0,0,0,0,0,0,0,0,0,0,0,0,0,0,0,0,0,0,0,0,0,0,0,0,0,0,0,0,0,0,0,0,0,0,0,0,0,0,0,0,0,0,0,0,0,0,0],"id":2,"left_children":[1,3,5,7,9,11,13,15,17,19,21,23,25,27,29,31,33,35,37,39,41,43,45,47,49,51,-1,53,55,57,59,61,63,-1,65,67,69,-1,-1,71,73,-1,-1,-1,-1,75,-1,77,79,-1,-1,-1,-1,81,-1,83,85,87,-1,-1,89,91,93,-1,-1,95,97,-1,-1,99,101,-1,103,-1,-1,105,-1,-1,-1,-1,-1,-1,-1,107,109,-1,-1,-1,111,113,-1,115,-1,117,119,-1,-1,-1,121,-1,-1,-1,-1,-1,123,-1,-1,-1,125,127,129,131,133,-1,-1,-1,-1,-1,-1,-1,-1,-1,-1,-1,-1,-1,-1,-1,-1,-1,-1,-1,-1,-1,-1],"loss_changes":[3.53941E2,8.675418E1,9.28368E1,4.3819794E1,3.49254E1,1.8588852E1,6.523488E1,2.4990814E1,4.3417683E1,1.7143616E1,2.8395323E1,1.1318291E1,9.627465E0,4.5916737E1,3.755893E1,9.165131E0,2.1023468E1,2.2553425E1,9.87345E0,1.8375553E1,8.474727E0,7.350239E0,1.7650093E1,8.413795E0,7.0274134E0,1.1485541E1,0E0,7.225996E0,2.645605E1,2.5509293E1,1.3850313E1,6.636505E0,9.563217E-1,0E0,7.0751953E0,2.3370972E0,4.3707695E0,0E0,0E0,1.106382E1,5.459921E0,0E0,0E0,0E0,0E0,5.9467278E0,0E0,2.351778E0,3.8477325E0,0E0,0E0,0E0,0E0,2.2818317E0,0E0,2.7968666E1,9.620216E0,2.329898E1,0E0,0E0,1.3665737E1,7.229225E0,8.85965E0,0E0,0E0,2.4605103E0,5.5123444E0,0E0,0E0,2.102796E0,3.5538168E0,0E0,8.597332E0,0E0,0E0,3.5331688E0,0E0,0E0,0E0,0E0,0E0,0E0,0E0,9.987549E0,1.7824842E1,0E0,0E0,0E0,1.5484467E1,4.405178E0,0E0,1.2257919E0,0E0,1.1189556E1,6.682785E0,0E0,0E0,0E0,2.1915436E0,0E0,0E0,0E0,0E0,0E0,7.075388E0,0E0,0E0,0E0,3.772995E0,1.3269141E1,2.5962753E0,1.0015244E1,9.086102E0,0E0,0E0,0E0,0E0,0E0,0E0,0E0,0E0,0E0,0E0,0E0,0E0,0E0,0E0,0E0,0E0,0E0,0E0,0E0,0E0,0E0,0E0],"parents":[2147483647,0,0,1,1,2,2,3,3,4,4,5,5,6,6,7,7,8,8,9,9,10,10,11,11,12,12,13,13,14,14,15,15,16,16,17,17,18,18,19,19,20,20,21,21,22,22,23,23,24,24,25,25,27,27,28,28,29,29,30,30,31,31,32,32,34,34,35,35,36,36,39,39,40,40,45,45,47,47,48,48,53,53,55,55,56,56,57,57,60,60,61,61,62,62,65,65,66,66,69,69,70,70,72,72,75,75,83,83,84,84,88,88,89,89,91,91,93,93,94,94,98,98,104,104,108,108,109,109,110,110,111,111,112,112],"right_children":[2,4,6,8,10,12,14,16,18,20,22,24,26,28,30,32,34,36,38,40,42,44,46,48,50,52,-1,54,56,58,60,62,64,-1,66,68,70,-1,-1,72,74,-1,-1,-1,-1,76,-1,78,80,-1,-1,-1,-1,82,-1,84,86,88,-1,-1,90,92,94,-1,-1,96,98,-1,-1,100,102,-1,104,-1,-1,106,-1,-1,-1,-1,-1,-1,-1,108,110,-1,-1,-1,112,114,-1,116,-1,118,120,-1,-1,-1,122,-1,-1,-1,-1,-1,124,-1,-1,-1,126,128,130,132,134,-1,-1,-1,-1,-1,-1,-1,-1,-1,-1,-1,-1,-1,-1,-1,-1,-1,-1,-1,-1,-1,-1],"split_conditions":[-1.637E3,1E0,1E0,-1.399E4,-1.5449E4,1E0,1E0,1E0,-2.163E3,1E0,1E0,1E0,9E0,-1.7666E4,4.545E5,1E0,1E0,1E0,1.8E5,4E0,4.545E5,4.545E5,6.795E5,2E0,1.57635E5,3E0,7.0596434E-2,1.8E5,2E0,1E0,1E0,2.475E5,1.35E5,2.1597326E-2,2E0,1E0,3E0,6.568765E-2,-1.1723208E-2,1E0,-2.0583E4,4.6257727E-2,-2.5594732E-2,-3.5754747E-3,-8.087427E-2,-1.1421E4,-2.7527347E-2,1.57635E5,1.575E5,3.785179E-2,-3.178E-2,3.789894E-2,-5.155948E-2,-1.923E4,2.139813E-4,2E0,4E0,1.665E5,8.539053E-3,-2.1583918E-2,2.16E5,1.35979E5,4.545E5,-1.1041994E-1,-1.4683542E-1,-2.813E3,1.15474E5,-1.353323E-1,-8.6602286E-2,-3.069E3,1E0,-1.08116746E-1,-3.588E3,-2.7540708E-2,3.9391473E-2,-2.477E3,1.03793904E-1,-1.1183325E-2,-5.4320827E-2,-1.15398E-1,-6.1030664E-2,-8.71708E-2,-4.5224488E-2,-1.4595E4,1E0,1.2592009E-1,4.8989076E-2,3.303281E-2,3E0,1.665E5,5.924037E-3,1.485E5,-6.8524E-2,3.33E5,2.52E5,-5.9378177E-2,-1.5583303E-2,-1.07719444E-1,-2.393E3,-2.9524261E-2,1.0142761E-2,-8.161315E-2,-2.8328763E-2,-9.436972E-2,-2.0322E4,3.1150823E-2,7.707603E-2,1.0748168E-2,5.2087E4,4E0,3.6E5,1E0,2E0,6.179078E-2,1.1814882E-1,-1.5020876E-1,-1.1501828E-1,-8.9176364E-2,-1.4343449E-2,-8.198223E-2,-1.334743E-1,-7.6747924E-2,-3.375132E-2,-5.4308437E-2,1.7546316E-3,1.10033445E-1,6.330999E-2,-3.5386696E-3,-8.2061455E-2,1.7255554E-2,5.6933496E-2,1.3243687E-1,2.0139708E-1,5.9542906E-2,1.389131E-1],"split_indices":[10,25,40,9,9,25,1,1,10,1,40,1,22,9,8,48,32,40,5,25,8,8,8,24,5,24,0,5,25,0,28,8,5,0,22,46,22,0,0,28,9,0,0,0,0,9,0,5,5,0,0,0,0,9,0,24,24,8,0,0,5,19,8,0,0,10,19,0,0,10,46,0,10,0,0,10,0,0,0,0,0,0,0,9,26,0,0,0,24,5,0,8,0,8,5,0,0,0,10,0,0,0,0,0,9,0,0,0,19,24,8,25,25,0,0,0,0,0,0,0,0,0,0,0,0,0,0,0,0,0,0,0,0,0,0],"split_type":[0,0,0,0,0,0,0,0,0,0,0,0,0,0,0,0,0,0,0,0,0,0,0,0,0,0,0,0,0,0,0,0,0,0,0,0,0,0,0,0,0,0,0,0,0,0,0,0,0,0,0,0,0,0,0,0,0,0,0,0,0,0,0,0,0,0,0,0,0,0,0,0,0,0,0,0,0,0,0,0,0,0,0,0,0,0,0,0,0,0,0,0,0,0,0,0,0,0,0,0,0,0,0,0,0,0,0,0,0,0,0,0,0,0,0,0,0,0,0,0,0,0,0,0,0,0,0,0,0,0,0,0,0,0,0],"sum_hessian":[5.2126357E3,2.9368403E3,2.2757954E3,1.9168374E3,1.02000305E3,5.607306E2,1.7150648E3,1.4148411E3,5.0199637E2,6.280877E2,3.9191534E2,3.7949396E2,1.8123663E2,9.3986304E2,7.752018E2,1.0090686E3,4.057724E2,3.4442242E2,1.5757393E2,4.8219833E2,1.4588934E2,1.0997593E2,2.8193942E2,2.4188881E2,1.3760516E2,1.27513885E2,5.372275E1,1.774937E2,7.623693E2,4.8931015E2,2.8589163E2,8.916671E2,1.174015E2,7.8298294E1,3.2747412E2,1.0893101E2,2.3549142E2,9.9129616E1,5.8444317E1,3.7436047E2,1.0783786E2,7.441667E1,7.147268E1,5.69217E1,5.305423E1,2.2692912E2,5.5010292E1,1.15689026E2,1.2619978E2,5.094902E1,8.665614E1,6.705747E1,6.0456417E1,1.2470358E2,5.279012E1,6.0890814E2,1.5346121E2,4.3553632E2,5.377383E1,6.74439E1,2.1844771E2,2.3143628E2,6.6023083E2,5.0576588E1,6.682491E1,1.1807848E2,2.0939563E2,5.8841274E1,5.0089733E1,1.1909121E2,1.16400215E2,9.239382E1,2.8196667E2,5.2211357E1,5.5626503E1,1.5878813E2,6.814099E1,6.551868E1,5.0170345E1,5.744561E1,6.875417E1,5.991888E1,6.4784706E1,2.261379E2,3.8277023E2,8.802E1,6.5441216E1,6.278717E1,3.7274915E2,1.3937709E2,7.907062E1,1.5847102E2,7.2965256E1,1.8010233E2,4.801285E2,5.1087185E1,6.69913E1,9.6424866E1,1.12970764E2,6.3459953E1,5.563126E1,5.0552494E1,6.584772E1,6.778428E1,2.1418239E2,9.393253E1,6.485559E1,5.6276207E1,1.6986168E2,2.3121086E2,1.5155936E2,2.3356613E2,1.3918301E2,8.6225105E1,5.3151985E1,5.135704E1,1.0711398E2,8.534834E1,9.475399E1,4.1127396E2,6.885453E1,6.2110703E1,5.0860065E1,1.327646E2,8.141779E1,7.263584E1,9.722584E1,1.6332727E2,6.78836E1,6.879996E1,8.27594E1,1.5559853E2,7.796761E1,8.423957E1,5.4943443E1],"tree_param":{"num_deleted":"0","num_feature":"54","num_nodes":"135","size_leaf_vector":"1"}},{"base_weights":[-6.7842014E-2,-2.6398793E-1,1.7507988E-1,-3.3269536E-1,5.7760328E-2,1.3384257E-2,3.4122857E-1,-4.1980487E-1,-1.453913E-1,-2.628025E-1,1.5685335E-1,-1.5114544E-1,2.227035E-1,-5.459867E-3,4.6106753E-1,-4.7747675E-1,-2.4241333E-1,2.3904303E-1,-2.720217E-1,-8.348416E-2,9.463486E-3,6.1312784E-2,6.541049E-2,-2.3166473E-1,6.334317E-2,3.5703388E-1,-4.740816E-2,1.5162383E-1,-2.5960967E-1,5.355743E-1,9.787102E-2,-3.7208465E-1,-6.096533E-1,-5.9068813E-3,-3.3141544E-1,-1.6437376E-2,3.8236013E-1,-6.00352E-2,-4.056942E-1,-4.255612E-2,2.4083716E-1,-1.2467392E-1,-4.4145134E-1,-8.549106E-2,5.614768E-2,6.267845E-1,2.003021E-1,-5.3290557E-2,1.4937206E-1,-7.57297E-3,2.9878545E-1,-7.256859E-2,-7.4993344E-3,1.8410596E-1,6.0218257E-1,-2.5861057E-2,5.3045463E-2,-1.016401E-1,-3.216468E-1,-1.4609534E-1,-5.358153E-1,-3.559147E-2,3.0136792E-2,-4.2886552E-1,1.825062E-3,9.2783675E-2,9.286307E-3,-5.6343235E-2,8.4565505E-2,-2.7034742E-1,-6.220759E-1,-1.7882541E-1,3.2096732E-2,4.92235E-2,2.3101516E-2,-4.6234727E-2,-4.715469E-2,-5.2755654E-1,-3.961778E-2,-3.5208236E-2,1.2932646E-2,1.17338136E-1,6.0607523E-2,3.7192196E-2,9.575256E-2,-5.394928E-3,4.78036E-2,1.4318893E-2,7.633427E-2,-6.3263285E-3,6.0228348E-2,3.2390824E-1,6.721817E-1,-2.2446477E-1,-4.6984825E-1,-7.978433E-1,-4.535613E-1,-3.9927185E-2,-5.491883E-1,-2.4726572E-2,3.4158476E-2,-8.38994E-2,-1.5502246E-1,-1.0456568E-1,-7.543343E-2,9.752198E-3,-6.991421E-2,8.247052E-2,-5.2006174E-2,-9.411448E-2,-6.272216E-2,-2.2044133E-2,4.688001E-2,1.2555829E-2,8.552119E-2,5.1928043E-1,8.0423397E-1,-5.55405E-2,7.709107E-3,-9.9704266E-2,-4.879347E-2,-1.4046732E-1,-9.728547E-2,-5.9540115E-2,-9.3533434E-2,-6.584959E-2,-1.0377772E-1,-5.2792214E-2,7.2166603E-3,-1.8736295E-2,3.450492E-2,6.0730856E-2,1.2743911E-1,1.01522356E-1,1.6676769E-1],"categories":[],"categories_nodes":[],"categories_segments":[],"categories_sizes":[],"default_left":[0,0,0,0,0,0,0,0,0,0,0,0,0,0,0,0,0,0,0,0,0,0,0,0,0,0,0,0,0,0,0,0,0,0,0,0,0,0,0,0,0,0,0,0,0,0,0,0,0,0,0,0,0,0,0,0,0,0,0,0,0,0,0,0,0,0,0,0,0,0,0,0,0,0,0,0,0,0,0,0,0,0,0,0,0,0,0,0,0,0,0,0,0,0,0,0,0,0,0,0,0,0,0,0,0,0,0,0,0,0,0,0,0,0,0,0,0,0,0,0,0,0,0,0,0,0,0,0,0,0,0,0,0,0,0],"id":3,"left_children":[1,3,5,7,9,11,13,15,17,19,21,23,25,27,29,31,33,35,37,-1,-1,39,-1,41,43,45,47,49,51,53,55,57,59,61,63,-1,65,67,69,71,73,75,77,79,-1,81,83,-1,85,-1,87,-1,-1,89,91,-1,-1,-1,93,-1,95,-1,-1,97,-1,-1,-1,-1,99,101,103,105,-1,-1,-1,-1,107,109,-1,-1,-1,-1,-1,111,-1,-1,-1,-1,-1,-1,-1,113,115,117,119,121,123,-1,125,-1,-1,-1,127,-1,-1,-1,-1,129,-1,-1,-1,-1,-1,-1,-1,131,133,-1,-1,-1,-1,-1,-1,-1,-1,-1,-1,-1,-1,-1,-1,-1,-1,-1,-1],"loss_changes":[2.4460506E2,6.2803864E1,6.1611526E1,3.812619E1,1.5943581E1,4.009915E1,4.6997482E1,1.622232E1,3.630758E1,1.1387597E1,1.0191236E1,1.1274488E1,1.86089E1,1.1678756E1,2.2694366E1,1.6547333E1,8.2883625E0,9.285247E0,1.5858105E1,0E0,0E0,5.353471E0,0E0,1.0589296E1,8.3044405E0,1.4347607E1,1.0416666E1,5.392985E0,5.226386E0,1.6212845E1,1.00368E1,1.0145279E1,1.38059845E1,5.2494144E0,9.585846E0,0E0,9.9018345E0,9.976553E0,9.893646E0,6.4135566E0,7.4686193E-1,4.474183E0,2.3003635E0,3.1385393E0,0E0,4.024124E0,1.5551876E1,0E0,3.3085828E0,0E0,4.427454E0,0E0,0E0,5.553147E0,1.1192001E1,0E0,0E0,0E0,8.235439E0,0E0,9.231094E0,0E0,0E0,4.2178535E0,0E0,0E0,0E0,0E0,5.402708E0,7.0161715E0,8.2479477E-1,8.411434E0,0E0,0E0,0E0,0E0,8.686514E0,9.019356E-1,0E0,0E0,0E0,0E0,0E0,8.154044E0,0E0,0E0,0E0,0E0,0E0,0E0,0E0,7.0295753E0,9.013306E0,1.4164352E1,6.2183113E0,1.5655441E0,3.035736E0,0E0,1.6961517E0,0E0,0E0,0E0,6.166013E0,0E0,0E0,0E0,0E0,4.8158636E0,0E0,0E0,0E0,0E0,0E0,0E0,0E0,7.942665E0,8.997726E0,0E0,0E0,0E0,0E0,0E0,0E0,0E0,0E0,0E0,0E0,0E0,0E0,0E0,0E0,0E0,0E0,0E0,0E0],"parents":[2147483647,0,0,1,1,2,2,3,3,4,4,5,5,6,6,7,7,8,8,9,9,10,10,11,11,12,12,13,13,14,14,15,15,16,16,17,17,18,18,21,21,23,23,24,24,25,25,26,26,27,27,28,28,29,29,30,30,31,31,32,32,33,33,34,34,36,36,37,37,38,38,39,39,40,40,41,41,42,42,43,43,45,45,46,46,48,48,50,50,53,53,54,54,58,58,60,60,63,63,68,68,69,69,70,70,71,71,76,76,77,77,83,83,91,91,92,92,93,93,94,94,95,95,96,96,98,98,102,102,107,107,115,115,116,116],"right_children":[2,4,6,8,10,12,14,16,18,20,22,24,26,28,30,32,34,36,38,-1,-1,40,-1,42,44,46,48,50,52,54,56,58,60,62,64,-1,66,68,70,72,74,76,78,80,-1,82,84,-1,86,-1,88,-1,-1,90,92,-1,-1,-1,94,-1,96,-1,-1,98,-1,-1,-1,-1,100,102,104,106,-1,-1,-1,-1,108,110,-1,-1,-1,-1,-1,112,-1,-1,-1,-1,-1,-1,-1,114,116,118,120,122,124,-1,126,-1,-1,-1,128,-1,-1,-1,-1,130,-1,-1,-1,-1,-1,-1,-1,132,134,-1,-1,-1,-1,-1,-1,-1,-1,-1,-1,-1,-1,-1,-1,-1,-1,-1,-1],"split_conditions":[-1.637E3,2.4E1,-5.99E2,1E0,-4.087E3,1E0,1E0,1.6E1,1E0,4E0,1E0,1.7E1,4E0,1E0,7.8192E5,3E0,1E0,1.7874E4,1E0,-8.348416E-2,9.463486E-3,-3.592E3,6.541049E-2,1E0,3E0,1E0,1.1E1,-3.71E2,1E0,-7.387E3,1.1E1,-5.256E3,2.2752E5,-9.56E2,1E0,-1.6437376E-2,6.696E5,-3.478E3,7.65E5,7E0,-1.753E3,2.98512E5,-5.06E2,2.6509E4,5.614768E-2,1E0,1.6E1,-5.3290557E-2,2.6284E4,-7.57297E-3,9E0,-7.256859E-2,-7.4993344E-3,1.2E1,2.1564E5,-2.5861057E-2,5.3045463E-2,-1.016401E-1,-1.648E3,-1.4609534E-1,1E0,-3.559147E-2,3.0136792E-2,4.635E5,1.825062E-3,9.2783675E-2,9.286307E-3,-5.6343235E-2,2.1096E4,1.7167E4,-2.447E3,5.47344E5,3.2096732E-2,4.92235E-2,2.3101516E-2,-4.6234727E-2,8.13195E5,5.18562E5,-3.961778E-2,-3.5208236E-2,1.2932646E-2,1.17338136E-1,6.0607523E-2,-1.005E3,9.575256E-2,-5.394928E-3,4.78036E-2,1.4318893E-2,7.633427E-2,-6.3263285E-3,6.0228348E-2,1.2E1,-3.63E2,-2.332E3,1.9975E4,-4.073E3,6E0,-3.9927185E-2,-7.84E2,-2.4726572E-2,3.4158476E-2,-8.38994E-2,-9.09E2,-1.0456568E-1,-7.543343E-2,9.752198E-3,-6.991421E-2,2.4304E4,-5.2006174E-2,-9.411448E-2,-6.272216E-2,-2.2044133E-2,4.688001E-2,1.2555829E-2,8.552119E-2,5.4504E5,2E0,-5.55405E-2,7.709107E-3,-9.9704266E-2,-4.879347E-2,-1.4046732E-1,-9.728547E-2,-5.9540115E-2,-9.3533434E-2,-6.584959E-2,-1.0377772E-1,-5.2792214E-2,7.2166603E-3,-1.8736295E-2,3.450492E-2,6.0730856E-2,1.2743911E-1,1.01522356E-1,1.6676769E-1],"split_indices":[10,21,23,1,10,1,40,21,32,29,1,21,24,2,6,24,3,7,2,0,0,11,0,30,12,32,21,23,29,11,21,10,6,23,4,0,6,10,6,29,10,6,10,7,0,2,21,0,7,0,21,0,0,21,6,0,0,0,10,0,40,0,0,6,0,0,0,0,7,7,10,6,0,0,0,0,6,6,0,0,0,0,0,23,0,0,0,0,0,0,0,21,23,10,7,11,24,0,23,0,0,0,23,0,0,0,0,7,0,0,0,0,0,0,0,6,26,0,0,0,0,0,0,0,0,0,0,0,0,0,0,0,0,0,0],"split_type":[0,0,0,0,0,0,0,0,0,0,0,0,0,0,0,0,0,0,0,0,0,0,0,0,0,0,0,0,0,0,0,0,0,0,0,0,0,0,0,0,0,0,0,0,0,0,0,0,0,0,0,0,0,0,0,0,0,0,0,0,0,0,0,0,0,0,0,0,0,0,0,0,0,0,0,0,0,0,0,0,0,0,0,0,0,0,0,0,0,0,0,0,0,0,0,0,0,0,0,0,0,0,0,0,0,0,0,0,0,0,0,0,0,0,0,0,0,0,0,0,0,0,0,0,0,0,0,0,0,0,0,0,0,0,0],"sum_hessian":[5.1316006E3,2.8390994E3,2.2925015E3,2.3394827E3,4.9961667E2,1.1623677E3,1.1301337E3,1.5959929E3,7.434897E2,1.1758401E2,3.8203265E2,6.509691E2,5.1139862E2,2.9054758E2,8.3958606E2,1.2031456E3,3.928473E2,1.8400015E2,5.5948956E2,6.1468586E1,5.611542E1,2.8554593E2,9.648673E1,4.7323572E2,1.7773338E2,3.4132904E2,1.7006956E2,1.79813E2,1.10734566E2,6.9627606E2,1.4331001E2,6.715191E2,5.316265E2,1.0770577E2,2.851415E2,5.3673134E1,1.3032701E2,2.1692493E2,3.425646E2,1.8137135E2,1.04174576E2,3.144573E2,1.5877843E2,1.2069376E2,5.7039623E1,1.2433586E2,2.169932E2,6.6002846E1,1.0406673E2,7.603889E1,1.0377412E2,5.2876007E1,5.785856E1,1.1153084E2,5.8474524E2,6.983663E1,7.347338E1,9.339077E1,5.7812836E2,8.753581E1,4.440907E2,5.0766117E1,5.6939655E1,2.2194359E2,6.3197914E1,7.4491035E1,5.583598E1,6.766048E1,1.4926445E2,2.1212798E2,1.3043663E2,1.1864883E2,6.272253E1,5.055422E1,5.3620358E1,9.248533E1,2.2197197E2,1.0555196E2,5.3226463E1,6.437717E1,5.63166E1,7.174525E1,5.2590607E1,1.5890782E2,5.808537E1,5.005905E1,5.400767E1,5.34775E1,5.029662E1,5.5046173E1,5.6484665E1,1.1865844E2,4.660868E2,3.5068423E2,2.2744412E2,1.04021225E2,3.400695E2,9.5726845E1,1.2621674E2,5.4377125E1,9.488733E1,5.9409447E1,1.5271852E2,7.707104E1,5.3365593E1,6.459389E1,5.405494E1,1.5543533E2,6.653664E1,5.2705376E1,5.284659E1,9.550118E1,6.3406635E1,6.0742992E1,5.7915447E1,2.1827815E2,2.4780865E2,2.2919888E2,1.2148535E2,9.53398E1,1.3210432E2,5.12036E1,5.2817627E1,2.5759622E2,8.247324E1,7.351327E1,5.270348E1,7.717218E1,7.554635E1,6.4684044E1,9.07513E1,1.6377756E2,5.4500587E1,1.7747952E2,7.032914E1],"tree_param":{"num_deleted":"0","num_feature":"54","num_nodes":"135","size_leaf_vector":"1"}},{"base_weights":[-6.2510915E-2,-2.2170413E-1,1.2971546E-1,-3.1357393E-1,-8.217887E-2,2.0672843E-1,-1.6034406E-1,-5.3892016E-1,-2.4085678E-1,-2.9748324E-1,2.0499827E-2,7.393056E-2,4.2744067E-1,-2.4475183E-1,7.469881E-2,-3.867533E-1,-6.4769E-1,-5.870555E-2,-3.1896275E-1,-3.6471638E-1,-7.869728E-3,1.2838735E-1,-1.4589217E-1,1.3682213E-1,-2.5672495E-1,-1.1174824E-2,4.976226E-1,-1.09303996E-1,-4.4967878E-1,-2.797152E-2,4.831907E-2,-8.8391386E-2,-1.60869E-2,-5.3380346E-1,-7.3261833E-1,-2.9458368E-1,1.0762034E-1,-3.9241505E-1,-1.2640072E-1,-3.004965E-1,-8.9909546E-2,-3.7990242E-2,2.9682675E-1,-5.805887E-2,-4.8310015E-2,-2.59051E-3,3.057539E-1,-1.468981E-1,-7.138837E-2,7.4443156E-1,2.7237612E-1,-3.750983E-1,1.4718425E-1,-4.8119415E-2,-9.354859E-2,-1.0157374E-1,-5.5726614E-2,-8.841403E-2,-1.24788016E-1,-7.104099E-2,-1.6843904E-2,-4.3372937E-2,2.225769E-1,-1.103601E-1,-3.491651E-1,-3.4292606E-1,3.581161E-2,-7.8590155E-2,-2.1250883E-1,-4.8992302E-2,4.8371635E-2,8.817889E-2,1.8182316E-1,-2.0373303E-1,4.207047E-2,-3.0994478E-1,8.008742E-2,3.6745974E-1,-1.6006852E-2,3.3847804E-3,-3.962728E-2,8.5969913E-1,5.0740436E-2,4.4939525E-2,6.582278E-1,-2.6778128E-2,-8.3695E-2,-6.4049102E-3,4.5590207E-2,6.166957E-2,9.837956E-4,-2.8091395E-1,-5.697325E-1,-7.824756E-2,-2.4585666E-1,5.250369E-3,-3.3453095E-1,2.1026425E-1,-3.1109683E-2,-9.917727E-3,3.3123714E-1,-2.1449095E-3,-6.0495052E-2,-2.6414657E-2,-6.5945774E-2,2.198487E-1,-5.6171082E-2,6.246959E-3,4.2807958E-1,7.3980135E-1,1.8583739E-1,-4.2340007E-2,1.8350281E-1,6.1875243E-2,1.254335E-1,-6.2875174E-2,-1.4100532E-2,-6.0431696E-2,-1.0078858E-1,-8.2358485E-3,-6.501784E-2,-6.849855E-2,-2.8432664E-2,-1.9724682E-2,7.574399E-2,7.574521E-2,2.232237E-2,4.1551674E-3,7.222111E-2,-2.367009E-2,2.9121194E-2,1.0364697E-1,4.672493E-2,8.940432E-2,1.357572E-1,-1.4154306E-2,6.370638E-2],"categories":[],"categories_nodes":[],"categories_segments":[],"categories_sizes":[],"default_left":[0,0,0,0,0,0,0,0,0,0,0,0,0,0,0,0,0,0,0,0,0,0,0,0,0,0,0,0,0,0,0,0,0,0,0,0,0,0,0,0,0,0,0,0,0,0,0,0,0,0,0,0,0,0,0,0,0,0,0,0,0,0,0,0,0,0,0,0,0,0,0,0,0,0,0,0,0,0,0,0,0,0,0,0,0,0,0,0,0,0,0,0,0,0,0,0,0,0,0,0,0,0,0,0,0,0,0,0,0,0,0,0,0,0,0,0,0,0,0,0,0,0,0,0,0,0,0,0,0,0,0,0,0,0,0,0,0],"id":4,"left_children":[1,3,5,7,9,11,13,15,17,19,21,23,25,27,29,31,33,35,37,39,-1,41,43,45,47,-1,49,51,53,-1,-1,-1,-1,55,57,59,61,63,65,67,-1,69,71,-1,73,75,77,79,-1,81,83,85,87,-1,-1,-1,-1,-1,-1,-1,-1,-1,89,-1,91,93,-1,-1,95,-1,97,-1,99,101,-1,103,105,107,-1,-1,-1,109,-1,111,113,-1,-1,-1,-1,-1,-1,115,117,-1,119,-1,121,123,-1,-1,125,-1,-1,-1,-1,127,129,-1,131,133,-1,-1,135,-1,-1,-1,-1,-1,-1,-1,-1,-1,-1,-1,-1,-1,-1,-1,-1,-1,-1,-1,-1,-1,-1,-1,-1],"loss_changes":[1.5626953E2,3.5777878E1,5.1713444E1,2.7462982E1,2.4552265E1,5.3564163E1,9.659218E0,6.5354385E0,1.8118996E1,5.888132E0,1.353146E1,2.380164E1,2.4227692E1,9.881735E0,8.407139E0,9.751652E0,1.9071503E0,1.5090296E1,1.2567574E1,4.058136E0,0E0,1.2823444E1,6.960274E0,2.2630802E1,4.3352604E0,0E0,3.3297318E1,1.4830197E1,2.9851646E0,0E0,0E0,0E0,0E0,2.1956177E0,1.4068298E0,5.135483E0,1.0365019E1,9.324211E0,1.9672733E1,4.268873E0,0E0,5.770825E0,7.500597E0,0E0,1.0904087E1,1.3427535E1,1.1096802E1,2.4576364E0,0E0,1.3143845E1,2.7757572E1,3.7365513E0,3.317201E0,0E0,0E0,0E0,0E0,0E0,0E0,0E0,0E0,0E0,7.1523905E0,0E0,8.495491E0,2.5774403E0,0E0,0E0,4.8903604E0,0E0,7.438099E0,0E0,6.1109247E0,5.4650607E0,0E0,1.8669453E0,7.942522E0,7.450794E0,0E0,0E0,0E0,9.216949E0,0E0,9.132559E0,4.7877846E0,0E0,0E0,0E0,0E0,0E0,0E0,1.135828E1,2.0294647E0,0E0,3.6643538E0,0E0,1.8307991E0,1.1130632E1,0E0,0E0,3.1804771E0,0E0,0E0,0E0,0E0,1.0330936E1,5.4148016E0,0E0,9.553066E0,3.542595E0,0E0,0E0,9.510994E0,0E0,0E0,0E0,0E0,0E0,0E0,0E0,0E0,0E0,0E0,0E0,0E0,0E0,0E0,0E0,0E0,0E0,0E0,0E0,0E0,0E0,0E0,0E0,0E0],"parents":[2147483647,0,0,1,1,2,2,3,3,4,4,5,5,6,6,7,7,8,8,9,9,10,10,11,11,12,12,13,13,14,14,15,15,16,16,17,17,18,18,19,19,21,21,22,22,23,23,24,24,26,26,27,27,28,28,33,33,34,34,35,35,36,36,37,37,38,38,39,39,41,41,42,42,44,44,45,45,46,46,47,47,49,49,50,50,51,51,52,52,62,62,64,64,65,65,68,68,70,70,72,72,73,73,75,75,76,76,77,77,81,81,83,83,84,84,91,91,92,92,94,94,96,96,97,97,100,100,105,105,106,106,108,108,109,109,112,112],"right_children":[2,4,6,8,10,12,14,16,18,20,22,24,26,28,30,32,34,36,38,40,-1,42,44,46,48,-1,50,52,54,-1,-1,-1,-1,56,58,60,62,64,66,68,-1,70,72,-1,74,76,78,80,-1,82,84,86,88,-1,-1,-1,-1,-1,-1,-1,-1,-1,90,-1,92,94,-1,-1,96,-1,98,-1,100,102,-1,104,106,108,-1,-1,-1,110,-1,112,114,-1,-1,-1,-1,-1,-1,116,118,-1,120,-1,122,124,-1,-1,126,-1,-1,-1,-1,128,130,-1,132,134,-1,-1,136,-1,-1,-1,-1,-1,-1,-1,-1,-1,-1,-1,-1,-1,-1,-1,-1,-1,-1,-1,-1,-1,-1,-1,-1],"split_conditions":[-1.637E3,1.5E1,6.795E5,1E0,-7.115E3,2.4907E4,1.8E1,4.545E5,7.5204E4,1E1,5.85E5,4.545E5,3.285E5,1.0035E6,3.7579E4,3.141E5,1.16433E5,2.0637E4,1E0,1.100709E6,-7.869728E-3,1.9413E4,1E0,1.6155E4,5.175E5,-1.1174824E-2,4.545E5,9.11079E5,-3.109E3,-2.797152E-2,4.831907E-2,-8.8391386E-2,-1.60869E-2,5.3365E4,1E1,-2.044E3,4E0,1.2748E4,-2.447E3,1.6285E4,-8.9909546E-2,-3.644E3,2.205E4,-5.805887E-2,2.5E1,1E0,2.3184E4,1.26E5,-7.138837E-2,3.5743E4,7.33315E5,1.71E5,-8.6E2,-4.8119415E-2,-9.354859E-2,-1.0157374E-1,-5.5726614E-2,-8.841403E-2,-1.24788016E-1,-7.104099E-2,-1.6843904E-2,-4.3372937E-2,1.395E5,-1.103601E-1,3.6657E4,-5.207E3,3.581161E-2,-7.8590155E-2,4.545E5,-4.8992302E-2,2.385E5,8.817889E-2,4.635E5,6.41529E5,4.207047E-2,1E0,1E0,2.2752E5,-1.6006852E-2,3.3847804E-3,-3.962728E-2,-1.094E3,5.0740436E-2,5.58855E5,-8.73E2,-2.6778128E-2,-8.3695E-2,-6.4049102E-3,4.5590207E-2,6.166957E-2,9.837956E-4,-4.59E3,-3.037E3,-7.824756E-2,4.59E5,5.250369E-3,-1.84E3,1.9188E5,-3.1109683E-2,-9.917727E-3,1.665E5,-2.1449095E-3,-6.0495052E-2,-2.6414657E-2,-6.5945774E-2,-6.03E2,1.6E1,6.246959E-3,2.385E5,2.997E4,1.8583739E-1,-4.2340007E-2,-7.94E2,6.1875243E-2,1.254335E-1,-6.2875174E-2,-1.4100532E-2,-6.0431696E-2,-1.0078858E-1,-8.2358485E-3,-6.501784E-2,-6.849855E-2,-2.8432664E-2,-1.9724682E-2,7.574399E-2,7.574521E-2,2.232237E-2,4.1551674E-3,7.222111E-2,-2.367009E-2,2.9121194E-2,1.0364697E-1,4.672493E-2,8.940432E-2,1.357572E-1,-1.4154306E-2,6.370638E-2],"split_indices":[10,21,8,40,11,7,21,8,20,22,8,6,8,8,7,6,20,7,4,20,0,7,40,7,8,0,8,6,11,0,0,0,0,20,21,10,21,7,10,7,0,10,7,0,21,40,7,5,0,7,6,5,10,0,0,0,0,0,0,0,0,0,5,0,7,11,0,0,8,0,8,0,6,20,0,32,32,6,0,0,0,11,0,6,10,0,0,0,0,0,0,11,10,0,8,0,10,6,0,0,5,0,0,0,0,10,21,0,8,7,0,0,10,0,0,0,0,0,0,0,0,0,0,0,0,0,0,0,0,0,0,0,0,0,0,0,0],"split_type":[0,0,0,0,0,0,0,0,0,0,0,0,0,0,0,0,0,0,0,0,0,0,0,0,0,0,0,0,0,0,0,0,0,0,0,0,0,0,0,0,0,0,0,0,0,0,0,0,0,0,0,0,0,0,0,0,0,0,0,0,0,0,0,0,0,0,0,0,0,0,0,0,0,0,0,0,0,0,0,0,0,0,0,0,0,0,0,0,0,0,0,0,0,0,0,0,0,0,0,0,0,0,0,0,0,0,0,0,0,0,0,0,0,0,0,0,0,0,0,0,0,0,0,0,0,0,0,0,0,0,0,0,0,0,0,0,0],"sum_hessian":[5.104719E3,2.7921956E3,2.3125237E3,1.6828696E3,1.1093259E3,1.8275758E3,4.8494778E2,4.089978E2,1.2738718E3,3.5759555E2,7.5173035E2,1.1418712E3,6.857047E2,3.5678064E2,1.2816713E2,1.7238715E2,2.3661067E2,3.828282E2,8.910436E2,2.8021573E2,7.737983E1,4.561767E2,2.9555365E2,9.598847E2,1.8198647E2,8.410762E1,6.0159705E2,2.1572751E2,1.4105315E2,6.2471264E1,6.569586E1,9.931685E1,7.307029E1,1.04185776E2,1.324249E2,1.579944E2,2.2483379E2,6.442559E2,2.4678767E2,2.2180078E2,5.841494E1,2.2988255E2,2.2629416E2,8.428447E1,2.112692E2,5.264287E2,4.3345596E2,1.2235288E2,5.9633583E1,2.8595886E2,3.1563818E2,1.0571473E2,1.1001277E2,8.2661575E1,5.8391575E1,5.3636066E1,5.0549713E1,5.7068615E1,7.5356285E1,7.890546E1,7.9088936E1,5.0166954E1,1.7466684E2,7.0288994E1,5.739669E2,1.5495973E2,9.182794E1,6.1265953E1,1.6053482E2,5.2302708E1,1.7757983E2,6.2929848E1,1.633643E2,1.4371269E2,6.7556496E1,1.11008194E2,4.1542053E2,3.771436E2,5.6312378E1,5.0374443E1,7.197844E1,2.2187482E2,6.408405E1,1.992869E2,1.1635129E2,5.1900078E1,5.3814648E1,5.00776E1,5.9935173E1,9.277986E1,8.188698E1,4.400682E2,1.3389871E2,5.3000725E1,1.0195901E2,5.3245037E1,1.0728979E2,1.08855965E2,6.872388E1,6.1638054E1,1.0172626E2,7.427802E1,6.943467E1,5.5789673E1,5.521852E1,2.0477151E2,2.1064902E2,5.9427227E1,3.1771637E2,1.7081784E2,5.1056984E1,5.8977978E1,1.4030891E2,5.0270027E1,6.608126E1,2.5224506E2,1.8782317E2,5.273582E1,8.1162895E1,5.116824E1,5.079077E1,5.7067932E1,5.0221855E1,5.0659412E1,5.8196552E1,5.1198593E1,5.0527664E1,1.1869977E2,8.607175E1,1.500832E2,6.0565815E1,9.609193E1,2.2162444E2,9.380759E1,7.701025E1,6.548283E1,7.482609E1],"tree_param":{"num_deleted":"0","num_feature":"54","num_nodes":"137","size_leaf_vector":"1"}},{"base_weights":[-4.113484E-2,-2.0447707E-1,1.1083683E-1,-3.1227666E-1,2.3686694E-2,-2.1087359E-1,2.2909996E-1,-3.9039448E-1,-2.7401077E-2,3.2076705E-1,-2.214292E-1,1.6945371E-2,-4.4491053E-1,1.4680248E-1,5.808516E-1,-4.5197308E-1,-4.861112E-2,-1.575606E-1,2.715364E-1,1.064437E-1,2.3763104E-1,-4.5409063E-1,-1.2574454E-1,-8.5185915E-2,7.5190246E-2,-5.35538E-1,-3.7677705E-3,-7.21035E-2,2.2214216E-1,2.5122622E-1,7.440522E-1,-5.0786704E-1,-1.6631632E-1,-3.2268944E-1,3.727331E-2,-8.841197E-2,-4.2741958E-2,1.9166544E-2,6.490843E-2,1.2312537E-1,8.587676E-2,-4.1719623E-2,-1.0527455E-1,-2.0905614E-1,3.7858542E-2,-2.347146E-1,8.671313E-2,-1.0834128E-1,-4.505792E-1,-6.634772E-2,-1.0926354E-2,-6.9544967E-3,2.943717E-1,6.131171E-3,6.127959E-2,8.576305E-1,6.0658146E-2,-8.293676E-1,-4.648661E-1,-2.8241012E-1,-2.6425906E-3,-6.482789E-2,-2.985813E-2,2.08149E-2,-1.7334779E-1,-2.9202143E-2,2.3207779E-1,-7.536005E-2,-1.1719764E-1,-5.3149708E-2,-1.0785647E-2,-1.2193961E-2,5.2999415E-2,-9.54055E-2,-2.9363325E-1,-1.7345616E-1,1.3589731E-1,-1.274209E-1,4.8167072E-2,1.2272173E-1,3.8056263E-1,7.669618E-2,9.901159E-1,-1.454389E-1,-9.838367E-2,-4.3209797E-1,-1.0546628E-1,-1.8092837E-2,-6.541454E-2,-4.3564476E-2,-8.940256E-3,5.9031814E-2,1.120366E-2,-2.5950658E-1,1.3325478E-2,-7.5222207E-3,-7.5118326E-2,-5.8149528E-2,-5.285645E-3,-1.9519486E-2,5.121513E-2,1.6676607E-2,-5.275305E-2,7.110084E-2,4.9599223E-2,4.4581592E-1,8.694361E-3,1.2564093E-1,1.6709596E-1,-8.579968E-2,-5.1698834E-2,-5.8495015E-2,-2.1392526E-2,4.006652E-2,-4.4260647E-2,-3.21649E-2,5.0692994E-2,-1.628678E-2,3.936947E-2,5.6214493E-2,9.817039E-2],"categories":[],"categories_nodes":[],"categories_segments":[],"categories_sizes":[],"default_left":[0,0,0,0,0,0,0,0,0,0,0,0,0,0,0,0,0,0,0,0,0,0,0,0,0,0,0,0,0,0,0,0,0,0,0,0,0,0,0,0,0,0,0,0,0,0,0,0,0,0,0,0,0,0,0,0,0,0,0,0,0,0,0,0,0,0,0,0,0,0,0,0,0,0,0,0,0,0,0,0,0,0,0,0,0,0,0,0,0,0,0,0,0,0,0,0,0,0,0,0,0,0,0,0,0,0,0,0,0,0,0,0,0,0,0,0,0,0,0,0,0],"id":5,"left_children":[1,3,5,7,9,11,13,15,17,19,21,23,25,27,29,31,33,35,37,-1,39,41,43,45,-1,47,-1,49,51,53,55,57,59,61,-1,-1,63,-1,-1,65,-1,-1,-1,67,-1,69,71,-1,73,-1,75,77,79,-1,-1,81,-1,83,85,87,-1,-1,-1,-1,89,-1,91,-1,93,-1,-1,-1,-1,-1,95,97,99,101,-1,103,105,-1,107,-1,-1,109,-1,-1,-1,-1,-1,-1,-1,111,-1,-1,-1,-1,-1,113,-1,115,-1,-1,117,119,-1,-1,-1,-1,-1,-1,-1,-1,-1,-1,-1,-1,-1,-1,-1],"loss_changes":[1.2617398E2,6.0260048E1,1.0023442E2,3.7013977E1,5.7376534E1,3.7774277E1,5.566696E1,2.7456833E1,1.4015989E1,1.134584E1,9.555275E0,1.7844786E1,1.3280624E1,2.577866E1,1.943885E1,1.7577332E1,1.640182E1,1.2411633E1,2.4774256E0,0E0,1.1239317E1,5.2731915E0,9.734812E0,7.6820164E0,0E0,4.2332E0,0E0,9.070957E0,1.9236595E1,4.030863E0,9.047165E0,1.2397827E1,3.1457124E0,1.3312931E0,0E0,0E0,4.746707E0,0E0,0E0,7.6996975E0,0E0,0E0,0E0,6.7422237E0,0E0,3.08426E0,6.2726717E0,0E0,5.6389008E0,0E0,8.254438E0,1.1091279E1,1.3028442E1,0E0,0E0,7.825638E0,0E0,1.9866028E0,6.0810394E0,2.4942265E0,0E0,0E0,0E0,0E0,1.5315092E0,0E0,4.1658173E0,0E0,5.6969213E0,0E0,0E0,0E0,0E0,0E0,5.5365553E0,4.846179E0,5.813289E0,6.6379843E0,0E0,7.6029787E0,1.2349266E1,0E0,1.5277863E0,0E0,0E0,8.629562E0,0E0,0E0,0E0,0E0,0E0,0E0,0E0,1.6936693E0,0E0,0E0,0E0,0E0,0E0,8.328724E0,0E0,9.420529E0,0E0,0E0,8.340554E0,7.0016174E0,0E0,0E0,0E0,0E0,0E0,0E0,0E0,0E0,0E0,0E0,0E0,0E0,0E0,0E0,0E0],"parents":[2147483647,0,0,1,1,2,2,3,3,4,4,5,5,6,6,7,7,8,8,9,9,10,10,11,11,12,12,13,13,14,14,15,15,16,16,17,17,18,18,20,20,21,21,22,22,23,23,25,25,27,27,28,28,29,29,30,30,31,31,32,32,33,33,36,36,39,39,43,43,45,45,46,46,48,48,50,50,51,51,52,52,55,55,57,57,58,58,59,59,64,64,66,66,68,68,74,74,75,75,76,76,77,77,79,79,80,80,82,82,85,85,93,93,99,99,101,101,104,104,105,105],"right_children":[2,4,6,8,10,12,14,16,18,20,22,24,26,28,30,32,34,36,38,-1,40,42,44,46,-1,48,-1,50,52,54,56,58,60,62,-1,-1,64,-1,-1,66,-1,-1,-1,68,-1,70,72,-1,74,-1,76,78,80,-1,-1,82,-1,84,86,88,-1,-1,-1,-1,90,-1,92,-1,94,-1,-1,-1,-1,-1,96,98,100,102,-1,104,106,-1,108,-1,-1,110,-1,-1,-1,-1,-1,-1,-1,112,-1,-1,-1,-1,-1,114,-1,116,-1,-1,118,120,-1,-1,-1,-1,-1,-1,-1,-1,-1,-1,-1,-1,-1,-1,-1],"split_conditions":[-1.5342E4,1E0,1E0,2.4E1,1E0,1E0,3E0,3E0,9E0,2E0,1E0,3E0,3E0,-2.251E3,-1.73E3,-9.56E2,-7.22E2,-3.526E3,-1.9927E4,1.064437E-1,2E1,-6.57E2,8E0,1.2E1,7.5190246E-2,-1.005E3,-3.7677705E-3,1.5508889E0,1.8421053E0,-9.16E2,1.71E5,2E0,-6.31E2,4.1789474E0,3.727331E-2,-8.841197E-2,1.26E5,1.9166544E-2,6.490843E-2,1E0,8.587676E-2,-4.1719623E-2,-1.0527455E-1,1E0,3.7858542E-2,1E0,-5.29E2,-1.0834128E-1,1.8E5,-6.634772E-2,1.2E1,1.6E1,-8.89E2,6.131171E-3,6.127959E-2,1.575E4,6.0658146E-2,3.70688E0,4.05E4,2.6154E4,-2.6425906E-3,-6.482789E-2,-2.985813E-2,2.08149E-2,-2.0052E4,-2.9202143E-2,1.44E5,-7.536005E-2,1.3E1,-5.3149708E-2,-1.0785647E-2,-1.2193961E-2,5.2999415E-2,-9.54055E-2,-5.24E2,2.4016E4,6E0,1E0,4.8167072E-2,1E0,1E0,7.669618E-2,2.5186E4,-1.454389E-1,-9.838367E-2,2.8684285E0,-1.0546628E-1,-1.8092837E-2,-6.541454E-2,-4.3564476E-2,-8.940256E-3,5.9031814E-2,1.120366E-2,1.665E5,1.3325478E-2,-7.5222207E-3,-7.5118326E-2,-5.8149528E-2,-5.285645E-3,2.6703E4,5.121513E-2,1E0,-5.275305E-2,7.110084E-2,2.9506E4,1E0,8.694361E-3,1.2564093E-1,1.6709596E-1,-8.579968E-2,-5.1698834E-2,-5.8495015E-2,-2.1392526E-2,4.006652E-2,-4.4260647E-2,-3.21649E-2,5.0692994E-2,-1.628678E-2,3.936947E-2,5.6214493E-2,9.817039E-2],"split_indices":[9,1,40,21,2,45,17,17,22,12,28,17,17,10,10,10,23,10,9,0,21,23,22,21,0,23,0,53,53,23,5,17,23,53,0,0,5,0,0,28,0,0,0,3,0,1,23,0,5,0,21,21,23,0,0,7,0,53,7,7,0,0,0,0,9,0,5,0,21,0,0,0,0,0,23,7,22,2,0,41,45,0,7,0,0,53,0,0,0,0,0,0,0,5,0,0,0,0,0,7,0,1,0,0,7,14,0,0,0,0,0,0,0,0,0,0,0,0,0,0,0],"split_type":[0,0,0,0,0,0,0,0,0,0,0,0,0,0,0,0,0,0,0,0,0,0,0,0,0,0,0,0,0,0,0,0,0,0,0,0,0,0,0,0,0,0,0,0,0,0,0,0,0,0,0,0,0,0,0,0,0,0,0,0,0,0,0,0,0,0,0,0,0,0,0,0,0,0,0,0,0,0,0,0,0,0,0,0,0,0,0,0,0,0,0,0,0,0,0,0,0,0,0,0,0,0,0,0,0,0,0,0,0,0,0,0,0,0,0,0,0,0,0,0,0],"sum_hessian":[5.080953E3,2.4486978E3,2.6322554E3,1.662741E3,7.85957E2,7.073292E2,1.9249261E3,1.3046208E3,3.5812012E2,3.5517563E2,4.3078134E2,3.5889606E2,3.4843317E2,1.561101E3,3.6382523E2,1.1051798E3,1.9944098E2,2.4981973E2,1.0830038E2,6.12326E1,2.9394302E2,1.2444418E2,3.0633716E2,2.970747E2,6.182133E1,2.863404E2,6.2092762E1,3.9972067E2,1.1613804E3,1.2132255E2,2.4250267E2,9.2366925E2,1.8151059E2,1.0369495E2,9.5746025E1,5.160208E1,1.9821765E2,5.819235E1,5.0108032E1,2.2006418E2,7.387883E1,7.400442E1,5.0439766E1,2.5139609E2,5.4941074E1,1.5867967E2,1.3839505E2,8.71924E1,1.99148E2,5.580225E1,3.4391843E2,2.786059E2,8.827744E2,5.2447777E1,6.887477E1,1.8059102E2,6.191165E1,1.0680962E2,8.168596E2,1.01425476E2,8.0085106E1,5.3668377E1,5.002657E1,8.291919E1,1.1529847E2,5.598198E1,1.6408221E2,5.888413E1,1.9251195E2,9.0795685E1,6.788398E1,8.532393E1,5.307112E1,8.988341E1,1.09264595E2,1.6314261E2,1.8077582E2,2.0422592E2,7.437998E1,2.959036E2,5.8687085E2,5.1313812E1,1.292772E2,5.6527744E1,5.0281883E1,7.2056586E2,9.629373E1,5.0279465E1,5.1146015E1,5.605064E1,5.924783E1,8.0250435E1,8.383177E1,1.1371136E2,7.88006E1,5.0798946E1,5.846565E1,6.3275394E1,9.986721E1,1.0345403E2,7.7321785E1,1.24899796E2,7.932612E1,5.0037727E1,2.4586586E2,4.8781674E2,9.905409E1,6.1416096E1,6.7861115E1,2.750126E2,4.4555328E2,5.2632374E1,6.1078983E1,5.0722717E1,5.2731316E1,7.283718E1,5.2062614E1,1.4133252E2,1.0453334E2,3.659843E2,1.21832436E2],"tree_param":{"num_deleted":"0","num_feature":"54","num_nodes":"121","size_leaf_vector":"1"}},{"base_weights":[-4.1495074E-2,-1.7877656E-1,1.1862829E-1,-2.5752464E-1,1.23575255E-1,6.684812E-2,4.7556028E-1,-3.2737157E-1,-6.0027167E-2,-4.911262E-2,3.7095815E-1,1.329216E-1,-1.6529475E-1,6.472538E-1,1.5499792E-1,-3.9800566E-1,-1.6464795E-1,6.1738223E-2,-3.4788278E-1,-4.9397588E-2,6.1389305E-2,1.0463213E-1,1.06529854E-1,-1.3106014E-2,2.320934E-1,-2.8588074E-1,6.6299727E-3,4.7047806E-1,1.4322157E-1,1.2318973E-2,3.407747E-2,-3.568932E-1,-6.3298196E-1,2.2959879E-1,-2.751679E-1,-6.376558E-2,4.2080227E-1,-7.745691E-2,-1.4973034E-2,1.5743038E-1,-3.3920866E-2,5.4596804E-2,-1.3855829E-2,-1.4628077E-1,1.830913E-1,-8.028204E-2,2.775051E-1,-1.9202965E-1,-7.350721E-2,2.9882388E-2,-1.2723064E-1,1.0974119E-1,4.16976E-2,-5.462183E-1,-2.7167505E-1,-1.0832501E-1,-7.95739E-2,7.061284E-2,-3.9024962E-4,-2.0680325E-1,-8.247489E-2,-5.1232595E-2,-4.2409E-4,1.1523102E-2,1.1232038E-1,-3.749883E-3,2.5892654E-1,1.1501254E-2,-2.256036E-1,-2.0626217E-2,3.523165E-1,-6.2345702E-2,2.9959543E-2,3.087458E-1,-2.1742947E-2,1.5806117E-3,-3.154709E-1,-4.315781E-2,3.4496787E-3,-6.244514E-1,-4.3760344E-2,-3.6327955E-1,-1.9595923E-1,-2.8980252E-1,-4.116542E-3,1.2454374E-1,-2.8962323E-2,1.0824714E-2,6.2125254E-2,-3.2808512E-1,-1.0463753E-1,3.0409552E-2,8.260179E-2,4.368225E-2,3.630975E-1,-7.113241E-2,-2.0660367E-2,-1.2448224E-1,-8.03514E-2,-3.0215675E-2,-7.176193E-2,-5.3543746E-2,-1.0232836E-2,-2.2609E-2,-8.8752165E-2,4.8898965E-2,-1.1514985E-2,-6.301007E-2,-2.573082E-2,3.1335668E-3,-3.8919367E-2,4.1940853E-2,-3.5275478E-2,5.9892025E-2,-8.332274E-3],"categories":[],"categories_nodes":[],"categories_segments":[],"categories_sizes":[],"default_left":[0,0,0,0,0,0,0,0,0,0,0,0,0,0,0,0,0,0,0,0,0,0,0,0,0,0,0,0,0,0,0,0,0,0,0,0,0,0,0,0,0,0,0,0,0,0,0,0,0,0,0,0,0,0,0,0,0,0,0,0,0,0,0,0,0,0,0,0,0,0,0,0,0,0,0,0,0,0,0,0,0,0,0,0,0,0,0,0,0,0,0,0,0,0,0,0,0,0,0,0,0,0,0,0,0,0,0,0,0,0,0,0,0,0,0],"id":6,"left_children":[1,3,5,7,9,11,13,15,17,19,21,23,25,27,29,31,33,35,37,-1,39,41,-1,43,45,47,49,51,-1,-1,-1,53,55,57,59,61,63,-1,-1,65,-1,-1,-1,67,69,71,73,75,-1,-1,77,-1,-1,79,81,-1,-1,-1,-1,83,-1,-1,85,-1,-1,-1,87,-1,89,-1,91,-1,-1,93,-1,-1,95,-1,-1,97,-1,99,101,103,-1,105,-1,-1,-1,107,109,-1,-1,111,113,-1,-1,-1,-1,-1,-1,-1,-1,-1,-1,-1,-1,-1,-1,-1,-1,-1,-1,-1,-1],"loss_changes":[1.1015016E2,6.426482E1,4.272061E1,2.950972E1,2.3861412E1,3.102557E1,1.6020287E1,1.8107986E1,1.9667292E1,1.0224688E1,2.0666006E1,2.2797514E1,9.29568E0,9.903809E0,5.256412E-1,1.0418503E1,2.0990803E1,1.7814875E1,6.9188595E0,0E0,6.585788E0,6.664003E0,0E0,1.668526E1,1.3320442E1,4.9550285E0,4.8147397E0,5.9739113E0,0E0,0E0,0E0,1.5018639E1,1.1048355E0,5.9204273E0,6.938896E0,5.1616554E0,1.1492144E1,0E0,0E0,3.3096757E0,0E0,0E0,0E0,6.743641E0,1.4058211E1,1.1328932E1,1.0849693E1,4.558462E0,0E0,0E0,2.6638036E0,0E0,0E0,5.6075134E0,4.4389763E0,0E0,0E0,0E0,0E0,4.4928904E0,0E0,0E0,5.799678E0,0E0,0E0,0E0,3.2960262E0,0E0,3.446434E0,0E0,4.9117413E0,0E0,0E0,1.097113E1,0E0,0E0,3.1292381E0,0E0,0E0,3.595932E0,0E0,5.3648033E0,7.341935E0,8.58419E0,0E0,5.950562E0,0E0,0E0,0E0,2.1099663E0,2.5367036E0,0E0,0E0,8.677795E0,9.60656E0,0E0,0E0,0E0,0E0,0E0,0E0,0E0,0E0,0E0,0E0,0E0,0E0,0E0,0E0,0E0,0E0,0E0,0E0,0E0,0E0],"parents":[2147483647,0,0,1,1,2,2,3,3,4,4,5,5,6,6,7,7,8,8,9,9,10,10,11,11,12,12,13,13,14,14,15,15,16,16,17,17,18,18,20,20,21,21,23,23,24,24,25,25,26,26,27,27,31,31,32,32,33,33,34,34,35,35,36,36,39,39,43,43,44,44,45,45,46,46,47,47,50,50,53,53,54,54,59,59,62,62,66,66,68,68,70,70,73,73,76,76,79,79,81,81,82,82,83,83,85,85,89,89,90,90,93,93,94,94],"right_children":[2,4,6,8,10,12,14,16,18,20,22,24,26,28,30,32,34,36,38,-1,40,42,-1,44,46,48,50,52,-1,-1,-1,54,56,58,60,62,64,-1,-1,66,-1,-1,-1,68,70,72,74,76,-1,-1,78,-1,-1,80,82,-1,-1,-1,-1,84,-1,-1,86,-1,-1,-1,88,-1,90,-1,92,-1,-1,94,-1,-1,96,-1,-1,98,-1,100,102,104,-1,106,-1,-1,-1,108,110,-1,-1,112,114,-1,-1,-1,-1,-1,-1,-1,-1,-1,-1,-1,-1,-1,-1,-1,-1,-1,-1,-1,-1],"split_conditions":[-1.637E3,2E0,3E0,-1.3835E4,-6.52E2,1E0,7.65E5,1E0,1E0,1.20607E5,-1.6302E4,-1.4338E4,-1.1665E4,5E0,-6.52E2,3.9514E4,1E0,1E0,-2.477E3,-4.9397588E-2,1E0,6.11905E5,1.06529854E-1,-5.34E2,1.0944E4,8.1756E5,1.03257E5,-1.3405E4,1.4322157E-1,1.2318973E-2,3.407747E-2,2.98512E5,-1.8338E4,8.4557E4,4.1499E4,1.4913E4,-1.1998E4,-7.745691E-2,-1.4973034E-2,4.365E5,-3.3920866E-2,5.4596804E-2,-1.3855829E-2,1.04508E5,2E0,-4.97E2,2.77371E5,1E0,-7.350721E-2,2.9882388E-2,2.4543E4,1.0974119E-1,4.16976E-2,-4.06E2,2.4304E4,-1.0832501E-1,-7.95739E-2,7.061284E-2,-3.9024962E-4,2.9335E4,-8.247489E-2,-5.1232595E-2,1E0,1.1523102E-2,1.1232038E-1,-3.749883E-3,-1.8412E4,1.1501254E-2,1E0,-2.0626217E-2,2.79E5,-6.2345702E-2,2.9959543E-2,-1.245E3,-2.1742947E-2,1.5806117E-3,1.30317E5,-4.315781E-2,3.4496787E-3,1.665E5,-4.3760344E-2,4.545E5,-1.9486E4,5.2128E5,-4.116542E-3,1.575E5,-2.8962323E-2,1.0824714E-2,6.2125254E-2,1.9859E5,5E0,3.0409552E-2,8.260179E-2,7.8135E4,-1.43E2,-7.113241E-2,-2.0660367E-2,-1.2448224E-1,-8.03514E-2,-3.0215675E-2,-7.176193E-2,-5.3543746E-2,-1.0232836E-2,-2.2609E-2,-8.8752165E-2,4.8898965E-2,-1.1514985E-2,-6.301007E-2,-2.573082E-2,3.1335668E-3,-3.8919367E-2,4.1940853E-2,-3.5275478E-2,5.9892025E-2,-8.332274E-3],"split_indices":[10,25,25,9,23,45,20,1,45,19,9,9,9,25,23,7,32,14,10,0,45,20,0,23,7,6,20,9,0,0,0,6,9,19,7,7,9,0,0,6,0,0,0,20,22,23,19,32,0,0,7,0,0,23,7,0,0,0,0,7,0,0,2,0,0,0,9,0,1,0,20,0,0,23,0,0,19,0,0,6,0,6,9,6,0,20,0,0,0,19,22,0,0,19,23,0,0,0,0,0,0,0,0,0,0,0,0,0,0,0,0,0,0,0,0],"split_type":[0,0,0,0,0,0,0,0,0,0,0,0,0,0,0,0,0,0,0,0,0,0,0,0,0,0,0,0,0,0,0,0,0,0,0,0,0,0,0,0,0,0,0,0,0,0,0,0,0,0,0,0,0,0,0,0,0,0,0,0,0,0,0,0,0,0,0,0,0,0,0,0,0,0,0,0,0,0,0,0,0,0,0,0,0,0,0,0,0,0,0,0,0,0,0,0,0,0,0,0,0,0,0,0,0,0,0,0,0,0,0,0,0,0,0],"sum_hessian":[5.0089663E3,2.6967747E3,2.3121914E3,2.139648E3,5.5712683E2,2.0202944E3,2.918971E2,1.5801533E3,5.5949457E2,3.2856827E2,2.285586E2,1.5730062E3,4.472882E2,1.8942288E2,1.02474205E2,1.100855E3,4.7929834E2,3.9372925E2,1.6576532E2,9.236756E1,2.362007E2,1.2877237E2,9.978622E1,6.365591E2,9.3644714E2,2.6250644E2,1.8478177E2,1.2189211E2,6.753077E1,5.2058514E1,5.041569E1,9.390701E2,1.6178484E2,1.0470768E2,3.7459067E2,2.9236218E2,1.01367065E2,9.806976E1,6.769556E1,1.7739813E2,5.880257E1,5.522448E1,7.35479E1,3.7933118E2,2.5722787E2,1.18759964E2,8.1768713E2,1.811681E2,8.133833E1,7.5570244E1,1.09211525E2,5.053612E1,7.1355995E1,2.89808E2,6.4926215E2,8.3274376E1,7.851046E1,5.0859653E1,5.3848022E1,3.013395E2,7.325115E1,5.347121E1,2.3889099E2,5.008058E1,5.1286484E1,6.36847E1,1.13713425E2,9.9551445E1,2.7977972E2,8.893216E1,1.6829572E2,5.38192E1,6.4940765E1,7.616336E2,5.605352E1,6.894463E1,1.1222348E2,5.2360237E1,5.685129E1,2.2055205E2,6.925597E1,2.920856E2,3.5717654E2,2.0558743E2,9.575207E1,1.4511534E2,9.377565E1,5.228157E1,6.1431854E1,1.5053523E2,1.292445E2,9.709657E1,7.119914E1,1.2990645E2,6.317272E2,5.8397408E1,5.382607E1,6.403176E1,1.5652028E2,1.2255742E2,1.6952817E2,1.5722353E2,1.9995302E2,1.4177213E2,6.3815315E1,7.222305E1,7.289229E1,9.376082E1,5.677441E1,7.185303E1,5.7391476E1,7.036841E1,5.953805E1,5.815144E2,5.0212776E1],"tree_param":{"num_deleted":"0","num_feature":"54","num_nodes":"115","size_leaf_vector":"1"}},{"base_weights":[-3.7365817E-2,-1.3583833E-1,1.3759458E-1,-2.4498273E-1,4.1672766E-2,-6.766019E-2,2.5463706E-1,-3.3495575E-1,-5.456894E-2,1.4563873E-1,-2.2907889E-1,4.4992365E-2,-1.2455552E-1,3.3890235E-1,-6.0967137E-3,-2.7961418E-1,-5.377915E-1,7.414024E-2,-3.2839355E-1,3.5748702E-1,2.9517202E-2,-9.060578E-2,-1.5914175E-1,-1.9968468E-1,1.2676872E-1,-9.445803E-2,3.9717746E-1,-9.219908E-2,2.6488498E-2,-3.870001E-1,-1.4326382E-1,-4.759257E-1,-1.0888352E-1,5.9216667E-2,1.4326908E-2,-4.564477E-3,-4.251621E-1,5.7344824E-1,1.9742957E-1,-3.6719427E-2,7.767092E-2,-3.370532E-1,-1.0583894E-3,-3.8282207E-1,-4.8577454E-2,-6.50984E-3,5.8090575E-2,-4.5567945E-2,1.9208355E-2,3.3291572E-1,6.4652E-1,2.7488671E-2,-5.0188728E-2,-1.5714979E-2,-4.2407304E-1,-2.2180957E-1,4.5753606E-2,-9.498789E-2,-3.4777698E-1,-3.5246953E-2,8.58065E-2,-5.105874E-1,-3.7372984E-2,6.392017E-2,1.0937587E-1,3.3617914E-1,-2.5804217E-3,-4.4540912E-2,1.2770344E-1,-2.0835139E-2,-7.719225E-2,3.280638E-2,-1.8009715E-2,-2.41252E-2,-4.897625E-1,-1.8803096E-1,2.5754077E-2,3.8273472E-1,9.9797975E-3,6.425916E-2,1.3247477E-1,-1.82403E-2,2.7167978E-2,-5.231897E-1,-2.975776E-1,5.9291017E-3,-2.8653905E-1,3.0430986E-2,-1.9079559E-2,-3.0018179E-2,-6.6900894E-2,-6.987632E-2,2.353526E-1,-9.0732954E-2,-6.101676E-2,2.2187753E-2,8.2569726E-2,2.7053797E-1,-1.4181171E-2,-9.778044E-2,-4.8908487E-2,-7.1507245E-2,2.5012784E-3,1.4341293E-1,4.519855E-1,-1.01546526E-1,-5.108556E-2,-1.7965473E-2,-5.784676E-2,-5.8330137E-2,-9.15584E-3,1.480864E-2,-3.3667423E-2,-4.1258694E-3,6.0091E-2,1.2839477E-2,5.936643E-2,-2.250201E-2,1.7330574E-2,-1.6230127E-2,5.043454E-2,7.72016E-2,2.8509596E-2],"categories":[],"categories_nodes":[],"categories_segments":[],"categories_sizes":[],"default_left":[0,0,0,0,0,0,0,0,0,0,0,0,0,0,0,0,0,0,0,0,0,0,0,0,0,0,0,0,0,0,0,0,0,0,0,0,0,0,0,0,0,0,0,0,0,0,0,0,0,0,0,0,0,0,0,0,0,0,0,0,0,0,0,0,0,0,0,0,0,0,0,0,0,0,0,0,0,0,0,0,0,0,0,0,0,0,0,0,0,0,0,0,0,0,0,0,0,0,0,0,0,0,0,0,0,0,0,0,0,0,0,0,0,0,0,0,0,0,0,0,0,0,0],"id":7,"left_children":[1,3,5,7,9,11,13,15,17,19,21,-1,23,25,27,29,31,33,35,37,39,-1,41,43,45,47,49,51,-1,53,55,57,-1,-1,59,-1,61,63,65,-1,67,69,71,73,75,-1,-1,-1,-1,77,79,81,-1,-1,83,85,87,-1,89,-1,91,93,-1,-1,-1,95,-1,-1,97,-1,-1,-1,-1,-1,99,101,-1,103,-1,-1,-1,-1,-1,105,107,-1,109,-1,-1,-1,-1,111,113,-1,-1,-1,-1,115,117,-1,-1,-1,-1,119,121,-1,-1,-1,-1,-1,-1,-1,-1,-1,-1,-1,-1,-1,-1,-1,-1,-1,-1],"loss_changes":[8.651078E1,6.2255356E1,4.346244E1,3.4068527E1,3.4490986E1,1.3789721E1,2.53106E1,1.5014877E1,2.256799E1,2.1762928E1,8.820477E0,0E0,1.078996E1,2.202327E1,4.4573507E0,1.5516243E1,3.0118637E0,8.354957E0,5.889593E0,1.0715973E1,7.585341E0,0E0,8.09759E0,1.2138123E1,5.8600225E0,4.8830814E0,1.2083847E1,5.5953646E0,0E0,6.1743317E0,6.990101E0,4.215397E0,0E0,0E0,6.5858803E0,0E0,2.195015E0,2.7364464E0,5.4096293E0,0E0,9.184912E0,4.694769E0,4.0398974E0,4.6323795E0,7.4610314E0,0E0,0E0,0E0,0E0,8.101059E0,7.6857758E0,2.9956858E0,0E0,0E0,6.426796E0,5.632536E0,3.7987266E0,0E0,1.701498E0,0E0,6.7000375E0,7.6250076E-1,0E0,0E0,0E0,4.3666487E0,0E0,0E0,8.743111E0,0E0,0E0,0E0,0E0,0E0,3.3287506E0,8.787393E0,0E0,8.481422E0,0E0,0E0,0E0,0E0,0E0,7.9993668E0,3.601883E0,0E0,6.1246777E0,0E0,0E0,0E0,0E0,3.7077823E0,6.381343E0,0E0,0E0,0E0,0E0,4.9446077E0,3.8458517E0,0E0,0E0,0E0,0E0,5.722003E0,6.4616547E0,0E0,0E0,0E0,0E0,0E0,0E0,0E0,0E0,0E0,0E0,0E0,0E0,0E0,0E0,0E0,0E0,0E0,0E0],"parents":[2147483647,0,0,1,1,2,2,3,3,4,4,5,5,6,6,7,7,8,8,9,9,10,10,12,12,13,13,14,14,15,15,16,16,17,17,18,18,19,19,20,20,22,22,23,23,24,24,25,25,26,26,27,27,29,29,30,30,31,31,34,34,36,36,37,37,38,38,40,40,41,41,42,42,43,43,44,44,49,49,50,50,51,51,54,54,55,55,56,56,58,58,60,60,61,61,65,65,68,68,74,74,75,75,77,77,83,83,84,84,86,86,91,91,92,92,97,97,98,98,103,103,104,104],"right_children":[2,4,6,8,10,12,14,16,18,20,22,-1,24,26,28,30,32,34,36,38,40,-1,42,44,46,48,50,52,-1,54,56,58,-1,-1,60,-1,62,64,66,-1,68,70,72,74,76,-1,-1,-1,-1,78,80,82,-1,-1,84,86,88,-1,90,-1,92,94,-1,-1,-1,96,-1,-1,98,-1,-1,-1,-1,-1,100,102,-1,104,-1,-1,-1,-1,-1,106,108,-1,110,-1,-1,-1,-1,112,114,-1,-1,-1,-1,116,118,-1,-1,-1,-1,120,122,-1,-1,-1,-1,-1,-1,-1,-1,-1,-1,-1,-1,-1,-1,-1,-1,-1,-1],"split_conditions":[1E0,1E0,-9.09E2,-1.3055E4,2.16E5,1.03257E5,9E5,1E0,1E0,1E0,3.6886E4,4.4992365E-2,-1.2213E4,-2.105E4,1E0,-1.7731E4,3.8331E4,8.505E4,5.616E4,8.4703E4,-2.0839E4,-9.060578E-2,-7.95E2,2E0,-1.161E3,1E0,4E0,1.431477E6,2.6488498E-2,3.5329E4,-4.49E2,-9.03E2,-1.0888352E-1,5.9216667E-2,1.5399E4,-4.564477E-3,3.1261E4,2.1775E4,1.53E5,-3.6719427E-2,1.3315E4,3.5982E4,2.34E5,1E0,3.0528E4,-6.50984E-3,5.8090575E-2,-4.5567945E-2,1.9208355E-2,8E0,-4.71E2,3E0,-5.0188728E-2,-1.5714979E-2,2.4435E4,7.2612E4,2.5407E4,-9.498789E-2,-1.7203E4,-3.5246953E-2,1E0,-6.1E2,-3.7372984E-2,6.392017E-2,1.0937587E-1,-4.106E3,-2.5804217E-3,-4.4540912E-2,1.395E5,-2.0835139E-2,-7.719225E-2,3.280638E-2,-1.8009715E-2,-2.41252E-2,-1.6617E4,-1.33E3,2.5754077E-2,1.5399E4,9.9797975E-3,6.425916E-2,1.3247477E-1,-1.82403E-2,2.7167978E-2,2.21377E5,1.38874E5,5.9291017E-3,-2.925E3,3.0430986E-2,-1.9079559E-2,-3.0018179E-2,-6.6900894E-2,1.22625E5,9.594E4,-9.0732954E-2,-6.101676E-2,2.2187753E-2,8.2569726E-2,-9.09E2,-4.005E3,-9.778044E-2,-4.8908487E-2,-7.1507245E-2,2.5012784E-3,-4.106E3,1E0,-1.01546526E-1,-5.108556E-2,-1.7965473E-2,-5.784676E-2,-5.8330137E-2,-9.15584E-3,1.480864E-2,-3.3667423E-2,-4.1258694E-3,6.0091E-2,1.2839477E-2,5.936643E-2,-2.250201E-2,1.7330574E-2,-1.6230127E-2,5.043454E-2,7.72016E-2,2.8509596E-2],"split_indices":[25,1,23,9,5,20,20,45,45,32,20,0,9,9,1,9,7,5,20,20,9,0,23,25,23,32,25,20,0,20,23,23,0,0,7,0,7,7,5,0,7,7,5,32,7,0,0,0,0,29,23,25,0,0,7,20,7,0,9,0,4,23,0,0,0,11,0,0,5,0,0,0,0,0,9,23,0,7,0,0,0,0,0,20,20,0,11,0,0,0,0,20,20,0,0,0,0,23,11,0,0,0,0,11,45,0,0,0,0,0,0,0,0,0,0,0,0,0,0,0,0,0,0],"split_type":[0,0,0,0,0,0,0,0,0,0,0,0,0,0,0,0,0,0,0,0,0,0,0,0,0,0,0,0,0,0,0,0,0,0,0,0,0,0,0,0,0,0,0,0,0,0,0,0,0,0,0,0,0,0,0,0,0,0,0,0,0,0,0,0,0,0,0,0,0,0,0,0,0,0,0,0,0,0,0,0,0,0,0,0,0,0,0,0,0,0,0,0,0,0,0,0,0,0,0,0,0,0,0,0,0,0,0,0,0,0,0,0,0,0,0,0,0,0,0,0,0,0,0],"sum_hessian":[5.0192065E3,3.211762E3,1.8074442E3,1.9886448E3,1.2231173E3,6.565279E2,1.1509164E3,1.3499951E3,6.386496E2,8.840955E2,3.3902188E2,8.7420296E1,5.691076E2,8.695809E2,2.813355E2,1.0624857E3,2.875094E2,4.3493903E2,2.0371056E2,3.1228836E2,5.718071E2,5.2093246E1,2.8692862E2,4.382928E2,1.308148E2,1.0300055E2,7.665803E2,1.9155072E2,8.978477E1,5.9334485E2,4.691409E2,2.190078E2,6.850162E1,6.749936E1,3.6743967E2,5.026186E1,1.5344868E2,1.318304E2,1.8045798E2,8.477763E1,4.8702948E2,1.3446538E2,1.5246324E2,1.9745268E2,2.408401E2,7.963089E1,5.1183907E1,5.2884537E1,5.0116013E1,6.113544E2,1.5522594E2,1.2882602E2,6.272471E1,6.9334206E1,5.240106E2,3.3129752E2,1.3784337E2,9.65423E1,1.224655E2,8.1365524E1,2.8607413E2,1.0202857E2,5.1420116E1,6.966467E1,6.2165714E1,1.0926019E2,7.119779E1,5.6801643E1,4.3022784E2,6.439038E1,7.0075E1,5.3263817E1,9.9199425E1,6.500955E1,1.3244313E2,1.4756392E2,9.327618E1,5.1466516E2,9.6689255E1,8.2235916E1,7.299002E1,6.548494E1,6.3341076E1,2.9204214E2,2.3196849E2,6.584524E1,2.654523E2,7.2136696E1,6.570667E1,5.013734E1,7.2328156E1,1.4042229E2,1.4565186E2,5.093388E1,5.1094692E1,5.9061745E1,5.0198444E1,2.1394438E2,2.1628346E2,6.504825E1,6.739488E1,6.0672535E1,8.689139E1,1.16191895E2,3.9847324E2,1.5706656E2,1.3497559E2,7.761802E1,1.5435046E2,1.820956E2,8.335669E1,6.7336426E1,7.308586E1,5.6544273E1,8.910758E1,8.706194E1,1.2688244E2,1.0557551E2,1.1070796E2,5.0600475E1,6.5591415E1,3.2073843E2,7.7734795E1],"tree_param":{"num_deleted":"0","num_feature":"54","num_nodes":"123","size_leaf_vector":"1"}},{"base_weights":[-2.0733824E-2,-9.2662565E-2,3.178752E-1,-4.6843436E-1,-4.4404022E-2,-1.3281038E-1,3.7784442E-1,-3.1087774E-1,-5.766986E-1,-1.3166825E-1,9.887045E-2,-4.2473607E-2,3.3425698E-3,1.1935936E-1,4.754866E-1,-4.6500286E-1,-9.316262E-3,-6.5690124E-1,-3.6714263E-2,-2.1639416E-1,1.8913654E-3,3.0154893E-1,-3.4714892E-4,-5.139027E-2,7.355629E-2,1.8862064E-1,5.6868625E-1,-4.5995876E-2,-8.795969E-2,-5.4873544E-1,-1.2843634E-1,-4.1245213E-1,-1.5417555E-1,-1.483497E-1,1.3350901E-1,7.509092E-2,4.1017404E-1,-4.5979645E-2,6.0340263E-2,-2.8203597E-2,2.6851857E-2,-3.8288013E-4,5.8982816E-2,7.3371065E-1,3.4547672E-1,-1.0715037E-1,-6.0977176E-2,-6.3623923E-1,-2.5062317E-1,-2.649829E-1,3.8120717E-2,-2.8891855E-1,-1.6357966E-2,-5.7443265E-2,2.2645521E-1,-2.1606702E-2,2.9487152E-2,5.7567495E-1,1.1829746E-1,-2.777334E-1,1.4295125E-2,6.103484E-1,1.4113605E-1,-1.6936735E-3,5.8975554E-1,-8.2569346E-2,-1.1103015E-1,-6.140824E-2,-1.21537514E-1,-1.0858262E-1,-2.2404416E-1,3.4699956E-1,-1.238453E-1,-1.5577957E-1,-6.761363E-2,2.0859595E-2,-1.2749065E-1,-3.721093E-2,1.5206122E-2,3.1872487E-1,3.0333428E-2,1.4067905E-2,7.458772E-1,-1.4619068E-2,5.5816986E-2,-6.515982E-2,-1.3455781E-2,1.90848E-1,-1.0993062E-1,1.2225955E-1,6.9104016E-2,4.7670126E-2,1.2539889E-1,-2.4897405E-3,-3.2783963E-2,-2.2642344E-2,-7.1315676E-2,2.9012498E-2,8.676882E-2,-5.62903E-2,-2.7617356E-3,-3.570559E-3,-3.9898947E-2,6.822606E-3,-3.971517E-2,6.972735E-2,2.1343783E-2,-1.6073894E-2,2.4960943E-2,8.375486E-2,1.3947748E-1,1.1506109E-2,6.9230326E-2,-5.3893775E-2,-1.5715807E-3],"categories":[],"categories_nodes":[],"categories_segments":[],"categories_sizes":[],"default_left":[0,0,0,0,0,0,0,0,0,0,0,0,0,0,0,0,0,0,0,0,0,0,0,0,0,0,0,0,0,0,0,0,0,0,0,0,0,0,0,0,0,0,0,0,0,0,0,0,0,0,0,0,0,0,0,0,0,0,0,0,0,0,0,0,0,0,0,0,0,0,0,0,0,0,0,0,0,0,0,0,0,0,0,0,0,0,0,0,0,0,0,0,0,0,0,0,0,0,0,0,0,0,0,0,0,0,0,0,0,0,0,0,0,0,0],"id":8,"left_children":[1,3,5,7,9,11,13,15,17,19,21,-1,-1,23,25,27,-1,29,-1,31,33,35,37,39,-1,41,43,-1,-1,45,-1,47,49,51,53,55,57,59,-1,-1,-1,-1,-1,61,63,-1,-1,65,67,69,71,73,75,77,79,-1,-1,81,83,85,87,89,-1,-1,91,-1,-1,-1,93,-1,95,97,99,101,-1,-1,103,-1,-1,105,107,-1,109,-1,-1,-1,-1,111,113,-1,-1,-1,-1,-1,-1,-1,-1,-1,-1,-1,-1,-1,-1,-1,-1,-1,-1,-1,-1,-1,-1,-1,-1,-1,-1],"loss_changes":[1.2041049E2,7.391986E1,2.3461266E1,7.734535E0,4.5203823E1,2.395542E0,1.9244537E1,7.2991695E0,7.1288376E0,2.542443E1,2.7524326E1,0E0,0E0,1.3392845E1,1.4723877E1,2.0859413E0,0E0,4.2724304E0,0E0,1.6705536E1,1.7283762E1,1.1034645E1,1.6919226E1,4.6112895E0,0E0,5.380192E0,1.5151016E1,0E0,0E0,3.133091E0,0E0,1.18120575E1,2.2279524E1,7.568141E0,8.2818E0,3.9431462E0,1.4606476E1,1.1558349E1,0E0,0E0,0E0,0E0,0E0,5.5486603E0,1.5663559E1,0E0,0E0,8.238449E-1,3.9156685E0,1.2296879E1,1.9201036E1,4.18738E0,3.6718779E0,4.6671777E0,5.6646366E0,0E0,0E0,1.5809029E1,6.124922E0,4.991577E0,1.4438844E1,4.311844E0,0E0,0E0,6.8766327E0,0E0,0E0,0E0,1.0974119E0,0E0,1.1143116E1,4.5802364E0,6.6720243E0,1.5927758E0,0E0,0E0,2.953563E0,0E0,0E0,5.4287376E0,1.9154708E0,0E0,4.411339E0,0E0,0E0,0E0,0E0,8.364451E0,9.581509E0,0E0,0E0,0E0,0E0,0E0,0E0,0E0,0E0,0E0,0E0,0E0,0E0,0E0,0E0,0E0,0E0,0E0,0E0,0E0,0E0,0E0,0E0,0E0,0E0,0E0,0E0],"parents":[2147483647,0,0,1,1,2,2,3,3,4,4,5,5,6,6,7,7,8,8,9,9,10,10,13,13,14,14,15,15,17,17,19,19,20,20,21,21,22,22,23,23,25,25,26,26,29,29,31,31,32,32,33,33,34,34,35,35,36,36,37,37,43,43,44,44,47,47,48,48,49,49,50,50,51,51,52,52,53,53,54,54,57,57,58,58,59,59,60,60,61,61,64,64,68,68,70,70,71,71,72,72,73,73,76,76,79,79,80,80,82,82,87,87,88,88],"right_children":[2,4,6,8,10,12,14,16,18,20,22,-1,-1,24,26,28,-1,30,-1,32,34,36,38,40,-1,42,44,-1,-1,46,-1,48,50,52,54,56,58,60,-1,-1,-1,-1,-1,62,64,-1,-1,66,68,70,72,74,76,78,80,-1,-1,82,84,86,88,90,-1,-1,92,-1,-1,-1,94,-1,96,98,100,102,-1,-1,104,-1,-1,106,108,-1,110,-1,-1,-1,-1,112,114,-1,-1,-1,-1,-1,-1,-1,-1,-1,-1,-1,-1,-1,-1,-1,-1,-1,-1,-1,-1,-1,-1,-1,-1,-1,-1],"split_conditions":[3E0,2E0,-3.821E3,1E0,1E0,2.38932E5,-1.7918E4,1E0,1E0,1.5E1,1E0,-4.2473607E-2,3.3425698E-3,2.2E1,2.02E0,1.89E5,-9.316262E-3,8.955E5,-3.6714263E-2,1E0,-1.7203E4,1.7874E4,2.5E1,-3.515E3,7.355629E-2,2.25E5,4.77E5,-4.5995876E-2,-8.795969E-2,2.198E0,-1.2843634E-1,-1.648E3,-1.3499E4,2.3E1,-2.251E3,1E0,5.355E5,1.678E4,6.0340263E-2,-2.8203597E-2,2.6851857E-2,-3.8288013E-4,5.8982816E-2,-2.054E3,1.66896E5,-1.0715037E-1,-6.0977176E-2,1.8E5,2.2495E4,1.485E5,7.5204E4,3.8746E0,4.5E5,3.2084572E0,7.57345E5,-2.1606702E-2,2.9487152E-2,1.9452727E0,3.5743E4,-1.452E3,4.545E5,1E0,1.4113605E-1,-1.6936735E-3,5.357143E0,-8.2569346E-2,-1.1103015E-1,-6.140824E-2,3.177E4,-1.0858262E-1,6.795E5,3.62E0,2.25E0,4.5E5,-6.761363E-2,2.0859595E-2,7.7278E5,-3.721093E-2,1.5206122E-2,1E0,2.8215E4,1.4067905E-2,-4.033E3,-1.4619068E-2,5.5816986E-2,-6.515982E-2,-1.3455781E-2,-7.3E2,2.9506E4,1.2225955E-1,6.9104016E-2,4.7670126E-2,1.2539889E-1,-2.4897405E-3,-3.2783963E-2,-2.2642344E-2,-7.1315676E-2,2.9012498E-2,8.676882E-2,-5.62903E-2,-2.7617356E-3,-3.570559E-3,-3.9898947E-2,6.822606E-3,-3.971517E-2,6.972735E-2,2.1343783E-2,-1.6073894E-2,2.4960943E-2,8.375486E-2,1.3947748E-1,1.1506109E-2,6.9230326E-2,-5.3893775E-2,-1.5715807E-3],"split_indices":[17,17,10,32,1,20,9,1,14,21,32,0,0,21,53,20,0,8,0,40,9,7,21,11,0,8,8,0,0,53,0,10,9,21,10,3,8,7,0,0,0,0,0,11,20,0,0,20,7,8,20,53,8,53,20,0,0,53,7,10,8,46,0,0,53,0,0,0,7,0,8,53,53,20,0,0,20,0,0,4,7,0,11,0,0,0,0,10,7,0,0,0,0,0,0,0,0,0,0,0,0,0,0,0,0,0,0,0,0,0,0,0,0,0,0],"split_type":[0,0,0,0,0,0,0,0,0,0,0,0,0,0,0,0,0,0,0,0,0,0,0,0,0,0,0,0,0,0,0,0,0,0,0,0,0,0,0,0,0,0,0,0,0,0,0,0,0,0,0,0,0,0,0,0,0,0,0,0,0,0,0,0,0,0,0,0,0,0,0,0,0,0,0,0,0,0,0,0,0,0,0,0,0,0,0,0,0,0,0,0,0,0,0,0,0,0,0,0,0,0,0,0,0,0,0,0,0,0,0,0,0,0,0],"sum_hessian":[4.941618E3,4.0764155E3,8.652028E2,4.6294257E2,3.6134731E3,1.0146325E2,7.6373956E2,1.901253E2,2.7281726E2,2.2457402E3,1.3677328E3,5.1100826E1,5.036242E1,2.1000975E2,5.537298E2,1.1685718E2,7.326813E1,2.1893835E2,5.3878906E1,1.3736934E3,8.720468E2,4.488327E2,9.189001E2,1.4441042E2,6.559934E1,1.3652702E2,4.1720276E2,5.2237564E1,6.461961E1,1.4435931E2,7.457905E1,3.2956552E2,1.0441279E3,4.0715442E2,4.6489243E2,1.4604799E2,3.0278473E2,8.2614996E2,9.2750145E1,9.076736E1,5.364305E1,7.108959E1,6.543743E1,2.385498E2,1.7865295E2,6.483896E1,7.9520355E1,1.3707632E2,1.924892E2,6.621802E2,3.8194772E2,1.9659515E2,2.1055927E2,1.523273E2,3.1256512E2,5.202434E1,9.402364E1,1.9260233E2,1.101824E2,1.6977295E2,6.56377E2,1.5199786E2,8.655195E1,7.299619E1,1.0565677E2,7.855602E1,5.8520298E1,8.534733E1,1.0714186E2,5.2868706E1,6.0931146E2,1.3099329E2,2.5095444E2,1.0893823E2,8.765693E1,8.768216E1,1.228771E2,6.897461E1,8.3352684E1,2.1213605E2,1.0042906E2,5.0675945E1,1.4192638E2,5.988919E1,5.0293213E1,9.1895325E1,7.7877625E1,2.7087134E2,3.855057E2,6.2312885E1,8.968498E1,5.1295002E1,5.4361763E1,5.20335E1,5.5108364E1,4.732963E2,1.3601514E2,7.984705E1,5.1146236E1,7.3388565E1,1.7756587E2,5.012803E1,5.88102E1,5.46653E1,6.82118E1,1.1514051E2,9.6995544E1,5.0059597E1,5.0369465E1,7.228545E1,6.9640915E1,1.914332E2,7.9438126E1,1.091698E2,2.763359E2],"tree_param":{"num_deleted":"0","num_feature":"54","num_nodes":"115","size_leaf_vector":"1"}},{"base_weights":[-2.3921942E-2,-4.3119046E-1,1.5879668E-2,-3.6724803E-1,-1.1658761E-1,-6.774368E-2,1.5864435E-1,-5.304323E-1,-1.9522332E-1,-1.6890934E-1,6.6611595E-2,-1.2895098E-1,2.0396687E-1,-1.1108738E-1,-4.019235E-1,-9.803086E-2,-6.547259E-2,-1.0802E-1,-4.1511735E-1,-9.806099E-2,1.3816205E-1,-2.845974E-1,2.4505172E-2,2.731053E-1,6.379315E-2,-8.404865E-2,-3.9810166E-2,1.5575254E-2,-4.291561E-2,2.2754487E-1,-1.4430994E-1,-5.113754E-1,-2.399551E-1,5.264164E-2,-1.7945647E-1,1.764343E-1,-3.9661326E-2,-7.845457E-2,-2.2608077E-2,1.1932163E-1,2.3120855E-1,-1.1196435E-1,2.2714226E-1,-2.1316344E-3,7.983403E-2,-1.8443415E-1,1.9761449E-2,-5.7908535E-1,-4.9857598E-2,-1.5383356E-2,-5.7948135E-2,-2.4910861E-1,2.2249145E-2,2.3930834E-1,-6.7151316E-2,-8.442196E-3,2.6217836E-1,-5.4569595E-2,6.895785E-2,4.019056E-1,8.197004E-2,-3.481884E-1,-1.2805834E-1,-3.9298844E-2,1.1143623E-1,-1.00947544E-1,-6.8064325E-2,-1.08933136E-1,-3.9948952E-1,-1.5335531E-2,2.7495626E-1,7.012531E-2,-5.162084E-2,5.17718E-2,3.2235217E-1,-2.9105347E-2,4.4322316E-2,9.93888E-2,2.3996513E-2,3.7761133E-2,-7.449094E-3,-1.5811568E-2,-6.2295523E-2,-4.3575816E-2,-1.0636065E-2,3.3363808E-2,-9.770331E-3,-4.4383217E-2,9.342095E-3,-8.2087204E-2,-3.1393442E-2,1.03193186E-1,3.362119E-2,-2.2487994E-2,4.3583684E-2,-1.795812E-2,2.6035389E-2,6.323288E-2,2.1324772E-2],"categories":[],"categories_nodes":[],"categories_segments":[],"categories_sizes":[],"default_left":[0,0,0,0,0,0,0,0,0,0,0,0,0,0,0,0,0,0,0,0,0,0,0,0,0,0,0,0,0,0,0,0,0,0,0,0,0,0,0,0,0,0,0,0,0,0,0,0,0,0,0,0,0,0,0,0,0,0,0,0,0,0,0,0,0,0,0,0,0,0,0,0,0,0,0,0,0,0,0,0,0,0,0,0,0,0,0,0,0,0,0,0,0,0,0,0,0,0,0],"id":9,"left_children":[1,3,5,7,-1,9,11,13,15,17,19,21,23,-1,25,27,-1,29,31,33,35,37,-1,39,41,-1,-1,-1,-1,43,45,47,49,-1,51,53,-1,-1,-1,-1,55,57,59,-1,-1,61,63,65,-1,-1,-1,67,-1,69,71,-1,73,-1,75,77,79,81,83,-1,85,-1,-1,87,89,-1,91,93,-1,95,97,-1,-1,-1,-1,-1,-1,-1,-1,-1,-1,-1,-1,-1,-1,-1,-1,-1,-1,-1,-1,-1,-1,-1,-1],"loss_changes":[7.913565E1,9.331894E0,5.311152E1,1.0247536E1,0E0,3.8145588E1,2.144542E1,4.79702E0,4.203509E0,2.3953083E1,1.4221256E1,1.0252748E1,1.3743744E1,0E0,2.430107E0,4.979496E0,0E0,1.5677864E1,5.2228317E0,1.3432845E1,1.3004414E1,4.6053705E0,0E0,2.062082E1,1.352846E1,0E0,0E0,0E0,0E0,9.271427E0,7.639982E0,2.2764893E0,2.2594395E0,0E0,7.122472E0,1.1787363E1,0E0,0E0,0E0,0E0,7.862629E0,1.0378117E1,6.160037E0,0E0,0E0,8.560642E0,5.9399505E0,1.4181061E0,0E0,0E0,0E0,5.359887E0,0E0,7.468872E0,6.0497494E0,0E0,1.0060097E1,0E0,7.985001E0,6.86327E0,3.0202842E0,3.836481E0,6.4317465E0,0E0,3.4119022E0,0E0,0E0,4.3090315E0,3.3503494E0,0E0,1.1464901E1,5.2232885E0,0E0,3.7426713E0,1.0999199E1,0E0,0E0,0E0,0E0,0E0,0E0,0E0,0E0,0E0,0E0,0E0,0E0,0E0,0E0,0E0,0E0,0E0,0E0,0E0,0E0,0E0,0E0,0E0,0E0],"parents":[2147483647,0,0,1,1,2,2,3,3,5,5,6,6,7,7,8,8,9,9,10,10,11,11,12,12,14,14,15,15,17,17,18,18,19,19,20,20,21,21,23,23,24,24,29,29,30,30,31,31,32,32,34,34,35,35,40,40,41,41,42,42,45,45,46,46,47,47,51,51,53,53,54,54,56,56,58,58,59,59,60,60,61,61,62,62,64,64,67,67,68,68,70,70,71,71,73,73,74,74],"right_children":[2,4,6,8,-1,10,12,14,16,18,20,22,24,-1,26,28,-1,30,32,34,36,38,-1,40,42,-1,-1,-1,-1,44,46,48,50,-1,52,54,-1,-1,-1,-1,56,58,60,-1,-1,62,64,66,-1,-1,-1,68,-1,70,72,-1,74,-1,76,78,80,82,84,-1,86,-1,-1,88,90,-1,92,94,-1,96,98,-1,-1,-1,-1,-1,-1,-1,-1,-1,-1,-1,-1,-1,-1,-1,-1,-1,-1,-1,-1,-1,-1,-1,-1],"split_conditions":[2E0,1.25568E6,1E0,-1.561E3,-1.1658761E-1,-1.433E3,-3.588E3,2.198E0,-2.343E3,1E0,2.28E0,3E0,8E0,-1.1108738E-1,1.24857E5,1.104E5,-6.547259E-2,1E0,-2.447E3,2.9034E4,6.75E5,2.6955E5,2.4505172E-2,7.2E4,1.8E1,-8.404865E-2,-3.9810166E-2,1.5575254E-2,-4.291561E-2,3.856381E0,3E0,1E0,-1.84E3,5.264164E-2,3.55536E5,1E0,-3.9661326E-2,-7.845457E-2,-2.2608077E-2,1.1932163E-1,1.845E5,3E0,2.31956E5,-2.1316344E-3,7.983403E-2,9.9E4,-3.327E3,-3.874E3,-4.9857598E-2,-1.5383356E-2,-5.7948135E-2,-3.592E3,2.2249145E-2,1.35E4,8.38453E5,-8.442196E-3,9E0,-5.4569595E-2,-4.005E3,2.61775E0,-4.522E3,4.6485E4,2.198E0,-3.9298844E-2,1.24857E5,-1.00947544E-1,-6.8064325E-2,1.9188E5,-5.74E2,-1.5335531E-2,3.9933E4,1.305E5,-5.162084E-2,-1.452E3,2.1666E5,-2.9105347E-2,4.4322316E-2,9.93888E-2,2.3996513E-2,3.7761133E-2,-7.449094E-3,-1.5811568E-2,-6.2295523E-2,-4.3575816E-2,-1.0636065E-2,3.3363808E-2,-9.770331E-3,-4.4383217E-2,9.342095E-3,-8.2087204E-2,-3.1393442E-2,1.03193186E-1,3.362119E-2,-2.2487994E-2,4.3583684E-2,-1.795812E-2,2.6035389E-2,6.323288E-2,2.1324772E-2],"split_indices":[17,6,25,10,0,10,10,53,11,45,53,25,29,0,19,19,0,41,10,19,20,20,0,5,21,0,0,0,0,53,17,14,10,0,6,45,0,0,0,0,6,25,19,0,0,5,10,10,0,0,0,11,0,19,6,0,21,0,11,53,11,20,53,0,19,0,0,6,10,0,20,5,0,10,19,0,0,0,0,0,0,0,0,0,0,0,0,0,0,0,0,0,0,0,0,0,0,0,0],"split_type":[0,0,0,0,0,0,0,0,0,0,0,0,0,0,0,0,0,0,0,0,0,0,0,0,0,0,0,0,0,0,0,0,0,0,0,0,0,0,0,0,0,0,0,0,0,0,0,0,0,0,0,0,0,0,0,0,0,0,0,0,0,0,0,0,0,0,0,0,0,0,0,0,0,0,0,0,0,0,0,0,0,0,0,0,0,0,0,0,0,0,0,0,0,0,0,0,0,0,0],"sum_hessian":[4.880498E3,4.3362393E2,4.4468745E3,3.6773737E2,6.588656E1,2.8046165E3,1.6422578E3,1.8764864E2,1.8008873E2,1.5997748E3,1.2048417E3,2.2332129E2,1.4189366E3,6.939848E1,1.18250145E2,1.2937572E2,5.0713013E1,1.283735E3,3.1603992E2,3.6482663E2,8.40015E2,1.4574509E2,7.7576195E1,9.496089E2,4.693277E2,5.3301983E1,6.4948166E1,6.2615788E1,6.6759926E1,1.2476755E2,1.1589674E3,2.0271898E2,1.1332092E2,5.5478226E1,3.0934842E2,7.676012E2,7.241379E1,5.1362434E1,9.438265E1,6.91726E1,8.804363E2,2.2622868E2,2.43099E2,7.009928E1,5.4668262E1,9.311319E2,2.2783551E2,1.4545872E2,5.726026E1,5.9328026E1,5.3992897E1,2.5533194E2,5.4016476E1,6.1013214E2,1.5746909E2,8.5541855E1,7.948945E2,9.415698E1,1.320717E2,1.0950482E2,1.3359418E2,2.3713936E2,6.9399255E2,5.547636E1,1.7235915E2,8.065677E1,6.480195E1,1.3304256E2,1.2228939E2,5.7486053E1,5.5264606E2,1.05787186E2,5.1681896E1,1.771887E2,6.1770575E2,6.1182526E1,7.0889175E1,5.1872112E1,5.763271E1,5.7945904E1,7.564828E1,5.191518E1,1.8522417E2,1.7955138E2,5.1444116E2,1.0567468E2,6.668447E1,6.3249634E1,6.9792915E1,6.776687E1,5.4522522E1,5.9173763E1,4.9347232E2,5.3100185E1,5.2687E1,7.358998E1,1.03598724E2,3.9751694E2,2.2018883E2],"tree_param":{"num_deleted":"0","num_feature":"54","num_nodes":"99","size_leaf_vector":"1"}},{"base_weights":[-2.2516241E-2,-7.3275946E-2,2.0712431E-1,-3.6282703E-1,-3.8646337E-2,1.2652338E-1,4.2731252E-1,-4.23106E-1,-1.7433526E-2,-1.08686164E-1,7.3557675E-2,-4.5179203E-2,1.9530928E-1,5.701982E-1,1.0030202E-2,-5.2812916E-1,-2.7013263E-1,-1.8540537E-1,1.617478E-2,2.7195078E-1,-9.616153E-2,1.0007906E-1,4.6957368E-1,4.0323463E-1,1.2517093E-1,-6.1281043E-1,-5.396651E-2,-9.384074E-3,-6.598757E-2,-1.3138345E-1,-3.6383924E-1,4.1843927E-1,-6.172535E-2,5.4422915E-1,1.7318314E-1,-2.3884787E-1,-2.2271957E-2,-5.514531E-2,3.752067E-1,4.9625017E-2,1.0500807E-1,3.51272E-2,8.5769825E-2,-1.10852495E-1,-7.273384E-2,-1.7129041E-1,1.2362728E-1,1.9124224E-4,-4.5388296E-1,8.567633E-2,3.9347757E-2,-2.6451585E-1,2.1382045E-2,2.5784647E-2,7.1174926E-1,2.4455833E-1,-2.6894616E-2,-3.4236073E-1,-4.4634333E-3,-1.2065827E-1,1.409379E-1,1.6000831E-1,-2.8262934E-1,2.77564E-2,8.55465E-2,-3.3071923E-1,-5.9517566E-2,-6.6908086E-3,5.7611715E-2,-9.5125385E-2,-3.7694547E-1,-4.170326E-1,-7.4692736E-3,-3.5736773E-2,5.3392354E-2,1.3180172E-1,7.657034E-2,1.5136783E-1,7.871032E-2,-8.570185E-2,-2.2215427E-1,-5.519964E-2,-5.17363E-2,1.199553E-2,4.569404E-2,4.9101956E-2,-7.0044757E-3,-7.317168E-2,-5.004925E-3,-3.0413443E-2,-7.481769E-2,-2.5061328E-2,1.367867E-2,-1.6975079E-2,-7.332629E-2,-3.9541326E-2,-8.475525E-2,-1.9667432E-2,2.19859E-2,9.828562E-3,6.3531965E-2,-2.0979853E-2,-4.3159794E-2,2.5829121E-2,-1.8384581E-2,2.6819428E-2,-2.211145E-2],"categories":[],"categories_nodes":[],"categories_segments":[],"categories_sizes":[],"default_left":[0,0,0,0,0,0,0,0,0,0,0,0,0,0,0,0,0,0,0,0,0,0,0,0,0,0,0,0,0,0,0,0,0,0,0,0,0,0,0,0,0,0,0,0,0,0,0,0,0,0,0,0,0,0,0,0,0,0,0,0,0,0,0,0,0,0,0,0,0,0,0,0,0,0,0,0,0,0,0,0,0,0,0,0,0,0,0,0,0,0,0,0,0,0,0,0,0,0,0,0,0,0,0,0,0,0,0],"id":10,"left_children":[1,3,5,7,9,11,13,15,-1,17,19,-1,21,23,-1,25,27,29,31,33,35,37,39,41,-1,43,-1,-1,-1,45,47,49,51,53,55,57,59,61,63,-1,-1,-1,-1,-1,-1,65,67,-1,69,-1,-1,71,73,-1,75,77,-1,79,-1,81,83,85,87,-1,-1,89,91,-1,-1,-1,93,95,-1,97,-1,-1,-1,99,-1,-1,101,103,-1,105,-1,-1,-1,-1,-1,-1,-1,-1,-1,-1,-1,-1,-1,-1,-1,-1,-1,-1,-1,-1,-1,-1,-1],"loss_changes":[5.715358E1,4.0246864E1,1.5698925E1,6.3248787E0,2.8200745E1,1.9217545E1,1.2190147E1,5.3870163E0,0E0,2.1164656E1,4.64693E1,0E0,1.4620567E1,7.160061E0,0E0,2.6740303E0,4.9824724E0,1.3142986E1,2.6401285E1,1.7014599E1,7.839938E0,1.7876976E1,4.3879814E0,2.888195E0,0E0,1.7995377E0,0E0,0E0,0E0,1.0726847E1,1.043726E1,3.1093616E0,1.19042425E1,1.0411282E1,1.1825965E1,5.4823093E0,7.9068937E0,1.3170883E1,5.4945564E0,0E0,0E0,0E0,0E0,0E0,0E0,1.6197212E1,6.2797966E0,0E0,3.293213E0,0E0,0E0,6.7025957E0,9.600292E0,0E0,3.4543E0,1.0100237E1,0E0,4.5425816E0,0E0,4.4887905E0,3.9064739E0,4.804639E0,6.669037E0,0E0,0E0,7.9603806E0,8.707014E0,0E0,0E0,0E0,5.2856045E0,2.5737057E0,0E0,7.4867225E0,0E0,0E0,0E0,6.8408895E0,0E0,0E0,5.6889534E-1,3.6805577E0,0E0,2.8093715E0,0E0,0E0,0E0,0E0,0E0,0E0,0E0,0E0,0E0,0E0,0E0,0E0,0E0,0E0,0E0,0E0,0E0,0E0,0E0,0E0,0E0,0E0,0E0],"parents":[2147483647,0,0,1,1,2,2,3,3,4,4,5,5,6,6,7,7,9,9,10,10,12,12,13,13,15,15,16,16,17,17,18,18,19,19,20,20,21,21,22,22,23,23,25,25,29,29,30,30,31,31,32,32,33,33,34,34,35,35,36,36,37,37,38,38,45,45,46,46,48,48,51,51,52,52,54,54,55,55,57,57,59,59,60,60,61,61,62,62,65,65,66,66,70,70,71,71,73,73,77,77,80,80,81,81,83,83],"right_children":[2,4,6,8,10,12,14,16,-1,18,20,-1,22,24,-1,26,28,30,32,34,36,38,40,42,-1,44,-1,-1,-1,46,48,50,52,54,56,58,60,62,64,-1,-1,-1,-1,-1,-1,66,68,-1,70,-1,-1,72,74,-1,76,78,-1,80,-1,82,84,86,88,-1,-1,90,92,-1,-1,-1,94,96,-1,98,-1,-1,-1,100,-1,-1,102,104,-1,106,-1,-1,-1,-1,-1,-1,-1,-1,-1,-1,-1,-1,-1,-1,-1,-1,-1,-1,-1,-1,-1,-1,-1],"split_conditions":[3E0,2E0,-3.89E2,1E0,1E0,2.2752E5,1E0,1E0,-1.7433526E-2,1E0,1E0,-4.5179203E-2,-1.1889E4,3E0,1.0030202E-2,4E0,1E0,1E0,2E0,8.2089E4,-1.013E3,1.8E1,1E0,-2.55E2,1.2517093E-1,-6.47E2,-5.396651E-2,-9.384074E-3,-6.598757E-2,2.3E1,4.473E4,1.9188E5,2.264E0,-1.6896E4,-1.0456E4,-1.3108E4,1E0,3E0,1E0,4.9625017E-2,1.0500807E-1,3.51272E-2,8.5769825E-2,-1.10852495E-1,-7.273384E-2,-1.7018E4,3E0,1.9124224E-4,3.55536E5,8.567633E-2,3.9347757E-2,-5.99E2,-3.97E2,2.5784647E-2,4.6485E4,2E0,-2.6894616E-2,2.524737E0,-4.4634333E-3,-2.51E2,2.8448E0,6.696E5,-1.5395E4,2.77564E-2,8.55465E-2,2E0,1.2E1,-6.6908086E-3,5.7611715E-2,-9.5125385E-2,3.5666296E0,1.6054E0,-7.4692736E-3,2E1,5.3392354E-2,1.3180172E-1,7.657034E-2,-4.41E2,7.871032E-2,-8.570185E-2,-1.497E3,8.4703E4,-5.17363E-2,1.7142857E0,4.569404E-2,4.9101956E-2,-7.0044757E-3,-7.317168E-2,-5.004925E-3,-3.0413443E-2,-7.481769E-2,-2.5061328E-2,1.367867E-2,-1.6975079E-2,-7.332629E-2,-3.9541326E-2,-8.475525E-2,-1.9667432E-2,2.19859E-2,9.828562E-3,6.3531965E-2,-2.0979853E-2,-4.3159794E-2,2.5829121E-2,-1.8384581E-2,2.6819428E-2,-2.211145E-2],"split_indices":[17,17,23,14,1,6,2,1,0,25,2,0,9,29,0,29,2,45,24,20,23,21,25,23,0,23,0,0,0,21,20,20,53,9,9,9,25,24,25,0,0,0,0,0,0,9,29,0,6,0,0,23,23,0,20,25,0,53,0,23,53,6,9,0,0,29,21,0,0,0,53,53,0,21,0,0,0,23,0,0,23,20,0,53,0,0,0,0,0,0,0,0,0,0,0,0,0,0,0,0,0,0,0,0,0,0,0],"split_type":[0,0,0,0,0,0,0,0,0,0,0,0,0,0,0,0,0,0,0,0,0,0,0,0,0,0,0,0,0,0,0,0,0,0,0,0,0,0,0,0,0,0,0,0,0,0,0,0,0,0,0,0,0,0,0,0,0,0,0,0,0,0,0,0,0,0,0,0,0,0,0,0,0,0,0,0,0,0,0,0,0,0,0,0,0,0,0,0,0,0,0,0,0,0,0,0,0,0,0,0,0,0,0,0,0,0,0],"sum_hessian":[4.9008545E3,4.0142305E3,8.866239E2,4.277955E2,3.586435E3,6.501925E2,2.364314E2,3.431912E2,8.460431E1,2.2081182E3,1.3783169E3,8.960992E1,5.6058264E2,1.6889638E2,6.753502E1,2.020336E2,1.411576E2,1.367432E3,8.4068604E2,6.351991E2,7.431178E2,4.1711618E2,1.4346642E2,1.0505223E2,6.3844147E1,1.326637E2,6.936991E1,6.4126915E1,7.7030685E1,1.0509783E3,3.1645367E2,1.3568057E2,7.050055E2,1.6788123E2,4.673179E2,2.527691E2,4.903487E2,2.6717706E2,1.4993915E2,9.107697E1,5.2389442E1,5.364292E1,5.140931E1,6.4374E1,6.828969E1,9.090484E2,1.419299E2,6.279895E1,2.5365474E2,6.723988E1,6.84407E1,2.0430286E2,5.007026E2,5.272356E1,1.1515767E2,3.888785E2,7.843938E1,1.6864325E2,8.412586E1,3.0609122E2,1.8425748E2,1.374623E2,1.2971475E2,7.6917404E1,7.3021736E1,3.738472E2,5.3520123E2,8.673439E1,5.5195503E1,7.370364E1,1.799511E2,1.1890329E2,8.5399574E1,4.28449E2,7.225361E1,6.1110844E1,5.4046825E1,2.9297238E2,9.590612E1,5.6762184E1,1.1188106E2,2.3789568E2,6.819554E1,1.03668335E2,8.0589134E1,7.564234E1,6.181996E1,7.062364E1,5.909111E1,2.1349843E2,1.6034877E2,3.1224747E2,2.2295374E2,5.4198357E1,1.2575274E2,5.974791E1,5.915538E1,2.8147147E2,1.4697755E2,2.2366884E2,6.930356E1,5.100787E1,6.087319E1,5.4013218E1,1.8388246E2,5.0599583E1,5.3068752E1],"tree_param":{"num_deleted":"0","num_feature":"54","num_nodes":"107","size_leaf_vector":"1"}},{"base_weights":[-3.225456E-2,6.6500224E-2,-1.5241975E-1,-3.4307342E-2,3.340336E-1,-4.0250862E-1,-1.2017213E-1,-1.686117E-1,4.1528117E-2,4.1482684E-1,-6.327641E-2,-5.029063E-1,-3.3037283E-2,-9.460791E-3,-2.0389883E-1,-2.2766425E-1,3.5042804E-2,3.1964603E-1,-4.9625635E-3,3.2594484E-1,7.630246E-1,-5.789021E-2,3.0648906E-2,-1.0189053E-1,-5.873806E-2,-1.2083162E-1,1.6400748E-1,-3.4954646E-1,-1.3069089E-1,-2.9376757E-1,6.664685E-2,-1.356624E-3,4.7881952E-1,-5.7459526E-2,3.0765587E-1,8.83751E-3,3.6985573E-1,1.3324761E-1,8.558533E-2,9.8177135E-2,-1.8358117E-1,3.4792063E-1,-5.4883808E-2,-5.285753E-1,-2.3648807E-1,3.3794135E-2,-2.7204362E-1,-2.1503808E-1,-4.95697E-1,-1.5070845E-2,3.6699343E-2,3.6479816E-2,1.06208175E-1,-1.6512679E-1,6.36376E-2,6.956404E-2,2.0034043E-3,2.3422869E-1,4.5819587E-1,3.673036E-2,-1.3085698E-2,-2.5063655E-1,2.8026165E-2,2.4074912E-1,8.583582E-2,-4.1924838E-2,1.166543E-2,-1.0069365E-1,-4.937234E-2,-3.641654E-1,-2.0837423E-3,5.1839195E-2,-3.7938032E-2,1.0343804E-2,-3.4175763E-1,-7.771334E-2,-1.5500489E-1,-1.01603836E-1,-3.5487995E-2,-6.257329E-2,-1.0463864E-1,-1.23997696E-1,2.9967967E-1,6.288819E-2,1.0838283E-2,1.0793368E-1,3.7703717E-1,-3.115507E-1,-6.842368E-3,5.4747254E-2,1.8767051E-2,-8.127378E-2,-3.4687094E-2,-2.3299712E-1,1.2156504E-1,-4.3940017E-1,-1.5924398E-2,-2.5947974E-3,-4.0767156E-2,6.368168E-3,-3.681689E-2,1.2173187E-2,-4.1283607E-2,8.093131E-2,2.732227E-2,3.4597177E-2,1.150912E-1,-5.5759322E-2,-1.4895915E-2,-5.4988086E-2,-7.706729E-3,-8.083381E-3,5.7031248E-2,-9.428767E-2,-4.7491074E-2],"categories":[],"categories_nodes":[],"categories_segments":[],"categories_sizes":[],"default_left":[0,0,0,0,0,0,0,0,0,0,0,0,0,0,0,0,0,0,0,0,0,0,0,0,0,0,0,0,0,0,0,0,0,0,0,0,0,0,0,0,0,0,0,0,0,0,0,0,0,0,0,0,0,0,0,0,0,0,0,0,0,0,0,0,0,0,0,0,0,0,0,0,0,0,0,0,0,0,0,0,0,0,0,0,0,0,0,0,0,0,0,0,0,0,0,0,0,0,0,0,0,0,0,0,0,0,0,0,0,0,0,0,0,0,0],"id":11,"left_children":[1,3,5,7,9,11,13,15,17,19,21,23,-1,25,27,29,-1,31,33,35,37,-1,-1,-1,-1,39,41,43,45,47,49,-1,51,53,55,-1,57,-1,-1,59,61,63,65,67,69,71,73,75,77,-1,-1,-1,-1,79,81,-1,-1,83,85,-1,-1,87,-1,89,-1,-1,-1,-1,-1,91,-1,-1,93,-1,95,-1,97,-1,-1,-1,99,101,103,-1,-1,-1,105,107,-1,-1,-1,-1,-1,109,111,113,-1,-1,-1,-1,-1,-1,-1,-1,-1,-1,-1,-1,-1,-1,-1,-1,-1,-1,-1],"loss_changes":[5.784246E1,7.2173904E1,1.768367E1,1.9810104E1,2.3535728E1,4.4767303E0,1.806432E1,1.6724524E1,1.6079424E1,1.8591286E1,1.0840012E1,2.8924484E0,0E0,1.6253925E1,1.178651E1,1.1936216E1,0E0,9.322563E0,1.751823E1,5.685055E0,2.4602127E0,0E0,0E0,0E0,0E0,7.058755E0,1.3262826E1,7.376198E0,1.721671E1,7.8481445E0,3.3910024E0,0E0,6.310051E0,1.1925825E1,7.044917E0,0E0,4.8982735E0,0E0,0E0,3.1424346E0,9.946962E0,4.1633186E0,4.523006E0,3.8387222E0,6.5021353E0,7.6835346E0,9.488569E0,6.5014496E0,6.410557E0,0E0,0E0,0E0,0E0,7.3354435E0,1.911879E1,0E0,0E0,4.969591E0,5.0730133E0,0E0,0E0,4.2058334E0,0E0,1.7183576E0,0E0,0E0,0E0,0E0,0E0,3.3097057E0,0E0,0E0,8.730737E0,0E0,7.561592E0,0E0,4.8739367E0,0E0,0E0,0E0,8.123011E0,7.4910765E0,5.28903E0,0E0,0E0,0E0,1.092572E1,3.2882423E0,0E0,0E0,0E0,0E0,0E0,3.0424109E0,7.033329E0,5.2254715E0,0E0,0E0,0E0,0E0,0E0,0E0,0E0,0E0,0E0,0E0,0E0,0E0,0E0,0E0,0E0,0E0,0E0,0E0,0E0],"parents":[2147483647,0,0,1,1,2,2,3,3,4,4,5,5,6,6,7,7,8,8,9,9,10,10,11,11,13,13,14,14,15,15,17,17,18,18,19,19,20,20,25,25,26,26,27,27,28,28,29,29,30,30,32,32,33,33,34,34,36,36,39,39,40,40,41,41,42,42,43,43,44,44,45,45,46,46,47,47,48,48,53,53,54,54,57,57,58,58,61,61,63,63,69,69,72,72,74,74,76,76,80,80,81,81,82,82,86,86,87,87,93,93,94,94,95,95],"right_children":[2,4,6,8,10,12,14,16,18,20,22,24,-1,26,28,30,-1,32,34,36,38,-1,-1,-1,-1,40,42,44,46,48,50,-1,52,54,56,-1,58,-1,-1,60,62,64,66,68,70,72,74,76,78,-1,-1,-1,-1,80,82,-1,-1,84,86,-1,-1,88,-1,90,-1,-1,-1,-1,-1,92,-1,-1,94,-1,96,-1,98,-1,-1,-1,100,102,104,-1,-1,-1,106,108,-1,-1,-1,-1,-1,110,112,114,-1,-1,-1,-1,-1,-1,-1,-1,-1,-1,-1,-1,-1,-1,-1,-1,-1,-1,-1],"split_conditions":[4.545E5,4.22892E5,5.44491E5,-1.6418E4,2.52835E5,1E0,6.795E5,2.8E1,4.6485E4,3E0,2.3E1,-1.7731E4,-3.3037283E-2,7.2846E5,9.58131E5,2E0,3.5042804E-2,3E0,3E0,-1.554E3,-1.2059E4,-5.789021E-2,3.0648906E-2,-1.0189053E-1,-5.873806E-2,8E0,1.21549E5,4.2785716E0,1.1115E6,1.4892E5,-5.095E3,-1.356624E-3,2.52022E5,1.791E5,-1.0723E4,8.83751E-3,1E1,1.3324761E-1,8.558533E-2,4.625143E0,2.6E1,1.2E1,-1.7666E4,1.5E1,-1.399E4,8.955E5,-1.511E3,1E0,1E0,-1.5070845E-2,3.6699343E-2,3.6479816E-2,1.06208175E-1,1.665E5,-6.1E2,6.956404E-2,2.0034043E-3,1E0,1.01659E5,3.673036E-2,-1.3085698E-2,-4.93E2,2.8026165E-2,4.7111E4,8.583582E-2,-4.1924838E-2,1.166543E-2,-1.0069365E-1,-4.937234E-2,-9.16E2,-2.0837423E-3,5.1839195E-2,1.0782E6,1.0343804E-2,1.9E1,-7.771334E-2,1E0,-1.01603836E-1,-3.5487995E-2,-6.257329E-2,2.295E5,-4.488E3,1E0,6.288819E-2,1.0838283E-2,1.0793368E-1,-1.758E3,-1.2161E4,-6.842368E-3,5.4747254E-2,1.8767051E-2,-8.127378E-2,-3.4687094E-2,-1.4752E4,1.5E1,-1.6728E4,-1.5924398E-2,-2.5947974E-3,-4.0767156E-2,6.368168E-3,-3.681689E-2,1.2173187E-2,-4.1283607E-2,8.093131E-2,2.732227E-2,3.4597177E-2,1.150912E-1,-5.5759322E-2,-1.4895915E-2,-5.4988086E-2,-7.706729E-3,-8.083381E-3,5.7031248E-2,-9.428767E-2,-4.7491074E-2],"split_indices":[8,6,6,9,19,25,8,21,20,17,21,9,0,6,6,25,0,21,25,23,9,0,0,0,0,21,19,53,8,19,11,0,6,20,9,0,21,0,0,53,21,21,9,21,9,8,23,40,26,0,0,0,0,8,23,0,0,32,20,0,0,23,0,19,0,0,0,0,0,23,0,0,6,0,21,0,32,0,0,0,8,11,26,0,0,0,11,9,0,0,0,0,0,9,21,9,0,0,0,0,0,0,0,0,0,0,0,0,0,0,0,0,0,0,0],"split_type":[0,0,0,0,0,0,0,0,0,0,0,0,0,0,0,0,0,0,0,0,0,0,0,0,0,0,0,0,0,0,0,0,0,0,0,0,0,0,0,0,0,0,0,0,0,0,0,0,0,0,0,0,0,0,0,0,0,0,0,0,0,0,0,0,0,0,0,0,0,0,0,0,0,0,0,0,0,0,0,0,0,0,0,0,0,0,0,0,0,0,0,0,0,0,0,0,0,0,0,0,0,0,0,0,0,0,0,0,0,0,0,0,0,0,0],"sum_hessian":[4.8724204E3,2.6747168E3,2.1977034E3,1.9433335E3,7.313834E2,2.4970358E2,1.9479999E3,7.0087054E2,1.2424629E3,6.077525E2,1.2363096E2,1.5987654E2,8.982705E1,8.3930493E2,1.108695E3,6.115249E2,8.934565E1,1.7710497E2,1.0653579E3,4.8570584E2,1.22046646E2,5.584924E1,6.7781715E1,5.989017E1,9.998637E1,5.113252E2,3.2797974E2,3.6959967E2,7.390952E2,4.993671E2,1.12157814E2,5.809111E1,1.1901385E2,9.128777E2,1.5248029E2,6.892223E1,4.167836E2,7.173197E1,5.031467E1,1.13749954E2,3.9757523E2,1.7790985E2,1.5006987E2,1.416386E2,2.2796109E2,3.4194824E2,3.97147E2,3.6077197E2,1.3859512E2,5.8074055E1,5.408376E1,5.970577E1,5.930808E1,4.830421E2,4.2983554E2,9.9256325E1,5.322396E1,1.6583362E2,2.5095E2,6.33275E1,5.042246E1,3.369098E2,6.0665443E1,1.2179409E2,5.6115765E1,5.5309742E1,9.476014E1,8.117858E1,6.0460007E1,1.4446346E2,8.349763E1,6.324058E1,2.7870767E2,6.741263E1,3.2973438E2,5.8389328E1,3.0238263E2,8.0525E1,5.8070118E1,9.235238E1,3.9068973E2,2.3973741E2,1.9009814E2,7.666689E1,8.9166725E1,5.7597622E1,1.9335237E2,2.5933777E2,7.757201E1,5.767492E1,6.411916E1,6.050946E1,8.3954E1,1.2517194E2,1.5353572E2,2.3250668E2,9.7227684E1,1.3928333E2,1.630993E2,1.9142146E2,1.9926828E2,1.0192722E2,1.3781018E2,6.13342E1,1.2876395E2,1.4176375E2,5.1588627E1,2.0146472E2,5.787306E1,7.153547E1,5.3636475E1,9.195108E1,6.158464E1,8.989245E1,1.4261423E2],"tree_param":{"num_deleted":"0","num_feature":"54","num_nodes":"115","size_leaf_vector":"1"}},{"base_weights":[-2.674289E-2,-3.239605E-1,7.4757414E-4,-3.9498806E-1,-3.8687417E-3,-1.5101574E-1,4.2546645E-2,-5.0284696E-1,-2.466316E-1,-1.8204659E-1,5.1049374E-2,-2.5067301E-2,1.5174195E-1,-4.236297E-1,-9.8199986E-2,4.891449E-3,-6.568334E-2,-2.2659247E-1,1.18031E-1,2.5150684E-1,-6.3443296E-2,-8.055316E-2,2.2902182E-1,-7.528113E-2,-4.5964614E-2,-2.963732E-1,-8.310376E-2,3.9754845E-2,-4.5387396E-3,3.7033927E-1,-7.782238E-3,-9.046014E-2,2.5994202E-1,-1.6124114E-1,2.1560477E-2,1.6828553E-1,4.690102E-1,-1.6012487E-1,-3.763914E-1,-3.8714126E-2,-2.5647047E-3,3.5217237E-2,7.582943E-2,8.14234E-2,-1.3550252E-1,1.6044291E-3,5.9831563E-2,-3.185951E-1,5.1765863E-2,2.1774702E-1,-8.465073E-2,9.80787E-2,3.4232378E-1,-3.1753486E-1,1.638528E-2,-3.1652334E-1,-8.3166495E-2,1.18737094E-1,-2.4518756E-2,-1.4198342E-1,1.8608148E-1,-2.1480793E-1,-5.945025E-3,-7.1548484E-2,-2.4769949E-2,3.1188099E-2,-1.45817315E-2,3.1041328E-3,2.8212872E-1,-6.000756E-2,2.1749768E-2,7.8910574E-2,1.9505136E-2,-6.6424154E-2,-1.9851549E-2,-2.9810188E-2,-6.742266E-2,-8.4866583E-4,3.5917E-2,-2.7734922E-2,-1.5220943E-2,4.3403268E-2,-8.198135E-3,-4.156554E-2,8.036881E-3,1.0335935E-2,-3.658101E-2,3.214842E-2,-4.039712E-2,6.2983334E-2,1.5572184E-2],"categories":[],"categories_nodes":[],"categories_segments":[],"categories_sizes":[],"default_left":[0,0,0,0,0,0,0,0,0,0,0,0,0,0,0,0,0,0,0,0,0,0,0,0,0,0,0,0,0,0,0,0,0,0,0,0,0,0,0,0,0,0,0,0,0,0,0,0,0,0,0,0,0,0,0,0,0,0,0,0,0,0,0,0,0,0,0,0,0,0,0,0,0,0,0,0,0,0,0,0,0,0,0,0,0,0,0,0,0,0,0],"id":12,"left_children":[1,3,5,7,-1,9,11,13,15,17,-1,19,21,23,-1,-1,-1,25,27,29,31,33,35,-1,-1,37,39,-1,-1,41,-1,43,45,47,-1,49,51,53,55,-1,57,-1,-1,59,61,-1,-1,63,65,67,69,-1,71,73,-1,75,-1,77,-1,79,81,83,85,-1,-1,-1,-1,87,89,-1,-1,-1,-1,-1,-1,-1,-1,-1,-1,-1,-1,-1,-1,-1,-1,-1,-1,-1,-1,-1,-1],"loss_changes":[3.9409058E1,8.637852E0,2.8018787E1,5.1519547E0,0E0,1.4604559E1,2.5572014E1,2.0071907E0,7.532016E0,1.2027866E1,0E0,2.2725294E1,2.3794743E1,1.0168381E0,0E0,0E0,0E0,7.8062897E0,2.5520825E0,9.425549E0,1.6446136E1,6.020081E0,1.4410934E1,0E0,0E0,5.672268E0,3.6254356E0,0E0,0E0,3.3192654E0,0E0,1.3447414E1,5.0234184E0,8.200402E0,0E0,9.962814E0,4.464699E0,8.357306E0,3.347721E0,0E0,3.4778514E0,0E0,0E0,8.4667225E0,1.41317005E1,0E0,0E0,3.338132E0,2.4535584E0,9.190788E0,9.527202E0,0E0,4.6473923E0,2.821951E0,0E0,3.821001E0,0E0,1.5271289E0,0E0,1.8243527E-1,6.138179E0,1.427993E1,9.336663E0,0E0,0E0,0E0,0E0,8.9467745E0,1.2525078E1,0E0,0E0,0E0,0E0,0E0,0E0,0E0,0E0,0E0,0E0,0E0,0E0,0E0,0E0,0E0,0E0,0E0,0E0,0E0,0E0,0E0,0E0],"parents":[2147483647,0,0,1,1,2,2,3,3,5,5,6,6,7,7,8,8,9,9,11,11,12,12,13,13,17,17,18,18,19,19,20,20,21,21,22,22,25,25,26,26,29,29,31,31,32,32,33,33,35,35,36,36,37,37,38,38,40,40,43,43,44,44,47,47,48,48,49,49,50,50,52,52,53,53,55,55,57,57,59,59,60,60,61,61,62,62,67,67,68,68],"right_children":[2,4,6,8,-1,10,12,14,16,18,-1,20,22,24,-1,-1,-1,26,28,30,32,34,36,-1,-1,38,40,-1,-1,42,-1,44,46,48,-1,50,52,54,56,-1,58,-1,-1,60,62,-1,-1,64,66,68,70,-1,72,74,-1,76,-1,78,-1,80,82,84,86,-1,-1,-1,-1,88,90,-1,-1,-1,-1,-1,-1,-1,-1,-1,-1,-1,-1,-1,-1,-1,-1,-1,-1,-1,-1,-1,-1],"split_conditions":[2E0,1E0,1E0,1E0,-3.8687417E-3,1E0,1E0,-4.49E2,1E0,1E0,5.1049374E-2,1E0,-1.096E3,2.21872E5,-9.8199986E-2,4.891449E-3,-6.568334E-2,1.6E1,-3.428E3,1E0,-5.19E2,1.8E1,3E0,-7.528113E-2,-4.5964614E-2,1E0,-5.608E3,3.9754845E-2,-4.5387396E-3,1.2E1,-7.782238E-3,5.1993E4,-8.47E2,1E0,2.1560477E-2,1.100709E6,3.13839E5,1E0,4E0,-3.8714126E-2,-1.879E3,3.5217237E-2,7.582943E-2,1.35E4,1E0,1.6044291E-3,5.9831563E-2,1.1E1,8.4557E4,1.73839E5,2.5E1,9.80787E-2,-5.48E2,-5.02E2,1.638528E-2,1E1,-8.3166495E-2,6.11905E5,-2.4518756E-2,-5.128E3,2E0,1E0,1E0,-7.1548484E-2,-2.4769949E-2,3.1188099E-2,-1.45817315E-2,1.17927E5,4E0,-6.000756E-2,2.1749768E-2,7.8910574E-2,1.9505136E-2,-6.6424154E-2,-1.9851549E-2,-2.9810188E-2,-6.742266E-2,-8.4866583E-4,3.5917E-2,-2.7734922E-2,-1.5220943E-2,4.3403268E-2,-8.198135E-3,-4.156554E-2,8.036881E-3,1.0335935E-2,-3.658101E-2,3.214842E-2,-4.039712E-2,6.2983334E-2,1.5572184E-2],"split_indices":[17,14,40,1,0,39,25,23,32,43,0,41,23,19,0,0,0,21,11,2,11,21,17,0,0,32,11,0,0,21,0,20,23,1,0,20,20,1,24,0,11,0,0,19,1,0,0,21,19,20,21,0,23,23,0,21,0,20,0,11,24,14,30,0,0,0,0,20,24,0,0,0,0,0,0,0,0,0,0,0,0,0,0,0,0,0,0,0,0,0,0],"split_type":[0,0,0,0,0,0,0,0,0,0,0,0,0,0,0,0,0,0,0,0,0,0,0,0,0,0,0,0,0,0,0,0,0,0,0,0,0,0,0,0,0,0,0,0,0,0,0,0,0,0,0,0,0,0,0,0,0,0,0,0,0,0,0,0,0,0,0,0,0,0,0,0,0,0,0,0,0,0,0,0,0,0,0,0,0,0,0,0,0,0,0],"sum_hessian":[4.8222163E3,4.0734586E2,4.41487E3,3.287167E2,7.862914E1,9.5281036E2,3.46206E3,1.8895341E2,1.397633E2,8.9680237E2,5.6007996E1,2.1386033E3,1.3234567E3,1.2665636E2,6.2297054E1,5.7150867E1,8.2612434E1,7.8109534E2,1.1570703E2,2.5990744E2,1.8786958E3,3.3036676E2,9.9308997E2,7.398213E1,5.267423E1,5.2480786E2,2.562875E2,5.771051E1,5.7996517E1,1.8659894E2,7.330852E1,1.7345085E3,1.4418721E2,2.4316832E2,8.7198456E1,7.938768E2,1.992132E2,1.9528831E2,3.2951956E2,8.008313E1,1.7620438E2,9.453932E1,9.2059616E1,3.5998468E2,1.3745239E3,5.199197E1,9.219524E1,1.3956915E2,1.0359916E2,6.6414325E2,1.2973352E2,7.9318535E1,1.1989466E2,1.23145226E2,7.214308E1,2.4868092E2,8.083862E1,1.0061227E2,7.559212E1,1.1472725E2,2.4525745E2,8.522079E2,5.2231604E2,6.7643364E1,7.192579E1,5.0387962E1,5.3211193E1,1.5348528E2,5.1065796E2,5.434888E1,7.5384636E1,6.347551E1,5.6419155E1,7.262138E1,5.0523846E1,1.3318681E2,1.1549412E2,5.0019146E1,5.0593117E1,5.3978825E1,6.0748425E1,1.714884E2,7.376905E1,6.9163837E2,1.6056949E2,3.9786102E2,1.24455E2,8.657381E1,6.6911476E1,2.8732477E2,2.233332E2],"tree_param":{"num_deleted":"0","num_feature":"54","num_nodes":"91","size_leaf_vector":"1"}},{"base_weights":[-4.0948387E-2,-2.1208453E-1,2.1087779E-3,-2.969667E-1,-8.588038E-2,7.706273E-2,-8.737423E-2,-2.3508123E-1,-4.8530063E-1,5.640278E-2,-1.9899893E-1,4.5375235E-2,4.6073613E-1,-6.465051E-2,-4.2459032E-1,-1.7212144E-1,-4.2307118E-1,-9.918084E-2,-4.992922E-2,-1.9325165E-2,1.4254257E-1,-5.4642987E-2,-1.0731965E-1,1.3054606E-1,-8.556688E-2,5.6340784E-1,3.540136E-2,-1.3302886E-1,6.521194E-2,-8.861564E-2,-3.7693728E-2,-2.1894951E-1,8.863976E-3,-4.206375E-2,-8.101351E-2,4.4191614E-2,3.2134491E-3,-3.3870038E-2,1.4408839E-2,-7.919082E-4,4.2209727E-1,-3.9445832E-1,-3.055806E-2,5.1824737E-2,1.15891986E-1,-2.0839563E-1,4.535197E-3,1.7550011E-1,-5.1347893E-2,-2.810115E-1,-4.6201632E-3,-2.8687736E-2,6.084798E-2,2.9178676E-1,5.712532E-1,-3.2816622E-2,-8.5581414E-2,4.9080618E-2,-2.5938517E-1,-1.5014368E-1,-4.6063906E-1,-6.685868E-2,5.7992764E-2,9.175331E-2,6.65244E-2,-1.7569837E-1,1.5967418E-1,-7.3759425E-3,-3.6648184E-1,-6.329709E-2,4.5754425E-2,2.085486E-1,7.580492E-2,6.0174223E-2,1.1807117E-1,4.2830314E-3,6.300407E-2,-3.984673E-1,-7.2074803E-3,-6.29076E-2,-1.0043179E-1,-1.0599059E-1,-4.1789457E-2,4.625272E-2,-1.3582844E-1,2.667311E-1,-2.5031568E-2,-5.6309965E-2,-1.7447857E-5,3.339479E-3,4.2959884E-2,-8.3836645E-2,-3.471711E-2,-3.8252384E-3,-5.8500048E-2,7.901829E-3,4.853282E-2,-6.3414075E-3,4.0847883E-2,-4.6806462E-2,-7.1820095E-2,-8.5906675E-3,-6.039364E-2,-4.7611974E-2,-6.70762E-3,9.352247E-3,8.3205335E-2],"categories":[],"categories_nodes":[],"categories_segments":[],"categories_sizes":[],"default_left":[0,0,0,0,0,0,0,0,0,0,0,0,0,0,0,0,0,0,0,0,0,0,0,0,0,0,0,0,0,0,0,0,0,0,0,0,0,0,0,0,0,0,0,0,0,0,0,0,0,0,0,0,0,0,0,0,0,0,0,0,0,0,0,0,0,0,0,0,0,0,0,0,0,0,0,0,0,0,0,0,0,0,0,0,0,0,0,0,0,0,0,0,0,0,0,0,0,0,0,0,0,0,0,0,0,0,0],"id":13,"left_children":[1,3,5,7,9,11,13,15,17,19,21,23,25,27,29,31,33,-1,-1,-1,35,-1,37,39,41,43,-1,45,47,-1,-1,49,-1,-1,-1,-1,-1,-1,-1,51,53,55,57,-1,-1,59,61,63,65,67,-1,69,-1,71,73,-1,-1,75,77,79,81,83,-1,85,-1,87,89,-1,91,93,-1,95,-1,-1,-1,97,-1,99,-1,-1,101,-1,-1,-1,103,105,-1,-1,-1,-1,-1,-1,-1,-1,-1,-1,-1,-1,-1,-1,-1,-1,-1,-1,-1,-1,-1],"loss_changes":[3.588799E1,1.0462444E1,2.6112593E1,6.703476E0,6.37029E0,2.5736532E1,1.3571345E1,5.1610947E0,3.6340256E0,2.8230066E0,3.2996464E0,2.1848793E1,3.5937576E0,1.4782787E1,3.072918E0,3.617917E0,1.6890106E0,0E0,0E0,0E0,2.2122335E0,0E0,3.4708183E0,4.544509E1,1.3110645E1,4.75436E0,0E0,1.1304255E1,7.3950243E0,0E0,0E0,3.2268667E0,0E0,0E0,0E0,0E0,0E0,0E0,0E0,9.299965E0,6.9974594E0,3.4840202E0,1.1978969E1,0E0,