{"learner":{"attributes":{"best_iteration":"253","best_score":"-0.30314"},"feature_names":[],"feature_types":[],"gradient_booster":{"model":{"gbtree_model_param":{"num_parallel_tree":"1","num_trees":"304"},"iteration_indptr":[0,1,2,3,4,5,6,7,8,9,10,11,12,13,14,15,16,17,18,19,20,21,22,23,24,25,26,27,28,29,30,31,32,33,34,35,36,37,38,39,40,41,42,43,44,45,46,47,48,49,50,51,52,53,54,55,56,57,58,59,60,61,62,63,64,65,66,67,68,69,70,71,72,73,74,75,76,77,78,79,80,81,82,83,84,85,86,87,88,89,90,91,92,93,94,95,96,97,98,99,100,101,102,103,104,105,106,107,108,109,110,111,112,113,114,115,116,117,118,119,120,121,122,123,124,125,126,127,128,129,130,131,132,133,134,135,136,137,138,139,140,141,142,143,144,145,146,147,148,149,150,151,152,153,154,155,156,157,158,159,160,161,162,163,164,165,166,167,168,169,170,171,172,173,174,175,176,177,178,179,180,181,182,183,184,185,186,187,188,189,190,191,192,193,194,195,196,197,198,199,200,201,202,203,204,205,206,207,208,209,210,211,212,213,214,215,216,217,218,219,220,221,222,223,224,225,226,227,228,229,230,231,232,233,234,235,236,237,238,239,240,241,242,243,244,245,246,247,248,249,250,251,252,253,254,255,256,257,258,259,260,261,262,263,264,265,266,267,268,269,270,271,272,273,274,275,276,277,278,279,280,281,282,283,284,285,286,287,288,289,290,291,292,293,294,295,296,297,298,299,300,301,302,303,304],"tree_info":[0,0,0,0,0,0,0,0,0,0,0,0,0,0,0,0,0,0,0,0,0,0,0,0,0,0,0,0,0,0,0,0,0,0,0,0,0,0,0,0,0,0,0,0,0,0,0,0,0,0,0,0,0,0,0,0,0,0,0,0,0,0,0,0,0,0,0,0,0,0,0,0,0,0,0,0,0,0,0,0,0,0,0,0,0,0,0,0,0,0,0,0,0,0,0,0,0,0,0,0,0,0,0,0,0,0,0,0,0,0,0,0,0,0,0,0,0,0,0,0,0,0,0,0,0,0,0,0,0,0,0,0,0,0,0,0,0,0,0,0,0,0,0,0,0,0,0,0,0,0,0,0,0,0,0,0,0,0,0,0,0,0,0,0,0,0,0,0,0,0,0,0,0,0,0,0,0,0,0,0,0,0,0,0,0,0,0,0,0,0,0,0,0,0,0,0,0,0,0,0,0,0,0,0,0,0,0,0,0,0,0,0,0,0,0,0,0,0,0,0,0,0,0,0,0,0,0,0,0,0,0,0,0,0,0,0,0,0,0,0,0,0,0,0,0,0,0,0,0,0,0,0,0,0,0,0,0,0,0,0,0,0,0,0,0,0,0,0,0,0,0,0,0,0,0,0,0,0,0,0,0,0,0,0,0,0,0,0,0,0,0,0,0,0,0,0,0,0,0,0,0,0,0,0],"trees":[{"base_weights":[-9.4198816E-2,-4.5566148E-1,1.5248946E-2,-5.531439E-1,-1.8546413E-1,2.2623052E-1,-2.2437651E-1,-7.541816E-1,-4.792646E-1,-2.5441158E-1,1.675675E-2,5.5688713E-2,6.6885644E-1,-5.0477517E-1,-1.10781915E-1,-8.578633E-1,-5.559178E-2,-3.8551363E-1,-7.743239E-1,-1.0302671E-1,-4.0956962E-1,-1.5892872E-1,3.0118883E-1,5.0718576E-1,1.0382363E0,-5.9190667E-1,-3.752854E-1,-2.2689198E-1,1.3753226E-1,-1.476576E-1,-1.0905905E-1,-2.0089419E-1,-4.842325E-1,-1.4906117E-1,-9.49965E-2,9.095793E-3,-4.9042072E-2,-8.102411E-2,-4.0725496E-2,-7.716056E-2,-5.504658E-1,-2.3212E-1,4.5860025E-1,2.5981793E-1,7.3703134E-1,1.2174668E0,1.0747013E-1,-3.0260487E-2,-6.8858707E-1,-4.3568072E-1,-2.5682645E-2,-1.1656091E-1,-3.2844526E-1,-2.274399E-1,3.0055425E-1,-6.417874E-2,4.4033895E-3,-7.1345514E-1,-3.4893E-1,-3.1596872E-1,4.795617E-2,-4.7471598E-2,-1.1387531E-1,-4.9244526E-1,4.0378567E-2,3.389438E-2,5.553556E-1,8.273731E-2,1.01832196E-1,1.4648338E-1,5.4631263E-1,2.0971635E-1,1.501177E-1,-6.041725E-1,-1.4635277E-1,-3.6276743E-2,-8.737245E-2,-1.8830514E-1,4.6024058E-2,-4.3041506E-1,-1.15033865E-1,-1.6116658E-2,-6.130478E-2,5.246009E-1,-4.252744E-2,-7.74995E-2,-1.2875572E-1,-8.821665E-2,-1.422979E-1,-4.8993117E-1,-1.594171E-1,-5.727445E-2,1.6690066E-1,-9.479282E-2,-5.2725453E-2,-5.7973308E-3,1.6280962E-2,6.504234E-1,2.31999E-1,3.6457814E-2,-2.0342618E-2,1.1776237E-1,4.989989E-2,-4.9750125E-1,-1.06442586E-1,-3.1833115E-1,2.4197018E-2,-9.339586E-2,-3.473173E-1,-3.9961528E-2,1.5608426E-2,4.2840734E-2,1.1149598E-1,-6.649855E-2,4.089322E-2,-5.799838E-2,9.469591E-3,-4.770345E-2,-9.601041E-2,1.1379822E-2,-5.0196316E-2,-3.5207655E-2,4.3236554E-2,5.5192206E-2,1.1583679E-1,6.941088E-2,-2.4775998E-3,-9.230368E-2,-5.559178E-2,-1.1384813E-2,-5.8267556E-2,-3.3355635E-2,3.5086825E-2,-1.0682158E-2,-7.151889E-2],"categories":[],"categories_nodes":[],"categories_segments":[],"categories_sizes":[],"default_left":[0,0,0,0,0,0,0,0,0,0,0,0,0,0,0,0,0,0,0,0,0,0,0,0,0,0,0,0,0,0,0,0,0,0,0,0,0,0,0,0,0,0,0,0,0,0,0,0,0,0,0,0,0,0,0,0,0,0,0,0,0,0,0,0,0,0,0,0,0,0,0,0,0,0,0,0,0,0,0,0,0,0,0,0,0,0,0,0,0,0,0,0,0,0,0,0,0,0,0,0,0,0,0,0,0,0,0,0,0,0,0,0,0,0,0,0,0,0,0,0,0,0,0,0,0,0,0,0,0,0,0,0,0,0,0],"id":0,"left_children":[1,3,5,7,9,11,13,15,17,19,-1,21,23,25,27,29,-1,31,33,35,37,39,41,43,45,47,49,51,53,-1,-1,55,57,-1,-1,-1,-1,-1,-1,59,61,63,65,67,69,71,-1,-1,73,75,-1,77,79,81,83,-1,-1,85,87,89,91,-1,-1,93,-1,95,97,99,-1,-1,101,-1,-1,103,-1,-1,-1,105,-1,107,109,-1,-1,111,113,-1,-1,-1,115,117,119,-1,121,-1,-1,-1,-1,123,125,-1,-1,-1,-1,127,-1,129,131,-1,133,-1,-1,-1,-1,-1,-1,-1,-1,-1,-1,-1,-1,-1,-1,-1,-1,-1,-1,-1,-1,-1,-1,-1,-1,-1,-1],"loss_changes":[2.0719388E2,3.1958603E1,2.0333289E2,1.2916748E1,6.671666E0,1.6140808E2,5.992562E1,9.167206E0,1.7861588E1,6.1464367E0,0E0,8.145057E1,3.4991364E1,5.9005127E0,3.8708633E1,2.378891E0,0E0,9.018936E0,4.237808E0,4.9561186E0,2.1933002E0,2.6369873E1,6.0632385E1,2.3440872E1,9.514893E0,1.2032166E1,2.649252E0,1.0207642E1,2.5535889E1,0E0,0E0,9.209158E0,9.837227E0,0E0,0E0,0E0,0E0,0E0,0E0,2.044125E1,6.7118835E0,2.1662113E1,2.2870277E1,1.4914456E1,9.284042E0,3.072647E0,0E0,0E0,5.6672363E0,4.6933784E0,0E0,1.3417994E1,1.0300617E1,2.8429656E0,2.279842E1,0E0,0E0,2.9716492E0,1.0119946E1,6.326332E0,2.3040785E1,0E0,0E0,1.9198647E0,0E0,5.696137E-1,1.3792999E1,5.037079E0,0E0,0E0,5.958008E0,0E0,0E0,1.9205322E0,0E0,0E0,0E0,1.0416822E1,0E0,4.9187813E0,5.1730165E0,0E0,0E0,9.160992E0,1.5023332E1,0E0,0E0,0E0,5.650842E0,2.6588993E0,5.189425E0,0E0,1.7257702E1,0E0,0E0,0E0,0E0,1.1759323E1,6.00646E0,0E0,0E0,0E0,0E0,1.3246479E0,0E0,3.944687E0,7.494773E0,0E0,8.070524E0,0E0,0E0,0E0,0E0,0E0,0E0,0E0,0E0,0E0,0E0,0E0,0E0,0E0,0E0,0E0,0E0,0E0,0E0,0E0,0E0,0E0,0E0,0E0,0E0,0E0,0E0],"parents":[2147483647,0,0,1,1,2,2,3,3,4,4,5,5,6,6,7,7,8,8,9,9,11,11,12,12,13,13,14,14,15,15,17,17,18,18,19,19,20,20,21,21,22,22,23,23,24,24,25,25,26,26,27,27,28,28,31,31,32,32,39,39,40,40,41,41,42,42,43,43,44,44,45,45,48,48,49,49,51,51,52,52,53,53,54,54,57,57,58,58,59,59,60,60,63,63,65,65,66,66,67,67,70,70,73,73,77,77,79,79,80,80,83,83,84,84,88,88,89,89,90,90,92,92,97,97,98,98,103,103,105,105,106,106,108,108],"right_children":[2,4,6,8,10,12,14,16,18,20,-1,22,24,26,28,30,-1,32,34,36,38,40,42,44,46,48,50,52,54,-1,-1,56,58,-1,-1,-1,-1,-1,-1,60,62,64,66,68,70,72,-1,-1,74,76,-1,78,80,82,84,-1,-1,86,88,90,92,-1,-1,94,-1,96,98,100,-1,-1,102,-1,-1,104,-1,-1,-1,106,-1,108,110,-1,-1,112,114,-1,-1,-1,116,118,120,-1,122,-1,-1,-1,-1,124,126,-1,-1,-1,-1,128,-1,130,132,-1,134,-1,-1,-1,-1,-1,-1,-1,-1,-1,-1,-1,-1,-1,-1,-1,-1,-1,-1,-1,-1,-1,-1,-1,-1,-1,-1],"split_conditions":[1E0,2E1,4.545E5,2.6955E5,1E1,4.14792E5,1E0,-3.56E2,8.1E5,6.42915E5,1.675675E-2,-6.04E2,5.4E5,3E0,-2.694E3,1.2E1,-5.559178E-2,9.594E4,1E1,4.59E5,5E0,1E0,1E0,-6.72E2,1E0,2E0,2.2E1,6.795E5,-1.086E3,-1.476576E-1,-1.0905905E-1,5.33668E5,-7.107E3,-1.4906117E-1,-9.49965E-2,9.095793E-3,-4.9042072E-2,-8.102411E-2,-4.0725496E-2,-5.608E3,1.305E5,3E0,-7.699E3,1E0,4.5E5,1.575E5,1.0747013E-1,-3.0260487E-2,1.1295E6,3.84277E5,-2.5682645E-2,8.07984E5,1.7E1,1.845E5,7.965E5,-6.417874E-2,4.4033895E-3,4.545E5,3E0,-1.136E3,1E0,-4.7471598E-2,-1.1387531E-1,2.5128E5,4.0378567E-2,-3.4E2,1E0,1.71E5,1.01832196E-1,1.4648338E-1,-4.25E2,2.0971635E-1,1.501177E-1,-3.437E3,-1.4635277E-1,-3.6276743E-2,-8.737245E-2,-6.87E2,4.6024058E-2,9.045E5,-6.98E2,-1.6116658E-2,-6.130478E-2,-5.63E2,1.1E1,-7.74995E-2,-1.2875572E-1,-8.821665E-2,-8.81E2,1.5282E5,-8.81E2,-5.727445E-2,1.9188E5,-9.479282E-2,-5.2725453E-2,-5.7973308E-3,1.6280962E-2,1E0,1.16959E5,3.6457814E-2,-2.0342618E-2,1.1776237E-1,4.989989E-2,-6.036E3,-1.06442586E-1,8.7403E4,-6.41E3,-9.339586E-2,9.135E5,-3.9961528E-2,1.5608426E-2,4.2840734E-2,1.1149598E-1,-6.649855E-2,4.089322E-2,-5.799838E-2,9.469591E-3,-4.770345E-2,-9.601041E-2,1.1379822E-2,-5.0196316E-2,-3.5207655E-2,4.3236554E-2,5.5192206E-2,1.1583679E-1,6.941088E-2,-2.4775998E-3,-9.230368E-2,-5.559178E-2,-1.1384813E-2,-5.8267556E-2,-3.3355635E-2,3.5086825E-2,-1.0682158E-2,-7.151889E-2],"split_indices":[38,21,8,6,29,6,40,23,8,20,0,23,6,29,11,21,0,20,21,8,29,0,40,23,2,12,21,8,23,0,0,6,11,0,0,0,0,0,0,11,5,29,11,14,8,5,0,0,8,20,0,6,21,5,8,0,0,8,29,23,40,0,0,6,0,23,0,5,0,0,23,0,0,11,0,0,0,23,0,6,23,0,0,23,21,0,0,0,23,20,23,0,6,0,0,0,0,29,20,0,0,0,0,11,0,20,11,0,8,0,0,0,0,0,0,0,0,0,0,0,0,0,0,0,0,0,0,0,0,0,0,0,0,0,0],"split_type":[0,0,0,0,0,0,0,0,0,0,0,0,0,0,0,0,0,0,0,0,0,0,0,0,0,0,0,0,0,0,0,0,0,0,0,0,0,0,0,0,0,0,0,0,0,0,0,0,0,0,0,0,0,0,0,0,0,0,0,0,0,0,0,0,0,0,0,0,0,0,0,0,0,0,0,0,0,0,0,0,0,0,0,0,0,0,0,0,0,0,0,0,0,0,0,0,0,0,0,0,0,0,0,0,0,0,0,0,0,0,0,0,0,0,0,0,0,0,0,0,0,0,0,0,0,0,0,0,0,0,0,0,0,0,0],"sum_hessian":[5.2361143E3,1.2162288E3,4.0198857E3,8.930021E2,3.2322665E2,2.1377393E3,1.8821465E3,2.3750475E2,6.554974E2,2.6247418E2,6.0752453E1,1.5439774E3,5.9376184E2,5.416602E2,1.3404862E3,1.8599295E2,5.151179E1,4.991925E2,1.5630486E2,1.3369472E2,1.2877948E2,8.23992E2,7.199854E2,4.1465024E2,1.791116E2,3.2165378E2,2.2000645E2,9.134495E2,4.2703668E2,9.122699E1,9.476596E1,1.749828E2,3.242097E2,5.8786354E1,9.75185E1,7.7660904E1,5.6033817E1,6.4684654E1,6.4094826E1,6.826295E2,1.413625E2,1.6397264E2,5.5601276E2,2.007387E2,2.1391156E2,1.1324729E2,6.586431E1,6.4488045E1,2.5716574E2,1.688879E2,5.111857E1,4.3883325E2,4.7461627E2,1.3172862E2,2.9530804E2,8.768801E1,8.729479E1,1.1875237E2,2.0545734E2,2.3416237E2,4.4846713E2,6.7830414E1,7.35321E1,1.0793883E2,5.6033817E1,1.034168E2,4.5259595E2,1.4195233E2,5.8786354E1,9.2996475E1,1.2091508E2,5.8786354E1,5.4460938E1,2.0113191E2,5.6033817E1,7.3925316E1,9.496258E1,3.757215E2,6.3111774E1,3.2047412E2,1.5414215E2,8.0216835E1,5.151179E1,1.7832516E2,1.1698288E2,5.229823E1,6.645414E1,9.437274E1,1.1108459E2,1.0990492E2,1.2425745E2,9.673206E1,3.5173508E2,5.249484E1,5.544399E1,5.269145E1,5.072535E1,3.4898254E2,1.0361341E2,8.178971E1,6.0162624E1,5.5837208E1,6.507787E1,1.0282697E2,9.830494E1,2.327861E2,1.4293538E2,9.476596E1,2.2570815E2,9.103038E1,6.3111774E1,8.631174E1,9.201343E1,5.131518E1,6.56677E1,5.033213E1,6.0752453E1,5.269145E1,5.7213478E1,5.328128E1,7.0976166E1,8.139649E1,2.703386E2,1.06365944E2,2.426166E2,5.328128E1,5.033213E1,5.131518E1,5.151179E1,5.269145E1,1.8009465E2,6.56677E1,7.7267685E1,7.254905E1,1.531591E2],"tree_param":{"num_deleted":"0","num_feature":"54","num_nodes":"135","size_leaf_vector":"1"}},{"base_weights":[-8.7540805E-2,-2.8262308E-1,1.6718353E-1,-3.9168328E-1,1.6161089E-1,6.141472E-2,6.541982E-1,-5.4564446E-1,-2.7807343E-1,-1.4879559E-1,3.39727E-1,-6.805633E-2,3.0726925E-1,1.0478672E-2,7.377128E-1,-5.987054E-1,-2.8016534E-1,-5.4549295E-1,-1.8131569E-1,-2.6876524E-1,3.2756418E-2,-1.3918269E-3,4.5347837E-1,-4.513156E-1,-1.3163068E-2,3.711197E-1,-2.7173858E-2,8.920604E-1,4.4970623E-1,-8.0051315E-1,-5.459225E-1,-1.8975897E-1,-7.276081E-2,-3.2458392E-1,-6.400765E-1,-2.4322231E-1,9.1685876E-2,-2.3195131E-3,-6.47798E-2,3.5003376E-1,1.14685684E-1,-2.7440298E-2,-1.00729264E-1,-1.7057127E-1,1.19016945E-1,-1.8207258E-2,4.241996E-1,7.106996E-1,1.8850353E-1,2.6062971E-2,1.06418625E-1,-6.7284375E-1,-1.626922E-1,-5.1165164E-1,-1.2771475E-1,-4.9414504E-2,-6.2804613E-3,-6.3546754E-2,-3.4645487E-2,-5.499274E-1,-1.3623253E-1,-1.9207616E-1,-9.41966E-2,2.4203612E-1,-2.7801653E-2,5.659116E-1,1.3054526E-1,-7.883316E-2,-1.263242E-1,2.4760847E-1,-1.1046413E-1,2.751026E-1,5.771149E-1,5.8920346E-2,8.654379E-1,-1.1439795E-1,-8.283484E-2,-3.46827E-1,-5.773418E-1,-6.386897E-1,-5.4704946E-2,-8.625702E-2,-3.8789263E-1,-2.6032494E-3,6.6992566E-2,1.01967245E-1,6.797189E-2,5.1399183E-2,-9.971626E-3,7.666276E-2,-2.1053097E-1,-8.9041266E-4,3.1353128E-1,-2.510802E-1,1.9781234E-2,3.7916723E-1,-2.1133872E-3,7.152741E-1,5.067908E-2,1.4884527E-1,1.0902392E-1,-8.39427E-2,-3.0484842E-2,-9.582699E-2,-5.865578E-2,-7.662796E-2,-1.139882E-1,-5.338695E-3,-6.57538E-2,-7.016411E-2,-1.244805E-2,3.4954872E-2,-2.0797644E-2,-3.8912266E-2,4.581485E-3,5.8474645E-2,9.082963E-3,-5.461147E-2,-1.0628759E-2,2.9984431E-2,1.2067934E-1,1.365003E-1,6.741701E-2],"categories":[],"categories_nodes":[],"categories_segments":[],"categories_sizes":[],"default_left":[0,0,0,0,0,0,0,0,0,0,0,0,0,0,0,0,0,0,0,0,0,0,0,0,0,0,0,0,0,0,0,0,0,0,0,0,0,0,0,0,0,0,0,0,0,0,0,0,0,0,0,0,0,0,0,0,0,0,0,0,0,0,0,0,0,0,0,0,0,0,0,0,0,0,0,0,0,0,0,0,0,0,0,0,0,0,0,0,0,0,0,0,0,0,0,0,0,0,0,0,0,0,0,0,0,0,0,0,0,0,0,0,0,0,0,0,0,0,0,0,0,0,0],"id":1,"left_children":[1,3,5,7,9,11,13,15,17,19,21,23,25,-1,27,29,31,33,35,37,-1,-1,39,41,43,45,-1,47,49,51,53,55,-1,57,59,61,63,-1,-1,65,-1,-1,-1,67,69,-1,71,73,-1,-1,-1,75,-1,77,-1,-1,-1,-1,-1,79,-1,81,-1,83,-1,85,87,-1,89,91,93,95,97,-1,99,-1,-1,101,103,105,-1,107,109,-1,-1,-1,-1,-1,-1,111,113,-1,115,117,-1,119,-1,121,-1,-1,-1,-1,-1,-1,-1,-1,-1,-1,-1,-1,-1,-1,-1,-1,-1,-1,-1,-1,-1,-1,-1,-1,-1],"loss_changes":[2.6045618E2,1.4385858E2,1.1706587E2,4.153543E1,3.243496E1,5.950941E1,1.9739029E1,1.4072327E1,3.5437363E1,9.496542E0,1.4791641E1,2.5766422E1,2.0178223E1,0E0,1.5367249E1,8.527954E0,3.0621805E0,7.406044E0,1.709177E1,6.6835823E0,0E0,0E0,8.773273E0,8.945841E0,2.2336502E1,1.4969093E1,0E0,1.4312271E1,8.893017E0,5.52137E0,6.582245E0,2.4604964E0,0E0,9.3404484E-1,5.643341E0,1.6086243E1,7.851184E0,0E0,0E0,1.0003384E1,0E0,0E0,0E0,7.629674E0,1.7248869E1,0E0,1.1590652E1,7.326874E0,0E0,0E0,0E0,8.953972E-1,0E0,6.3522644E0,0E0,0E0,0E0,0E0,0E0,2.9355812E0,0E0,1.5059385E1,0E0,6.4776216E0,0E0,1.0648956E0,4.484332E0,0E0,7.485548E0,6.258423E0,7.19854E0,7.9154205E0,8.137932E0,0E0,1.1075974E0,0E0,0E0,5.232403E0,4.6913147E0,1.6102905E0,0E0,8.442756E0,6.1769066E0,0E0,0E0,0E0,0E0,0E0,0E0,4.370866E0,3.6509132E0,0E0,5.7110424E0,2.6909761E0,0E0,1.4580982E1,0E0,7.863312E0,0E0,0E0,0E0,0E0,0E0,0E0,0E0,0E0,0E0,0E0,0E0,0E0,0E0,0E0,0E0,0E0,0E0,0E0,0E0,0E0,0E0,0E0,0E0,0E0,0E0],"parents":[2147483647,0,0,1,1,2,2,3,3,4,4,5,5,6,6,7,7,8,8,9,9,10,10,11,11,12,12,14,14,15,15,16,16,17,17,18,18,19,19,22,22,23,23,24,24,25,25,27,27,28,28,29,29,30,30,31,31,33,33,34,34,35,35,36,36,39,39,43,43,44,44,46,46,47,47,51,51,53,53,59,59,61,61,63,63,65,65,66,66,68,68,69,69,70,70,71,71,72,72,74,74,77,77,78,78,79,79,81,81,82,82,89,89,90,90,92,92,93,93,95,95,97,97],"right_children":[2,4,6,8,10,12,14,16,18,20,22,24,26,-1,28,30,32,34,36,38,-1,-1,40,42,44,46,-1,48,50,52,54,56,-1,58,60,62,64,-1,-1,66,-1,-1,-1,68,70,-1,72,74,-1,-1,-1,76,-1,78,-1,-1,-1,-1,-1,80,-1,82,-1,84,-1,86,88,-1,90,92,94,96,98,-1,100,-1,-1,102,104,106,-1,108,110,-1,-1,-1,-1,-1,-1,112,114,-1,116,118,-1,120,-1,122,-1,-1,-1,-1,-1,-1,-1,-1,-1,-1,-1,-1,-1,-1,-1,-1,-1,-1,-1,-1,-1,-1,-1,-1,-1],"split_conditions":[-1.45E4,2E0,3E0,-1.9485E4,-1.9928E4,1E0,1.2006E4,3E0,1E0,5E0,1E0,2E0,1E0,1.0478672E-2,1E0,2.0357144E0,1E0,1E0,-1.541E3,8E0,3.2756418E-2,-1.3918269E-3,5E0,1E0,-1.1823E4,2E0,-2.7173858E-2,1E0,-1.1876E4,1E0,4.6728E4,4.0373335E0,-7.276081E-2,-5.873E3,3.9955E4,1E0,1.845E5,-2.3195131E-3,-6.47798E-2,8E0,1.14685684E-1,-2.7440298E-2,-1.00729264E-1,1.39008E0,1E0,-1.8207258E-2,2.4129E4,-1.2415E4,1.8850353E-1,2.6062971E-2,1.06418625E-1,4E0,-1.626922E-1,2E0,-1.2771475E-1,-4.9414504E-2,-6.2804613E-3,-6.3546754E-2,-3.4645487E-2,4E0,-1.3623253E-1,1E0,-9.41966E-2,2.2018E4,-2.7801653E-2,1.575E5,-1.7141E4,-7.883316E-2,1E0,1.75E0,2.9299E4,2.8530667E0,3.622E4,5.8920346E-2,1.305E5,-1.1439795E-1,-8.283484E-2,1.035E5,1E0,2E0,-5.4704946E-2,4.162E4,1E0,-2.6032494E-3,6.6992566E-2,1.01967245E-1,6.797189E-2,5.1399183E-2,-9.971626E-3,3E0,-1.2308E4,-8.9041266E-4,3E0,2E0,1.9781234E-2,2.1066666E0,-2.1133872E-3,3E0,5.067908E-2,1.4884527E-1,1.0902392E-1,-8.39427E-2,-3.0484842E-2,-9.582699E-2,-5.865578E-2,-7.662796E-2,-1.139882E-1,-5.338695E-3,-6.57538E-2,-7.016411E-2,-1.244805E-2,3.4954872E-2,-2.0797644E-2,-3.8912266E-2,4.581485E-3,5.8474645E-2,9.082963E-3,-5.461147E-2,-1.0628759E-2,2.9984431E-2,1.2067934E-1,1.365003E-1,6.741701E-2],"split_indices":[9,25,17,9,9,25,7,17,28,25,28,17,27,0,2,53,38,32,11,22,0,0,25,32,9,17,0,25,9,30,7,53,0,11,7,48,5,0,0,22,0,0,0,53,2,0,7,9,0,0,0,22,0,22,0,0,0,0,0,29,0,2,0,7,0,5,9,0,32,53,7,53,7,0,5,0,0,5,25,22,0,7,25,0,0,0,0,0,0,22,9,0,29,29,0,53,0,12,0,0,0,0,0,0,0,0,0,0,0,0,0,0,0,0,0,0,0,0,0,0,0,0,0],"split_type":[0,0,0,0,0,0,0,0,0,0,0,0,0,0,0,0,0,0,0,0,0,0,0,0,0,0,0,0,0,0,0,0,0,0,0,0,0,0,0,0,0,0,0,0,0,0,0,0,0,0,0,0,0,0,0,0,0,0,0,0,0,0,0,0,0,0,0,0,0,0,0,0,0,0,0,0,0,0,0,0,0,0,0,0,0,0,0,0,0,0,0,0,0,0,0,0,0,0,0,0,0,0,0,0,0,0,0,0,0,0,0,0,0,0,0,0,0,0,0,0,0,0,0],"sum_hessian":[5.239438E3,2.9670183E3,2.2724197E3,2.3822822E3,5.84736E2,1.8678829E3,4.045367E2,1.00989526E3,1.3723871E3,2.1325574E2,3.7148032E2,1.2240181E3,6.438649E2,5.081655E1,3.5372018E2,8.406254E2,1.6926984E2,3.6339532E2,1.0089917E3,1.6093866E2,5.2317066E1,9.154014E1,2.7994016E2,1.5244444E2,1.0715736E3,5.6963837E2,7.4226555E1,2.2893347E2,1.247867E2,1.7134514E2,6.692803E2,1.1878644E2,5.0483395E1,1.1027324E2,2.531221E2,8.22572E2,1.8641971E2,6.3466747E1,9.747192E1,2.116781E2,6.826206E1,6.953304E1,8.29114E1,4.8897787E2,5.8259576E2,5.529526E1,5.143431E2,1.548585E2,7.407497E1,6.1315544E1,6.3471153E1,1.2054362E2,5.080153E1,6.0418024E2,6.510004E1,6.0459305E1,5.8327133E1,5.1864975E1,5.8408264E1,1.9171738E2,6.1404724E1,7.273794E2,9.51926E1,1.209201E2,6.549961E1,1.0592112E2,1.0575699E2,5.298829E1,4.3598956E2,3.7332254E2,2.0927322E2,2.6184006E2,2.5250302E2,5.1858307E1,1.030002E2,6.604341E1,5.4500206E1,1.739638E2,4.3021646E2,1.2795327E2,6.37641E1,4.731369E2,2.542425E2,5.3721287E1,6.7198814E1,5.0200596E1,5.572052E1,5.0571835E1,5.5185154E1,1.2786079E2,3.0812878E2,7.722371E1,2.9609885E2,1.3240804E2,7.686519E1,1.923224E2,6.951766E1,1.5880835E2,9.369467E1,5.056342E1,5.243678E1,6.8926056E1,1.0503775E2,3.2161264E2,1.086038E2,6.4817856E1,6.3135414E1,4.145817E2,5.8555218E1,2.0104575E2,5.319675E1,7.402122E1,5.3839565E1,2.5611804E2,5.2010735E1,2.2707175E2,6.902709E1,8.075545E1,5.1652588E1,1.3633374E2,5.598867E1,9.026373E1,6.854462E1],"tree_param":{"num_deleted":"0","num_feature":"54","num_nodes":"123","size_leaf_vector":"1"}},{"base_weights":[-7.672381E-2,-2.7975124E-1,1.7822598E-1,-3.954404E-1,-6.0889468E-2,-1.8052788E-1,3.003012E-1,-4.520038E-1,-5.6045663E-2,-2.091657E-1,2.8720734E-1,-1.0633579E-1,-1.0372199E-1,1.7873466E-2,4.423804E-1,-6.6555315E-1,-3.715707E-1,-1.970542E-1,5.2128445E-2,-2.6932064E-1,2.568345E-2,-3.370633E-2,3.9686128E-1,-4.4504994E-1,-9.770864E-3,-8.105106E-2,1.01115696E-1,5.1500434E-1,5.223804E-2,-7.589564E-1,-4.59612E-1,-4.560872E-1,-1.6968632E-1,-6.327509E-2,-7.47514E-2,-4.8573017E-2,-3.700422E-1,5.3467196E-1,-7.517893E-3,-7.5962245E-2,-5.4133043E-2,-1.4822641E-1,2.2446059E-1,-2.4999508E-1,1.4379476E-1,2.1681336E-1,6.0385674E-1,-5.5505827E-2,4.9021598E-2,-8.219906E-1,-8.859718E-2,-4.5559652E-2,-9.81445E-2,-6.11123E-1,-4.001793E-1,-7.9579756E-2,-6.1043892E-2,5.112736E-3,-3.179161E-2,-2.3717712E-1,4.817438E-2,-8.927887E-2,-2.978679E-1,7.1438926E-1,2.5734045E-2,-3.144487E-1,2.4360307E-2,6.4447634E-2,-1.1862728E-2,-3.560746E-1,-1.227446E-1,9.150116E-2,-2.6227085E-2,4.4686723E-1,-1.9699981E-2,3.204486E-2,6.589568E-1,9.148578E-3,-3.276472E-2,-1.03256136E-1,-8.9490867E-1,-7.1178097E-1,-4.375748E-2,-4.4005603E-1,-8.60138E-3,8.4046684E-2,-2.671733E-1,-6.561126E-2,2.5174136E-3,-4.8902002E-1,-2.037759E-1,1.3734336E-1,8.259204E-2,-2.3105979E-1,-7.384418E-2,-7.300895E-2,-2.8338343E-1,4.0958496E-3,-4.438767E-2,-3.3904273E-2,2.3379559E-2,9.813079E-2,3.016035E-2,2.6389064E-2,-2.7827755E-2,1.815495E-1,6.0621E-1,-1.1775209E-1,-1.4364815E-1,-8.24507E-2,-1.231638E-1,-5.561957E-2,-9.52554E-2,-2.3844182E-2,4.0297747E-2,-3.697505E-3,-7.711292E-2,-4.8930794E-2,-9.69675E-2,-5.3488206E-2,-1.6211847E-2,-5.4773558E-2,-1.0082923E-2,-2.107221E-2,-6.2601514E-2,7.973811E-2,1.2694865E-1],"categories":[],"categories_nodes":[],"categories_segments":[],"categories_sizes":[],"default_left":[0,0,0,0,0,0,0,0,0,0,0,0,0,0,0,0,0,0,0,0,0,0,0,0,0,0,0,0,0,0,0,0,0,0,0,0,0,0,0,0,0,0,0,0,0,0,0,0,0,0,0,0,0,0,0,0,0,0,0,0,0,0,0,0,0,0,0,0,0,0,0,0,0,0,0,0,0,0,0,0,0,0,0,0,0,0,0,0,0,0,0,0,0,0,0,0,0,0,0,0,0,0,0,0,0,0,0,0,0,0,0,0,0,0,0,0,0,0,0,0,0,0,0,0,0,0,0],"id":2,"left_children":[1,3,5,7,9,11,13,15,17,19,21,23,-1,25,27,29,31,33,-1,35,-1,-1,37,39,41,43,-1,45,47,49,51,53,55,-1,57,59,61,63,-1,-1,-1,65,67,69,71,73,75,77,-1,79,-1,-1,-1,81,83,-1,85,-1,-1,87,-1,-1,89,91,-1,93,-1,-1,-1,95,97,-1,99,101,103,-1,105,-1,-1,-1,107,109,-1,111,-1,113,115,-1,-1,117,119,-1,-1,121,-1,-1,123,-1,-1,-1,-1,-1,-1,-1,-1,-1,125,-1,-1,-1,-1,-1,-1,-1,-1,-1,-1,-1,-1,-1,-1,-1,-1,-1,-1,-1,-1],"loss_changes":[2.6974896E2,7.34276E1,1.012401E2,3.6403534E1,5.1898594E1,2.2186844E1,6.91806E1,2.7688202E1,1.5559474E1,1.6175886E1,1.6953821E1,1.6805529E1,0E0,3.7585308E1,3.2474792E1,8.186203E0,2.0119095E1,5.53186E0,0E0,1.3523441E1,0E0,0E0,1.5290798E1,4.0597534E-1,1.3036217E1,1.9154036E1,0E0,2.5488953E1,5.376689E0,2.7368164E0,4.079836E0,6.982422E0,1.3723693E1,0E0,1.9823002E0,1.3463156E1,6.616314E0,1.2242916E1,0E0,0E0,0E0,1.3093375E1,9.33629E0,3.8402958E0,1.7181608E1,1.217206E1,1.58654175E1,2.4986167E0,0E0,1.5120239E0,0E0,0E0,0E0,6.836128E0,8.392052E0,0E0,8.122101E0,0E0,0E0,6.5010204E0,0E0,0E0,5.6303654E0,3.6628418E0,0E0,2.3315544E0,0E0,0E0,0E0,1.3473759E0,3.446858E0,0E0,5.843405E0,5.645769E0,3.639247E0,0E0,1.8223846E1,0E0,0E0,0E0,1.9960022E-1,2.48835E0,0E0,7.2105865E0,0E0,7.207188E0,6.7011805E0,0E0,0E0,2.464466E0,3.1086016E0,0E0,0E0,2.483089E0,0E0,0E0,1.9108095E0,0E0,0E0,0E0,0E0,0E0,0E0,0E0,0E0,0E0,1.0245865E1,0E0,0E0,0E0,0E0,0E0,0E0,0E0,0E0,0E0,0E0,0E0,0E0,0E0,0E0,0E0,0E0,0E0,0E0,0E0,0E0],"parents":[2147483647,0,0,1,1,2,2,3,3,4,4,5,5,6,6,7,7,8,8,9,9,10,10,11,11,13,13,14,14,15,15,16,16,17,17,19,19,22,22,23,23,24,24,25,25,27,27,28,28,29,29,30,30,31,31,32,32,34,34,35,35,36,36,37,37,41,41,42,42,43,43,44,44,45,45,46,46,47,47,49,49,53,53,54,54,56,56,59,59,62,62,63,63,65,65,69,69,70,70,72,72,73,73,74,74,76,76,80,80,81,81,83,83,85,85,86,86,89,89,90,90,93,93,96,96,106,106],"right_children":[2,4,6,8,10,12,14,16,18,20,22,24,-1,26,28,30,32,34,-1,36,-1,-1,38,40,42,44,-1,46,48,50,52,54,56,-1,58,60,62,64,-1,-1,-1,66,68,70,72,74,76,78,-1,80,-1,-1,-1,82,84,-1,86,-1,-1,88,-1,-1,90,92,-1,94,-1,-1,-1,96,98,-1,100,102,104,-1,106,-1,-1,-1,108,110,-1,112,-1,114,116,-1,-1,118,120,-1,-1,122,-1,-1,124,-1,-1,-1,-1,-1,-1,-1,-1,-1,126,-1,-1,-1,-1,-1,-1,-1,-1,-1,-1,-1,-1,-1,-1,-1,-1,-1,-1,-1,-1],"split_conditions":[-1.64E3,1E0,1E0,-1.2258E4,1E0,1E0,-1.5485E4,-3.946E3,-1.963E3,5E0,-4.39E3,1E0,-1.0372199E-1,3E0,6.795E5,1E0,1E0,1E0,5.2128445E-2,3E0,2.568345E-2,-3.370633E-2,6.795E5,-1.3165E4,1E0,1E0,1.01115696E-1,2.07E5,-4.58E2,1.80614E5,2E0,2.475E5,1E0,-6.327509E-2,3E0,-1.5485E4,1E0,5E0,-7.517893E-3,-7.5962245E-2,-5.4133043E-2,1E0,4.68E5,-1.7664E4,1E0,1E0,1E0,9.045E5,4.9021598E-2,5.4652E4,-8.859718E-2,-4.5559652E-2,-9.81445E-2,1.57635E5,1E0,-7.9579756E-2,1.18948E5,5.112736E-3,-3.179161E-2,2E0,4.817438E-2,-8.927887E-2,1E0,-2.395E3,2.5734045E-2,1.50759E5,2.4360307E-2,6.4447634E-2,-1.1862728E-2,7.9789E4,3E0,9.150116E-2,-7.77E2,8.548E4,-8.31E2,3.204486E-2,3.2386E4,9.148578E-3,-3.276472E-2,-1.03256136E-1,4.545E5,2E0,-4.375748E-2,1.935E5,-8.60138E-3,3.645E5,-1.963E3,-6.561126E-2,2.5174136E-3,4.59E5,1.42599E5,1.3734336E-1,8.259204E-2,-1.1367E4,-7.384418E-2,-7.300895E-2,1.6875E5,4.0958496E-3,-4.438767E-2,-3.3904273E-2,2.3379559E-2,9.813079E-2,3.016035E-2,2.6389064E-2,-2.7827755E-2,1.815495E-1,2E0,-1.1775209E-1,-1.4364815E-1,-8.24507E-2,-1.231638E-1,-5.561957E-2,-9.52554E-2,-2.3844182E-2,4.0297747E-2,-3.697505E-3,-7.711292E-2,-4.8930794E-2,-9.69675E-2,-5.3488206E-2,-1.6211847E-2,-5.4773558E-2,-1.0082923E-2,-2.107221E-2,-6.2601514E-2,7.973811E-2,1.2694865E-1],"split_indices":[10,25,40,9,1,0,9,10,10,25,10,28,0,25,8,1,1,40,0,24,0,0,8,9,25,1,0,8,10,19,29,8,40,0,24,9,28,24,0,0,0,1,8,9,32,32,28,8,0,19,0,0,0,19,35,0,19,0,0,25,0,0,46,10,0,19,0,0,0,19,24,0,10,19,10,0,19,0,0,0,8,24,0,5,0,8,10,0,0,8,19,0,0,9,0,0,19,0,0,0,0,0,0,0,0,0,25,0,0,0,0,0,0,0,0,0,0,0,0,0,0,0,0,0,0,0,0],"split_type":[0,0,0,0,0,0,0,0,0,0,0,0,0,0,0,0,0,0,0,0,0,0,0,0,0,0,0,0,0,0,0,0,0,0,0,0,0,0,0,0,0,0,0,0,0,0,0,0,0,0,0,0,0,0,0,0,0,0,0,0,0,0,0,0,0,0,0,0,0,0,0,0,0,0,0,0,0,0,0,0,0,0,0,0,0,0,0,0,0,0,0,0,0,0,0,0,0,0,0,0,0,0,0,0,0,0,0,0,0,0,0,0,0,0,0,0,0,0,0,0,0,0,0,0,0,0,0],"sum_hessian":[5.2093887E3,2.8999426E3,2.3094458E3,1.8966022E3,1.0033406E3,5.8621173E2,1.723234E3,1.6253844E3,2.7121774E2,7.039032E2,2.9943738E2,5.129392E2,7.327252E1,5.7712994E2,1.1461041E3,4.4271204E2,1.1826724E3,2.0136996E2,6.9847786E1,6.080394E2,9.5863785E1,5.2639973E1,2.467974E2,1.1299292E2,3.9994632E2,5.0228827E2,7.484169E1,9.659711E2,1.8013297E2,3.0272702E2,1.3998505E2,8.3277985E2,3.4989252E2,7.009452E1,1.3127545E2,1.9097313E2,4.1706628E2,1.8848767E2,5.830972E1,6.2445515E1,5.054741E1,2.5159453E2,1.4835178E2,2.867323E2,2.1555595E2,2.2254488E2,7.434263E2,1.2994115E2,5.019181E1,2.1741699E2,8.531001E1,7.9161644E1,6.0823395E1,2.1808539E2,6.1469446E2,8.006872E1,2.6982382E2,7.362196E1,5.7653484E1,1.2670085E2,6.427227E1,9.9482056E1,3.1758423E2,1.25436935E2,6.3050743E1,1.6388481E2,8.770971E1,8.826862E1,6.008316E1,1.5539365E2,1.3133865E2,5.691175E1,1.586442E2,1.12362114E2,1.1018276E2,9.258777E1,6.508385E2,7.613101E1,5.3810135E1,8.0446205E1,1.369708E2,1.6489262E2,5.3192772E1,5.503925E2,6.430192E1,1.5870596E2,1.1111786E2,7.044057E1,5.626028E1,1.0337533E2,2.1420891E2,5.422246E1,7.121447E1,1.1313631E2,5.0748505E1,5.351411E1,1.0187954E2,7.0818504E1,6.0520153E1,7.552841E1,8.311578E1,6.0048164E1,5.231395E1,5.0519985E1,5.966278E1,5.4909767E1,5.959287E2,5.4692173E1,8.227862E1,6.88362E1,9.605642E1,4.0827182E2,1.421207E2,6.8575E1,9.013096E1,5.661207E1,5.450579E1,5.232876E1,5.104657E1,8.143865E1,1.3277025E2,6.1539646E1,5.1596664E1,5.028578E1,5.1593758E1,4.5708868E2,1.3884003E2],"tree_param":{"num_deleted":"0","num_feature":"54","num_nodes":"127","size_leaf_vector":"1"}},{"base_weights":[-9.17914E-2,-2.732307E-1,1.292978E-1,-3.7837246E-1,-3.7570518E-2,-2.2390853E-1,2.4515407E-1,-6.3429695E-1,-2.953415E-1,-2.4433035E-1,1.2748767E-1,-2.837097E-1,1.7273912E-2,9.1277026E-2,4.3332177E-1,-5.702223E-1,-1.3856658E-1,-3.9769143E-1,-9.1477185E-2,-3.8355973E-1,-7.4014395E-2,-1.1208745E-1,2.1073093E-1,-4.3207556E-1,-6.9435224E-2,-1.8084636E-1,2.150146E-1,7.242982E-1,1.5320462E-1,-7.7887046E-1,-4.8192033E-1,-5.366557E-1,-2.69509E-1,2.400388E-1,-2.078421E-1,-4.8384255E-1,-8.578905E-3,3.820547E-2,-2.6341066E-1,-4.8930395E-2,2.7901828E-2,1.3911884E-1,9.171352E-2,-5.1464456E-1,-8.662571E-3,4.216659E-2,-2.7415696E-1,3.83769E-2,-2.9882374E-1,5.3286403E-2,4.0229094E-1,8.2311934E-1,6.130944E-2,-4.797399E-2,3.0413032E-1,-1.00320034E-1,-1.3527292E-1,-5.96496E-1,-3.6798947E-2,-6.6548E-1,-4.0181795E-1,-3.6180708E-1,8.907684E-2,6.078517E-2,-9.48354E-5,-4.781544E-1,-9.2078425E-2,-9.1765314E-2,-4.2053527E-1,-6.630275E-2,-1.0142028E-2,5.8791075E-2,8.082828E-2,-6.534859E-1,-3.620356E-2,-6.966673E-2,-9.31596E-3,-4.5904616E-1,-1.4974019E-1,-3.7298728E-2,5.2151315E-2,1.876916E-2,5.1348007E-1,5.526525E-1,1.078258E0,1.3663702E-1,-5.1878866E-2,4.6442655E-1,2.273671E-3,-7.042913E-1,-4.72201E-2,-5.095257E-1,-8.214224E-1,-8.085657E-2,-3.033531E-1,-5.0033027E-1,-2.2147536E-1,-4.1406475E-2,7.2412625E-2,-9.970864E-2,-4.014037E-2,2.7454294E-2,-2.547655E-1,-3.763631E-2,-9.029782E-2,-2.719665E-2,4.4869993E-2,-1.2707618E-1,-6.948101E-2,-9.4515875E-2,-3.889367E-2,-5.170365E-2,1.6828483E-2,-3.6242273E-2,4.685297E-2,4.0733702E-2,6.863578E-1,3.1578053E-2,1.165174E-1,1.3311681E-1,2.036652E-1,-2.1474183E-2,6.0236756E-2,3.656856E-2,1.2196842E-1,-8.6127356E-2,-1.3070384E-1,-9.8222114E-2,-5.514515E-2,-1.3983381E-1,-1.051549E-1,-2.6161792E-2,-6.897137E-2,-8.811939E-2,-4.550214E-2,-5.9968736E-2,3.1386513E-2,-7.726316E-2,-8.845008E-3,2.152821E-2,-2.2833562E-2,-3.53187E-2,2.3205284E-2,6.887561E-2,1.4818512E-1],"categories":[],"categories_nodes":[],"categories_segments":[],"categories_sizes":[],"default_left":[0,0,0,0,0,0,0,0,0,0,0,0,0,0,0,0,0,0,0,0,0,0,0,0,0,0,0,0,0,0,0,0,0,0,0,0,0,0,0,0,0,0,0,0,0,0,0,0,0,0,0,0,0,0,0,0,0,0,0,0,0,0,0,0,0,0,0,0,0,0,0,0,0,0,0,0,0,0,0,0,0,0,0,0,0,0,0,0,0,0,0,0,0,0,0,0,0,0,0,0,0,0,0,0,0,0,0,0,0,0,0,0,0,0,0,0,0,0,0,0,0,0,0,0,0,0,0,0,0,0,0,0,0,0,0,0,0,0,0,0,0,0,0,0,0],"id":3,"left_children":[1,3,5,7,9,11,13,15,17,19,21,23,-1,25,27,29,-1,31,33,35,37,39,41,43,45,47,49,51,53,55,57,59,61,63,65,67,-1,-1,69,-1,-1,71,-1,73,-1,-1,75,-1,77,79,81,83,-1,85,87,-1,-1,89,-1,91,93,95,97,-1,-1,99,101,-1,103,-1,-1,105,-1,107,-1,-1,-1,109,111,113,-1,-1,115,117,119,121,-1,123,-1,125,-1,127,129,-1,131,133,135,-1,-1,-1,-1,-1,137,-1,-1,139,-1,-1,-1,-1,-1,-1,-1,-1,141,-1,143,-1,-1,-1,-1,-1,-1,-1,-1,-1,-1,-1,-1,-1,-1,-1,-1,-1,-1,-1,-1,-1,-1,-1,-1,-1,-1,-1,-1],"loss_changes":[2.0615718E2,6.9922806E1,9.4860756E1,4.128485E1,2.9787203E1,1.164632E1,5.048736E1,8.324722E0,3.074968E1,9.158098E0,9.706104E0,1.5457832E1,0E0,3.240616E1,6.385431E1,6.871544E0,0E0,1.7347443E1,1.912453E1,6.940838E0,1.0992598E1,8.093243E0,1.0263868E1,8.86142E0,1.4466418E1,1.5584469E1,2.0006243E1,1.1659134E1,1.2193763E1,9.5778656E-1,7.4167023E0,7.899658E0,1.7005009E1,5.1262455E0,1.1425494E1,1.060669E0,0E0,0E0,3.8809052E0,0E0,0E0,9.834741E0,0E0,8.780071E0,0E0,0E0,5.099284E0,0E0,5.603056E0,9.505909E0,9.374138E0,1.9550003E1,0E0,9.549963E0,1.0615324E1,0E0,0E0,5.4648514E0,0E0,5.392067E0,2.9746056E0,7.8212204E0,1.5337845E1,0E0,0E0,4.130005E0,1.1587698E1,0E0,3.2980843E0,0E0,0E0,5.318966E0,0E0,5.3427124E0,0E0,0E0,0E0,3.730774E0,6.3952236E0,4.7071986E0,0E0,0E0,8.94178E0,1.0860725E1,6.7512207E0,8.019063E0,0E0,1.1147074E1,0E0,2.4262085E0,0E0,2.2761955E0,9.183197E-1,0E0,2.6938505E0,3.3326035E0,1.5789526E1,0E0,0E0,0E0,0E0,0E0,8.250256E0,0E0,0E0,4.0811453E0,0E0,0E0,0E0,0E0,0E0,0E0,0E0,0E0,5.9517164E0,0E0,8.221989E0,0E0,0E0,0E0,0E0,0E0,0E0,0E0,0E0,0E0,0E0,0E0,0E0,0E0,0E0,0E0,0E0,0E0,0E0,0E0,0E0,0E0,0E0,0E0,0E0,0E0,0E0,0E0,0E0],"parents":[2147483647,0,0,1,1,2,2,3,3,4,4,5,5,6,6,7,7,8,8,9,9,10,10,11,11,13,13,14,14,15,15,17,17,18,18,19,19,20,20,21,21,22,22,23,23,24,24,25,25,26,26,27,27,28,28,29,29,30,30,31,31,32,32,33,33,34,34,35,35,38,38,41,41,43,43,46,46,48,48,49,49,50,50,51,51,53,53,54,54,57,57,59,59,60,60,61,61,62,62,65,65,66,66,68,68,71,71,73,73,77,77,78,78,79,79,82,82,83,83,84,84,85,85,87,87,89,89,91,91,92,92,94,94,95,95,96,96,102,102,105,105,114,114,116,116],"right_children":[2,4,6,8,10,12,14,16,18,20,22,24,-1,26,28,30,-1,32,34,36,38,40,42,44,46,48,50,52,54,56,58,60,62,64,66,68,-1,-1,70,-1,-1,72,-1,74,-1,-1,76,-1,78,80,82,84,-1,86,88,-1,-1,90,-1,92,94,96,98,-1,-1,100,102,-1,104,-1,-1,106,-1,108,-1,-1,-1,110,112,114,-1,-1,116,118,120,122,-1,124,-1,126,-1,128,130,-1,132,134,136,-1,-1,-1,-1,-1,138,-1,-1,140,-1,-1,-1,-1,-1,-1,-1,-1,142,-1,144,-1,-1,-1,-1,-1,-1,-1,-1,-1,-1,-1,-1,-1,-1,-1,-1,-1,-1,-1,-1,-1,-1,-1,-1,-1,-1,-1,-1],"split_conditions":[-1.64E3,1.8E1,1E0,1E0,-5.608E3,1E0,1E0,4.6161E4,1E0,5E0,-3.589E3,1E0,1.7273912E-2,-9.35E2,1E0,1.8171E4,-1.3856658E-1,-5.511E3,1E0,-4.74E2,2E0,2.5E1,1E0,2E1,1E0,2E0,-3.31E3,6.75E5,2.4525E4,-2.226E3,1E0,5.2128E5,1E0,4.9752E5,2.0767E4,3.48264E5,-8.578905E-3,3.820547E-2,4E0,-4.8930395E-2,2.7901828E-2,4E0,9.171352E-2,-5.09E2,-8.662571E-3,4.216659E-2,1.2E1,3.83769E-2,1.2E1,1E0,9E0,-7.28E2,6.130944E-2,3.35092E5,8.35605E5,-1.00320034E-1,-1.3527292E-1,-4.38E2,-3.6798947E-2,3E0,-2.814E3,-2.164E3,-2.893E3,6.078517E-2,-9.48354E-5,-8.4E2,1E0,-9.1765314E-2,3.0573E4,-6.630275E-2,-1.0142028E-2,-1.244E3,8.082828E-2,-6.3E2,-3.620356E-2,-6.966673E-2,-9.31596E-3,1E0,5E0,2.7846E5,5.2151315E-2,1.876916E-2,-5.21E2,1.8531E4,-4.25E2,1.3612E4,-5.1878866E-2,-2.732E3,2.273671E-3,-3.524E3,-4.72201E-2,-9.121E3,-8.926E3,-8.085657E-2,3E0,1E0,1E0,-4.1406475E-2,7.2412625E-2,-9.970864E-2,-4.014037E-2,2.7454294E-2,-4.986E3,-3.763631E-2,-9.029782E-2,-1.963E3,4.4869993E-2,-1.2707618E-1,-6.948101E-2,-9.4515875E-2,-3.889367E-2,-5.170365E-2,1.6828483E-2,-3.6242273E-2,-7.993E3,4.0733702E-2,-1.001E3,3.1578053E-2,1.165174E-1,1.3311681E-1,2.036652E-1,-2.1474183E-2,6.0236756E-2,3.656856E-2,1.2196842E-1,-8.6127356E-2,-1.3070384E-1,-9.8222114E-2,-5.514515E-2,-1.3983381E-1,-1.051549E-1,-2.6161792E-2,-6.897137E-2,-8.811939E-2,-4.550214E-2,-5.9968736E-2,3.1386513E-2,-7.726316E-2,-8.845008E-3,2.152821E-2,-2.2833562E-2,-3.53187E-2,2.3205284E-2,6.887561E-2,1.4818512E-1],"split_indices":[10,21,40,40,11,43,1,7,1,29,10,1,0,23,2,7,0,11,32,23,26,21,14,21,32,24,11,6,7,10,1,6,14,6,7,6,0,0,26,0,0,26,0,10,0,0,21,0,21,14,21,10,0,6,6,0,0,23,0,24,10,10,10,0,0,23,2,0,7,0,0,11,0,23,0,0,0,30,29,6,0,0,23,7,23,7,0,11,0,11,0,11,11,0,24,43,38,0,0,0,0,0,11,0,0,10,0,0,0,0,0,0,0,0,11,0,11,0,0,0,0,0,0,0,0,0,0,0,0,0,0,0,0,0,0,0,0,0,0,0,0,0,0,0,0],"split_type":[0,0,0,0,0,0,0,0,0,0,0,0,0,0,0,0,0,0,0,0,0,0,0,0,0,0,0,0,0,0,0,0,0,0,0,0,0,0,0,0,0,0,0,0,0,0,0,0,0,0,0,0,0,0,0,0,0,0,0,0,0,0,0,0,0,0,0,0,0,0,0,0,0,0,0,0,0,0,0,0,0,0,0,0,0,0,0,0,0,0,0,0,0,0,0,0,0,0,0,0,0,0,0,0,0,0,0,0,0,0,0,0,0,0,0,0,0,0,0,0,0,0,0,0,0,0,0,0,0,0,0,0,0,0,0,0,0,0,0,0,0,0,0,0,0],"sum_hessian":[5.1373677E3,2.821575E3,2.3157927E3,1.9506643E3,8.709108E2,5.7175964E2,1.7440331E3,4.7621088E2,1.4744534E3,3.8640326E2,4.8450757E2,4.8617633E2,8.558331E1,9.6025494E2,7.8377814E2,3.9233893E2,8.387193E1,9.809949E2,4.9345853E2,2.1191531E2,1.7448795E2,1.2484772E2,3.5965985E2,2.86668E2,1.9950835E2,3.0001065E2,6.6024426E2,3.836596E2,4.0011856E2,1.1434158E2,2.7799734E2,4.6917224E2,5.118226E2,1.279304E2,3.655281E2,1.6173613E2,5.0179173E1,6.3657944E1,1.1083001E2,7.260422E1,5.22435E1,3.0627017E2,5.3389668E1,2.3455481E2,5.211318E1,7.341921E1,1.26089134E2,6.3563232E1,2.3644742E2,3.549773E2,3.0526697E2,2.90942E2,9.2717606E1,1.7179887E2,2.2831967E2,6.372834E1,5.0613247E1,1.8627068E2,9.172667E1,2.3792392E2,2.3124834E2,4.0704294E2,1.0477968E2,7.5454765E1,5.2475628E1,1.0866381E2,2.5686432E2,5.067426E1,1.11061874E2,5.7301563E1,5.3528442E1,2.55978E2,5.0292175E1,1.5461353E2,7.994129E1,6.582736E1,6.0261776E1,1.1296407E2,1.2348335E2,2.721183E2,8.2859E1,8.8009476E1,2.172575E2,1.4276553E2,1.4817647E2,1.0639998E2,6.53989E1,1.4646614E2,8.185353E1,1.3363347E2,5.2637222E1,1.21091064E2,1.1683285E2,9.473965E1,1.3650868E2,2.035504E2,2.0349254E2,5.4516335E1,5.0263344E1,5.6469334E1,5.2194473E1,9.5405945E1,1.6145836E2,5.8632645E1,5.2429226E1,1.8918112E2,6.6796875E1,7.490952E1,7.9703995E1,5.9692326E1,5.3271744E1,7.061194E1,5.2871414E1,7.883628E1,1.93282E2,9.1618706E1,1.25638794E2,5.727507E1,8.549046E1,9.054159E1,5.7634876E1,5.1972603E1,5.4427372E1,9.074606E1,5.572007E1,7.762075E1,5.6012707E1,5.8043304E1,6.3047764E1,5.732728E1,5.950557E1,7.599401E1,6.0514683E1,1.3975127E2,6.379913E1,1.4396379E2,5.9528744E1,6.860912E1,9.284924E1,7.9914314E1,1.0926681E2,5.31004E1,1.401816E2,7.309251E1,5.2546284E1],"tree_param":{"num_deleted":"0","num_feature":"54","num_nodes":"145","size_leaf_vector":"1"}},{"base_weights":[-3.723279E-2,-1.918702E-1,1.7699729E-1,-2.983338E-1,-3.0112106E-2,-1.5597473E-1,2.8353348E-1,-5.300064E-1,-2.2308578E-1,-2.8500885E-1,3.7394863E-2,-3.9303396E-2,-2.8489605E-1,3.9554983E-1,9.310377E-2,-7.1928394E-1,-4.1886815E-1,-5.726284E-1,-1.7670114E-1,-1.20185405E-1,-7.775261E-2,-6.4023525E-2,2.3399185E-1,-3.1410703E-1,1.9581006E-1,-6.492543E-2,-1.8202811E-1,2.207406E-1,5.900136E-1,1.6350597E-2,3.1337819E-1,-8.688777E-2,-1.3705826E-1,-3.1815878E-1,-1.0821719E-1,-1.1404298E-1,-6.4406164E-2,-2.407403E-1,1.0032837E-1,-5.7821177E-2,2.3270875E-2,7.9410926E-2,-1.7844819E-1,4.6863392E-2,4.164925E-1,-7.511836E-2,-2.6489308E-2,-1.8136745E-2,5.4265216E-2,-4.78588E-2,7.925672E-3,2.757328E-1,-1.3814808E-2,4.1501835E-1,7.486392E-1,2.4638349E-1,-1.0958929E-1,6.756652E-2,9.029097E-3,-5.1506364E-1,-1.3462673E-2,-4.8527867E-1,-1.5941152E-1,-2.0766342E-1,4.5973188E-1,-4.9237125E-2,1.8694264E-1,-3.0130887E-1,-3.671073E-2,3.2814443E-2,-3.560256E-2,2.7102125E-1,1.0302312E-1,2.1441445E-1,7.768509E-2,6.4570504E-1,1.2212823E-2,5.84921E-1,1.5409984E-1,3.964315E-1,-7.712081E-3,-5.7726555E-2,-4.4206172E-2,-9.483852E-2,-6.1501812E-2,-1.05434276E-1,-3.85173E-1,-2.1624269E-2,-3.0868813E-1,-5.2169025E-2,-8.473576E-3,5.254751E-2,8.3792046E-2,3.830641E-2,5.629564E-2,-6.8907246E-2,-1.7183933E-2,1.1051567E-1,-4.466957E-2,7.259751E-2,7.2690626E-3,7.534426E-2,1.411327E-1,6.433014E-2,1.187491E-1,1.2075604E-1,6.0917072E-2,3.3774123E-2,8.5582584E-2,5.95356E-2,-3.6323614E-2,-3.0003479E-2,-7.943526E-2,-3.190843E-2,1.5777444E-2,-5.6013703E-2,8.49486E-3,3.1696185E-2,-1.7238464E-2,6.2457006E-4,3.203484E-2,6.42406E-2,1.0003648E-2,-3.54998E-2,3.2832004E-2],"categories":[],"categories_nodes":[],"categories_segments":[],"categories_sizes":[],"default_left":[0,0,0,0,0,0,0,0,0,0,0,0,0,0,0,0,0,0,0,0,0,0,0,0,0,0,0,0,0,0,0,0,0,0,0,0,0,0,0,0,0,0,0,0,0,0,0,0,0,0,0,0,0,0,0,0,0,0,0,0,0,0,0,0,0,0,0,0,0,0,0,0,0,0,0,0,0,0,0,0,0,0,0,0,0,0,0,0,0,0,0,0,0,0,0,0,0,0,0,0,0,0,0,0,0,0,0,0,0,0,0,0,0,0,0,0,0,0,0,0,0,0,0,0,0],"id":4,"left_children":[1,3,5,7,9,11,13,15,17,19,21,23,25,27,29,31,33,35,37,39,-1,41,43,45,47,-1,49,51,53,55,57,-1,-1,59,-1,-1,-1,61,63,-1,-1,65,67,69,71,-1,-1,-1,-1,-1,-1,73,-1,75,77,79,81,-1,-1,83,-1,85,87,89,91,-1,93,95,97,-1,-1,99,-1,101,-1,103,-1,105,-1,107,-1,-1,109,-1,-1,-1,111,113,115,-1,-1,-1,-1,117,-1,-1,-1,119,-1,-1,-1,-1,121,-1,-1,-1,-1,-1,-1,123,-1,-1,-1,-1,-1,-1,-1,-1,-1,-1,-1,-1,-1,-1,-1],"loss_changes":[1.6915846E2,5.1060234E1,7.598345E1,3.1056763E1,2.0283854E1,7.8036394E0,3.456613E1,8.906349E0,2.1812462E1,9.430052E0,1.860497E1,1.7757853E1,3.6749535E0,3.457988E1,1.017458E1,3.8417053E0,8.247139E0,3.9182587E0,2.1218643E1,1.0719554E1,0E0,1.0121838E1,1.0823788E1,3.163351E0,7.8347077E0,0E0,4.754924E0,9.30341E0,1.3090134E1,1.2993428E1,5.370288E0,0E0,0E0,9.42078E0,0E0,0E0,0E0,1.9227142E1,2.5003593E1,0E0,0E0,1.2071457E1,5.959795E0,7.766037E0,6.1300774E0,0E0,0E0,0E0,0E0,0E0,0E0,6.7036896E0,0E0,1.778458E1,1.0896225E1,7.109763E0,5.200675E0,0E0,0E0,1.1298943E0,0E0,4.9960213E0,1.5006117E1,2.561935E0,9.311638E-1,0E0,6.07305E0,5.365198E0,6.196453E0,0E0,0E0,5.004177E0,0E0,7.690632E0,0E0,3.992607E0,0E0,6.012005E0,0E0,3.0211067E0,0E0,0E0,4.8485804E0,0E0,0E0,0E0,4.3802624E0,9.246053E0,8.3047905E0,0E0,0E0,0E0,0E0,3.2754261E0,0E0,0E0,0E0,1.1307888E0,0E0,0E0,0E0,0E0,6.2695494E0,0E0,0E0,0E0,0E0,0E0,0E0,7.379654E0,0E0,0E0,0E0,0E0,0E0,0E0,0E0,0E0,0E0,0E0,0E0,0E0,0E0,0E0,0E0],"parents":[2147483647,0,0,1,1,2,2,3,3,4,4,5,5,6,6,7,7,8,8,9,9,10,10,11,11,12,12,13,13,14,14,15,15,16,16,17,17,18,18,19,19,21,21,22,22,23,23,24,24,26,26,27,27,28,28,29,29,30,30,33,33,37,37,38,38,41,41,42,42,43,43,44,44,51,51,53,53,54,54,55,55,56,56,59,59,61,61,62,62,63,63,64,64,66,66,67,67,68,68,71,71,73,73,75,75,77,77,79,79,82,82,86,86,87,87,88,88,93,93,97,97,102,102,109,109],"right_children":[2,4,6,8,10,12,14,16,18,20,22,24,26,28,30,32,34,36,38,40,-1,42,44,46,48,-1,50,52,54,56,58,-1,-1,60,-1,-1,-1,62,64,-1,-1,66,68,70,72,-1,-1,-1,-1,-1,-1,74,-1,76,78,80,82,-1,-1,84,-1,86,88,90,92,-1,94,96,98,-1,-1,100,-1,102,-1,104,-1,106,-1,108,-1,-1,110,-1,-1,-1,112,114,116,-1,-1,-1,-1,118,-1,-1,-1,120,-1,-1,-1,-1,122,-1,-1,-1,-1,-1,-1,124,-1,-1,-1,-1,-1,-1,-1,-1,-1,-1,-1,-1,-1,-1,-1],"split_conditions":[-1.475E3,1.5E1,1E0,1E0,-4.009E3,4.545E5,4.545E5,-3.157E3,-5.341E3,7.0173E5,-3.067E3,2.7846E5,1E1,3.10671E5,1.8E1,2.115E5,8.91E5,-6.899E3,1E0,2.1051E4,-7.775261E-2,-1.752E3,2.2E1,-8.04E2,2.0295E4,-6.492543E-2,-5.09E2,2.52E5,2.4525E4,1E0,9.28764E5,-8.688777E-2,-1.3705826E-1,2.3962E4,-1.0821719E-1,-1.1404298E-1,-6.4406164E-2,1.6627E4,-2.48E3,-5.7821177E-2,2.3270875E-2,1E0,5.36917E5,6.28771E5,7E0,-7.511836E-2,-2.6489308E-2,-1.8136745E-2,5.4265216E-2,-4.78588E-2,7.925672E-3,1.8E1,-1.3814808E-2,3.6E5,5.36917E5,2.03017E5,-7.217E3,6.756652E-2,9.029097E-3,1.575E4,-1.3462673E-2,1.71E5,1.45948E5,1E1,1E1,-4.9237125E-2,7E0,2.4E1,1.89E5,3.2814443E-2,-3.560256E-2,4.545E5,1.0302312E-1,4.6282E4,7.768509E-2,1.6911E4,1.2212823E-2,-4.114E3,1.5409984E-1,1.665E5,-7.712081E-3,-5.7726555E-2,1.845E5,-9.483852E-2,-6.1501812E-2,-1.05434276E-1,1E0,8E0,9E0,-5.2169025E-2,-8.473576E-3,5.254751E-2,8.3792046E-2,4.545E5,5.629564E-2,-6.8907246E-2,-1.7183933E-2,-7.385E3,-4.466957E-2,7.259751E-2,7.2690626E-3,7.534426E-2,1E0,6.433014E-2,1.187491E-1,1.2075604E-1,6.0917072E-2,3.3774123E-2,8.5582584E-2,7.0173E5,-3.6323614E-2,-3.0003479E-2,-7.943526E-2,-3.190843E-2,1.5777444E-2,-5.6013703E-2,8.49486E-3,3.1696185E-2,-1.7238464E-2,6.2457006E-4,3.203484E-2,6.42406E-2,1.0003648E-2,-3.54998E-2,3.2832004E-2],"split_indices":[10,21,40,40,10,8,8,10,10,6,11,6,21,6,21,5,8,11,14,7,0,10,21,10,7,0,10,8,7,32,20,0,0,7,0,0,0,7,10,0,0,40,6,20,29,0,0,0,0,0,0,21,0,8,6,20,11,0,0,7,0,6,20,21,21,0,22,21,5,0,0,8,0,20,0,7,0,11,0,5,0,0,5,0,0,0,32,21,29,0,0,0,0,8,0,0,0,11,0,0,0,0,41,0,0,0,0,0,0,6,0,0,0,0,0,0,0,0,0,0,0,0,0,0,0],"split_type":[0,0,0,0,0,0,0,0,0,0,0,0,0,0,0,0,0,0,0,0,0,0,0,0,0,0,0,0,0,0,0,0,0,0,0,0,0,0,0,0,0,0,0,0,0,0,0,0,0,0,0,0,0,0,0,0,0,0,0,0,0,0,0,0,0,0,0,0,0,0,0,0,0,0,0,0,0,0,0,0,0,0,0,0,0,0,0,0,0,0,0,0,0,0,0,0,0,0,0,0,0,0,0,0,0,0,0,0,0,0,0,0,0,0,0,0,0,0,0,0,0,0,0,0,0],"sum_hessian":[5.1041855E3,2.964459E3,2.1397268E3,1.787285E3,1.1771738E3,5.185544E2,1.6211725E3,4.3670874E2,1.3505763E3,2.4580963E2,9.313642E2,2.7289474E2,2.4565965E2,1.0200639E3,6.011086E2,1.5953522E2,2.7717352E2,1.5689687E2,1.1936794E3,1.4494283E2,1.008668E2,6.1485406E2,3.165101E2,1.2567186E2,1.4722287E2,9.944072E1,1.4621893E2,5.383028E2,4.8176108E2,4.4657626E2,1.5453233E2,9.505597E1,6.447925E1,2.0949692E2,6.76766E1,6.6057014E1,9.083985E1,9.696603E2,2.2401918E2,7.361296E1,7.1329865E1,2.7297653E2,3.4187756E2,1.568942E2,1.5961592E2,5.218507E1,7.348679E1,5.0712437E1,9.651044E1,9.21161E1,5.4102837E1,4.5792538E2,8.037741E1,2.307808E2,2.5098027E2,1.5765622E2,2.8892004E2,9.975129E1,5.4781044E1,1.1183316E2,9.766376E1,2.4076477E2,7.288955E2,1.2086543E2,1.03153755E2,5.65479E1,2.1642863E2,1.825307E2,1.5934685E2,9.7907555E1,5.8986637E1,1.0507479E2,5.4541122E1,3.669076E2,9.10178E1,1.3588187E2,9.489893E1,1.6005484E2,9.092544E1,1.0461417E2,5.3042057E1,5.4518467E1,2.344016E2,5.048958E1,6.1343582E1,7.3961266E1,1.6680351E2,3.7962964E2,3.4926584E2,6.2048653E1,5.881678E1,5.1125206E1,5.202855E1,1.21643265E2,9.478538E1,9.806464E1,8.4466064E1,1.0225951E2,5.7087345E1,5.3095043E1,5.1979748E1,7.325964E1,2.9364795E2,5.6251194E1,7.963068E1,7.017014E1,8.988469E1,5.3894474E1,5.0719692E1,1.542578E2,8.014378E1,7.41327E1,9.267081E1,1.5115755E2,2.2847209E2,2.9667197E2,5.2593876E1,5.6957367E1,6.468589E1,5.0835518E1,5.142399E1,5.9477432E1,2.3417052E2,5.3787838E1,1.0046996E2],"tree_param":{"num_deleted":"0","num_feature":"54","num_nodes":"125","size_leaf_vector":"1"}},{"base_weights":[-4.3136228E-2,-2.0582616E-1,1.4698932E-1,-2.6284608E-1,8.082133E-2,6.1340794E-2,5.543851E-1,-2.029973E-1,-4.8765215E-1,-5.227412E-2,1.9944479E-1,-3.337557E-1,1.1668169E-1,6.638064E-1,1.6692378E-2,-2.9798698E-1,-6.912624E-3,-5.3557354E-1,-3.2948274E-2,1.0646361E-2,5.537874E-1,-9.540058E-2,-1.7893694E-1,1.0002686E-2,3.0098003E-1,4.809404E-1,8.4044147E-1,-4.3762046E-1,-8.6490765E-2,2.0021118E-1,-1.7774975E-1,-6.190115E-1,-3.969088E-1,-1.875913E-1,2.2389384E-1,1.0818903E-1,6.417424E-2,-8.40672E-2,1.0484232E-2,-1.2209054E-1,1.7301323E-1,4.222408E-1,5.0265167E-2,3.6949135E-2,1.1601682E-1,8.458005E-2,1.5690845E-1,-5.1592815E-1,-1.22352496E-1,-2.1818233E-1,2.7118337E-1,-2.4770292E-2,2.8899905E-1,-2.584311E-1,1.8426048E-2,-1.11330025E-1,-5.6013924E-1,-8.107403E-2,-3.616908E-2,-5.906046E-2,2.7406658E-3,-1.5151735E-4,6.067698E-2,-2.2472072E-2,2.3453645E-2,-7.1270175E-2,-5.7397526E-2,3.6008582E-1,1.0978143E-2,1.4053147E-1,5.540503E-1,-1.4777197E-1,3.930843E-2,-1.6832687E-2,-5.6768435E-1,-4.9330737E-2,1.8811332E-2,-4.0684417E-1,8.104943E-2,1.7942918E-2,6.5134756E-2,1.1860841E-2,4.499964E-1,-8.599339E-2,-1.7309514E-1,-5.5468626E-2,-6.538679E-1,4.227304E-2,-3.0358472E-1,1.9979529E-1,4.91332E-1,1.4069954E-1,-4.1401163E-2,-1.3810525E-2,4.7360677E-2,6.4363015E-1,2.159449E-2,-4.344055E-2,5.724504E-4,-1.1578899E-1,-7.43793E-2,-3.4481134E-2,-7.021214E-2,-1.6629986E-2,4.4138342E-2,9.488716E-2,3.440378E-2,9.108078E-4,-7.1409896E-2,-1.1751355E-1,-7.817211E-2,1.7416872E-2,-2.8561821E-2,-7.7026024E-2,-1.3490352E-2,2.96847E-3,5.5904873E-2,9.050693E-2,4.8565794E-2,-2.5349958E-3,5.3161446E-2,7.587176E-2,1.2766351E-1],"categories":[],"categories_nodes":[],"categories_segments":[],"categories_sizes":[],"default_left":[0,0,0,0,0,0,0,0,0,0,0,0,0,0,0,0,0,0,0,0,0,0,0,0,0,0,0,0,0,0,0,0,0,0,0,0,0,0,0,0,0,0,0,0,0,0,0,0,0,0,0,0,0,0,0,0,0,0,0,0,0,0,0,0,0,0,0,0,0,0,0,0,0,0,0,0,0,0,0,0,0,0,0,0,0,0,0,0,0,0,0,0,0,0,0,0,0,0,0,0,0,0,0,0,0,0,0,0,0,0,0,0,0,0,0,0,0,0,0,0,0,0,0],"id":5,"left_children":[1,3,5,7,9,11,13,15,17,-1,19,21,23,25,-1,27,29,31,-1,33,35,-1,37,39,41,43,45,47,49,51,53,55,57,59,61,-1,-1,-1,63,65,67,69,71,-1,-1,-1,-1,73,75,77,79,-1,81,83,-1,-1,85,-1,-1,-1,-1,-1,-1,-1,-1,-1,87,89,91,93,95,97,-1,-1,99,-1,-1,101,103,-1,-1,-1,105,-1,107,-1,109,111,113,115,117,119,-1,-1,-1,121,-1,-1,-1,-1,-1,-1,-1,-1,-1,-1,-1,-1,-1,-1,-1,-1,-1,-1,-1,-1,-1,-1,-1,-1,-1,-1,-1],"loss_changes":[1.572589E2,4.4799202E1,8.177254E1,3.0648315E1,2.3257055E1,4.2421165E1,1.9666664E1,3.3646416E1,6.0439835E0,0E0,2.390234E1,1.1042114E1,3.343902E1,1.0135986E1,0E0,3.5901375E1,2.0932575E1,4.4551697E0,0E0,9.941236E0,2.3115196E0,0E0,1.1499421E1,2.3241407E1,1.89366E1,1.097263E1,8.773331E0,1.8027359E1,2.2913105E1,8.72193E0,7.8933754E0,1.4109879E0,3.3461552E0,5.180334E0,4.601666E0,0E0,0E0,0E0,2.5314865E0,1.3591114E1,1.4640341E1,1.5523476E1,8.612387E0,0E0,0E0,0E0,0E0,1.219429E1,7.568264E0,2.0084135E1,3.185728E0,0E0,7.2474422E0,6.776188E0,0E0,0E0,2.8715782E0,0E0,0E0,0E0,0E0,0E0,0E0,0E0,0E0,0E0,1.2405843E1,4.618471E0,9.714904E0,5.541606E0,1.040979E1,2.2860606E0,0E0,0E0,7.241516E0,0E0,0E0,2.254902E0,5.686502E0,0E0,0E0,0E0,4.759388E0,0E0,1.1009031E1,0E0,1.5798988E0,6.214074E0,6.487191E0,3.1864662E0,2.1061058E0,6.057172E0,0E0,0E0,0E0,6.270012E0,0E0,0E0,0E0,0E0,0E0,0E0,0E0,0E0,0E0,0E0,0E0,0E0,0E0,0E0,0E0,0E0,0E0,0E0,0E0,0E0,0E0,0E0,0E0,0E0,0E0,0E0,0E0],"parents":[2147483647,0,0,1,1,2,2,3,3,4,4,5,5,6,6,7,7,8,8,10,10,11,11,12,12,13,13,15,15,16,16,17,17,19,19,20,20,22,22,23,23,24,24,25,25,26,26,27,27,28,28,29,29,30,30,31,31,32,32,33,33,34,34,38,38,39,39,40,40,41,41,42,42,47,47,48,48,49,49,50,50,52,52,53,53,56,56,66,66,67,67,68,68,69,69,70,70,71,71,74,74,77,77,78,78,82,82,84,84,86,86,87,87,88,88,89,89,90,90,91,91,95,95],"right_children":[2,4,6,8,10,12,14,16,18,-1,20,22,24,26,-1,28,30,32,-1,34,36,-1,38,40,42,44,46,48,50,52,54,56,58,60,62,-1,-1,-1,64,66,68,70,72,-1,-1,-1,-1,74,76,78,80,-1,82,84,-1,-1,86,-1,-1,-1,-1,-1,-1,-1,-1,-1,88,90,92,94,96,98,-1,-1,100,-1,-1,102,104,-1,-1,-1,106,-1,108,-1,110,112,114,116,118,120,-1,-1,-1,122,-1,-1,-1,-1,-1,-1,-1,-1,-1,-1,-1,-1,-1,-1,-1,-1,-1,-1,-1,-1,-1,-1,-1,-1,-1,-1,-1],"split_conditions":[-1.64E3,3E0,3E0,1E0,-3.819E3,2E0,1E0,1E0,-1.1415E4,-5.227412E-2,-1.46E4,-1.5485E4,-4.78E2,-5.67E2,1.6692378E-2,1.6E1,1E0,1.5E1,-3.2948274E-2,1.5E1,-1.2099E4,-9.540058E-2,1E0,1E0,1E0,1E0,2.8530667E0,-1.3508E4,-1.6126E4,-4.086E3,1E0,7E0,-8.09E2,4.12766E0,-2.1192E4,1.0818903E-1,6.417424E-2,-8.40672E-2,-7.28E2,-1.8136E4,1E0,1.6155E4,3E0,3.6949135E-2,1.1601682E-1,8.458005E-2,1.5690845E-1,5E0,3.4285715E0,2.5E1,-2.645E3,-2.4770292E-2,2.25E4,1.6911E4,1.8426048E-2,-1.11330025E-1,-1.7268E4,-8.107403E-2,-3.616908E-2,-5.906046E-2,2.7406658E-3,-1.5151735E-4,6.067698E-2,-2.2472072E-2,2.3453645E-2,-7.1270175E-2,1E0,-7.92E2,1E0,-3.07E2,5.8113E0,8E0,3.930843E-2,-1.6832687E-2,1.6506E4,-4.9330737E-2,1.8811332E-2,1.08E5,-6.3E2,1.7942918E-2,6.5134756E-2,1.1860841E-2,-1.933E3,-8.599339E-2,3.5761E4,-5.5468626E-2,1E0,1E0,-1.2208E4,1.2E1,4E0,2.997E4,-4.1401163E-2,-1.3810525E-2,4.7360677E-2,1E0,2.159449E-2,-4.344055E-2,5.724504E-4,-1.1578899E-1,-7.43793E-2,-3.4481134E-2,-7.021214E-2,-1.6629986E-2,4.4138342E-2,9.488716E-2,3.440378E-2,9.108078E-4,-7.1409896E-2,-1.1751355E-1,-7.817211E-2,1.7416872E-2,-2.8561821E-2,-7.7026024E-2,-1.3490352E-2,2.96847E-3,5.5904873E-2,9.050693E-2,4.8565794E-2,-2.5349958E-3,5.3161446E-2,7.587176E-2,1.2766351E-1],"split_indices":[10,17,17,45,10,17,45,1,9,0,9,9,23,23,0,21,2,21,0,21,9,0,40,1,2,1,53,9,9,10,14,21,23,53,9,0,0,0,10,9,2,7,22,0,0,0,0,21,53,21,10,0,7,7,0,0,9,0,0,0,0,0,0,0,0,0,45,10,30,23,53,21,0,0,7,0,0,5,23,0,0,0,10,0,7,0,40,2,9,21,22,7,0,0,0,1,0,0,0,0,0,0,0,0,0,0,0,0,0,0,0,0,0,0,0,0,0,0,0,0,0,0,0],"split_type":[0,0,0,0,0,0,0,0,0,0,0,0,0,0,0,0,0,0,0,0,0,0,0,0,0,0,0,0,0,0,0,0,0,0,0,0,0,0,0,0,0,0,0,0,0,0,0,0,0,0,0,0,0,0,0,0,0,0,0,0,0,0,0,0,0,0,0,0,0,0,0,0,0,0,0,0,0,0,0,0,0,0,0,0,0,0,0,0,0,0,0,0,0,0,0,0,0,0,0,0,0,0,0,0,0,0,0,0,0,0,0,0,0,0,0,0,0,0,0,0,0,0,0],"sum_hessian":[5.082122E3,2.7386143E3,2.3435078E3,2.2843035E3,4.5431064E2,1.9373593E3,4.0614853E2,1.8055308E3,4.7877277E2,9.7934326E1,3.563763E2,2.3740654E2,1.6999528E3,3.2531586E2,8.083267E1,1.2159608E3,5.8957E2,4.0530115E2,7.34716E1,2.331702E2,1.23206116E2,7.936213E1,1.5804442E2,1.0773787E3,6.225741E2,1.6166786E2,1.63648E2,7.3176666E2,4.8419418E2,2.6640604E2,3.2316397E2,2.5087779E2,1.5442337E2,1.2090014E2,1.1227005E2,5.0858932E1,7.234718E1,5.1785366E1,1.0625905E2,5.9526514E2,4.821135E2,4.1915936E2,2.0341475E2,9.073396E1,7.093389E1,7.137848E1,9.226952E1,5.85661E2,1.4610565E2,3.5417935E2,1.3001482E2,5.191696E1,2.1448906E2,2.5488937E2,6.827459E1,7.7372025E1,1.7350575E2,7.9072395E1,7.535098E1,5.99526E1,6.094754E1,5.044779E1,6.182226E1,5.0613567E1,5.5645485E1,9.120346E1,5.040617E2,2.2320117E2,2.5891232E2,1.3426605E2,2.848933E2,1.0527689E2,9.8137856E1,6.691064E1,5.1875037E2,7.950645E1,6.65992E1,2.1700243E2,1.3717693E2,6.8278854E1,6.1735954E1,9.374489E1,1.2074417E2,5.3132416E1,2.0175696E2,5.887834E1,1.1462742E2,3.5938892E2,1.4467278E2,1.01617874E2,1.215833E2,1.7866371E2,8.024861E1,5.7888527E1,7.637753E1,2.3335051E2,5.1542797E1,5.3918385E1,5.1358513E1,1.3242471E2,3.8632565E2,5.700777E1,1.5999466E2,7.244557E1,6.473136E1,6.504794E1,5.569623E1,1.27397896E2,7.435906E1,5.5524315E1,5.9103104E1,2.731952E2,8.619373E1,7.226494E1,7.240784E1,5.0332516E1,5.128536E1,7.130237E1,5.0280926E1,1.0336131E2,7.530239E1,1.4227405E2,9.107647E1],"tree_param":{"num_deleted":"0","num_feature":"54","num_nodes":"123","size_leaf_vector":"1"}},{"base_weights":[-4.8824508E-2,-1.2344573E-1,2.4082392E-1,-2.4425937E-1,4.1375883E-2,2.9413538E-2,3.8495952E-1,-3.143138E-1,-7.77913E-2,1.1714901E-1,-2.2246806E-1,-9.019436E-2,2.6383814E-1,3.357314E-2,4.8735988E-1,-3.8922572E-1,-1.3948077E-1,2.0728685E-2,-3.3081263E-1,-6.373205E-2,2.0123532E-1,6.2343705E-4,-2.815337E-1,2.6765952E-2,-4.9692016E-2,6.8841994E-2,4.3052705E-3,4.320361E-2,-2.1764055E-2,5.718499E-1,1.599201E-2,-5.398476E-1,-3.484858E-1,2.5883728E-1,-2.5070113E-1,-1.0842404E-1,1.9143568E-1,-7.911635E-2,-2.4706452E-1,-1.9770941E-1,1.7197281E-1,-2.0246623E-2,2.692316E-1,-5.1863295E-1,-1.4765367E-1,4.1240226E-2,-1.303617E-1,4.5603254E-1,8.786056E-1,-6.61652E-1,-2.8277136E-2,-3.027648E-1,-5.0552535E-1,5.033186E-3,6.905476E-2,-1.7993954E-1,-9.797958E-2,-5.9302934E-2,-3.9340604E-2,7.7966936E-2,1.9109689E-2,-8.597096E-3,-6.7507505E-2,1.7686859E-2,-3.2822752E-1,-2.545981E-2,6.306503E-2,1.040904E-1,-3.444024E-2,4.303687E-1,1.5678787E-1,-1.0595319E-1,-4.501533E-2,1.2549299E-2,-2.6009166E-1,-4.236072E-2,3.7168453E-3,2.4316756E-2,5.737375E-1,1.5145549E-1,1.089771E-1,-6.190479E-2,-7.9652536E-1,-3.8829103E-1,-1.5898201E-1,-4.8757546E-2,-6.312911E-1,-6.0055654E-2,-1.0769642E-1,7.283901E-2,-5.0824177E-2,-3.133772E-2,2.2487834E-2,1.3914469E-2,-8.566596E-3,-8.361614E-2,-8.99526E-3,-6.908329E-3,3.685561E-2,1.9511059E-2,4.9711338E-1,-3.3922285E-2,2.2339962E-1,-6.516858E-2,-2.1473892E-2,7.236187E-1,4.1487575E-2,-1.0288179E-1,-1.3470246E-1,-4.670289E-2,-7.7401206E-2,-4.752529E-2,-1.6425278E-2,-7.5247005E-2,-1.1537669E-1,-5.4844294E-2,-3.4667798E-3,-1.3702754E-2,3.4057878E-2,1.17914215E-1,5.623015E-2,2.101674E-2,7.413629E-2,1.4724898E-1,6.127613E-2],"categories":[],"categories_nodes":[],"categories_segments":[],"categories_sizes":[],"default_left":[0,0,0,0,0,0,0,0,0,0,0,0,0,0,0,0,0,0,0,0,0,0,0,0,0,0,0,0,0,0,0,0,0,0,0,0,0,0,0,0,0,0,0,0,0,0,0,0,0,0,0,0,0,0,0,0,0,0,0,0,0,0,0,0,0,0,0,0,0,0,0,0,0,0,0,0,0,0,0,0,0,0,0,0,0,0,0,0,0,0,0,0,0,0,0,0,0,0,0,0,0,0,0,0,0,0,0,0,0,0,0,0,0,0,0,0,0,0,0,0,0,0,0,0,0],"id":6,"left_children":[1,3,5,7,9,11,13,15,17,19,21,23,25,27,29,31,33,35,37,39,41,-1,43,45,-1,-1,-1,-1,-1,47,-1,49,51,53,55,57,59,-1,61,63,65,67,69,71,73,-1,75,77,79,81,-1,83,85,-1,-1,87,-1,-1,89,-1,91,-1,-1,93,95,-1,-1,97,-1,99,101,-1,-1,-1,103,-1,-1,-1,105,-1,-1,-1,107,109,111,-1,113,-1,115,117,-1,-1,-1,-1,-1,-1,-1,-1,-1,-1,119,-1,121,-1,-1,123,-1,-1,-1,-1,-1,-1,-1,-1,-1,-1,-1,-1,-1,-1,-1,-1,-1,-1,-1],"loss_changes":[1.0840597E2,7.941566E1,3.1298508E1,2.6811508E1,3.3763138E1,1.1733585E1,2.1964325E1,2.1153488E1,1.703005E1,1.99626E1,5.045576E0,7.8273935E0,6.4714127E0,6.357514E0,1.5153664E1,6.764374E0,2.1651306E1,1.0878157E1,3.0222626E0,1.320274E1,1.3493847E1,0E0,9.413004E0,7.35219E0,0E0,0E0,0E0,0E0,0E0,1.3342636E1,0E0,1.0119736E1,6.270317E0,4.835657E0,1.0745651E1,5.554253E0,1.2012043E1,0E0,5.217904E0,7.493572E0,1.2947629E1,5.524444E0,1.2350029E1,4.1975136E0,5.027473E0,0E0,2.7329483E0,9.693886E0,1.3588791E0,5.626648E0,0E0,8.489525E0,4.3396835E0,0E0,0E0,5.144597E0,0E0,0E0,7.670391E0,0E0,4.2185183E0,0E0,0E0,5.749588E-1,1.0167534E1,0E0,0E0,2.8448358E0,0E0,5.569557E0,1.0387186E1,0E0,0E0,0E0,2.583356E0,0E0,0E0,0E0,8.77887E0,0E0,0E0,0E0,6.638489E-1,4.117035E0,2.0042844E0,0E0,1.7046432E0,0E0,5.374319E0,4.2336564E0,0E0,0E0,0E0,0E0,0E0,0E0,0E0,0E0,0E0,0E0,7.817501E0,0E0,7.728777E0,0E0,0E0,1.0445305E1,0E0,0E0,0E0,0E0,0E0,0E0,0E0,0E0,0E0,0E0,0E0,0E0,0E0,0E0,0E0,0E0,0E0,0E0,0E0],"parents":[2147483647,0,0,1,1,2,2,3,3,4,4,5,5,6,6,7,7,8,8,9,9,10,10,11,11,12,12,13,13,14,14,15,15,16,16,17,17,18,18,19,19,20,20,22,22,23,23,29,29,31,31,32,32,33,33,34,34,35,35,36,36,38,38,39,39,40,40,41,41,42,42,43,43,44,44,46,46,47,47,48,48,49,49,51,51,52,52,55,55,58,58,60,60,63,63,64,64,67,67,69,69,70,70,74,74,78,78,82,82,83,83,84,84,86,86,88,88,89,89,100,100,102,102,105,105],"right_children":[2,4,6,8,10,12,14,16,18,20,22,24,26,28,30,32,34,36,38,40,42,-1,44,46,-1,-1,-1,-1,-1,48,-1,50,52,54,56,58,60,-1,62,64,66,68,70,72,74,-1,76,78,80,82,-1,84,86,-1,-1,88,-1,-1,90,-1,92,-1,-1,94,96,-1,-1,98,-1,100,102,-1,-1,-1,104,-1,-1,-1,106,-1,-1,-1,108,110,112,-1,114,-1,116,118,-1,-1,-1,-1,-1,-1,-1,-1,-1,-1,120,-1,122,-1,-1,124,-1,-1,-1,-1,-1,-1,-1,-1,-1,-1,-1,-1,-1,-1,-1,-1,-1,-1,-1],"split_conditions":[2E0,-1.437E3,-7.86E2,-1.3998E4,1E0,3.1131E4,-1.9423E4,1E0,1E0,-1.5374E4,5.1853E4,1E0,3.9424E4,1.98918E5,1.11384E6,2.6955E5,1E0,-2.196E3,-3.241E3,-4.74E2,1.5115E4,6.2343705E-4,3.98016E5,3.15E5,-4.9692016E-2,6.8841994E-2,4.3052705E-3,4.320361E-2,-2.1764055E-2,-3.53E2,1.599201E-2,1.63989E5,3.78E4,-7.74E2,1E0,2.6955E5,6.7353E4,-7.911635E-2,5.24403E5,1E0,2E0,3E0,6.9934E4,1.67895E5,5.85E5,4.1240226E-2,-1.078E3,2.7846E5,1.01955E5,8.5716E4,-2.8277136E-2,-6.3E2,-9.41E2,5.033186E-3,6.905476E-2,-3.873E3,-9.797958E-2,-5.9302934E-2,8.35605E5,7.7966936E-2,-1.2208E4,-8.597096E-3,-6.7507505E-2,1.05592E5,1.41463E5,-2.545981E-2,6.306503E-2,-4.91E2,-3.444024E-2,1.9158E4,-1.275E3,-1.0595319E-1,-4.501533E-2,1.2549299E-2,-8.72E2,-4.236072E-2,3.7168453E-3,2.4316756E-2,6.12612E5,1.5145549E-1,1.089771E-1,-6.190479E-2,-8.57E2,1.73839E5,3.825E5,-4.8757546E-2,1E0,-6.0055654E-2,-2.2011E4,4.9752E5,-5.0824177E-2,-3.133772E-2,2.2487834E-2,1.3914469E-2,-8.566596E-3,-8.361614E-2,-8.99526E-3,-6.908329E-3,3.685561E-2,1.9511059E-2,4.8618E4,-3.3922285E-2,1E0,-6.516858E-2,-2.1473892E-2,-1.2578E4,4.1487575E-2,-1.0288179E-1,-1.3470246E-1,-4.670289E-2,-7.7401206E-2,-4.752529E-2,-1.6425278E-2,-7.5247005E-2,-1.1537669E-1,-5.4844294E-2,-3.4667798E-3,-1.3702754E-2,3.4057878E-2,1.17914215E-1,5.623015E-2,2.101674E-2,7.413629E-2,1.4724898E-1,6.127613E-2],"split_indices":[25,10,23,9,45,7,9,1,45,9,20,2,7,19,20,6,32,10,10,23,7,0,6,20,0,0,0,0,0,23,0,19,7,23,45,6,19,0,6,32,22,12,19,20,6,0,23,6,19,20,0,23,23,0,0,10,0,0,6,0,9,0,0,19,19,0,0,23,0,19,23,0,0,0,10,0,0,0,6,0,0,0,23,19,6,0,44,0,9,6,0,0,0,0,0,0,0,0,0,0,20,0,25,0,0,9,0,0,0,0,0,0,0,0,0,0,0,0,0,0,0,0,0,0,0],"split_type":[0,0,0,0,0,0,0,0,0,0,0,0,0,0,0,0,0,0,0,0,0,0,0,0,0,0,0,0,0,0,0,0,0,0,0,0,0,0,0,0,0,0,0,0,0,0,0,0,0,0,0,0,0,0,0,0,0,0,0,0,0,0,0,0,0,0,0,0,0,0,0,0,0,0,0,0,0,0,0,0,0,0,0,0,0,0,0,0,0,0,0,0,0,0,0,0,0,0,0,0,0,0,0,0,0,0,0,0,0,0,0,0,0,0,0,0,0,0,0,0,0,0,0,0,0],"sum_hessian":[5.0131875E3,3.9866843E3,1.0265032E3,2.3001792E3,1.686505E3,4.1662454E2,6.098786E2,1.6182754E3,6.819038E2,1.310655E3,3.7584998E2,2.7627768E2,1.4034688E2,1.3792331E2,4.719553E2,1.1320093E3,4.862661E2,4.9146002E2,1.9044379E2,4.1600784E2,8.946472E2,7.789817E1,2.9795178E2,1.8662662E2,8.965105E1,7.618184E1,6.416503E1,5.6642704E1,8.12806E1,3.8583432E2,8.612096E1,2.3839052E2,8.936188E2,1.0585085E2,3.8041525E2,2.7999075E2,2.1146927E2,5.5302567E1,1.3514122E2,2.653443E2,1.5066356E2,2.1031091E2,6.843363E2,1.06488525E2,1.9146326E2,7.20618E1,1.1456483E2,2.818913E2,1.0394302E2,1.7636348E2,6.202704E1,6.943821E2,1.992367E2,5.0530544E1,5.532031E1,3.2476617E2,5.564909E1,5.3415165E1,2.2657558E2,7.209182E1,1.3937746E2,7.0510475E1,6.4630745E1,1.00444115E2,1.6490018E2,6.3563007E1,8.710055E1,1.3226239E2,7.804852E1,2.8010516E2,4.0423114E2,5.608139E1,5.040714E1,6.2709217E1,1.2875404E2,5.7445747E1,5.711908E1,8.128698E1,2.0060432E2,5.279596E1,5.1147068E1,6.3399193E1,1.1296429E2,4.3432956E2,2.6005252E2,8.329381E1,1.15942894E2,7.904339E1,2.4572278E2,1.6538408E2,6.11915E1,5.05905E1,8.878695E1,5.0008774E1,5.043534E1,8.834015E1,7.656002E1,6.452476E1,6.7737625E1,5.1472225E1,2.2863292E2,5.9542015E1,3.4468912E2,5.059423E1,7.815981E1,1.3239201E2,6.82123E1,5.7756012E1,5.5208275E1,2.7319257E2,1.61137E2,6.077209E1,1.9928041E2,6.2148014E1,5.3794884E1,5.9860752E1,1.8586203E2,8.029831E1,8.508576E1,6.635155E1,1.6228139E2,2.6478204E2,7.990709E1,7.162433E1,6.0767685E1],"tree_param":{"num_deleted":"0","num_feature":"54","num_nodes":"125","size_leaf_vector":"1"}},{"base_weights":[-4.5811214E-2,-1.4712095E-1,1.2963572E-1,-2.965518E-1,-1.750391E-2,-4.5238506E-2,2.8216073E-1,-3.8523594E-1,-1.2383052E-1,7.522687E-2,-2.8378937E-1,3.5846978E-1,-1.0550037E-1,1.5967524E-1,4.9007314E-1,-3.417874E-1,-5.812726E-1,2.2634059E-1,-2.3241891E-1,1.1591631E-1,-2.5913972E-1,1.7872393E-2,-3.765366E-1,-7.8829685E-3,1.1286067E-1,-1.8679015E-1,5.8065157E-2,-1.6718653E-1,2.514352E-1,3.8778096E-1,1.4950658E-1,-4.312694E-1,-1.38373E-1,-1.03081934E-1,-6.981339E-2,6.152918E-3,5.9499793E-2,-1.6384012E-1,-8.247356E-2,1.5744565E-1,-1.8805344E-1,-4.6596583E-3,-7.0600234E-2,-3.2901164E-2,3.882415E-2,-5.4630625E-1,-3.0143067E-1,-1.377942E-1,-6.758894E-2,-1.0488088E-1,1.835342E-1,-5.763481E-2,-5.385384E-3,3.2848668E-1,-2.201623E-2,4.8646688E-1,1.7652641E-3,-5.345402E-1,-3.4750935E-1,-2.200262E-1,6.843081E-3,-6.935814E-2,-8.838803E-2,-1.1487087E-1,2.0643485E-1,-1.2855371E-3,-6.0640763E-2,-9.857754E-2,-6.3843615E-2,-2.2153628E-1,-6.462312E-2,1.2852193E-2,-1.7983441E-1,-1.0008286E-3,-2.8783383E-2,5.477356E-2,-1.4256515E-2,1.0509355E-1,4.5212895E-1,1.0676447E-1,3.3936286E-1,-7.1174806E-1,-3.727509E-1,-4.1479504E-1,-2.14876E-2,-6.289317E-2,-1.21478744E-1,-2.0653197E-1,1.5502256E-2,-4.1053955E-2,9.474719E-3,2.6339835E-1,-4.4313833E-2,-4.6604022E-2,-1.245592E-2,-3.6476016E-1,-7.0319325E-2,-1.5663015E-2,3.3229068E-2,2.8612468E-2,5.6495553E-1,1.5266384E-2,8.095032E-2,-1.2425145E-1,-8.8867724E-2,-7.720272E-2,-2.9454261E-2,-3.3199426E-2,-7.838659E-2,2.7508496E-3,-4.2566724E-2,1.3977345E-2,-5.9427973E-2,-2.4633605E-2,4.4914596E-2,2.3541367E-2,-4.287108E-2,-3.934807E-2,-7.815404E-2,-3.3252187E-2,6.6765617E-3,1.0244227E-1,3.8947664E-2],"categories":[],"categories_nodes":[],"categories_segments":[],"categories_sizes":[],"default_left":[0,0,0,0,0,0,0,0,0,0,0,0,0,0,0,0,0,0,0,0,0,0,0,0,0,0,0,0,0,0,0,0,0,0,0,0,0,0,0,0,0,0,0,0,0,0,0,0,0,0,0,0,0,0,0,0,0,0,0,0,0,0,0,0,0,0,0,0,0,0,0,0,0,0,0,0,0,0,0,0,0,0,0,0,0,0,0,0,0,0,0,0,0,0,0,0,0,0,0,0,0,0,0,0,0,0,0,0,0,0,0,0,0,0,0,0,0,0,0,0,0,0,0],"id":7,"left_children":[1,3,5,7,9,11,13,15,17,19,21,23,25,27,29,31,33,35,37,39,41,43,45,-1,-1,47,49,51,53,55,-1,57,59,-1,-1,-1,-1,61,-1,63,65,-1,-1,-1,-1,67,69,71,-1,73,75,-1,-1,77,-1,79,-1,81,83,85,-1,-1,87,89,91,-1,-1,-1,-1,93,-1,-1,95,-1,-1,-1,-1,97,99,-1,101,103,105,107,-1,-1,109,111,-1,-1,-1,113,115,-1,-1,117,119,-1,-1,-1,121,-1,-1,-1,-1,-1,-1,-1,-1,-1,-1,-1,-1,-1,-1,-1,-1,-1,-1,-1,-1,-1,-1],"loss_changes":[8.9212E1,6.161846E1,4.9022125E1,2.2588425E1,4.211812E1,2.0883825E1,2.491867E1,8.114059E0,1.9172256E1,1.7244234E1,1.2332531E1,1.8096388E1,9.934414E0,1.8612537E1,1.8447014E1,1.4525909E1,1.8357582E0,3.7565112E0,8.275047E0,1.4277819E1,6.6226816E0,6.03273E0,4.132271E0,0E0,0E0,6.385071E0,5.1006327E0,3.8705518E0,1.4893909E1,1.1274666E1,0E0,4.6239624E0,3.710093E0,0E0,0E0,0E0,0E0,7.109885E0,0E0,1.3278431E1,5.2792306E0,0E0,0E0,0E0,0E0,1.0868702E0,2.342844E0,3.9811344E0,0E0,9.2807007E-1,7.1577787E0,0E0,0E0,1.1158577E1,0E0,7.738125E0,0E0,6.8208237E0,4.1994743E0,3.3020887E0,0E0,0E0,5.7895317E0,4.3189287E0,1.2044601E1,0E0,0E0,0E0,0E0,1.8002634E0,0E0,0E0,7.1760187E0,0E0,0E0,0E0,0E0,3.581067E0,7.5851746E0,0E0,6.9681644E0,1.1346817E0,3.1861076E0,4.7338715E0,0E0,0E0,2.6297357E0,9.011675E0,0E0,0E0,0E0,1.062888E1,7.6659956E0,0E0,0E0,1.9767532E0,3.9131894E0,0E0,0E0,0E0,6.368164E0,0E0,0E0,0E0,0E0,0E0,0E0,0E0,0E0,0E0,0E0,0E0,0E0,0E0,0E0,0E0,0E0,0E0,0E0,0E0,0E0,0E0,0E0],"parents":[2147483647,0,0,1,1,2,2,3,3,4,4,5,5,6,6,7,7,8,8,9,9,10,10,11,11,12,12,13,13,14,14,15,15,16,16,17,17,18,18,19,19,20,20,21,21,22,22,25,25,26,26,27,27,28,28,29,29,31,31,32,32,37,37,39,39,40,40,45,45,46,46,47,47,49,49,50,50,53,53,55,55,57,57,58,58,59,59,62,62,63,63,64,64,69,69,72,72,77,77,78,78,80,80,81,81,82,82,83,83,86,86,87,87,91,91,92,92,95,95,96,96,100,100],"right_children":[2,4,6,8,10,12,14,16,18,20,22,24,26,28,30,32,34,36,38,40,42,44,46,-1,-1,48,50,52,54,56,-1,58,60,-1,-1,-1,-1,62,-1,64,66,-1,-1,-1,-1,68,70,72,-1,74,76,-1,-1,78,-1,80,-1,82,84,86,-1,-1,88,90,92,-1,-1,-1,-1,94,-1,-1,96,-1,-1,-1,-1,98,100,-1,102,104,106,108,-1,-1,110,112,-1,-1,-1,114,116,-1,-1,118,120,-1,-1,-1,122,-1,-1,-1,-1,-1,-1,-1,-1,-1,-1,-1,-1,-1,-1,-1,-1,-1,-1,-1,-1,-1,-1],"split_conditions":[1E0,-1.5485E4,-7.58E2,1E0,1E0,2E0,1E0,1E0,1E0,1E0,5.031E4,-1.4398E4,3E0,-1.9984E4,5E0,-1.8336E4,2.9196E4,2.25E4,2.565E5,2.34E5,1.215E5,2.4853E4,1.11663E5,-7.8829685E-3,1.1286067E-1,1.095111E6,-1.161E3,-8.11E3,1.11384E6,8E0,1.4950658E-1,2.1627E4,-4.74E2,-1.03081934E-1,-6.981339E-2,6.152918E-3,5.9499793E-2,-2.1643E4,-8.247356E-2,-6.95E3,-3.225E3,-4.6596583E-3,-7.0600234E-2,-3.2901164E-2,3.882415E-2,2.3773E4,-2.372E3,-1.808E3,-6.758894E-2,4.9158E5,-8.94E2,-5.763481E-2,-5.385384E-3,-5.31E2,-2.201623E-2,1E0,1.7652641E-3,-7.385E3,-3.73E2,2.0128E4,6.843081E-3,-6.935814E-2,-3.607E3,1E0,1E0,-1.2855371E-3,-6.0640763E-2,-9.857754E-2,-6.3843615E-2,3.15E4,-6.462312E-2,1.2852193E-2,-1.266E3,-1.0008286E-3,-2.8783383E-2,5.477356E-2,-1.4256515E-2,-1.5219E4,1.7167E4,1.0676447E-1,-1.4864E4,-1.0464E4,1.8E5,-8.619E3,-2.14876E-2,-6.289317E-2,2.295E5,1.00237E5,1.5502256E-2,-4.1053955E-2,9.474719E-3,1.6654E4,-2.801E3,-4.6604022E-2,-1.245592E-2,1.62E5,-4.851E3,-1.5663015E-2,3.3229068E-2,2.8612468E-2,3.141E4,1.5266384E-2,8.095032E-2,-1.2425145E-1,-8.8867724E-2,-7.720272E-2,-2.9454261E-2,-3.3199426E-2,-7.838659E-2,2.7508496E-3,-4.2566724E-2,1.3977345E-2,-5.9427973E-2,-2.4633605E-2,4.4914596E-2,2.3541367E-2,-4.287108E-2,-3.934807E-2,-7.815404E-2,-3.3252187E-2,6.6765617E-3,1.0244227E-1,3.8947664E-2],"split_indices":[25,9,23,1,45,29,1,45,32,0,20,9,25,9,25,9,7,7,5,5,5,7,20,0,0,20,23,11,20,29,0,7,23,0,0,0,0,9,0,11,11,0,0,0,0,7,11,23,0,20,23,0,0,23,0,32,0,11,23,7,0,0,11,1,30,0,0,0,0,7,0,0,23,0,0,0,0,9,7,0,9,11,20,11,0,0,20,20,0,0,0,20,11,0,0,5,11,0,0,0,7,0,0,0,0,0,0,0,0,0,0,0,0,0,0,0,0,0,0,0,0,0,0],"split_type":[0,0,0,0,0,0,0,0,0,0,0,0,0,0,0,0,0,0,0,0,0,0,0,0,0,0,0,0,0,0,0,0,0,0,0,0,0,0,0,0,0,0,0,0,0,0,0,0,0,0,0,0,0,0,0,0,0,0,0,0,0,0,0,0,0,0,0,0,0,0,0,0,0,0,0,0,0,0,0,0,0,0,0,0,0,0,0,0,0,0,0,0,0,0,0,0,0,0,0,0,0,0,0,0,0,0,0,0,0,0,0,0,0,0,0,0,0,0,0,0,0,0,0],"sum_hessian":[5.017032E3,3.1805964E3,1.836436E3,1.4767809E3,1.7038156E3,8.558655E2,9.8057056E2,9.749566E2,5.0182425E2,1.264267E3,4.3954858E2,1.105197E2,7.453458E2,6.181649E2,3.6240564E2,8.0032104E2,1.7463554E2,1.1852514E2,3.832991E2,1.1276903E3,1.3657655E2,1.03551865E2,3.359967E2,5.451085E1,5.6008846E1,4.9780276E2,2.4754301E2,1.3531871E2,4.8284622E2,3.029951E2,5.9410553E1,5.550391E2,2.4528192E2,8.864303E1,8.599252E1,5.7357906E1,6.1167233E1,3.164441E2,6.685503E1,9.925649E2,1.3512546E2,6.626972E1,7.030682E1,5.2226295E1,5.132557E1,1.0112952E2,2.348672E2,4.2111215E2,7.669061E1,1.0775989E2,1.3978314E2,5.0274895E1,8.504381E1,4.0471176E2,7.813445E1,2.3977222E2,6.3222885E1,2.46159E2,3.0888016E2,1.6975273E2,7.55292E1,6.2806026E1,2.5363805E2,1.5113042E2,8.414345E2,7.440302E1,6.072244E1,5.0388897E1,5.0740623E1,1.468834E2,8.79838E1,6.6512085E1,3.5460007E2,5.1127525E1,5.663236E1,8.4428154E1,5.5354984E1,1.448504E2,2.5986136E2,9.3197556E1,1.4657466E2,1.15859184E2,1.3029982E2,2.3156773E2,7.731241E1,5.5095573E1,1.1465716E2,1.5688911E2,9.674893E1,7.959128E1,7.153914E1,6.8562756E2,1.5580695E2,8.860238E1,5.828102E1,1.3102399E2,2.2357608E2,5.1779736E1,9.307067E1,7.916193E1,1.8069943E2,6.773769E1,7.883696E1,5.5587254E1,6.0271927E1,7.1138985E1,5.9160828E1,8.394416E1,1.4762358E2,6.2071117E1,5.258604E1,6.0999393E1,9.5889725E1,5.3006157E1,6.326214E2,8.517431E1,7.063264E1,8.0760574E1,5.026342E1,9.604483E1,1.2753126E2,1.2943785E2,5.1261585E1],"tree_param":{"num_deleted":"0","num_feature":"54","num_nodes":"123","size_leaf_vector":"1"}},{"base_weights":[-3.4728598E-2,-9.85632E-2,2.6510236E-1,-4.506212E-1,-5.378986E-2,-6.70246E-2,3.5662633E-1,-3.9837024E-1,-1.2740135E-1,-1.4076583E-1,8.692476E-2,-2.1379134E-1,4.3209266E-2,-1.2822199E-2,4.115698E-1,-4.6875453E-1,-1.5617923E-2,-2.4440505E-1,6.2697116E-5,3.1102353E-1,-2.3372052E-2,-5.15309E-2,-9.437933E-3,1.4028169E-1,4.8508146E-1,-1.0140383E-1,-3.913631E-1,-4.5684E-1,-1.7921673E-1,-1.2917513E-1,2.3234594E-1,1.988286E-1,5.839727E-1,-3.1839764E-1,5.3469513E-2,4.5307398E-2,-1.9781366E-3,3.9977875E-1,7.622908E-1,-2.6567345E-2,-5.0722224E-1,-3.8872144E-1,-1.0718118E-1,-3.829423E-1,-1.0111085E-1,-2.2446324E-1,8.650619E-2,-7.162431E-3,3.483169E-1,3.1339473E-1,-4.6596713E-2,3.805851E-2,1.20012164E-1,-4.550439E-1,7.2714007E-3,-2.2577348E-1,1.2233866E-1,1.1287117E-1,3.3319765E-1,1.6186036E-1,5.8298178E-2,-9.681875E-2,-3.955298E-2,-5.1919806E-1,-2.3781583E-1,-4.7587204E-1,-2.7525907E-2,1.4100553E-1,-1.7527226E-1,-1.5467446E-1,-7.673906E-2,-4.2667232E-2,2.3800476E-1,2.0912994E-1,8.120133E-2,4.0912408E-1,4.8349397E-3,-8.6135544E-2,-4.102219E-2,-6.917145E-2,6.3360683E-3,-1.6888462E-1,2.1254042E-1,8.442078E-3,3.979399E-1,-9.9176325E-2,-5.7272233E-2,-1.069105E-2,-5.550725E-2,-5.8724627E-2,-1.0231476E-1,-1.6243288E-2,4.937374E-2,-4.3065056E-2,-5.527728E-3,-3.6286052E-2,2.1224236E-3,7.600051E-2,3.0870491E-3,6.0858276E-2,1.3526595E-2,3.4768812E-2,1.2588745E-1,3.5707601E-3,-4.4703808E-2,4.574671E-3,4.1657954E-2,7.214862E-2,1.540783E-2],"categories":[],"categories_nodes":[],"categories_segments":[],"categories_sizes":[],"default_left":[0,0,0,0,0,0,0,0,0,0,0,0,0,0,0,0,0,0,0,0,0,0,0,0,0,0,0,0,0,0,0,0,0,0,0,0,0,0,0,0,0,0,0,0,0,0,0,0,0,0,0,0,0,0,0,0,0,0,0,0,0,0,0,0,0,0,0,0,0,0,0,0,0,0,0,0,0,0,0,0,0,0,0,0,0,0,0,0,0,0,0,0,0,0,0,0,0,0,0,0,0,0,0,0,0,0,0,0,0],"id":8,"left_children":[1,3,5,7,9,11,13,15,-1,17,19,21,-1,-1,23,25,-1,27,29,31,33,-1,-1,35,37,-1,39,41,43,45,47,49,51,53,55,-1,-1,57,59,-1,61,63,-1,65,67,69,71,-1,73,75,-1,-1,-1,77,-1,79,81,-1,83,-1,-1,-1,-1,85,87,89,-1,91,93,95,-1,-1,97,99,-1,101,-1,-1,-1,-1,-1,103,105,-1,107,-1,-1,-1,-1,-1,-1,-1,-1,-1,-1,-1,-1,-1,-1,-1,-1,-1,-1,-1,-1,-1,-1,-1,-1],"loss_changes":[9.4575935E1,6.418739E1,2.6390652E1,9.234238E0,4.4257133E1,9.871214E0,1.6557045E1,8.40374E0,0E0,3.2614304E1,3.41561E1,2.596717E0,0E0,0E0,1.2000412E1,5.0138855E0,0E0,1.77443E1,2.8498299E1,1.3841053E1,2.1027905E1,0E0,0E0,3.2419882E0,1.09446335E1,0E0,5.9165573E0,5.0168E0,1.5660799E1,1.2555074E1,1.1040209E1,1.9038773E1,9.235744E0,9.630144E0,1.4184666E1,0E0,0E0,8.341335E0,1.26996765E1,0E0,5.098793E0,4.616745E0,0E0,4.9737206E0,1.2855173E1,8.403706E0,1.0612055E1,0E0,6.337929E0,7.13113E0,0E0,0E0,0E0,2.8670788E0,0E0,9.228757E0,1.5565006E1,0E0,5.5277977E0,0E0,0E0,0E0,0E0,2.2494583E0,2.4726982E0,2.9633026E0,0E0,7.920719E0,8.463675E0,5.0398455E0,0E0,0E0,7.803249E0,3.264103E0,0E0,1.4902599E1,0E0,0E0,0E0,0E0,0E0,3.4997888E0,5.3523426E0,0E0,6.098587E0,0E0,0E0,0E0,0E0,0E0,0E0,0E0,0E0,0E0,0E0,0E0,0E0,0E0,0E0,0E0,0E0,0E0,0E0,0E0,0E0,0E0,0E0,0E0,0E0],"parents":[2147483647,0,0,1,1,2,2,3,3,4,4,5,5,6,6,7,7,9,9,10,10,11,11,14,14,15,15,17,17,18,18,19,19,20,20,23,23,24,24,26,26,27,27,28,28,29,29,30,30,31,31,32,32,33,33,34,34,37,37,38,38,40,40,41,41,43,43,44,44,45,45,46,46,48,48,49,49,53,53,55,55,56,56,58,58,63,63,64,64,65,65,67,67,68,68,69,69,72,72,73,73,75,75,81,81,82,82,84,84],"right_children":[2,4,6,8,10,12,14,16,-1,18,20,22,-1,-1,24,26,-1,28,30,32,34,-1,-1,36,38,-1,40,42,44,46,48,50,52,54,56,-1,-1,58,60,-1,62,64,-1,66,68,70,72,-1,74,76,-1,-1,-1,78,-1,80,82,-1,84,-1,-1,-1,-1,86,88,90,-1,92,94,96,-1,-1,98,100,-1,102,-1,-1,-1,-1,-1,104,106,-1,108,-1,-1,-1,-1,-1,-1,-1,-1,-1,-1,-1,-1,-1,-1,-1,-1,-1,-1,-1,-1,-1,-1,-1,-1],"split_conditions":[3E0,2E0,-1.9485E4,1.1925E6,1E0,2.2E1,-3.819E3,1E0,-1.2740135E-1,1.4E1,1E0,4.3276E0,4.3209266E-2,-1.2822199E-2,1.5115E4,1E0,-1.5617923E-2,-2.645E3,-1.4664E4,-6.31E2,1E0,-5.15309E-2,-9.437933E-3,1E0,1E0,-1.0140383E-1,1.61406E5,3.7629E4,2.3168E0,2.6E1,1E0,-9.971E3,-4.686E3,5.1237E5,1.6506E4,4.5307398E-2,-1.9781366E-3,1E0,4.545E5,-2.6567345E-2,1E0,3.6666667E0,-1.0718118E-1,-7.28E2,4.8618E4,9.91476E5,2.3809524E0,-7.162431E-3,2.623E4,5.85E5,-4.6596713E-2,3.805851E-2,1.20012164E-1,3.2526E4,7.2714007E-3,-1.455E3,1E0,1.1287117E-1,2.25E0,1.6186036E-1,5.8298178E-2,-9.681875E-2,-3.955298E-2,1.6758E4,-4.39E3,2E0,-2.7525907E-2,1E0,-1.4044E4,-1.7916E4,-7.673906E-2,-4.2667232E-2,4.12766E0,1.5372E4,8.120133E-2,2.5348E4,4.8349397E-3,-8.6135544E-2,-4.102219E-2,-6.917145E-2,6.3360683E-3,4.725E5,-1.8136E4,8.442078E-3,1E0,-9.9176325E-2,-5.7272233E-2,-1.069105E-2,-5.550725E-2,-5.8724627E-2,-1.0231476E-1,-1.6243288E-2,4.937374E-2,-4.3065056E-2,-5.527728E-3,-3.6286052E-2,2.1224236E-3,7.600051E-2,3.0870491E-3,6.0858276E-2,1.3526595E-2,3.4768812E-2,1.2588745E-1,3.5707601E-3,-4.4703808E-2,4.574671E-3,4.1657954E-2,7.214862E-2,1.540783E-2],"split_indices":[17,17,9,8,1,21,10,14,0,21,32,53,0,0,7,3,0,10,9,10,40,0,0,32,14,0,20,7,53,21,40,9,11,20,7,0,0,41,8,0,1,53,0,10,20,20,53,0,7,8,0,0,0,7,0,10,28,0,53,0,0,0,0,7,10,53,0,28,9,9,0,0,53,7,0,7,0,0,0,0,0,8,9,0,43,0,0,0,0,0,0,0,0,0,0,0,0,0,0,0,0,0,0,0,0,0,0,0,0],"split_type":[0,0,0,0,0,0,0,0,0,0,0,0,0,0,0,0,0,0,0,0,0,0,0,0,0,0,0,0,0,0,0,0,0,0,0,0,0,0,0,0,0,0,0,0,0,0,0,0,0,0,0,0,0,0,0,0,0,0,0,0,0,0,0,0,0,0,0,0,0,0,0,0,0,0,0,0,0,0,0,0,0,0,0,0,0,0,0,0,0,0,0,0,0,0,0,0,0,0,0,0,0,0,0,0,0,0,0,0,0],"sum_hessian":[4.9390127E3,4.0726157E3,8.6639667E2,4.5847882E2,3.614137E3,1.8723093E2,6.791658E2,4.071256E2,5.1353218E1,2.2335657E3,1.3805714E3,1.3275687E2,5.447406E1,7.501278E1,6.0415295E2,3.280609E2,7.906468E1,1.2862482E3,9.4731744E2,4.5476642E2,9.2580493E2,7.068853E1,6.2068336E1,1.2942609E2,4.747269E2,8.708724E1,2.4097368E2,3.0061133E2,9.856368E2,6.089523E2,3.3836517E2,3.2351498E2,1.3125146E2,1.906561E2,7.3514886E2,6.2538193E1,6.6887886E1,3.6488638E2,1.09840485E2,8.546323E1,1.5551045E2,2.3974701E2,6.0864315E1,2.7207465E2,7.135622E2,4.223272E2,1.8662509E2,9.924789E1,2.391173E2,2.6443573E2,5.9079243E1,5.2775635E1,7.847582E1,1.3874036E2,5.191575E1,1.4498825E2,5.901606E2,5.630801E1,3.085784E2,5.842136E1,5.1419125E1,9.814875E1,5.7361702E1,1.2726772E2,1.1247929E2,1.8464906E2,8.742557E1,1.6710603E2,5.464561E2,3.4098697E2,8.134023E1,5.3862236E1,1.3276285E2,1.4014485E2,9.897243E1,1.9693024E2,6.75055E1,8.245029E1,5.6290062E1,7.681171E1,6.8176544E1,1.3935855E2,4.5080203E2,5.882782E1,2.4975056E2,6.071239E1,6.6555336E1,5.0462517E1,6.201677E1,1.3309398E2,5.155509E1,7.205749E1,9.5048546E1,3.0166843E2,2.447877E2,2.2453516E2,1.1645183E2,5.8788822E1,7.397403E1,5.1922413E1,8.822244E1,1.4053105E2,5.639919E1,5.6247643E1,8.311091E1,1.1923953E2,3.315625E2,1.9442589E2,5.5324677E1],"tree_param":{"num_deleted":"0","num_feature":"54","num_nodes":"109","size_leaf_vector":"1"}},{"base_weights":[-3.322217E-2,-1.10685214E-1,9.911678E-2,-1.9791271E-1,-1.6594127E-2,-2.746499E-1,1.3175249E-1,-4.7642943E-1,-1.6569513E-1,-6.940737E-2,2.1891671E-1,-6.60013E-2,-2.2483673E-2,4.3362703E-2,2.5886407E-1,-5.9948885E-1,-2.845742E-2,-8.724887E-2,-2.6811332E-1,-2.3087272E-2,-3.161858E-1,3.165088E-1,-2.1482114E-2,1.7135265E-1,-1.4003025E-1,4.3909556E-1,1.4235117E-1,-1.03896864E-1,-7.449259E-2,-3.7891347E-2,-2.7970263E-1,-3.9987487E-1,-1.2850918E-1,-3.4889662E-1,2.000124E-2,-2.059661E-1,-7.461327E-2,5.9391498E-3,4.4239762E-1,8.742094E-2,4.1521323E-1,-2.8806347E-1,1.5781316E-1,3.2116553E-1,9.788942E-2,-1.1149338E-1,2.3820429E-1,-4.9314294E-2,1.2478832E-2,-6.6873185E-2,-1.9447012E-1,-3.341928E-1,-9.660644E-2,-1.970126E-1,3.1099848E-2,-2.1830734E-2,-7.829497E-2,2.1483347E-1,-3.2510456E-2,-5.516147E-2,-1.0005575E-2,2.6614295E-2,1.0020789E-1,-2.1269266E-2,1.3862243E-1,2.953246E-2,1.17241554E-1,-2.0054115E-1,-8.246565E-2,4.206004E-2,-4.3697665E-3,1.587866E-2,4.389445E-1,9.840704E-3,-4.9254198E-2,-2.5290903E-4,3.455109E-1,-1.3185427E-1,1.1462655E-1,-6.5569603E-3,-5.1226113E-2,-7.846489E-2,-2.4409458E-1,3.0238317E-2,-2.965064E-1,-3.7338312E-3,4.2819187E-1,-2.4385302E-1,4.5927115E-2,2.0016259E-1,-2.5953935E-2,-2.971736E-1,-2.5731162E-3,4.2040497E-2,8.942214E-2,4.4578505E-1,6.9291745E-3,-5.575047E-2,-4.994437E-3,1.1112307E-3,3.8431216E-2,-6.04118E-2,-2.238663E-2,-5.6473345E-2,-8.940436E-3,9.4446786E-2,3.3043463E-2,-5.0583303E-2,-1.6787829E-3,2.1056363E-2,-3.4488387E-2,-1.2646681E-2,3.8869787E-2,-6.4641975E-2,-1.7602189E-2,5.1571853E-2,9.627129E-2],"categories":[],"categories_nodes":[],"categories_segments":[],"categories_sizes":[],"default_left":[0,0,0,0,0,0,0,0,0,0,0,0,0,0,0,0,0,0,0,0,0,0,0,0,0,0,0,0,0,0,0,0,0,0,0,0,0,0,0,0,0,0,0,0,0,0,0,0,0,0,0,0,0,0,0,0,0,0,0,0,0,0,0,0,0,0,0,0,0,0,0,0,0,0,0,0,0,0,0,0,0,0,0,0,0,0,0,0,0,0,0,0,0,0,0,0,0,0,0,0,0,0,0,0,0,0,0,0,0,0,0,0,0,0,0,0,0],"id":9,"left_children":[1,3,5,7,9,11,13,15,17,19,21,-1,-1,23,25,27,-1,29,31,33,35,37,-1,39,41,43,45,-1,-1,47,49,51,53,55,57,59,-1,-1,61,63,65,67,69,71,-1,73,75,-1,77,-1,79,81,-1,83,-1,-1,-1,85,87,-1,-1,-1,-1,-1,89,-1,-1,91,-1,-1,-1,-1,93,-1,-1,-1,95,97,99,-1,-1,-1,101,-1,103,-1,105,107,109,111,-1,113,-1,-1,-1,115,-1,-1,-1,-1,-1,-1,-1,-1,-1,-1,-1,-1,-1,-1,-1,-1,-1,-1,-1,-1,-1],"loss_changes":[5.006362E1,2.527755E1,2.203253E1,1.4263233E1,1.8460001E1,2.9281244E0,1.8629606E1,5.7145042E0,1.1499107E1,1.3847464E1,9.65364E0,0E0,0E0,2.3022757E1,1.4223358E1,7.5920105E-1,0E0,7.717863E0,1.1381779E1,1.4348655E1,3.7223015E0,7.459017E0,0E0,1.17843075E1,1.7826916E1,6.503704E0,1.011622E1,0E0,0E0,9.508213E0,2.262412E0,4.9052925E0,7.0179553E0,4.125598E0,9.247668E0,2.6963096E0,0E0,0E0,8.69136E0,5.076984E0,1.1654247E1,6.068466E0,3.0914521E0,4.3590508E0,0E0,4.413115E0,7.7572746E0,0E0,8.181459E0,0E0,2.4550405E0,4.190016E0,0E0,1.0069656E1,0E0,0E0,0E0,9.825064E0,1.1819511E1,0E0,0E0,0E0,0E0,0E0,6.799827E0,0E0,0E0,3.6050825E0,0E0,0E0,0E0,0E0,2.6261635E0,0E0,0E0,0E0,6.2283077E0,5.424219E0,4.9299235E0,0E0,0E0,0E0,2.552781E0,0E0,3.8124847E0,0E0,4.1157494E0,4.1881723E0,1.3589355E1,4.971156E0,0E0,3.1574574E0,0E0,0E0,0E0,2.8944244E0,0E0,0E0,0E0,0E0,0E0,0E0,0E0,0E0,0E0,0E0,0E0,0E0,0E0,0E0,0E0,0E0,0E0,0E0,0E0,0E0,0E0],"parents":[2147483647,0,0,1,1,2,2,3,3,4,4,5,5,6,6,7,7,8,8,9,9,10,10,13,13,14,14,15,15,17,17,18,18,19,19,20,20,21,21,23,23,24,24,25,25,26,26,29,29,30,30,31,31,32,32,33,33,34,34,35,35,38,38,39,39,40,40,41,41,42,42,43,43,45,45,46,46,48,48,50,50,51,51,53,53,57,57,58,58,64,64,67,67,72,72,76,76,77,77,78,78,82,82,84,84,86,86,87,87,88,88,89,89,91,91,95,95],"right_children":[2,4,6,8,10,12,14,16,18,20,22,-1,-1,24,26,28,-1,30,32,34,36,38,-1,40,42,44,46,-1,-1,48,50,52,54,56,58,60,-1,-1,62,64,66,68,70,72,-1,74,76,-1,78,-1,80,82,-1,84,-1,-1,-1,86,88,-1,-1,-1,-1,-1,90,-1,-1,92,-1,-1,-1,-1,94,-1,-1,-1,96,98,100,-1,-1,-1,102,-1,104,-1,106,108,110,112,-1,114,-1,-1,-1,116,-1,-1,-1,-1,-1,-1,-1,-1,-1,-1,-1,-1,-1,-1,-1,-1,-1,-1,-1,-1,-1],"split_conditions":[1E0,-1.64E3,2E0,-5.732E3,3E0,5.4E5,1.8E1,1E0,2E0,1E0,8.1E5,-6.60013E-2,-2.2483673E-2,6E0,2.17683E5,4.0593333E0,-2.845742E-2,9E5,1.4E1,2E0,1.05592E5,2.1066666E0,-2.1482114E-2,1E0,4E0,3.7209303E0,2.3E1,-1.03896864E-1,-7.449259E-2,1.6666666E0,7E0,2.25E5,-1.44E3,1.18386E5,4.6282E4,-7.28E2,-7.461327E-2,5.9391498E-3,1.1E1,1E0,2E0,1.84533E5,1.665E5,1E0,9.788942E-2,1.095111E6,2.3529413E0,-4.9314294E-2,-5.56E3,-6.6873185E-2,2E0,3.10671E5,-9.660644E-2,1.18075E5,3.1099848E-2,-2.1830734E-2,-7.829497E-2,5E0,2.71066E5,-5.516147E-2,-1.0005575E-2,2.6614295E-2,1.0020789E-1,-2.1269266E-2,4.61133E5,2.953246E-2,1.17241554E-1,3E0,-8.246565E-2,4.206004E-2,-4.3697665E-3,1.587866E-2,1.575E5,9.840704E-3,-4.9254198E-2,-2.5290903E-4,5.1501E5,2.78016E0,2E0,-6.5569603E-3,-5.1226113E-2,-7.846489E-2,-2.814E3,3.0238317E-2,9.045E5,-3.7338312E-3,2.8854E4,1.5E1,1E0,-2.852E3,-2.5953935E-2,-1.553E3,-2.5731162E-3,4.2040497E-2,8.942214E-2,-2.572E3,6.9291745E-3,-5.575047E-2,-4.994437E-3,1.1112307E-3,3.8431216E-2,-6.04118E-2,-2.238663E-2,-5.6473345E-2,-8.940436E-3,9.4446786E-2,3.3043463E-2,-5.0583303E-2,-1.6787829E-3,2.1056363E-2,-3.4488387E-2,-1.2646681E-2,3.8869787E-2,-6.4641975E-2,-1.7602189E-2,5.1571853E-2,9.627129E-2],"split_indices":[25,10,17,10,17,6,21,14,29,44,6,0,0,29,19,53,0,6,21,17,19,53,0,14,25,53,21,0,0,53,21,5,11,20,20,10,0,0,21,38,25,19,5,46,0,20,53,0,11,0,22,6,0,19,0,0,0,21,6,0,0,0,0,0,20,0,0,26,0,0,0,0,5,0,0,0,19,53,22,0,0,0,10,0,6,0,19,21,45,10,0,10,0,0,0,11,0,0,0,0,0,0,0,0,0,0,0,0,0,0,0,0,0,0,0,0,0],"split_type":[0,0,0,0,0,0,0,0,0,0,0,0,0,0,0,0,0,0,0,0,0,0,0,0,0,0,0,0,0,0,0,0,0,0,0,0,0,0,0,0,0,0,0,0,0,0,0,0,0,0,0,0,0,0,0,0,0,0,0,0,0,0,0,0,0,0,0,0,0,0,0,0,0,0,0,0,0,0,0,0,0,0,0,0,0,0,0,0,0,0,0,0,0,0,0,0,0,0,0,0,0,0,0,0,0,0,0,0,0,0,0,0,0,0,0,0,0],"sum_hessian":[4.881529E3,3.079275E3,1.8022538E3,1.597346E3,1.481929E3,1.4413258E2,1.6581212E3,1.6418658E2,1.4331594E3,1.2110554E3,2.7087357E2,6.089446E1,8.323812E1,9.7881915E2,6.7930206E2,1.1411619E2,5.0070396E1,8.126044E2,6.20555E2,1.0205859E3,1.9046953E2,2.1347052E2,5.740305E1,5.7652673E2,4.0229242E2,2.656322E2,4.1366983E2,5.6877144E1,5.723904E1,6.4769147E2,1.6491287E2,3.1828552E2,3.022695E2,1.1837889E2,9.0220703E2,1.19768234E2,7.0701294E1,6.7127144E1,1.4634338E2,4.2991684E2,1.4660992E2,2.6875128E2,1.335411E2,1.7272784E2,9.290436E1,1.1334335E2,3.0032648E2,9.4789215E1,5.529023E2,5.4486935E1,1.1042594E2,2.5268192E2,6.5603615E1,2.5140285E2,5.086664E1,5.5273273E1,6.3105614E1,1.908844E2,7.1132263E2,5.464641E1,6.5121826E1,6.812996E1,7.821342E1,7.817553E1,3.517413E2,9.283085E1,5.3779068E1,2.0272173E2,6.6029564E1,8.0351555E1,5.3189556E1,6.17477E1,1.1098015E2,6.2776485E1,5.0566864E1,9.312477E1,2.072017E2,2.290158E2,3.2388647E2,5.5163845E1,5.5262096E1,8.004595E1,1.7263597E2,5.0012386E1,2.0139046E2,9.0303894E1,1.00580505E2,1.919697E2,5.193529E2,2.9403665E2,5.7704643E1,1.3235776E2,7.036397E1,5.6616535E1,5.4363613E1,1.5483951E2,5.236221E1,6.589827E1,1.6311752E2,1.8490898E2,1.389775E2,6.3379177E1,1.0925679E2,1.501187E2,5.1271763E1,5.005224E1,5.0528263E1,1.3667241E2,5.529728E1,3.8725214E2,1.3210078E2,5.041244E1,2.4362422E2,7.509665E1,5.726111E1,1.036658E2,5.11737E1],"tree_param":{"num_deleted":"0","num_feature":"54","num_nodes":"117","size_leaf_vector":"1"}},{"base_weights":[-2.520029E-2,-2.2064464E-1,3.1946324E-2,-2.5665712E-1,5.510135E-2,-5.9856225E-2,1.5157369E-1,-3.1949785E-1,5.519091E-2,-1.261532E-1,2.9312548E-1,2.423455E-1,-9.615434E-3,-5.0819016E-1,-2.6888427E-1,-1.1653934E-2,1.5093488E-1,-1.7774506E-1,1.1307918E-1,1.1988616E-1,4.3907577E-1,9.906575E-2,2.1181686E-1,3.887867E-2,-4.718048E-2,-9.950548E-2,-5.1909234E-2,-3.9308587E-1,-1.7163545E-1,4.3862667E-2,3.9583142E-4,2.5111249E-2,-2.2715835E-1,3.3710286E-1,-8.614037E-2,5.4337617E-2,-3.2782683E-3,5.5962485E-1,3.4740962E-2,1.0538738E-1,3.0795345E-1,-1.5041932E-1,7.8569666E-2,-3.0179578E-1,-5.1140916E-1,-2.7291185E-1,4.1343823E-2,1.7409311E-1,-2.4520645E-1,-2.6782313E-1,-4.1020624E-2,1.2600464E-2,1.03424065E-1,-3.0047802E-2,1.0472086E-2,5.7235893E-2,1.0694111E-1,3.4463525E-1,1.7165264E-2,-1.2845052E-3,3.6661142E-1,-2.1784563E-1,1.93635E-2,2.0484719E-1,-2.8430361E-2,-6.2459674E-2,-2.0782474E-2,-5.6691557E-2,-1.01280905E-1,-4.9055612E-1,-1.1931955E-1,4.7265634E-2,-2.521992E-2,-4.186778E-2,3.4301326E-1,-1.1633817E-2,-6.255655E-2,-1.0548375E-1,-2.4150176E-1,-1.7019562E-1,3.7775114E-2,9.838287E-4,9.034274E-2,-6.75314E-2,5.4157764E-2,4.5325875E-1,1.4319636E-1,-6.6155165E-2,-1.4958708E-1,-1.4027468E-3,6.1278693E-2,-1.00998886E-1,-4.253428E-2,9.842949E-4,-5.00015E-2,7.031153E-2,2.5912192E-2,-4.8470728E-2,-1.7265175E-2,-3.6351383E-3,-4.2798117E-2,-2.1687765E-2,4.036007E-2,8.171482E-2,3.304147E-2,-1.6966829E-3,4.246064E-2,-3.4172304E-3,-3.6046114E-2],"categories":[],"categories_nodes":[],"categories_segments":[],"categories_sizes":[],"default_left":[0,0,0,0,0,0,0,0,0,0,0,0,0,0,0,0,0,0,0,0,0,0,0,0,0,0,0,0,0,0,0,0,0,0,0,0,0,0,0,0,0,0,0,0,0,0,0,0,0,0,0,0,0,0,0,0,0,0,0,0,0,0,0,0,0,0,0,0,0,0,0,0,0,0,0,0,0,0,0,0,0,0,0,0,0,0,0,0,0,0,0,0,0,0,0,0,0,0,0,0,0,0,0,0,0,0,0,0,0],"id":10,"left_children":[1,3,5,7,-1,9,11,13,15,17,19,21,23,25,27,-1,29,31,33,35,37,-1,39,-1,41,-1,-1,43,45,-1,-1,47,49,51,53,-1,-1,55,-1,57,59,61,63,65,67,69,71,73,75,77,79,-1,-1,-1,-1,-1,-1,81,83,-1,85,87,-1,89,-1,-1,-1,-1,-1,91,93,-1,-1,-1,95,-1,-1,-1,97,99,-1,-1,-1,101,-1,103,105,-1,107,-1,-1,-1,-1,-1,-1,-1,-1,-1,-1,-1,-1,-1,-1,-1,-1,-1,-1,-1,-1],"loss_changes":[5.473634E1,2.3571629E1,4.165733E1,2.0502853E1,0E0,5.0267376E1,2.4099236E1,8.173798E0,2.253118E0,2.2332144E1,8.536467E0,1.3308582E1,6.013173E0,4.3724785E0,8.245518E0,0E0,2.1547363E0,1.4915558E1,1.4368786E1,5.391202E0,4.472172E0,0E0,1.0029598E1,0E0,6.7920237E0,0E0,0E0,3.1020164E0,8.3756695E0,0E0,0E0,1.1812456E1,9.043285E0,1.3449051E1,3.0564778E0,0E0,0E0,2.8855515E0,0E0,9.877247E0,9.586498E0,5.4397745E0,8.032772E0,3.1715937E0,2.5835648E0,8.731224E0,7.2694917E0,1.4564743E1,2.9710793E0,1.1078964E1,8.200916E0,0E0,0E0,0E0,0E0,0E0,0E0,1.0979538E1,1.0018912E1,0E0,8.3654785E0,3.4640627E0,0E0,7.0276737E0,0E0,0E0,0E0,0E0,0E0,3.912592E0,4.1909666E0,0E0,0E0,0E0,2.8760395E0,0E0,0E0,0E0,9.529522E0,2.5177379E0,0E0,0E0,0E0,7.2018776E0,0E0,6.5600357E0,2.664906E0,0E0,2.0532246E0,0E0,0E0,0E0,0E0,0E0,0E0,0E0,0E0,0E0,0E0,0E0,0E0,0E0,0E0,0E0,0E0,0E0,0E0,0E0,0E0],"parents":[2147483647,0,0,1,1,2,2,3,3,5,5,6,6,7,7,8,8,9,9,10,10,11,11,12,12,13,13,14,14,16,16,17,17,18,18,19,19,20,20,22,22,24,24,27,27,28,28,31,31,32,32,33,33,34,34,37,37,39,39,40,40,41,41,42,42,43,43,44,44,45,45,46,46,47,47,48,48,49,49,50,50,57,57,58,58,60,60,61,61,63,63,69,69,70,70,74,74,78,78,79,79,83,83,85,85,86,86,88,88],"right_children":[2,4,6,8,-1,10,12,14,16,18,20,22,24,26,28,-1,30,32,34,36,38,-1,40,-1,42,-1,-1,44,46,-1,-1,48,50,52,54,-1,-1,56,-1,58,60,62,64,66,68,70,72,74,76,78,80,-1,-1,-1,-1,-1,-1,82,84,-1,86,88,-1,90,-1,-1,-1,-1,-1,92,94,-1,-1,-1,96,-1,-1,-1,98,100,-1,-1,-1,102,-1,104,106,-1,108,-1,-1,-1,-1,-1,-1,-1,-1,-1,-1,-1,-1,-1,-1,-1,-1,-1,-1,-1,-1],"split_conditions":[1E0,1E0,-1.4347E4,3E0,5.510135E-2,2.5E1,1E0,2.7846E5,1.575E5,2E0,-1.9798E4,2.6955E4,5.031E4,-6.2E2,1.1E1,-1.1653934E-2,3.24352E0,5.5813E4,4E0,2.6823704E0,1.061572E6,9.906575E-2,1.2E1,3.887867E-2,1E0,-9.950548E-2,-5.1909234E-2,1E0,1E0,4.3862667E-2,3.9583142E-4,5.0333333E0,-3.91E2,1E0,1.8E1,5.4337617E-2,-3.2782683E-3,-6.04E2,3.4740962E-2,2E0,1.6188E0,-3.82E2,8E0,-4.6E2,-1.327E4,-8.27E2,-1.5646E4,2.2333333E0,7.8192E5,1.575E5,1.5E1,1.2600464E-2,1.03424065E-1,-3.0047802E-2,1.0472086E-2,5.7235893E-2,1.0694111E-1,2.698E0,-3.73E2,-1.2845052E-3,6.75E5,2.84256E5,1.93635E-2,2.65344E0,-2.8430361E-2,-6.2459674E-2,-2.0782474E-2,-5.6691557E-2,-1.01280905E-1,4E0,7.09749E5,4.7265634E-2,-2.521992E-2,-4.186778E-2,3.1603E4,-1.1633817E-2,-6.255655E-2,-1.0548375E-1,-1.7333E4,1E0,3.7775114E-2,9.838287E-4,9.034274E-2,5.528E0,5.4157764E-2,-4.08E2,5.5675673E0,-6.6155165E-2,3.4285715E0,-1.4027468E-3,6.1278693E-2,-1.00998886E-1,-4.253428E-2,9.842949E-4,-5.00015E-2,7.031153E-2,2.5912192E-2,-4.8470728E-2,-1.7265175E-2,-3.6351383E-3,-4.2798117E-2,-2.1687765E-2,4.036007E-2,8.171482E-2,3.304147E-2,-1.6966829E-3,4.246064E-2,-3.4172304E-3,-3.6046114E-2],"split_indices":[40,39,9,17,0,21,2,6,20,25,9,20,20,23,21,0,53,20,24,53,20,0,21,0,25,0,0,2,1,0,0,53,23,1,21,0,0,23,0,24,53,23,29,23,9,23,9,53,6,6,21,0,0,0,0,0,0,53,23,0,6,6,0,53,0,0,0,0,0,29,20,0,0,0,20,0,0,0,9,29,0,0,0,53,0,23,53,0,53,0,0,0,0,0,0,0,0,0,0,0,0,0,0,0,0,0,0,0,0],"split_type":[0,0,0,0,0,0,0,0,0,0,0,0,0,0,0,0,0,0,0,0,0,0,0,0,0,0,0,0,0,0,0,0,0,0,0,0,0,0,0,0,0,0,0,0,0,0,0,0,0,0,0,0,0,0,0,0,0,0,0,0,0,0,0,0,0,0,0,0,0,0,0,0,0,0,0,0,0,0,0,0,0,0,0,0,0,0,0,0,0,0,0,0,0,0,0,0,0,0,0,0,0,0,0,0,0,0,0,0,0],"sum_hessian":[4.8991143E3,1.1077367E3,3.7913774E3,1.0443375E3,6.3399113E1,2.1454497E3,1.6459276E3,8.691666E2,1.7517094E2,1.806749E3,3.3870074E2,1.0526412E3,5.932864E2,1.81918E2,6.8724866E2,7.3436455E1,1.017345E2,1.4864454E3,3.2030362E2,1.5570464E2,1.829961E2,7.022803E1,9.824132E2,7.202104E1,5.212653E2,9.137129E1,9.054671E1,3.0046582E2,3.867828E2,5.1565857E1,5.0168636E1,2.9125372E2,1.1951917E3,1.5044035E2,1.6986327E2,5.6883446E1,9.88212E1,1.14670166E2,6.832593E1,4.6724203E2,5.151712E2,2.8614703E2,2.3511829E2,1.7161226E2,1.2885356E2,2.619421E2,1.2484071E2,1.8799747E2,1.0325624E2,9.8053845E2,2.1465323E2,8.8275856E1,6.2164505E1,9.790207E1,7.19612E1,5.4669243E1,6.0000923E1,1.2509442E2,3.421476E2,8.0679726E1,4.3449146E2,2.3071263E2,5.5434406E1,1.5999612E2,7.5122154E1,9.991741E1,7.169485E1,7.2823044E1,5.6030525E1,1.07466034E2,1.5447606E2,5.389815E1,7.094256E1,5.086762E1,1.3712985E2,5.299988E1,5.0256355E1,5.4431343E1,9.261071E2,1.4924274E2,6.541049E1,5.454646E1,7.0547966E1,2.7517715E2,6.697045E1,3.12331E2,1.22160446E2,5.2755096E1,1.7795752E2,7.8448875E1,8.154725E1,5.587617E1,5.1589863E1,9.78773E1,5.659877E1,7.787272E1,5.9257133E1,5.61745E2,3.643621E2,6.6341805E1,8.290093E1,2.2438231E2,5.079484E1,2.2329207E2,8.903895E1,5.8480797E1,6.3679653E1,7.473993E1,1.032176E2],"tree_param":{"num_deleted":"0","num_feature":"54","num_nodes":"109","size_leaf_vector":"1"}},{"base_weights":[-3.922168E-2,-9.45906E-2,2.1451126E-1,-4.0989213E-2,-2.665853E-1,2.555227E-1,-3.959051E-2,-2.5114033E-1,1.9837001E-2,-9.734234E-2,-2.3778532E-1,6.916334E-2,3.5022187E-1,-3.04151E-1,3.4233138E-2,5.4081365E-2,-2.4291025E-1,-1.8040866E-1,-4.906361E-1,3.7433002E-3,5.0152533E-2,-9.40169E-3,3.9777666E-1,-5.201464E-1,-2.1363693E-1,-4.900486E-2,1.4130367E-1,-8.388966E-2,-1.22860275E-1,-3.1805453E-1,-8.1078224E-2,-6.1239195E-1,-3.9249413E-2,4.2127375E-2,-8.007519E-2,5.556652E-1,1.8930975E-1,-6.101094E-1,-4.3518852E-2,-1.5386637E-1,-6.40665E-2,1.5831532E-1,-1.1522808E-1,3.382461E-2,2.8777263E-1,-2.3461874E-1,2.1547465E-2,-7.834128E-2,-2.3597768E-1,-1.8126842E-1,9.285779E-2,-1.0269784E-1,-7.972918E-2,-3.962533E-2,2.3144316E-2,4.6612087E-1,1.1352908E-1,6.12219E-2,6.6055834E-2,-7.242699E-2,-1.118545E-1,-2.5621793E-1,2.6492119E-2,-3.1821992E-2,2.8847274E-1,-1.4830096E-1,4.1655365E-2,-1.8228456E-1,1.12742856E-1,3.438749E-1,-6.285785E-3,-2.1396399E-2,-5.2358788E-2,-6.4326964E-2,-8.928279E-2,-9.9466935E-2,-5.5583164E-2,3.9657596E-2,-4.429303E-3,-1.7136691E-2,2.3756394E-2,4.6023075E-2,9.528009E-2,3.309931E-2,-1.2147284E-2,2.6186877E-3,-5.105215E-2,7.998865E-2,1.8928379E-2,-7.315003E-2,-1.7915506E-2,-6.602172E-2,-9.168606E-4,-6.3851615E-4,3.629271E-2,7.074843E-2,2.4509046E-2,-4.0745247E-2,2.6768794E-2,-3.5544574E-2,5.5917744E-3],"categories":[],"categories_nodes":[],"categories_segments":[],"categories_sizes":[],"default_left":[0,0,0,0,0,0,0,0,0,0,0,0,0,0,0,0,0,0,0,0,0,0,0,0,0,0,0,0,0,0,0,0,0,0,0,0,0,0,0,0,0,0,0,0,0,0,0,0,0,0,0,0,0,0,0,0,0,0,0,0,0,0,0,0,0,0,0,0,0,0,0,0,0,0,0,0,0,0,0,0,0,0,0,0,0,0,0,0,0,0,0,0,0,0,0,0,0,0,0,0,0],"id":11,"left_children":[1,3,5,7,9,11,-1,13,15,-1,17,19,21,23,-1,25,27,29,31,33,-1,-1,35,37,39,41,43,-1,45,47,49,51,-1,-1,53,55,57,59,-1,61,-1,63,65,67,69,71,-1,-1,73,75,77,-1,-1,-1,79,81,-1,83,-1,-1,-1,85,-1,-1,87,89,-1,91,93,95,-1,-1,-1,-1,97,99,-1,-1,-1,-1,-1,-1,-1,-1,-1,-1,-1,-1,-1,-1,-1,-1,-1,-1,-1,-1,-1,-1,-1,-1,-1],"loss_changes":[6.840761E1,3.6833717E1,1.7182922E1,3.896846E1,1.030043E1,1.4163227E1,0E0,1.7458065E1,2.129117E1,0E0,1.2743114E1,4.7195168E0,1.0486588E1,1.194339E1,0E0,1.8825907E1,1.0294029E1,9.852089E0,4.3840485E0,5.1155996E0,0E0,0E0,1.5624863E1,3.5764084E0,5.499899E0,1.3198537E1,1.7841919E1,0E0,5.9632626E0,4.946951E0,7.3531446E0,2.5354004E-1,0E0,0E0,3.2199996E0,4.5371857E0,6.6452017E0,1.874157E0,0E0,1.1625123E1,0E0,1.1288008E1,9.504026E0,1.119464E1,8.8887825E0,1.430572E0,0E0,0E0,6.1180124E0,4.1043997E0,3.2516818E0,0E0,0E0,0E0,2.0486367E0,4.9343224E0,0E0,3.1591897E0,0E0,0E0,0E0,6.033661E0,0E0,0E0,6.793996E0,6.527218E0,0E0,7.9762287E0,7.265547E0,9.381645E0,0E0,0E0,0E0,0E0,6.1442046E0,3.5458288E0,0E0,0E0,0E0,0E0,0E0,0E0,0E0,0E0,0E0,0E0,0E0,0E0,0E0,0E0,0E0,0E0,0E0,0E0,0E0,0E0,0E0,0E0,0E0,0E0,0E0],"parents":[2147483647,0,0,1,1,2,2,3,3,4,4,5,5,7,7,8,8,10,10,11,11,12,12,13,13,15,15,16,16,17,17,18,18,19,19,22,22,23,23,24,24,25,25,26,26,28,28,29,29,30,30,31,31,34,34,35,35,36,36,37,37,39,39,41,41,42,42,43,43,44,44,45,45,48,48,49,49,50,50,54,54,55,55,57,57,61,61,64,64,65,65,67,67,68,68,69,69,74,74,75,75],"right_children":[2,4,6,8,10,12,-1,14,16,-1,18,20,22,24,-1,26,28,30,32,34,-1,-1,36,38,40,42,44,-1,46,48,50,52,-1,-1,54,56,58,60,-1,62,-1,64,66,68,70,72,-1,-1,74,76,78,-1,-1,-1,80,82,-1,84,-1,-1,-1,86,-1,-1,88,90,-1,92,94,96,-1,-1,-1,-1,98,100,-1,-1,-1,-1,-1,-1,-1,-1,-1,-1,-1,-1,-1,-1,-1,-1,-1,-1,-1,-1,-1,-1,-1,-1,-1],"split_conditions":[3E0,6.795E5,1E0,-1.9296E4,6.885E5,-5.052E3,-3.959051E-2,3.1E1,1E0,-9.734234E-2,1.35E6,2E0,2.25E5,2.6955E5,3.4233138E-2,-7.58E2,1E0,1.002456E6,8.1088E0,7.7602E4,5.0152533E-2,-9.40169E-3,4.68E5,-4.29E2,6.10452E5,5.4652E4,1E0,-8.388966E-2,-1.011E4,1E0,-1.445E4,1.2E1,-3.9249413E-2,4.2127375E-2,1.782E5,-3.82E2,-1.2634E4,2.025E5,-4.3518852E-2,3.20395E5,-6.40665E-2,2.142857E0,1E0,1.994E0,5E0,-1.4044E4,2.1547465E-2,-7.834128E-2,-1.6784E4,-1.6613E4,-4.45E3,-1.0269784E-1,-7.972918E-2,-3.962533E-2,-1.7916E4,4.14792E5,1.1352908E-1,-1.6613E4,6.6055834E-2,-7.242699E-2,-1.118545E-1,3.4947E4,2.6492119E-2,-3.1821992E-2,1E0,1.575E5,4.1655365E-2,1E0,-3.73E2,-1.2258E4,-6.285785E-3,-2.1396399E-2,-5.2358788E-2,-6.4326964E-2,1.3E1,1.3E1,-5.5583164E-2,3.9657596E-2,-4.429303E-3,-1.7136691E-2,2.3756394E-2,4.6023075E-2,9.528009E-2,3.309931E-2,-1.2147284E-2,2.6186877E-3,-5.105215E-2,7.998865E-2,1.8928379E-2,-7.315003E-2,-1.7915506E-2,-6.602172E-2,-9.168606E-4,-6.3851615E-4,3.629271E-2,7.074843E-2,2.4509046E-2,-4.0745247E-2,2.6768794E-2,-3.5544574E-2,5.5917744E-3],"split_indices":[17,8,0,9,8,11,0,21,0,0,8,25,6,6,0,23,40,6,53,20,0,0,8,23,20,19,25,0,9,40,9,21,0,0,20,23,9,8,0,20,0,53,42,53,26,9,0,0,9,9,11,0,0,0,9,6,0,9,0,0,0,19,0,0,32,6,0,46,23,9,0,0,0,0,21,21,0,0,0,0,0,0,0,0,0,0,0,0,0,0,0,0,0,0,0,0,0,0,0,0,0],"split_type":[0,0,0,0,0,0,0,0,0,0,0,0,0,0,0,0,0,0,0,0,0,0,0,0,0,0,0,0,0,0,0,0,0,0,0,0,0,0,0,0,0,0,0,0,0,0,0,0,0,0,0,0,0,0,0,0,0,0,0,0,0,0,0,0,0,0,0,0,0,0,0,0,0,0,0,0,0,0,0,0,0,0,0,0,0,0,0,0,0,0,0,0,0,0,0,0,0,0,0,0,0],"sum_hessian":[4.8667993E3,3.9955322E3,8.7126697E2,3.047142E3,9.4839E2,8.029094E2,6.835756E1,6.8328894E2,2.3638533E3,6.492173E1,8.8346826E2,2.7111337E2,5.317961E2,6.1557983E2,6.770905E1,2.0919937E3,2.7185947E2,7.214671E2,1.6200114E2,2.1827928E2,5.283409E1,5.4889954E1,4.769061E2,1.8038272E2,4.3519714E2,9.590045E2,1.1329893E3,7.377911E1,1.9808037E2,3.014855E2,4.199816E2,1.0466914E2,5.7331997E1,5.0145714E1,1.6813356E2,2.7042578E2,2.0648032E2,1.2848055E2,5.1902184E1,3.4134448E2,9.385266E1,2.318326E2,7.2717194E2,6.541813E2,4.7880795E2,1.3964233E2,5.8438034E1,8.4893425E1,2.1659209E2,2.664561E2,1.5352553E2,5.1332066E1,5.333708E1,5.9843113E1,1.0829045E2,1.8943314E2,8.0992645E1,1.3754898E2,6.8931335E1,6.862757E1,5.985297E1,2.607985E2,8.0545975E1,6.0111027E1,1.7172157E2,6.71292E2,5.5879925E1,1.746396E2,4.795417E2,4.0914026E2,6.966769E1,7.8665085E1,6.0977245E1,9.2739044E1,1.2385305E2,1.8711731E2,7.9338776E1,6.3445557E1,9.007997E1,5.379375E1,5.44967E1,9.89865E1,9.044663E1,6.458452E1,7.296446E1,6.1507088E1,1.9929141E2,6.754788E1,1.0417369E2,5.137423E1,6.199178E2,7.02774E1,1.0436221E2,2.5216805E2,2.2737364E2,2.3859846E2,1.705418E2,7.366622E1,5.018682E1,9.293685E1,9.418045E1],"tree_param":{"num_deleted":"0","num_feature":"54","num_nodes":"101","size_leaf_vector":"1"}},{"base_weights":[-2.8606076E-2,-5.908095E-2,1.7630811E-1,-3.7350878E-4,-1.761235E-1,-1.4263313E-1,2.5830436E-1,-8.012303E-2,2.103591E-1,-4.5804796E-1,-1.4533319E-1,7.200573E-3,-4.4054635E-2,3.2318047E-1,-1.1840713E-2,-1.21121965E-1,9.180851E-2,2.8024313E-1,-5.2202348E-2,-9.7247034E-2,-5.0210264E-2,-9.316008E-2,-3.2377034E-1,4.768613E-1,1.6944207E-1,-1.4446846E-1,1.7549326E-1,-4.3459687E-2,1.5416531E-1,4.80476E-1,2.0920476E-1,-3.8502876E-2,2.6646664E-2,-1.9094074E-1,2.6864225E-2,-5.115617E-1,-2.1160066E-1,6.0064E-1,2.8217653E-2,-1.2612953E-2,2.698199E-1,-9.429324E-2,-3.437171E-1,4.767302E-2,4.8543806E-3,-2.3987798E-2,2.1562576E-1,2.133415E-2,1.05214365E-1,-8.901198E-3,2.51266E-1,-2.718003E-1,-4.1200858E-2,-1.35153E-1,1.2611267E-1,-6.427706E-2,-8.681554E-2,-5.6106217E-2,-1.284783E-1,1.0950935E-1,7.818852E-2,7.483647E-2,1.707282E-2,-1.4109257E-1,3.772007E-2,-4.64763E-1,-1.19867995E-1,1.3882615E-1,5.7772364E-2,7.521422E-2,2.0127729E-1,-1.6009034E-1,-4.5815924E-1,-1.4246471E-1,3.479221E-2,-2.7329773E-1,2.7389633E-2,5.3519204E-2,4.1164633E-2,1.0551668E-2,-4.3742344E-2,-1.0748315E-2,-3.391058E-2,-8.690634E-3,4.7850057E-2,-9.400643E-2,-5.3694304E-2,6.630082E-3,-4.0676136E-2,3.89525E-3,4.9208805E-2,1.9457757E-2,5.7749003E-2,8.037966E-3,-3.9391898E-2,-4.9375296E-2,-8.9455634E-2,-3.2465875E-3,-4.993235E-2,-1.7029755E-2,-5.9175517E-2,-1.4171709E-2,2.583757E-2],"categories":[],"categories_nodes":[],"categories_segments":[],"categories_sizes":[],"default_left":[0,0,0,0,0,0,0,0,0,0,0,0,0,0,0,0,0,0,0,0,0,0,0,0,0,0,0,0,0,0,0,0,0,0,0,0,0,0,0,0,0,0,0,0,0,0,0,0,0,0,0,0,0,0,0,0,0,0,0,0,0,0,0,0,0,0,0,0,0,0,0,0,0,0,0,0,0,0,0,0,0,0,0,0,0,0,0,0,0,0,0,0,0,0,0,0,0,0,0,0,0,0,0],"id":12,"left_children":[1,3,5,7,9,11,13,15,17,19,21,-1,-1,23,-1,25,27,29,31,-1,-1,33,35,37,39,41,43,-1,45,47,49,-1,-1,51,53,55,57,59,-1,-1,61,63,65,-1,-1,-1,67,-1,-1,-1,69,71,73,75,77,-1,-1,-1,79,-1,-1,-1,-1,81,83,85,87,89,-1,-1,91,93,95,97,-1,99,-1,-1,101,-1,-1,-1,-1,-1,-1,-1,-1,-1,-1,-1,-1,-1,-1,-1,-1,-1,-1,-1,-1,-1,-1,-1,-1],"loss_changes":[3.0031782E1,2.876179E1,1.6320494E1,4.6881393E1,1.20707855E1,3.6998453E0,1.0870277E1,1.42764015E1,1.4067287E1,3.0021496E0,1.1718756E1,0E0,0E0,9.745453E0,0E0,1.1344137E1,9.328857E0,8.505482E0,7.6518707E0,0E0,0E0,1.1481869E1,5.897543E0,7.3008537E0,5.353182E0,1.5121399E1,2.4284756E0,0E0,6.5217857E0,1.1683857E1,5.0792694E0,0E0,0E0,6.515093E0,7.0905213E0,3.4314346E-1,2.3851137E0,1.1064873E0,0E0,0E0,5.3143024E0,7.4947004E0,8.196209E0,0E0,0E0,0E0,3.6113577E0,0E0,0E0,0E0,4.749035E0,7.209425E0,5.2935114E0,7.4062595E0,5.341019E0,0E0,0E0,0E0,3.936353E0,0E0,0E0,0E0,0E0,5.2659245E0,8.57639E0,3.1883812E0,2.698791E0,4.1621714E0,0E0,0E0,4.2215176E0,4.839162E0,2.1315136E0,3.199085E0,0E0,2.2248545E0,0E0,0E0,3.588081E0,0E0,0E0,0E0,0E0,0E0,0E0,0E0,0E0,0E0,0E0,0E0,0E0,0E0,0E0,0E0,0E0,0E0,0E0,0E0,0E0,0E0,0E0,0E0,0E0],"parents":[2147483647,0,0,1,1,2,2,3,3,4,4,5,5,6,6,7,7,8,8,9,9,10,10,13,13,15,15,16,16,17,17,18,18,21,21,22,22,23,23,24,24,25,25,26,26,28,28,29,29,30,30,33,33,34,34,35,35,36,36,37,37,40,40,41,41,42,42,46,46,50,50,51,51,52,52,53,53,54,54,58,58,63,63,64,64,65,65,66,66,67,67,70,70,71,71,72,72,73,73,75,75,78,78],"right_children":[2,4,6,8,10,12,14,16,18,20,22,-1,-1,24,-1,26,28,30,32,-1,-1,34,36,38,40,42,44,-1,46,48,50,-1,-1,52,54,56,58,60,-1,-1,62,64,66,-1,-1,-1,68,-1,-1,-1,70,72,74,76,78,-1,-1,-1,80,-1,-1,-1,-1,82,84,86,88,90,-1,-1,92,94,96,98,-1,100,-1,-1,102,-1,-1,-1,-1,-1,-1,-1,-1,-1,-1,-1,-1,-1,-1,-1,-1,-1,-1,-1,-1,-1,-1,-1,-1],"split_conditions":[3E0,1E0,-1.086E3,1E0,2E0,1.50759E5,1E0,3E0,4E0,9E0,1E0,7.200573E-3,-4.4054635E-2,4E0,-1.1840713E-2,2.8E1,-1.418E3,4.2646E4,4.42422E5,-9.7247034E-2,-5.0210264E-2,-3.566E3,-9.83E2,7.67664E5,1.5E1,1.9263E5,3.11364E5,-4.3459687E-2,-7.993E3,2.1334E4,-8.48E3,-3.8502876E-2,2.6646664E-2,1.4E1,1E0,1.04733E5,7.1955E4,-4.912E3,2.8217653E-2,-1.2612953E-2,2.29929E5,-3.6E2,2.1E1,4.767302E-2,4.8543806E-3,-2.3987798E-2,-3.91E2,2.133415E-2,1.05214365E-1,-8.901198E-3,1E0,3E0,-5.35E2,3.45501E5,1E0,-6.427706E-2,-8.681554E-2,-5.6106217E-2,1.62151E5,1.0950935E-1,7.818852E-2,7.483647E-2,1.707282E-2,3E0,-1.702E3,-5.873E3,-5.327E3,1.7E1,5.7772364E-2,7.521422E-2,2.89732E5,1E0,8.9803E4,2.2E1,3.479221E-2,2E0,2.7389633E-2,5.3519204E-2,1.70176E5,1.0551668E-2,-4.3742344E-2,-1.0748315E-2,-3.391058E-2,-8.690634E-3,4.7850057E-2,-9.400643E-2,-5.3694304E-2,6.630082E-3,-4.0676136E-2,3.89525E-3,4.9208805E-2,1.9457757E-2,5.7749003E-2,8.037966E-3,-3.9391898E-2,-4.9375296E-2,-8.9455634E-2,-3.2465875E-3,-4.993235E-2,-1.7029755E-2,-5.9175517E-2,-1.4171709E-2,2.583757E-2],"split_indices":[25,2,23,1,17,19,43,17,24,21,45,0,0,24,0,21,23,19,20,0,0,11,23,20,21,19,19,0,11,20,11,0,0,21,46,19,19,11,0,0,19,23,21,0,0,0,23,0,0,0,41,24,23,20,32,0,0,0,19,0,0,0,0,24,11,11,11,21,0,0,20,32,19,21,0,24,0,0,20,0,0,0,0,0,0,0,0,0,0,0,0,0,0,0,0,0,0,0,0,0,0,0,0],"split_type":[0,0,0,0,0,0,0,0,0,0,0,0,0,0,0,0,0,0,0,0,0,0,0,0,0,0,0,0,0,0,0,0,0,0,0,0,0,0,0,0,0,0,0,0,0,0,0,0,0,0,0,0,0,0,0,0,0,0,0,0,0,0,0,0,0,0,0,0,0,0,0,0,0,0,0,0,0,0,0,0,0,0,0,0,0,0,0,0,0,0,0,0,0,0,0,0,0,0,0,0,0,0,0],"sum_hessian":[4.8064688E3,4.184814E3,6.216546E2,2.787589E3,1.3972252E3,1.2698416E2,4.9467047E2,2.0227286E3,7.648604E2,1.3620642E2,1.2610188E3,5.644066E1,7.05435E1,4.148974E2,7.977306E1,1.6334988E3,3.8922986E2,6.040244E2,1.6083604E2,5.1888153E1,8.431827E1,9.7690454E2,2.8411423E2,2.0643646E2,2.0846094E2,1.5147834E3,1.18715225E2,5.4165222E1,3.3506464E2,1.566678E2,4.473566E2,8.5052345E1,7.57837E1,5.3801056E2,4.3889398E2,1.04912346E2,1.7920189E2,1.4373843E2,6.269802E1,5.9171448E1,1.4928949E2,1.2112397E3,3.0354376E2,5.8912796E1,5.980243E1,5.457347E1,2.8049118E2,6.2552437E1,9.411536E1,6.0523666E1,3.8683292E2,3.488281E2,1.8918243E2,1.6658768E2,2.723063E2,5.0225655E1,5.468669E1,5.9474583E1,1.1972731E2,5.1529945E1,9.220849E1,5.9586994E1,8.97025E1,8.9418E2,3.1705972E2,1.9631218E2,1.0723159E2,1.9429025E2,8.620091E1,6.292117E1,3.2391174E2,2.1925694E2,1.2957115E2,1.383651E2,5.081733E1,1.16206024E2,5.0381653E1,7.242669E1,1.9987961E2,5.421809E1,6.550922E1,4.9310092E2,4.0107907E2,2.3719025E2,7.986949E1,7.608042E1,1.2023176E2,5.1785732E1,5.544586E1,1.2241781E2,7.1872444E1,2.3434035E2,8.957141E1,7.124519E1,1.4801175E2,6.877046E1,6.0800697E1,8.5333984E1,5.3031116E1,5.096445E1,6.524158E1,9.836965E1,1.0150996E2],"tree_param":{"num_deleted":"0","num_feature":"54","num_nodes":"103","size_leaf_vector":"1"}},{"base_weights":[-2.2042755E-3,-7.2708376E-2,1.09839186E-1,-2.45797E-1,-3.2461334E-2,1.8206152E-1,-1.2890394E-1,-3.0628237E-1,-1.8187486E-2,-7.6995924E-2,9.814496E-2,3.189761E-1,9.608303E-2,-4.5912266E-2,-6.180099E-2,-1.3780524E-2,-3.442229E-1,3.7706662E-2,-3.673643E-2,-3.8363833E-2,-4.571736E-1,-2.0099886E-2,1.5545535E-1,3.803989E-1,-2.3980372E-2,3.5942845E-2,3.2933995E-1,-2.6408044E-1,7.456965E-2,-4.2354882E-1,-1.9623841E-1,2.5809747E-1,-6.904559E-2,-5.610587E-1,-3.5582896E-2,1.9736286E-2,-1.6264047E-1,9.973325E-2,7.950811E-2,8.608025E-3,4.3155032E-1,-1.6448882E-1,9.772601E-2,9.6888445E-2,1.9949858E-1,-5.8299642E-2,-1.6558262E-2,5.6988254E-2,-6.250167E-2,-3.1646773E-1,-8.853042E-2,-5.0523076E-2,-1.3645307E-2,1.5896525E-2,7.027749E-2,-1.4993975E-1,9.72451E-2,-1.0567565E-1,-6.1341E-2,-4.3773144E-2,-3.7563196E-3,1.7164779E-1,-2.7799869E-2,1.14443354E-1,3.735223E-1,2.2229444E-2,-3.1125733E-1,1.7128684E-1,-1.168684E-1,3.183086E-3,5.638756E-2,2.0693272E-2,-4.4336285E-2,-2.9067514E-2,-7.7006504E-2,-3.336663E-1,-1.008044E-1,4.4026945E-2,5.5992115E-2,2.4638025E-1,-1.3419376E-3,2.9998338E-1,5.576151E-1,-6.420691E-2,-2.8641315E-2,3.3824158E-1,9.930023E-2,6.988008E-3,-5.7908017E-2,-7.627736E-2,-2.1430267E-2,-1.080687E-2,-5.370057E-2,-2.4010764E-2,1.9232906E-2,1.9933928E-2,7.875422E-2,8.878674E-2,3.3132914E-2,1.14738785E-1,5.0020352E-2,8.8421285E-2,2.8808373E-3,-2.1747038E-2,2.8142445E-2],"categories":[],"categories_nodes":[],"categories_segments":[],"categories_sizes":[],"default_left":[0,0,0,0,0,0,0,0,0,0,0,0,0,0,0,0,0,0,0,0,0,0,0,0,0,0,0,0,0,0,0,0,0,0,0,0,0,0,0,0,0,0,0,0,0,0,0,0,0,0,0,0,0,0,0,0,0,0,0,0,0,0,0,0,0,0,0,0,0,0,0,0,0,0,0,0,0,0,0,0,0,0,0,0,0,0,0,0,0,0,0,0,0,0,0,0,0,0,0,0,0,0,0,0,0],"id":13,"left_children":[1,3,5,7,9,11,13,15,17,19,21,23,25,27,-1,-1,29,-1,-1,31,33,35,37,39,-1,41,43,45,47,49,51,53,55,57,-1,-1,59,61,-1,-1,63,65,67,-1,69,-1,-1,-1,71,73,-1,-1,-1,-1,-1,75,77,-1,-1,-1,-1,79,-1,-1,81,-1,83,85,87,-1,-1,-1,-1,-1,-1,89,91,93,-1,95,-1,97,99,-1,-1,101,103,-1,-1,-1,-1,-1,-1,-1,-1,-1,-1,-1,-1,-1,-1,-1,-1,-1,-1],"loss_changes":[3.8432446E1,2.0794128E1,3.242307E1,7.7479477E0,1.4106222E1,1.6956497E1,1.0248411E1,3.5875053E0,7.3530817E0,2.6538448E1,4.1828866E0,1.6420029E1,1.244288E1,8.931936E0,0E0,0E0,4.349964E0,0E0,0E0,1.495726E1,3.6758652E0,4.393742E0,8.621106E0,8.125275E0,0E0,8.770746E0,7.346838E0,2.2710228E0,9.19881E0,4.1851387E0,1.9472437E0,4.8877287E0,2.004692E1,2.166462E0,0E0,0E0,1.8538303E0,7.4728928E0,