{"learner":{"attributes":{"best_iteration":"572","best_score":"-0.280349"},"feature_names":[],"feature_types":[],"gradient_booster":{"model":{"gbtree_model_param":{"num_parallel_tree":"1","num_trees":"623"},"iteration_indptr":[0,1,2,3,4,5,6,7,8,9,10,11,12,13,14,15,16,17,18,19,20,21,22,23,24,25,26,27,28,29,30,31,32,33,34,35,36,37,38,39,40,41,42,43,44,45,46,47,48,49,50,51,52,53,54,55,56,57,58,59,60,61,62,63,64,65,66,67,68,69,70,71,72,73,74,75,76,77,78,79,80,81,82,83,84,85,86,87,88,89,90,91,92,93,94,95,96,97,98,99,100,101,102,103,104,105,106,107,108,109,110,111,112,113,114,115,116,117,118,119,120,121,122,123,124,125,126,127,128,129,130,131,132,133,134,135,136,137,138,139,140,141,142,143,144,145,146,147,148,149,150,151,152,153,154,155,156,157,158,159,160,161,162,163,164,165,166,167,168,169,170,171,172,173,174,175,176,177,178,179,180,181,182,183,184,185,186,187,188,189,190,191,192,193,194,195,196,197,198,199,200,201,202,203,204,205,206,207,208,209,210,211,212,213,214,215,216,217,218,219,220,221,222,223,224,225,226,227,228,229,230,231,232,233,234,235,236,237,238,239,240,241,242,243,244,245,246,247,248,249,250,251,252,253,254,255,256,257,258,259,260,261,262,263,264,265,266,267,268,269,270,271,272,273,274,275,276,277,278,279,280,281,282,283,284,285,286,287,288,289,290,291,292,293,294,295,296,297,298,299,300,301,302,303,304,305,306,307,308,309,310,311,312,313,314,315,316,317,318,319,320,321,322,323,324,325,326,327,328,329,330,331,332,333,334,335,336,337,338,339,340,341,342,343,344,345,346,347,348,349,350,351,352,353,354,355,356,357,358,359,360,361,362,363,364,365,366,367,368,369,370,371,372,373,374,375,376,377,378,379,380,381,382,383,384,385,386,387,388,389,390,391,392,393,394,395,396,397,398,399,400,401,402,403,404,405,406,407,408,409,410,411,412,413,414,415,416,417,418,419,420,421,422,423,424,425,426,427,428,429,430,431,432,433,434,435,436,437,438,439,440,441,442,443,444,445,446,447,448,449,450,451,452,453,454,455,456,457,458,459,460,461,462,463,464,465,466,467,468,469,470,471,472,473,474,475,476,477,478,479,480,481,482,483,484,485,486,487,488,489,490,491,492,493,494,495,496,497,498,499,500,501,502,503,504,505,506,507,508,509,510,511,512,513,514,515,516,517,518,519,520,521,522,523,524,525,526,527,528,529,530,531,532,533,534,535,536,537,538,539,540,541,542,543,544,545,546,547,548,549,550,551,552,553,554,555,556,557,558,559,560,561,562,563,564,565,566,567,568,569,570,571,572,573,574,575,576,577,578,579,580,581,582,583,584,585,586,587,588,589,590,591,592,593,594,595,596,597,598,599,600,601,602,603,604,605,606,607,608,609,610,611,612,613,614,615,616,617,618,619,620,621,622,623],"tree_info":[0,0,0,0,0,0,0,0,0,0,0,0,0,0,0,0,0,0,0,0,0,0,0,0,0,0,0,0,0,0,0,0,0,0,0,0,0,0,0,0,0,0,0,0,0,0,0,0,0,0,0,0,0,0,0,0,0,0,0,0,0,0,0,0,0,0,0,0,0,0,0,0,0,0,0,0,0,0,0,0,0,0,0,0,0,0,0,0,0,0,0,0,0,0,0,0,0,0,0,0,0,0,0,0,0,0,0,0,0,0,0,0,0,0,0,0,0,0,0,0,0,0,0,0,0,0,0,0,0,0,0,0,0,0,0,0,0,0,0,0,0,0,0,0,0,0,0,0,0,0,0,0,0,0,0,0,0,0,0,0,0,0,0,0,0,0,0,0,0,0,0,0,0,0,0,0,0,0,0,0,0,0,0,0,0,0,0,0,0,0,0,0,0,0,0,0,0,0,0,0,0,0,0,0,0,0,0,0,0,0,0,0,0,0,0,0,0,0,0,0,0,0,0,0,0,0,0,0,0,0,0,0,0,0,0,0,0,0,0,0,0,0,0,0,0,0,0,0,0,0,0,0,0,0,0,0,0,0,0,0,0,0,0,0,0,0,0,0,0,0,0,0,0,0,0,0,0,0,0,0,0,0,0,0,0,0,0,0,0,0,0,0,0,0,0,0,0,0,0,0,0,0,0,0,0,0,0,0,0,0,0,0,0,0,0,0,0,0,0,0,0,0,0,0,0,0,0,0,0,0,0,0,0,0,0,0,0,0,0,0,0,0,0,0,0,0,0,0,0,0,0,0,0,0,0,0,0,0,0,0,0,0,0,0,0,0,0,0,0,0,0,0,0,0,0,0,0,0,0,0,0,0,0,0,0,0,0,0,0,0,0,0,0,0,0,0,0,0,0,0,0,0,0,0,0,0,0,0,0,0,0,0,0,0,0,0,0,0,0,0,0,0,0,0,0,0,0,0,0,0,0,0,0,0,0,0,0,0,0,0,0,0,0,0,0,0,0,0,0,0,0,0,0,0,0,0,0,0,0,0,0,0,0,0,0,0,0,0,0,0,0,0,0,0,0,0,0,0,0,0,0,0,0,0,0,0,0,0,0,0,0,0,0,0,0,0,0,0,0,0,0,0,0,0,0,0,0,0,0,0,0,0,0,0,0,0,0,0,0,0,0,0,0,0,0,0,0,0,0,0,0,0,0,0,0,0,0,0,0,0,0,0,0,0,0,0,0,0,0,0,0,0,0,0,0,0,0,0,0,0,0,0,0,0,0,0,0,0,0,0,0,0,0,0,0,0,0,0,0,0,0,0,0,0,0,0,0,0,0,0,0,0,0,0,0,0,0,0,0,0,0,0,0,0,0,0,0,0,0,0,0,0,0,0,0,0,0,0,0,0,0,0,0],"trees":[{"base_weights":[-9.808442E-2,-3.2724836E-1,2.0482016E-1,-4.6060196E-1,-7.100649E-2,-2.1416944E-1,3.5004228E-1,-5.387053E-1,-2.0530023E-1,-4.352932E-1,3.108295E-2,-3.4538475E-1,7.508933E-2,8.854846E-2,5.7769674E-1,-7.6924735E-1,-4.730474E-1,-5.3416926E-1,-4.6981785E-2,-5.442565E-1,-2.0499858E-1,-9.386009E-2,5.159225E-1,-4.2695686E-1,1.2078992E-1,-2.760302E-1,2.977575E-1,-4.3457154E-2,6.006331E-1,4.754129E-1,1.0213257E0,-8.6296177E-1,-5.188172E-1,-5.2663463E-1,-2.0343807E-1,-6.5114295E-1,-1.9604781E-1,-1.8930113E-1,2.806808E-1,-6.021502E-1,-1.354143E-2,-5.5955805E-2,-1.961286E-2,-2.7017233E-1,1.440914E-1,2.1084338E-1,8.580408E-1,-2.7431914E-1,-5.976471E-1,-1.2816697E-1,4.463082E-2,-3.6601147E-1,1.1650111E-3,4.519473E-1,-1.2721269E-2,-2.1069176E-1,2.33734E-1,1.2949036E-1,8.122077E-1,3.4011722E-1,7.2840625E-1,9.0208626E-1,1.459679E0,-6.549787E-1,-9.0797114E-1,-2.2775257E-2,-6.130782E-1,-5.548056E-1,-7.2144724E-2,-3.7646738E-1,-4.672863E-3,-4.7346243E-1,-8.6517894E-1,-5.397315E-2,2.2952426E-2,-3.4667188E-1,2.4398606E-1,8.802843E-2,7.518703E-2,-4.390169E-1,-6.7435175E-1,-3.7830587E-2,2.3522723E-2,-3.7783834E-1,-6.118958E-2,-2.5368834E-1,2.7733734E-1,4.2785552E-1,-6.090475E-2,1.3117072E-1,5.845693E-1,-1.5475114E-1,-5.2958816E-1,-4.1642535E-1,-7.109127E-1,-3.0762365E-2,6.023317E-3,-1.3002432E-2,-5.2669443E-2,2.683005E-1,1.047277E-1,-3.385699E-1,-2.824848E-3,-2.8766733E-1,3.9029828E-1,-3.74887E-3,4.101045E-2,2.9268041E-2,9.1353977E-1,4.7736368E-1,7.448867E-2,2.4630675E-1,8.578233E-1,1.0102652E0,1.8147053E-2,1.0358254E-1,1.822748E-1,-8.658301E-2,-3.955548E-2,-1.102543E-1,-8.678565E-2,-4.9581423E-2,-9.024484E-2,-6.650286E-2,-4.405849E-2,-3.69323E-2,2.4884632E-2,-5.811733E-2,-1.3590296E-2,-4.0613685E-2,2.3194132E-2,-2.820291E-2,-7.262238E-2,-7.6024465E-2,-9.926304E-2,-4.200208E-2,1.2597871E-2,1.5586843E-3,6.003917E-2,2.0818202E-2,-1.9950936E-2,-2.0920895E-2,-6.007492E-2,-8.755377E-2,-5.8647078E-2,-3.1446952E-2,-6.3226126E-2,-3.3631925E-2,2.1458834E-2,-5.8458414E-2,1.9268332E-2,-8.008312E-4,5.638082E-2,1.682204E-2,6.305932E-2,1.9269064E-2,-2.6739553E-2,2.8081054E-2,9.683223E-2,-5.8638025E-2,-7.1927207E-3,-9.024484E-2,-3.3782043E-2,-2.256838E-2,-6.8739414E-2,-9.596215E-2,-6.4067416E-2,4.701418E-2,-1.6560948E-2,-2.1244638E-2,-4.9131196E-2,-1.3370827E-2,4.2250518E-2,-6.544825E-2,-1.0357057E-2,2.3912355E-2,1.0607296E-1,6.430736E-2,1.1799814E-1,6.1405685E-2,7.756474E-3,3.543242E-2,-7.995575E-3,6.3684955E-2,3.0729428E-3,7.957334E-2,1.3840094E-1,1.217983E-1,7.8066126E-2],"categories":[],"categories_nodes":[],"categories_segments":[],"categories_sizes":[],"default_left":[0,0,0,0,0,0,0,0,0,0,0,0,0,0,0,0,0,0,0,0,0,0,0,0,0,0,0,0,0,0,0,0,0,0,0,0,0,0,0,0,0,0,0,0,0,0,0,0,0,0,0,0,0,0,0,0,0,0,0,0,0,0,0,0,0,0,0,0,0,0,0,0,0,0,0,0,0,0,0,0,0,0,0,0,0,0,0,0,0,0,0,0,0,0,0,0,0,0,0,0,0,0,0,0,0,0,0,0,0,0,0,0,0,0,0,0,0,0,0,0,0,0,0,0,0,0,0,0,0,0,0,0,0,0,0,0,0,0,0,0,0,0,0,0,0,0,0,0,0,0,0,0,0,0,0,0,0,0,0,0,0,0,0,0,0,0,0,0,0,0,0,0,0,0,0,0,0,0,0,0,0,0,0,0,0,0,0,0,0],"id":0,"left_children":[1,3,5,7,9,11,13,15,17,19,21,23,25,27,29,31,33,35,37,39,41,43,45,47,49,51,53,55,57,59,61,63,65,67,69,71,73,75,77,79,-1,-1,81,83,85,87,89,91,93,95,-1,97,-1,99,-1,101,103,105,107,109,111,113,115,117,119,-1,121,123,125,127,129,131,133,-1,-1,135,137,-1,139,141,143,-1,-1,145,147,149,151,153,155,-1,157,159,161,163,165,-1,-1,-1,-1,167,-1,169,171,173,175,-1,-1,-1,177,179,181,183,185,187,-1,-1,-1,-1,-1,-1,-1,-1,-1,-1,-1,-1,-1,-1,-1,-1,-1,-1,-1,-1,-1,-1,-1,-1,-1,-1,-1,-1,-1,-1,-1,-1,-1,-1,-1,-1,-1,-1,-1,-1,-1,-1,-1,-1,-1,-1,-1,-1,-1,-1,-1,-1,-1,-1,-1,-1,-1,-1,-1,-1,-1,-1,-1,-1,-1,-1,-1,-1,-1,-1,-1,-1,-1,-1,-1],"loss_changes":[5.4631494E2,1.5306473E2,2.0634268E2,5.864453E1,5.7090755E1,3.3166927E1,1.4983423E2,3.378076E1,3.599872E1,8.320484E0,7.2724884E1,2.2900269E1,2.1450008E1,7.931803E1,6.0582123E1,1.1249725E1,2.5296143E1,8.761192E0,2.1884016E1,5.303108E0,7.188372E0,4.0094475E1,2.549237E1,1.3165054E1,7.3719463E0,2.7631636E0,1.1047864E1,4.3323486E1,2.386541E1,3.725093E1,1.1817627E1,2.786438E0,3.6529503E0,1.8731506E1,1.008074E1,5.924103E0,8.782094E0,2.2380222E1,1.7450756E1,2.0477066E0,0E0,0E0,6.7581434E0,1.2324055E1,2.1642355E1,7.772252E0,1.3578026E1,8.217846E0,4.643944E0,1.7739929E0,0E0,3.0111876E0,0E0,1.3198505E1,0E0,1.54899845E1,2.8826788E1,3.5629766E0,8.458969E0,2.605558E1,2.355072E1,1.54207E1,6.1323776E0,3.3687592E0,1.3405457E0,0E0,3.0756836E0,1.708606E1,8.364443E0,7.638443E0,1.31505995E1,4.305334E0,2.3952103E-1,0E0,0E0,8.382835E0,7.1300673E0,0E0,3.9495945E0,2.249875E0,1.8923111E0,0E0,0E0,5.637123E0,1.4319873E1,1.5273907E1,2.496498E1,3.7446861E0,3.1513567E0,0E0,8.347414E0,6.628617E0,5.867857E0,4.7538834E0,1.9476776E0,0E0,0E0,0E0,0E0,8.447914E0,0E0,6.8461304E0,1.2469073E1,5.4565763E0,2.7207283E1,0E0,0E0,0E0,9.202782E0,2.5729797E1,1.0616685E1,6.8844633E0,8.694946E0,7.339142E0,0E0,0E0,0E0,0E0,0E0,0E0,0E0,0E0,0E0,0E0,0E0,0E0,0E0,0E0,0E0,0E0,0E0,0E0,0E0,0E0,0E0,0E0,0E0,0E0,0E0,0E0,0E0,0E0,0E0,0E0,0E0,0E0,0E0,0E0,0E0,0E0,0E0,0E0,0E0,0E0,0E0,0E0,0E0,0E0,0E0,0E0,0E0,0E0,0E0,0E0,0E0,0E0,0E0,0E0,0E0,0E0,0E0,0E0,0E0,0E0,0E0,0E0,0E0,0E0,0E0,0E0,0E0,0E0,0E0,0E0,0E0,0E0,0E0,0E0,0E0],"parents":[2147483647,0,0,1,1,2,2,3,3,4,4,5,5,6,6,7,7,8,8,9,9,10,10,11,11,12,12,13,13,14,14,15,15,16,16,17,17,18,18,19,19,20,20,21,21,22,22,23,23,24,24,25,25,26,26,27,27,28,28,29,29,30,30,31,31,32,32,33,33,34,34,35,35,36,36,37,37,38,38,39,39,42,42,43,43,44,44,45,45,46,46,47,47,48,48,49,49,51,51,53,53,55,55,56,56,57,57,58,58,59,59,60,60,61,61,62,62,63,63,64,64,66,66,67,67,68,68,69,69,70,70,71,71,72,72,75,75,76,76,78,78,79,79,80,80,83,83,84,84,85,85,86,86,87,87,88,88,90,90,91,91,92,92,93,93,94,94,99,99,101,101,102,102,103,103,104,104,108,108,109,109,110,110,111,111,112,112,113,113],"right_children":[2,4,6,8,10,12,14,16,18,20,22,24,26,28,30,32,34,36,38,40,42,44,46,48,50,52,54,56,58,60,62,64,66,68,70,72,74,76,78,80,-1,-1,82,84,86,88,90,92,94,96,-1,98,-1,100,-1,102,104,106,108,110,112,114,116,118,120,-1,122,124,126,128,130,132,134,-1,-1,136,138,-1,140,142,144,-1,-1,146,148,150,152,154,156,-1,158,160,162,164,166,-1,-1,-1,-1,168,-1,170,172,174,176,-1,-1,-1,178,180,182,184,186,188,-1,-1,-1,-1,-1,-1,-1,-1,-1,-1,-1,-1,-1,-1,-1,-1,-1,-1,-1,-1,-1,-1,-1,-1,-1,-1,-1,-1,-1,-1,-1,-1,-1,-1,-1,-1,-1,-1,-1,-1,-1,-1,-1,-1,-1,-1,-1,-1,-1,-1,-1,-1,-1,-1,-1,-1,-1,-1,-1,-1,-1,-1,-1,-1,-1,-1,-1,-1,-1,-1,-1,-1,-1,-1,-1],"split_conditions":[-1.634E3,1E0,1E0,-1.3771E4,1E0,1E0,-1.3869E4,1E0,1E0,-6.17E2,-1.3397E4,3E0,-8.46E2,2E0,3E0,1.6E1,3E0,-2.108E3,-2.139E3,1E0,-3.003E3,1.9E1,-7.71E2,1E0,-6.49E2,1.9E1,-1.062E4,-5.25E2,-9.14E2,1E0,2E0,-1.554E3,2E0,2.9E1,-1.942E4,-6.95E2,1.2E1,1.4E1,4.9166E4,1E0,-1.354143E-2,-5.5955805E-2,2E0,-6.95E2,1E0,1E0,1.05993E5,1.21497E5,1E0,1.2E1,4.463082E-2,1.09775E5,1.1650111E-3,4E0,-1.2721269E-2,-1.6085E4,1E0,-5.36E2,-1.9669E4,1E0,-1.105E3,1E0,-7.81E2,-1.8333E4,2E0,-2.2775257E-2,1E0,-1.9479E4,-6.79E2,-7.26E2,-3.824E3,1.24627E5,-2.66E2,-5.397315E-2,2.2952426E-2,-1.0571E4,-1.2052E4,8.802843E-2,1E0,6E0,-1.36E3,-3.7830587E-2,2.3522723E-2,2.2893E5,-1.9286E4,3E0,-2.0084E4,1.2E1,-2.781E3,1.3117072E-1,2E1,2E0,1.2E1,9.6652E4,2E0,-3.0762365E-2,6.023317E-3,-1.3002432E-2,-5.2669443E-2,3E0,1.047277E-1,4E0,1.8E1,-9.44E2,3E0,-3.74887E-3,4.101045E-2,2.9268041E-2,-5.07E2,4E0,5.8131E4,5E0,6E0,8.2716E4,1.8147053E-2,1.0358254E-1,1.822748E-1,-8.658301E-2,-3.955548E-2,-1.102543E-1,-8.678565E-2,-4.9581423E-2,-9.024484E-2,-6.650286E-2,-4.405849E-2,-3.69323E-2,2.4884632E-2,-5.811733E-2,-1.3590296E-2,-4.0613685E-2,2.3194132E-2,-2.820291E-2,-7.262238E-2,-7.6024465E-2,-9.926304E-2,-4.200208E-2,1.2597871E-2,1.5586843E-3,6.003917E-2,2.0818202E-2,-1.9950936E-2,-2.0920895E-2,-6.007492E-2,-8.755377E-2,-5.8647078E-2,-3.1446952E-2,-6.3226126E-2,-3.3631925E-2,2.1458834E-2,-5.8458414E-2,1.9268332E-2,-8.008312E-4,5.638082E-2,1.682204E-2,6.305932E-2,1.9269064E-2,-2.6739553E-2,2.8081054E-2,9.683223E-2,-5.8638025E-2,-7.1927207E-3,-9.024484E-2,-3.3782043E-2,-2.256838E-2,-6.8739414E-2,-9.596215E-2,-6.4067416E-2,4.701418E-2,-1.6560948E-2,-2.1244638E-2,-4.9131196E-2,-1.3370827E-2,4.2250518E-2,-6.544825E-2,-1.0357057E-2,2.3912355E-2,1.0607296E-1,6.430736E-2,1.1799814E-1,6.1405685E-2,7.756474E-3,3.543242E-2,-7.995575E-3,6.3684955E-2,3.0729428E-3,7.957334E-2,1.3840094E-1,1.217983E-1,7.8066126E-2],"split_indices":[10,25,40,9,40,25,9,40,40,23,9,17,23,25,17,21,17,10,10,27,10,21,23,45,10,21,9,23,23,25,25,23,12,21,9,23,21,21,19,3,0,0,25,23,28,2,19,19,32,21,0,19,0,25,0,9,28,10,9,2,23,30,10,9,17,0,30,9,23,23,10,19,23,0,0,9,9,0,2,22,23,0,0,19,9,25,9,21,10,0,21,17,21,19,17,0,0,0,0,12,0,22,21,10,17,0,0,0,23,22,19,22,25,19,0,0,0,0,0,0,0,0,0,0,0,0,0,0,0,0,0,0,0,0,0,0,0,0,0,0,0,0,0,0,0,0,0,0,0,0,0,0,0,0,0,0,0,0,0,0,0,0,0,0,0,0,0,0,0,0,0,0,0,0,0,0,0,0,0,0,0,0,0,0,0,0,0,0,0],"split_type":[0,0,0,0,0,0,0,0,0,0,0,0,0,0,0,0,0,0,0,0,0,0,0,0,0,0,0,0,0,0,0,0,0,0,0,0,0,0,0,0,0,0,0,0,0,0,0,0,0,0,0,0,0,0,0,0,0,0,0,0,0,0,0,0,0,0,0,0,0,0,0,0,0,0,0,0,0,0,0,0,0,0,0,0,0,0,0,0,0,0,0,0,0,0,0,0,0,0,0,0,0,0,0,0,0,0,0,0,0,0,0,0,0,0,0,0,0,0,0,0,0,0,0,0,0,0,0,0,0,0,0,0,0,0,0,0,0,0,0,0,0,0,0,0,0,0,0,0,0,0,0,0,0,0,0,0,0,0,0,0,0,0,0,0,0,0,0,0,0,0,0,0,0,0,0,0,0,0,0,0,0,0,0,0,0,0,0,0,0],"sum_hessian":[7.8683276E3,4.479363E3,3.3889646E3,2.9456094E3,1.5337537E3,8.7216144E2,2.5168032E3,2.2547222E3,6.9088715E2,3.3502325E2,1.1987305E3,5.9985675E2,2.723047E2,1.1719916E3,1.3448116E3,4.97423E2,1.7572992E3,2.2374205E2,4.6714508E2,2.2649458E2,1.08528656E2,9.537546E2,2.4497592E2,5.1059586E2,8.926089E1,1.05579506E2,1.6672519E2,9.325207E2,2.3947084E2,1.0945272E3,2.5028438E2,3.601893E2,1.372337E2,1.4651368E3,2.921623E2,1.6554552E2,5.8196526E1,3.259792E2,1.411659E2,1.9798616E2,2.8508432E1,3.656944E1,7.195922E1,5.477551E2,4.0599942E2,1.3035236E2,1.14623566E2,2.709284E2,2.3966745E2,5.092196E1,3.833893E1,8.0216835E1,2.5362675E1,1.2229135E2,4.4433834E1,5.817687E2,3.5075204E2,7.4711754E1,1.6475908E2,7.1467694E2,3.798503E2,1.9916582E2,5.111857E1,6.684736E1,2.9334195E2,3.440673E1,1.0282697E2,1.3794149E3,8.572191E1,1.5571503E2,1.3644727E2,9.221004E1,7.333549E1,3.2047413E1,2.6149115E1,2.3927423E2,8.6704956E1,3.519317E1,1.05972725E2,6.291516E1,1.3507098E2,2.9688093E1,4.2271126E1,3.6097574E2,1.8677939E2,1.0164731E2,3.043521E2,7.215583E1,5.8196526E1,4.1681297E1,7.294227E1,1.8559973E2,8.532869E1,9.397952E1,1.4568793E2,2.5755896E1,2.5166065E1,3.322707E1,4.698976E1,9.456935E1,2.7721994E1,3.5979608E2,2.2197256E2,8.080666E1,2.6994537E2,4.738298E1,2.7328773E1,2.7525383E1,1.372337E2,4.7068405E2,2.4399287E2,8.100327E1,2.9884702E2,1.7282008E2,2.6345724E1,2.5362675E1,2.5755896E1,3.5586388E1,3.1260971E1,4.5613495E1,2.4772845E2,7.510497E1,2.7721994E1,6.9953796E2,6.7987695E2,4.4433834E1,4.1288074E1,8.3362595E1,7.235244E1,5.033213E1,8.611513E1,5.36745E1,3.8535538E1,4.4040615E1,2.9294872E1,2.0722682E2,3.2047413E1,5.347789E1,3.322707E1,7.1565994E1,3.440673E1,2.6935555E1,3.597961E1,3.833893E1,9.673206E1,2.90786E2,7.018973E1,9.3389694E1,9.3389694E1,5.8196526E1,4.3450783E1,1.529625E2,1.5138962E2,3.244063E1,3.97152E1,2.6149115E1,3.2047413E1,4.1681297E1,3.1260971E1,2.8901653E1,1.5669807E2,2.7721994E1,5.7606697E1,5.6230427E1,3.77491E1,2.9294872E1,1.1639305E2,6.4488045E1,3.0081312E1,1.9837938E2,1.6141672E2,1.7026416E2,5.17084E1,2.6149115E1,5.4657547E1,2.2138274E2,4.856264E1,6.979651E1,6.743719E1,3.5035883E2,1.2032525E2,8.631174E1,1.5768112E2,2.8115213E1,5.2888058E1,2.6955215E2,2.9294872E1,8.847445E1,8.434564E1],"tree_param":{"num_deleted":"0","num_feature":"54","num_nodes":"189","size_leaf_vector":"1"}},{"base_weights":[-8.928863E-2,-3.014561E-1,1.8653253E-1,-3.883139E-1,6.9428906E-2,-2.0331836E-1,3.1663233E-1,-4.7311953E-1,-1.1793164E-1,-2.9553208E-1,1.7147793E-1,-1.2568295E-1,-6.859227E-1,5.3252116E-2,4.9951345E-1,-6.8576944E-1,-4.1500795E-1,-4.8863238E-1,4.8572775E-2,-5.607331E-1,-1.0074334E-1,-9.231679E-2,3.6404032E-1,-2.506885E-1,1.2286527E-1,-5.0060093E-1,-9.381919E-2,-6.0274817E-2,4.86039E-1,7.4799764E-1,3.6707342E-1,-7.742859E-1,-4.799755E-1,-6.33684E-1,-3.5488814E-1,-4.0413955E-1,-9.076124E-2,-4.2073438E-1,1.3100523E-1,-3.5655152E-2,-7.635125E-2,-4.3138865E-2,1.7333403E-1,2.4896387E-3,-4.2303917E-1,1.15188204E-1,2.7389038E-1,-3.2173988E-1,1.459474E-1,-3.4760248E-2,2.1961434E-1,-3.115434E-2,-6.050409E-2,1.4749178E-1,-1.8171915E-1,9.398603E-1,2.5241137E-1,2.7039278E-1,8.566722E-1,2.5511155E-1,6.9903517E-1,-7.180619E-1,-1.1831378E-1,-7.311709E-2,-3.8974035E-1,-6.762328E-1,-6.81249E-3,-6.028008E-1,-3.1641215E-1,-3.3767807E-1,-7.705879E-2,-2.1268478E-2,-6.388245E-2,2.6097396E-1,-2.358776E-1,-1.1566416E-2,5.3691752E-2,-4.5769334E-2,8.9867644E-2,-7.600751E-2,-1.5666496E-2,4.7206827E-2,5.6299376E-1,-2.0342492E-1,-5.268105E-1,-2.8039057E-2,4.051569E-2,3.9531344E-1,-4.6938118E-2,2.656049E-1,-3.0577716E-1,-1.4066468E-1,-7.675371E-2,1.2737563E-1,6.470653E-2,-5.2799374E-2,4.9185175E-1,5.9878755E-1,-2.7914548E-2,4.2828664E-1,1.053535E0,3.6526483E-1,1.6760943E-2,2.8534785E-1,9.7914636E-1,-6.479858E-2,-1.0181653E-1,-5.8612812E-2,-2.4746282E-2,-4.7106702E-2,-7.637173E-2,-9.1325745E-2,-5.2373644E-2,-4.185951E-2,-2.1480966E-2,-5.2980818E-2,-2.1146199E-2,8.967183E-3,6.294323E-2,-4.392845E-2,-6.9442377E-3,2.3054713E-2,-1.0389497E-2,3.785531E-2,-1.6084354E-2,9.799773E-2,4.1571792E-2,-4.1872174E-2,-1.0557941E-2,-7.4554496E-2,-3.5206765E-2,5.8951315E-2,-3.0540025E-2,-3.4951746E-2,1.6739324E-2,3.4739323E-2,-3.5364624E-2,-5.4455675E-2,-7.624648E-3,-2.1635896E-2,1.9272925E-2,-3.311995E-2,2.0855581E-2,3.2610092E-2,6.854498E-2,3.2286692E-2,7.831519E-2,2.6438842E-2,7.681828E-2,1.1851986E-1,2.064221E-2,1.0428428E-2,4.732081E-2,-2.1553507E-2,2.9186202E-2,-5.3336318E-3,7.662572E-2,1.2337513E-1,4.4279527E-2],"categories":[],"categories_nodes":[],"categories_segments":[],"categories_sizes":[],"default_left":[0,0,0,0,0,0,0,0,0,0,0,0,0,0,0,0,0,0,0,0,0,0,0,0,0,0,0,0,0,0,0,0,0,0,0,0,0,0,0,0,0,0,0,0,0,0,0,0,0,0,0,0,0,0,0,0,0,0,0,0,0,0,0,0,0,0,0,0,0,0,0,0,0,0,0,0,0,0,0,0,0,0,0,0,0,0,0,0,0,0,0,0,0,0,0,0,0,0,0,0,0,0,0,0,0,0,0,0,0,0,0,0,0,0,0,0,0,0,0,0,0,0,0,0,0,0,0,0,0,0,0,0,0,0,0,0,0,0,0,0,0,0,0,0,0,0,0,0,0,0,0,0,0,0,0,0,0,0,0],"id":1,"left_children":[1,3,5,7,9,11,13,15,17,19,21,23,25,27,29,31,33,35,37,39,41,43,45,47,49,51,-1,53,55,57,59,61,63,65,67,69,-1,71,73,-1,-1,-1,75,77,79,-1,81,83,85,-1,87,-1,-1,89,91,93,95,97,99,101,103,105,-1,-1,107,109,-1,111,113,115,-1,-1,-1,117,119,-1,-1,-1,121,-1,-1,123,125,127,129,-1,-1,131,133,135,137,139,-1,-1,-1,141,143,145,-1,147,149,151,153,155,157,-1,-1,-1,-1,-1,-1,-1,-1,-1,-1,-1,-1,-1,-1,-1,-1,-1,-1,-1,-1,-1,-1,-1,-1,-1,-1,-1,-1,-1,-1,-1,-1,-1,-1,-1,-1,-1,-1,-1,-1,-1,-1,-1,-1,-1,-1,-1,-1,-1,-1,-1,-1,-1,-1],"loss_changes":[4.5901917E2,1.4284229E2,1.7304369E2,8.231354E1,3.1412907E1,3.1909698E1,1.2316293E2,3.350299E1,5.30453E1,9.467943E0,3.3493675E1,2.2924862E1,5.0523376E0,5.1580395E1,4.9396027E1,1.02901E1,2.803946E1,9.0618515E0,2.302231E1,2.9513302E0,9.818268E0,8.740863E0,2.6741886E1,1.387294E1,1.1330575E1,1.1983395E0,0E0,2.102173E1,2.2891426E1,2.6955292E1,3.648781E1,8.52066E0,3.7646904E0,1.1079529E1,1.5916031E1,5.181736E0,0E0,3.8994722E0,2.4177101E1,0E0,0E0,0E0,6.314158E0,8.792104E0,5.45687E0,0E0,2.2462234E1,9.995518E0,8.426332E0,0E0,9.651704E0,0E0,0E0,1.6543835E1,1.2532303E1,6.3875885E0,1.0649932E1,1.7952751E1,3.54953E1,1.9403915E1,2.8485794E1,6.929825E0,0E0,0E0,3.5875397E0,7.355957E0,0E0,5.0630493E0,1.5107529E1,4.5177956E0,0E0,0E0,0E0,2.3544777E1,4.4659967E0,0E0,0E0,0E0,5.032395E0,0E0,0E0,1.3395622E1,8.848747E0,5.5524178E0,5.5362396E0,0E0,0E0,1.7064613E1,5.416052E0,1.2504654E1,3.4677649E0,1.2467339E1,0E0,0E0,0E0,4.784953E0,2.3937168E0,2.9014587E0,0E0,7.367119E0,3.225116E1,1.4193069E1,1.5062525E1,1.6594477E1,1.961E1,0E0,0E0,0E0,0E0,0E0,0E0,0E0,0E0,0E0,0E0,0E0,0E0,0E0,0E0,0E0,0E0,0E0,0E0,0E0,0E0,0E0,0E0,0E0,0E0,0E0,0E0,0E0,0E0,0E0,0E0,0E0,0E0,0E0,0E0,0E0,0E0,0E0,0E0,0E0,0E0,0E0,0E0,0E0,0E0,0E0,0E0,0E0,0E0,0E0,0E0,0E0,0E0,0E0,0E0],"parents":[2147483647,0,0,1,1,2,2,3,3,4,4,5,5,6,6,7,7,8,8,9,9,10,10,11,11,12,12,13,13,14,14,15,15,16,16,17,17,18,18,19,19,20,20,21,21,22,22,23,23,24,24,25,25,27,27,28,28,29,29,30,30,31,31,32,32,33,33,34,34,35,35,37,37,38,38,42,42,43,43,44,44,46,46,47,47,48,48,50,50,53,53,54,54,55,55,56,56,57,57,58,58,59,59,60,60,61,61,64,64,65,65,67,67,68,68,69,69,73,73,74,74,78,78,81,81,82,82,83,83,84,84,87,87,88,88,89,89,90,90,91,91,95,95,96,96,97,97,99,99,100,100,101,101,102,102,103,103,104,104],"right_children":[2,4,6,8,10,12,14,16,18,20,22,24,26,28,30,32,34,36,38,40,42,44,46,48,50,52,-1,54,56,58,60,62,64,66,68,70,-1,72,74,-1,-1,-1,76,78,80,-1,82,84,86,-1,88,-1,-1,90,92,94,96,98,100,102,104,106,-1,-1,108,110,-1,112,114,116,-1,-1,-1,118,120,-1,-1,-1,122,-1,-1,124,126,128,130,-1,-1,132,134,136,138,140,-1,-1,-1,142,144,146,-1,148,150,152,154,156,158,-1,-1,-1,-1,-1,-1,-1,-1,-1,-1,-1,-1,-1,-1,-1,-1,-1,-1,-1,-1,-1,-1,-1,-1,-1,-1,-1,-1,-1,-1,-1,-1,-1,-1,-1,-1,-1,-1,-1,-1,-1,-1,-1,-1,-1,-1,-1,-1,-1,-1,-1,-1,-1,-1],"split_conditions":[-1.634E3,2E0,1E0,-1.3771E4,1E0,1E0,-1.4483E4,1E0,1E0,-3.04E3,-1.8946E4,1E0,2.73636E5,2E0,2E0,1.6E1,2.65851E5,1.11384E6,1.6E0,2.115E5,1.6E1,7E0,2E0,1E0,1E0,1E1,-9.381919E-2,1E0,3E0,1E0,2E0,1E0,1E0,2.8E1,-5.942E3,1E0,-9.076124E-2,3E0,8.1E5,-3.5655152E-2,-7.635125E-2,-4.3138865E-2,-1.7027E4,1.1E1,4.36032E5,1.15188204E-1,1.8E1,7.65E5,2.90688E0,-3.4760248E-2,1E0,-3.115434E-2,-6.050409E-2,4E0,1.3455E6,4.5E5,1.8E1,1E0,2.6955E5,4E0,2.264E0,1.205896E6,-1.1831378E-1,-7.311709E-2,2.9607842E0,2E0,-6.81249E-3,-2.0304E4,-1.9479E4,-2.97E3,-7.705879E-2,-2.1268478E-2,-6.388245E-2,-2.139E3,1E0,-1.1566416E-2,5.3691752E-2,-4.5769334E-2,5.47344E5,-7.600751E-2,-1.5666496E-2,4E0,1.2015E5,-1.003E3,1E0,-2.8039057E-2,4.051569E-2,7.70328E5,1E0,6.4546156E0,1.46547E5,-1.539E4,-7.675371E-2,1.2737563E-1,6.470653E-2,-8.5E2,3E0,-1.2052E4,-2.7914548E-2,-4.47E2,8.48745E5,2.02E0,1E0,4E0,6.5961E5,-6.479858E-2,-1.0181653E-1,-5.8612812E-2,-2.4746282E-2,-4.7106702E-2,-7.637173E-2,-9.1325745E-2,-5.2373644E-2,-4.185951E-2,-2.1480966E-2,-5.2980818E-2,-2.1146199E-2,8.967183E-3,6.294323E-2,-4.392845E-2,-6.9442377E-3,2.3054713E-2,-1.0389497E-2,3.785531E-2,-1.6084354E-2,9.799773E-2,4.1571792E-2,-4.1872174E-2,-1.0557941E-2,-7.4554496E-2,-3.5206765E-2,5.8951315E-2,-3.0540025E-2,-3.4951746E-2,1.6739324E-2,3.4739323E-2,-3.5364624E-2,-5.4455675E-2,-7.624648E-3,-2.1635896E-2,1.9272925E-2,-3.311995E-2,2.0855581E-2,3.2610092E-2,6.854498E-2,3.2286692E-2,7.831519E-2,2.6438842E-2,7.681828E-2,1.1851986E-1,2.064221E-2,1.0428428E-2,4.732081E-2,-2.1553507E-2,2.9186202E-2,-5.3336318E-3,7.662572E-2,1.2337513E-1,4.4279527E-2],"split_indices":[10,25,40,9,40,0,9,40,40,10,9,25,6,25,24,21,6,6,53,5,21,24,24,43,28,21,0,32,24,28,25,0,28,21,10,0,0,24,6,0,0,0,9,21,6,0,21,6,53,0,2,0,0,24,6,6,21,2,6,24,53,6,0,0,53,24,0,9,9,10,0,0,0,10,46,0,0,0,6,0,0,24,5,10,46,0,0,6,46,53,5,9,0,0,0,10,26,9,0,10,6,53,26,25,6,0,0,0,0,0,0,0,0,0,0,0,0,0,0,0,0,0,0,0,0,0,0,0,0,0,0,0,0,0,0,0,0,0,0,0,0,0,0,0,0,0,0,0,0,0,0,0,0,0,0,0,0,0,0],"split_type":[0,0,0,0,0,0,0,0,0,0,0,0,0,0,0,0,0,0,0,0,0,0,0,0,0,0,0,0,0,0,0,0,0,0,0,0,0,0,0,0,0,0,0,0,0,0,0,0,0,0,0,0,0,0,0,0,0,0,0,0,0,0,0,0,0,0,0,0,0,0,0,0,0,0,0,0,0,0,0,0,0,0,0,0,0,0,0,0,0,0,0,0,0,0,0,0,0,0,0,0,0,0,0,0,0,0,0,0,0,0,0,0,0,0,0,0,0,0,0,0,0,0,0,0,0,0,0,0,0,0,0,0,0,0,0,0,0,0,0,0,0,0,0,0,0,0,0,0,0,0,0,0,0,0,0,0,0,0,0],"sum_hessian":[7.8418027E3,4.432295E3,3.4095076E3,3.5912183E3,8.4107666E2,8.5297144E2,2.5565364E3,2.7331982E3,8.580201E2,1.8337416E2,6.5770245E2,7.358564E2,1.1711504E2,1.0482161E3,1.5083202E3,5.842883E2,2.14891E3,2.6533997E2,5.926801E2,7.685666E1,1.065175E2,2.777408E2,3.7996167E2,4.896046E2,2.4625175E2,6.923678E1,4.7878258E1,8.31073E2,2.1714304E2,5.22798E2,9.855223E2,4.066268E2,1.776615E2,4.6133588E2,1.687574E3,2.224455E2,4.289448E1,8.7936E1,5.047441E2,3.9670326E1,3.7186337E1,4.8016598E1,5.8500904E1,2.1663243E2,6.1108395E1,3.780421E1,3.4215744E2,4.153837E2,7.422093E1,4.1560432E1,2.0469133E2,2.6054976E1,4.3181805E1,3.0649973E2,5.245733E2,7.2768135E1,1.443749E2,9.755405E1,4.2524393E2,7.382864E2,2.4723589E2,3.5989194E2,4.673489E1,4.5076157E1,1.3258534E2,4.2887457E2,3.2461304E1,2.247531E2,1.4628209E3,1.8992155E2,3.2523933E1,4.6014828E1,4.1921173E1,3.7292398E2,1.3182013E2,3.297347E1,2.5527433E1,3.38932E1,1.8273923E2,2.6157999E1,3.4950397E1,1.9243446E2,1.4972298E2,2.646732E2,1.5071051E2,2.8032475E1,4.6188457E1,1.2307976E2,8.1611565E1,2.4347014E2,6.3029594E1,4.9137738E2,3.3195904E1,3.2432556E1,4.0335583E1,6.3812996E1,8.05619E1,6.1007423E1,3.654662E1,1.3489012E2,2.903538E2,5.0456848E2,2.337179E2,1.0063296E2,1.4660292E2,2.9432437E2,6.556755E1,5.439018E1,7.819516E1,1.3011575E2,2.9875882E2,4.347845E1,1.8127466E2,7.2777167E2,7.350492E2,7.4031235E1,1.1589033E2,2.55419E2,1.17504974E2,5.8583546E1,7.323658E1,1.0576194E2,7.697728E1,7.390769E1,1.1852678E2,3.7603058E1,1.1211992E2,8.167598E1,1.8299721E2,6.547971E1,8.523079E1,9.6495224E1,2.6584528E1,3.3577816E1,4.8033752E1,2.1545296E2,2.8017176E1,3.021971E1,3.2809883E1,4.007431E2,9.063429E1,3.0769522E1,3.3043472E1,4.4848675E1,3.5713223E1,2.5538153E1,3.5469273E1,9.22061E1,4.268402E1,2.5095041E2,3.9403385E1,1.4820671E2,3.5636176E2,1.268348E2,1.0688309E2,5.9569656E1,4.1063305E1,9.8530426E1,4.80725E1],"tree_param":{"num_deleted":"0","num_feature":"54","num_nodes":"159","size_leaf_vector":"1"}},{"base_weights":[-8.418443E-2,-2.3748374E-1,1.573818E-1,-3.794294E-1,6.322579E-2,7.626324E-2,5.269585E-1,-4.93049E-1,-1.6171378E-1,1.7789023E-1,-2.4606542E-1,1.5847749E-1,-2.711164E-1,-4.019037E-2,6.192269E-1,-5.4026616E-1,-2.2169729E-1,-2.4409054E-1,2.1921088E-1,-4.7117356E-2,3.8646182E-1,-6.3788936E-2,-4.171947E-1,-3.0608192E-1,2.0595284E-1,-4.4463873E-1,-1.41616E-1,2.8658757E-2,-2.1139547E-1,7.69289E-1,2.6483208E-1,-6.075082E-1,-3.9213234E-1,-5.4402876E-1,-7.016653E-2,-6.786995E-1,-1.9156857E-1,-1.4106955E-1,5.030342E-1,-4.238804E-1,1.06726564E-1,2.3030208E-1,7.005187E-1,-2.211285E-1,9.977305E-2,-5.948672E-1,-1.6751939E-1,1.106551E-2,-4.3075156E-1,-1.4132436E-1,2.7837986E-1,-3.9723977E-1,-7.256611E-2,-5.4590803E-2,-4.8784446E-2,-2.6292184E-2,-1.5185415E-2,4.1238236E-1,8.537841E-1,4.1012326E-1,-1.2657883E-2,-6.9361424E-1,-4.684772E-1,-5.834729E-1,-2.7755654E-1,-1.813877E-2,-6.9531244E-1,-5.6697365E-2,3.8674563E-2,-4.4611163E-2,-8.7063766E-1,-2.4889962E-1,2.2718234E-1,3.0986357E-2,-3.4554967E-1,3.041172E-1,9.1303095E-2,-2.8728232E-1,-6.694421E-1,6.641821E-1,1.6597776E-4,1.4682415E-1,8.313264E-2,4.911183E-1,1.0051147E0,-5.1879887E-2,-3.9336838E-2,-2.2826195E-2,3.2752654E-1,-4.3173614E-1,-8.543149E-2,-3.3068478E-2,-4.8397645E-2,-2.5258592E-1,-7.440591E-1,-2.5348216E-1,3.144916E-1,1.5499964E-1,4.4066256E-1,-2.2421928E-1,-4.851544E-1,1.2216058E-1,-2.1685569E-1,4.013833E-3,7.692211E-2,7.5523514E-1,1.197728E0,1.858465E-1,8.840664E-2,-8.032509E-2,-6.0043495E-2,-8.881475E-2,-4.121419E-2,-5.1138546E-2,-9.927021E-2,-1.9055933E-2,-5.4144945E-2,-9.531322E-2,-5.2881878E-2,5.6210842E-2,-5.957701E-3,-6.5314494E-2,-1.0481246E-1,-3.7617132E-2,-6.7907344E-3,4.341158E-3,7.343849E-2,-5.5015426E-2,-6.022347E-3,4.381766E-3,7.0218466E-2,-6.3736975E-2,-1.2863161E-2,-1.0224537E-1,-2.694189E-2,8.9476034E-2,3.5428144E-2,-1.45671815E-2,2.533528E-2,-5.0450888E-2,2.2424022E-2,2.773259E-2,8.9273065E-2,5.9193492E-2,1.2066342E-1,-2.409426E-2,1.479046E-2,1.762786E-3,5.8751084E-2,-7.419672E-2,-2.2563724E-2,-3.2655142E-2,2.157827E-2,4.9098837E-3,-5.1856633E-2,-8.88081E-2,-5.742829E-2,-4.3658864E-2,-7.0579196E-3,4.0458455E-3,6.1725926E-2,5.841289E-4,3.799134E-2,5.212335E-2,-3.7050557E-3,-5.1255203E-3,-4.045075E-2,-5.6965496E-2,-1.8053902E-2,1.7582743E-3,3.803116E-2,-4.948365E-2,-8.408981E-3,5.6067564E-2,9.3793355E-2,1.6365525E-1,6.186753E-2,4.7747876E-2,-2.184862E-2],"categories":[],"categories_nodes":[],"categories_segments":[],"categories_sizes":[],"default_left":[0,0,0,0,0,0,0,0,0,0,0,0,0,0,0,0,0,0,0,0,0,0,0,0,0,0,0,0,0,0,0,0,0,0,0,0,0,0,0,0,0,0,0,0,0,0,0,0,0,0,0,0,0,0,0,0,0,0,0,0,0,0,0,0,0,0,0,0,0,0,0,0,0,0,0,0,0,0,0,0,0,0,0,0,0,0,0,0,0,0,0,0,0,0,0,0,0,0,0,0,0,0,0,0,0,0,0,0,0,0,0,0,0,0,0,0,0,0,0,0,0,0,0,0,0,0,0,0,0,0,0,0,0,0,0,0,0,0,0,0,0,0,0,0,0,0,0,0,0,0,0,0,0,0,0,0,0,0,0,0,0,0,0,0,0,0,0,0,0,0,0,0,0,0,0,0,0,0,0],"id":2,"left_children":[1,3,5,7,9,11,13,15,17,19,21,23,25,27,29,31,33,35,37,39,41,43,45,47,49,51,53,-1,55,57,59,61,63,65,67,69,71,73,75,77,79,81,83,85,87,89,91,-1,93,95,97,99,-1,-1,101,-1,-1,103,105,107,-1,109,111,113,115,-1,117,-1,119,-1,121,123,125,-1,127,129,-1,131,133,135,137,139,-1,141,143,145,-1,-1,147,149,-1,151,-1,153,155,157,159,161,163,165,167,169,171,-1,-1,173,175,177,-1,-1,-1,-1,-1,-1,-1,-1,-1,-1,-1,-1,-1,-1,-1,-1,-1,-1,-1,-1,-1,-1,-1,-1,-1,-1,-1,-1,-1,-1,-1,-1,-1,-1,-1,-1,-1,-1,-1,-1,-1,-1,-1,-1,-1,-1,-1,-1,-1,-1,-1,-1,-1,-1,-1,-1,-1,-1,-1,-1,-1,-1,-1,-1,-1,-1,-1,-1,-1,-1,-1],"loss_changes":[2.8789038E2,2.0301971E2,9.044898E1,7.984137E1,5.415839E1,7.0764206E1,2.844487E1,2.7074219E1,3.486566E1,5.2287197E1,1.2859531E1,4.423952E1,1.0594448E1,4.3645535E0,2.4640503E1,1.7762817E1,1.54099455E1,2.0701809E1,2.0295341E1,3.1151592E1,2.8190407E1,5.2004466E0,9.344276E0,9.717363E0,4.5763252E1,2.4053078E0,1.0221308E1,0E0,1.1671662E-1,9.529373E0,8.041536E0,1.4533356E1,1.2269218E1,5.4144382E0,1.1717319E1,3.986744E0,1.9637276E1,8.215123E0,8.762627E0,5.0337334E0,2.2683502E1,1.9324764E1,1.1720573E1,2.9784636E0,7.497225E0,4.87883E0,3.8091688E0,0E0,7.8204E0,1.6151346E1,3.0055801E1,2.5568352E0,0E0,0E0,6.4381256E0,0E0,0E0,8.557729E0,8.044144E0,1.0751678E1,0E0,7.3264465E0,1.0929543E1,5.73069E0,8.082958E0,0E0,2.5397873E0,0E0,9.205999E0,0E0,1.3475647E0,1.6510738E1,9.171657E0,0E0,3.5263581E0,7.8582597E0,0E0,5.5756702E0,7.482359E0,4.0618763E0,1.1911015E1,1.7335127E1,0E0,9.664103E0,5.702072E0,2.0390036E0,0E0,0E0,4.747064E0,4.829091E0,0E0,4.7569547E0,0E0,7.485686E0,7.4909973E-1,8.437143E0,5.1626163E0,2.8722876E1,2.5009567E1,1.8784025E0,2.866026E0,2.9973764E0,4.124632E0,0E0,0E0,6.8647614E0,1.3494698E1,8.473414E0,0E0,0E0,0E0,0E0,0E0,0E0,0E0,0E0,0E0,0E0,0E0,0E0,0E0,0E0,0E0,0E0,0E0,0E0,0E0,0E0,0E0,0E0,0E0,0E0,0E0,0E0,0E0,0E0,0E0,0E0,0E0,0E0,0E0,0E0,0E0,0E0,0E0,0E0,0E0,0E0,0E0,0E0,0E0,0E0,0E0,0E0,0E0,0E0,0E0,0E0,0E0,0E0,0E0,0E0,0E0,0E0,0E0,0E0,0E0,0E0,0E0,0E0,0E0,0E0,0E0,0E0,0E0,0E0,0E0,0E0,0E0],"parents":[2147483647,0,0,1,1,2,2,3,3,4,4,5,5,6,6,7,7,8,8,9,9,10,10,11,11,12,12,13,13,14,14,15,15,16,16,17,17,18,18,19,19,20,20,21,21,22,22,23,23,24,24,25,25,26,26,28,28,29,29,30,30,31,31,32,32,33,33,34,34,35,35,36,36,37,37,38,38,39,39,40,40,41,41,42,42,43,43,44,44,45,45,46,46,48,48,49,49,50,50,51,51,54,54,57,57,58,58,59,59,61,61,62,62,63,63,64,64,66,66,68,68,70,70,71,71,72,72,74,74,75,75,77,77,78,78,79,79,80,80,81,81,83,83,84,84,85,85,88,88,89,89,91,91,93,93,94,94,95,95,96,96,97,97,98,98,99,99,100,100,101,101,102,102,105,105,106,106,107,107],"right_children":[2,4,6,8,10,12,14,16,18,20,22,24,26,28,30,32,34,36,38,40,42,44,46,48,50,52,54,-1,56,58,60,62,64,66,68,70,72,74,76,78,80,82,84,86,88,90,92,-1,94,96,98,100,-1,-1,102,-1,-1,104,106,108,-1,110,112,114,116,-1,118,-1,120,-1,122,124,126,-1,128,130,-1,132,134,136,138,140,-1,142,144,146,-1,-1,148,150,-1,152,-1,154,156,158,160,162,164,166,168,170,172,-1,-1,174,176,178,-1,-1,-1,-1,-1,-1,-1,-1,-1,-1,-1,-1,-1,-1,-1,-1,-1,-1,-1,-1,-1,-1,-1,-1,-1,-1,-1,-1,-1,-1,-1,-1,-1,-1,-1,-1,-1,-1,-1,-1,-1,-1,-1,-1,-1,-1,-1,-1,-1,-1,-1,-1,-1,-1,-1,-1,-1,-1,-1,-1,-1,-1,-1,-1,-1,-1,-1,-1,-1,-1,-1],"split_conditions":[-1.3869E4,1E0,3E0,1.8E1,8.35605E5,8.1E5,1.87704E5,3E0,3E0,-7.48E2,2.16E5,2E0,1E0,6.2641E4,6.5961E5,-5.2E2,3.15E5,2E0,-1.9915E4,2.81916E5,4E0,-1.7729E4,1.3E1,1.575E5,1.87704E5,1.54602E6,2E0,2.8658757E-2,1.98E5,-1.097E3,1.11384E6,-1.7153E4,1E0,8.0055E4,-9.003E3,2.115E5,-1.035E3,1.69389E5,-4.93E2,4E0,6.4926E4,1E0,-4.14E2,-8.52E2,-1.171E3,1.3455E6,-1.5774E4,1.106551E-2,-4.45E2,-2.98E2,1E0,1.17049E5,-7.256611E-2,-5.4590803E-2,1.845E5,-2.6292184E-2,-1.5185415E-2,-1.1676E4,7E0,1E0,-1.2657883E-2,4.9752E5,2E0,2.115E5,8.48745E5,-1.813877E-2,-6.96E3,-5.6697365E-2,4.5E5,-4.4611163E-2,1.159515E6,-6.32E2,-1.5961E4,3.0986357E-2,-4.852E3,-3.531E3,9.1303095E-2,1E0,4.79475E5,1.575E5,-3.531E3,-2.2511E4,8.313264E-2,1E1,-1.9286E4,-1.318E3,-3.9336838E-2,-2.2826195E-2,-4.69E3,-1.7851E4,-8.543149E-2,-1.916E4,-4.8397645E-2,1.1947E5,1.24866E5,1.2E1,-2.822E3,-5.35E2,2.34E5,1.04256E6,1E0,1.5E1,-1.026E3,4.013833E-3,7.692211E-2,1.2E1,1.32823E5,1.665E5,8.840664E-2,-8.032509E-2,-6.0043495E-2,-8.881475E-2,-4.121419E-2,-5.1138546E-2,-9.927021E-2,-1.9055933E-2,-5.4144945E-2,-9.531322E-2,-5.2881878E-2,5.6210842E-2,-5.957701E-3,-6.5314494E-2,-1.0481246E-1,-3.7617132E-2,-6.7907344E-3,4.341158E-3,7.343849E-2,-5.5015426E-2,-6.022347E-3,4.381766E-3,7.0218466E-2,-6.3736975E-2,-1.2863161E-2,-1.0224537E-1,-2.694189E-2,8.9476034E-2,3.5428144E-2,-1.45671815E-2,2.533528E-2,-5.0450888E-2,2.2424022E-2,2.773259E-2,8.9273065E-2,5.9193492E-2,1.2066342E-1,-2.409426E-2,1.479046E-2,1.762786E-3,5.8751084E-2,-7.419672E-2,-2.2563724E-2,-3.2655142E-2,2.157827E-2,4.9098837E-3,-5.1856633E-2,-8.88081E-2,-5.742829E-2,-4.3658864E-2,-7.0579196E-3,4.0458455E-3,6.1725926E-2,5.841289E-4,3.799134E-2,5.212335E-2,-3.7050557E-3,-5.1255203E-3,-4.045075E-2,-5.6965496E-2,-1.8053902E-2,1.7582743E-3,3.803116E-2,-4.948365E-2,-8.408981E-3,5.6067564E-2,9.3793355E-2,1.6365525E-1,6.186753E-2,4.7747876E-2,-2.184862E-2],"split_indices":[9,1,17,21,6,6,6,17,17,23,5,17,46,19,6,23,6,17,9,6,29,9,21,5,6,6,17,0,20,23,6,9,38,20,11,5,11,19,23,29,20,34,23,23,23,6,9,0,23,23,1,20,0,0,5,0,0,9,22,26,0,6,17,5,6,0,11,0,6,0,20,23,9,0,11,11,0,46,20,5,11,9,0,22,9,23,0,0,11,9,0,9,0,19,20,21,11,23,5,6,49,21,23,0,0,21,19,5,0,0,0,0,0,0,0,0,0,0,0,0,0,0,0,0,0,0,0,0,0,0,0,0,0,0,0,0,0,0,0,0,0,0,0,0,0,0,0,0,0,0,0,0,0,0,0,0,0,0,0,0,0,0,0,0,0,0,0,0,0,0,0,0,0,0,0,0,0,0,0],"split_type":[0,0,0,0,0,0,0,0,0,0,0,0,0,0,0,0,0,0,0,0,0,0,0,0,0,0,0,0,0,0,0,0,0,0,0,0,0,0,0,0,0,0,0,0,0,0,0,0,0,0,0,0,0,0,0,0,0,0,0,0,0,0,0,0,0,0,0,0,0,0,0,0,0,0,0,0,0,0,0,0,0,0,0,0,0,0,0,0,0,0,0,0,0,0,0,0,0,0,0,0,0,0,0,0,0,0,0,0,0,0,0,0,0,0,0,0,0,0,0,0,0,0,0,0,0,0,0,0,0,0,0,0,0,0,0,0,0,0,0,0,0,0,0,0,0,0,0,0,0,0,0,0,0,0,0,0,0,0,0,0,0,0,0,0,0,0,0,0,0,0,0,0,0,0,0,0,0,0,0],"sum_hessian":[7.7721006E3,4.7547354E3,3.0173652E3,3.2298628E3,1.5248726E3,2.475273E3,5.420924E2,2.1214656E3,1.1083972E3,1.1127605E3,4.121121E2,2.0020032E3,4.732697E2,7.5930725E1,4.6616165E2,1.8061854E3,3.1528024E2,9.1161523E2,1.967819E2,5.356615E2,5.77099E2,2.0022131E2,2.118908E2,1.8511873E2,1.8168844E3,2.0121748E2,2.7205225E2,2.5873062E1,5.0057667E1,3.2666885E2,1.3949281E2,1.2401472E3,5.6603815E2,9.999142E1,2.1528882E2,9.700401E1,8.1461127E2,8.6933266E1,1.0984864E2,1.548005E2,3.80861E2,3.866011E2,1.9049786E2,1.0187245E2,9.8348854E1,1.2298813E2,8.8902664E1,4.2653156E1,1.4246558E2,3.1336984E2,1.5035145E3,1.7424226E2,2.6975233E1,4.9890926E1,2.221613E2,2.5003847E1,2.505382E1,6.3658077E1,2.6301077E2,1.01695694E2,3.779711E1,7.633762E2,4.76771E2,2.1046724E2,3.5557092E2,3.008172E1,6.99097E1,3.793314E1,1.7735568E2,4.5360752E1,5.1643257E1,7.1687036E2,9.774087E1,2.696122E1,5.9972042E1,7.51366E1,3.4712048E1,1.00863365E2,5.3937145E1,6.0280384E1,3.2058063E2,3.4054602E2,4.6055096E1,1.1443776E2,7.60601E1,5.2038704E1,4.9833748E1,4.030092E1,5.8047935E1,7.7145775E1,4.5842354E1,6.316899E1,2.5733675E1,9.1971306E1,5.0494267E1,2.5184491E2,6.1524914E1,8.552446E2,6.4826996E2,5.9902157E1,1.14340096E2,1.1027447E2,1.1188684E2,3.1700987E1,3.195709E1,2.0691891E2,5.6091866E1,6.9974754E1,3.1720942E1,3.472152E2,4.16161E2,5.467842E1,4.2209256E2,1.8085797E2,2.9609266E1,2.687083E2,8.68626E1,2.5577517E1,4.433218E1,2.7283281E1,1.500724E2,2.5309235E1,2.6334023E1,4.2026587E2,2.9660452E2,7.254264E1,2.5198223E1,3.4386013E1,2.5586031E1,4.6100906E1,2.9035686E1,3.051339E1,7.0349976E1,2.782565E1,2.6111496E1,3.3481556E1,2.6798826E1,2.0368243E2,1.16898186E2,3.5590633E1,3.0495538E2,7.5785164E1,3.865259E1,2.6225904E1,4.9834194E1,2.6630943E1,2.540776E1,2.6968983E1,3.1078955E1,2.9755764E1,4.739001E1,2.8841959E1,3.4327034E1,4.3475357E1,4.849595E1,2.503017E1,2.5464098E1,1.25159325E2,1.26685585E2,3.2890003E1,2.8634912E1,5.1483936E2,3.4040524E2,5.5463446E2,9.3635544E1,3.1227533E1,2.8674625E1,8.8828835E1,2.5511267E1,7.924156E1,3.1032906E1,3.5283752E1,7.660309E1,1.02177124E2,1.0474179E2,3.0870766E1,2.5221098E1,4.0547924E1,2.942683E1],"tree_param":{"num_deleted":"0","num_feature":"54","num_nodes":"179","size_leaf_vector":"1"}},{"base_weights":[-7.206568E-2,-2.5772667E-1,1.5998611E-1,-3.7567762E-1,-3.8593415E-2,2.6362553E-1,-1.9071436E-1,-3.0743244E-1,-6.281386E-1,-2.3606305E-1,1.03400365E-1,-1.1415556E-1,3.4258878E-1,-3.2811448E-1,9.528936E-2,-2.2139095E-1,-4.509741E-1,-7.3129195E-1,-3.4109262E-1,-2.950483E-1,6.437822E-2,2.1888646E-1,-1.5587592E-1,1.16961434E-1,-2.4801868E-1,2.1890676E-1,5.567411E-1,-4.3699512E-1,-1.1956043E-1,-3.1173546E-2,1.7861545E-1,-4.0756664E-1,-1.16681784E-1,-1.8050201E-1,-5.2395976E-1,-7.65944E-1,-1.7685406E-2,-6.2996864E-2,-2.5823897E-1,-5.2792346E-1,-2.1469706E-1,-9.281156E-2,5.2607875E-2,3.5160345E-1,-1.10973775E-1,-3.294691E-1,-3.376943E-2,2.9981278E-3,4.419674E-2,-3.0755356E-1,8.191015E-3,-1.2290967E-1,2.9057172E-1,6.4461076E-1,1.9962022E-1,-7.8380936E-1,-3.544179E-1,-4.6451995E-3,-3.9913327E-1,8.991615E-2,6.7412145E-2,-6.905063E-1,-3.2997942E-1,-1.7477311E-1,3.606499E-1,-6.2393527E-2,-7.5570814E-2,-5.99054E-1,-2.7489558E-1,-7.98954E-1,-5.2097994E-1,-3.5332397E-1,1.0021388E-2,-4.3224442E-1,-8.8478304E-2,-5.366537E-1,-1.1668017E-1,3.0250946E-2,-2.8424054E-1,7.573E-2,5.6324965E-1,4.7672387E-2,-4.5153058E-1,-4.819714E-1,-6.4479075E-3,3.6844265E-2,-1.3542889E-1,-3.3011448E-2,9.019571E-2,3.5754002E-3,-3.7059203E-1,-3.577764E-3,-2.879496E-1,4.4375148E-1,3.8402475E-2,7.628264E-1,3.8265473E-1,5.5943437E-2,4.303401E-2,-6.283526E-2,-9.6642636E-2,-2.8126264E-1,-7.2559E-2,-2.0969099E-1,4.756474E-2,-6.54189E-2,-1.0953002E-2,-1.6576274E-1,2.5212756E-1,-7.916913E-2,-3.6775343E-2,-2.7787482E-2,-7.39924E-2,-4.4545155E-2,-1.1197928E-2,7.0411615E-2,1.9949889E-2,-4.8157178E-2,3.2927394E-3,-7.7289745E-2,-5.057789E-2,-1.8114343E-2,-6.821459E-2,-8.922719E-2,-7.0340656E-2,-3.4983087E-2,-6.687925E-2,-1.2436806E-2,-4.9101364E-2,-5.790996E-2,-1.106769E-2,-6.88465E-2,-1.5310936E-2,-3.1620443E-3,-3.6972336E-2,-1.0074741E-2,-4.577545E-2,-2.2377484E-3,4.497721E-2,-9.489412E-3,6.575561E-2,-1.9597663E-2,3.3586755E-2,-6.5124325E-2,-2.4403546E-2,-7.148232E-2,-2.8944645E-2,-4.3573093E-2,-1.42202E-3,-7.0127742E-3,4.6353336E-2,-5.1919725E-2,-2.7441133E-2,-4.509377E-2,1.30885085E-2,-2.838212E-4,-4.1474357E-2,-1.2094772E-2,5.0770283E-2,-3.4468032E-3,3.7065677E-2,5.0755914E-2,9.155496E-2,2.3976667E-2,5.8718104E-2,-1.9198056E-2,2.6591158E-2,1.852296E-2,-3.5584953E-2,-4.569951E-3,-6.0866505E-2,-4.295963E-2,8.159937E-3,-1.6912438E-2,3.9755084E-2],"categories":[],"categories_nodes":[],"categories_segments":[],"categories_sizes":[],"default_left":[0,0,0,0,0,0,0,0,0,0,0,0,0,0,0,0,0,0,0,0,0,0,0,0,0,0,0,0,0,0,0,0,0,0,0,0,0,0,0,0,0,0,0,0,0,0,0,0,0,0,0,0,0,0,0,0,0,0,0,0,0,0,0,0,0,0,0,0,0,0,0,0,0,0,0,0,0,0,0,0,0,0,0,0,0,0,0,0,0,0,0,0,0,0,0,0,0,0,0,0,0,0,0,0,0,0,0,0,0,0,0,0,0,0,0,0,0,0,0,0,0,0,0,0,0,0,0,0,0,0,0,0,0,0,0,0,0,0,0,0,0,0,0,0,0,0,0,0,0,0,0,0,0,0,0,0,0,0,0,0,0,0,0,0,0,0,0,0,0,0,0,0,0,0,0],"id":3,"left_children":[1,3,5,7,9,11,13,15,17,19,21,23,25,27,29,31,33,35,37,39,41,43,45,47,49,51,53,55,57,-1,59,61,63,65,67,69,-1,-1,71,73,75,77,-1,79,81,83,85,87,-1,89,-1,91,93,95,97,99,101,103,105,107,-1,109,111,113,115,-1,117,119,121,123,125,127,-1,129,-1,131,133,-1,135,137,139,141,143,145,-1,-1,147,-1,149,-1,151,153,155,157,159,161,163,-1,165,-1,-1,167,-1,169,-1,-1,-1,171,173,-1,-1,-1,-1,-1,-1,-1,-1,-1,-1,-1,-1,-1,-1,-1,-1,-1,-1,-1,-1,-1,-1,-1,-1,-1,-1,-1,-1,-1,-1,-1,-1,-1,-1,-1,-1,-1,-1,-1,-1,-1,-1,-1,-1,-1,-1,-1,-1,-1,-1,-1,-1,-1,-1,-1,-1,-1,-1,-1,-1,-1,-1,-1,-1,-1,-1],"loss_changes":[3.3397552E2,1.1128955E2,1.2528864E2,4.803717E1,4.2306366E1,7.939252E1,3.0941294E1,2.7140472E1,1.7360321E1,1.1202408E1,2.6320414E1,1.428025E1,5.816165E1,1.2017849E1,8.739113E0,2.6873367E1,1.6203888E1,8.253281E0,3.6452122E0,9.760456E0,7.624449E0,2.664612E1,5.735577E0,6.2814465E0,5.760954E0,3.4245308E1,2.5130783E1,9.712868E0,5.899846E0,0E0,9.3078785E0,1.067598E1,2.4610334E1,8.187475E0,1.1986084E1,2.904358E0,0E0,0E0,4.307125E0,4.216011E0,1.237088E1,6.043333E0,0E0,2.5276402E1,9.48371E0,4.4884996E0,6.603224E0,3.7069588E0,0E0,5.3713474E0,0E0,4.779805E0,4.4588684E1,1.9699188E1,9.013043E0,1.2738724E0,7.496193E0,1.3020399E1,3.8801146E0,7.587908E0,0E0,3.169838E0,8.161613E0,1.3375809E1,5.193825E0,0E0,6.370027E0,7.689316E0,5.6931477E0,2.582306E0,1.0724077E0,3.0685978E0,0E0,5.043583E0,0E0,5.232603E0,6.516946E0,0E0,1.6589737E0,6.9607115E0,1.5283012E1,8.518833E0,2.1514492E0,2.968462E0,0E0,0E0,4.677204E0,0E0,6.0848875E0,0E0,2.8485088E0,8.594546E0,3.6808558E0,2.6001373E1,1.060482E1,1.6837372E1,5.7842674E0,0E0,5.9617724E0,0E0,0E0,8.36533E0,0E0,6.0334134E0,0E0,0E0,0E0,4.6836715E0,6.9110823E0,0E0,0E0,0E0,0E0,0E0,0E0,0E0,0E0,0E0,0E0,0E0,0E0,0E0,0E0,0E0,0E0,0E0,0E0,0E0,0E0,0E0,0E0,0E0,0E0,0E0,0E0,0E0,0E0,0E0,0E0,0E0,0E0,0E0,0E0,0E0,0E0,0E0,0E0,0E0,0E0,0E0,0E0,0E0,0E0,0E0,0E0,0E0,0E0,0E0,0E0,0E0,0E0,0E0,0E0,0E0,0E0,0E0,0E0,0E0,0E0,0E0,0E0,0E0,0E0,0E0,0E0],"parents":[2147483647,0,0,1,1,2,2,3,3,4,4,5,5,6,6,7,7,8,8,9,9,10,10,11,11,12,12,13,13,14,14,15,15,16,16,17,17,18,18,19,19,20,20,21,21,22,22,23,23,24,24,25,25,26,26,27,27,28,28,30,30,31,31,32,32,33,33,34,34,35,35,38,38,39,39,40,40,41,41,43,43,44,44,45,45,46,46,47,47,49,49,51,51,52,52,53,53,54,54,55,55,56,56,57,57,58,58,59,59,61,61,62,62,63,63,64,64,66,66,67,67,68,68,69,69,70,70,71,71,73,73,75,75,76,76,78,78,79,79,80,80,81,81,82,82,83,83,86,86,88,88,90,90,91,91,92,92,93,93,94,94,95,95,96,96,98,98,101,101,103,103,107,107,108,108],"right_children":[2,4,6,8,10,12,14,16,18,20,22,24,26,28,30,32,34,36,38,40,42,44,46,48,50,52,54,56,58,-1,60,62,64,66,68,70,-1,-1,72,74,76,78,-1,80,82,84,86,88,-1,90,-1,92,94,96,98,100,102,104,106,108,-1,110,112,114,116,-1,118,120,122,124,126,128,-1,130,-1,132,134,-1,136,138,140,142,144,146,-1,-1,148,-1,150,-1,152,154,156,158,160,162,164,-1,166,-1,-1,168,-1,170,-1,-1,-1,172,174,-1,-1,-1,-1,-1,-1,-1,-1,-1,-1,-1,-1,-1,-1,-1,-1,-1,-1,-1,-1,-1,-1,-1,-1,-1,-1,-1,-1,-1,-1,-1,-1,-1,-1,-1,-1,-1,-1,-1,-1,-1,-1,-1,-1,-1,-1,-1,-1,-1,-1,-1,-1,-1,-1,-1,-1,-1,-1,-1,-1,-1,-1,-1,-1,-1,-1],"split_conditions":[-1.634E3,1E0,1E0,1E0,-9.14E2,1E0,1E0,1E0,-2.424E3,4E0,1E0,1E0,-4.75E2,-3.85E2,1E0,-3.765E3,6.2023E4,2.8E1,1E0,-3.824E3,4.658889E0,6.77664E5,2E0,1E0,2.1E1,1.3963E4,1E0,1.579E4,7.70328E5,-3.1173546E-2,5E0,2.86704E5,2.4E1,-1.748E3,2.2E1,7.2727275E0,-1.7685406E-2,-6.2996864E-2,-3.94E2,9.83299E5,2.73636E5,1.9752E0,5.2607875E-2,2.18015E0,1E0,4E0,7E0,-1.169E3,4.419674E-2,2.65851E5,8.191015E-3,-6.63E2,6.47046E5,1E0,9.166E4,1E0,4.6084E4,2.5389E4,5.584E0,-9.58E2,6.7412145E-2,-4.27E2,4.7218E4,1E0,-9.21E2,-6.2393527E-2,2.3407407E0,1.764E4,1E0,-8.41E2,-1.04E3,5.2128E5,1.0021388E-2,4.047E0,-8.8478304E-2,2.2822223E0,8.24823E5,3.0250946E-2,6E0,-1.971E3,1E0,1.9E1,4.3026285E0,2.9333334E0,-6.4479075E-3,3.6844265E-2,1.8E1,-3.3011448E-2,1E0,3.5754002E-3,2.5506E4,-1.129E3,-1.121E3,2.2752E5,-6.06E2,2.3263333E0,1E0,5.5943437E-2,2.4178E4,-6.283526E-2,-9.6642636E-2,5.4877E4,-7.2559E-2,1E0,4.756474E-2,-6.54189E-2,-1.0953002E-2,1E0,-9.69E2,-7.916913E-2,-3.6775343E-2,-2.7787482E-2,-7.39924E-2,-4.4545155E-2,-1.1197928E-2,7.0411615E-2,1.9949889E-2,-4.8157178E-2,3.2927394E-3,-7.7289745E-2,-5.057789E-2,-1.8114343E-2,-6.821459E-2,-8.922719E-2,-7.0340656E-2,-3.4983087E-2,-6.687925E-2,-1.2436806E-2,-4.9101364E-2,-5.790996E-2,-1.106769E-2,-6.88465E-2,-1.5310936E-2,-3.1620443E-3,-3.6972336E-2,-1.0074741E-2,-4.577545E-2,-2.2377484E-3,4.497721E-2,-9.489412E-3,6.575561E-2,-1.9597663E-2,3.3586755E-2,-6.5124325E-2,-2.4403546E-2,-7.148232E-2,-2.8944645E-2,-4.3573093E-2,-1.42202E-3,-7.0127742E-3,4.6353336E-2,-5.1919725E-2,-2.7441133E-2,-4.509377E-2,1.30885085E-2,-2.838212E-4,-4.1474357E-2,-1.2094772E-2,5.0770283E-2,-3.4468032E-3,3.7065677E-2,5.0755914E-2,9.155496E-2,2.3976667E-2,5.8718104E-2,-1.9198056E-2,2.6591158E-2,1.852296E-2,-3.5584953E-2,-4.569951E-3,-6.0866505E-2,-4.295963E-2,8.159937E-3,-1.6912438E-2,3.9755084E-2],"split_indices":[10,25,45,45,23,28,25,37,10,25,37,32,23,23,28,10,20,21,28,10,53,6,25,14,21,7,44,7,6,0,25,6,21,23,21,53,0,0,23,6,6,53,0,53,45,24,22,10,0,6,0,10,6,2,20,4,7,7,53,10,0,23,7,28,23,0,53,7,2,23,23,6,0,53,0,53,20,0,24,10,28,21,53,53,0,0,21,0,25,0,7,23,23,6,23,53,4,0,7,0,0,20,0,2,0,0,0,46,23,0,0,0,0,0,0,0,0,0,0,0,0,0,0,0,0,0,0,0,0,0,0,0,0,0,0,0,0,0,0,0,0,0,0,0,0,0,0,0,0,0,0,0,0,0,0,0,0,0,0,0,0,0,0,0,0,0,0,0,0,0,0,0,0,0,0],"split_type":[0,0,0,0,0,0,0,0,0,0,0,0,0,0,0,0,0,0,0,0,0,0,0,0,0,0,0,0,0,0,0,0,0,0,0,0,0,0,0,0,0,0,0,0,0,0,0,0,0,0,0,0,0,0,0,0,0,0,0,0,0,0,0,0,0,0,0,0,0,0,0,0,0,0,0,0,0,0,0,0,0,0,0,0,0,0,0,0,0,0,0,0,0,0,0,0,0,0,0,0,0,0,0,0,0,0,0,0,0,0,0,0,0,0,0,0,0,0,0,0,0,0,0,0,0,0,0,0,0,0,0,0,0,0,0,0,0,0,0,0,0,0,0,0,0,0,0,0,0,0,0,0,0,0,0,0,0,0,0,0,0,0,0,0,0,0,0,0,0,0,0,0,0,0,0],"sum_hessian":[7.7499595E3,4.30527E3,3.4446892E3,2.7983254E3,1.5069447E3,2.6591133E3,7.85576E2,2.2045972E3,5.937283E2,6.3006116E2,8.768836E2,4.5963803E2,2.199475E3,5.305468E2,2.550292E2,1.379964E3,8.246331E2,4.356314E2,1.5809688E2,5.2667725E2,1.03383934E2,6.067725E2,2.7011108E2,1.6862695E2,2.9101108E2,1.3955234E3,8.039518E2,3.478487E2,1.826981E2,4.2871704E1,2.1215752E2,4.9570135E2,8.842627E2,1.7597464E2,6.486585E2,4.096472E2,2.5984211E1,3.37659E1,1.2433097E2,1.3367836E2,3.9299887E2,7.772186E1,2.5662075E1,4.3263776E2,1.7413474E2,1.1083865E2,1.5927245E2,1.2559597E2,4.3030987E1,2.465835E2,4.4427586E1,2.4174942E2,1.153774E3,6.445541E2,1.5939772E2,6.526246E1,2.8258624E2,1.3019823E2,5.249988E1,1.8094794E2,3.120958E1,1.0497741E2,3.9072394E2,7.888887E2,9.537401E1,3.272682E1,1.4324782E2,4.9731113E2,1.513474E2,3.590078E2,5.0639374E1,9.827607E1,2.60549E1,1.0715882E2,2.651954E1,9.067689E1,3.02322E2,2.5167679E1,5.255418E1,1.8840988E2,2.4422789E2,1.1938161E2,5.4753124E1,6.9831604E1,4.1007057E1,3.1604816E1,1.27667625E2,2.5478205E1,1.0011777E2,3.8320873E1,2.0826263E2,1.4089624E2,1.00853165E2,7.172948E2,4.3647922E2,4.4281042E2,2.0174364E2,4.7553482E1,1.1184423E2,3.765155E1,2.761091E1,2.3752884E2,4.5057384E1,9.1639175E1,3.8559048E1,2.7245583E1,2.5254297E1,7.02296E1,1.1071833E2,7.881537E1,2.6162043E1,3.481512E2,4.2572716E1,1.4740262E2,6.41486E2,2.9381979E1,6.599203E1,2.9483156E1,1.1376466E2,1.7111176E2,3.2619937E2,1.2420032E2,2.7147072E1,1.7740439E2,1.8160342E2,2.5027391E1,2.5611982E1,3.762123E1,6.0654842E1,7.301368E1,3.4145138E1,6.439399E1,2.6282896E1,2.2710594E2,7.521604E1,2.6310808E1,2.6243372E1,1.500052E2,3.8404686E1,3.0608912E1,2.1361897E2,6.486377E1,5.4517834E1,2.6810045E1,2.7943079E1,3.0377844E1,3.945376E1,3.596564E1,9.170198E1,7.060837E1,2.9509396E1,8.0101974E1,1.2816066E2,3.201806E1,1.0887819E2,3.1359646E1,6.949352E1,7.287827E1,6.4441656E2,3.5870398E2,7.777524E1,1.6737575E2,2.7543466E2,1.20047356E2,8.169628E1,5.450731E1,5.733692E1,3.2538467E1,2.0499037E2,6.573462E1,2.5904552E1,3.362686E1,3.6602734E1,2.8371315E1,8.2347015E1],"tree_param":{"num_deleted":"0","num_feature":"54","num_nodes":"175","size_leaf_vector":"1"}},{"base_weights":[-6.59751E-2,-2.3539598E-1,1.4285934E-1,-3.117097E-1,7.6372005E-2,-1.8326794E-1,2.493242E-1,-4.1451737E-1,-8.970971E-2,-1.2034127E-1,2.3466332E-1,-5.9713614E-1,-1.15414195E-1,4.108418E-2,3.9214817E-1,-4.8790833E-1,-1.3364623E-1,1.6684812E-1,-2.8383785E-1,-4.4412297E-1,-2.4376582E-2,-4.770946E-2,4.7708318E-1,-6.8976283E-1,-3.3970114E-2,3.1817082E-2,-3.0190784E-1,-1.4959356E-1,2.9510757E-1,4.9917173E-1,1.8518756E-1,-5.375675E-1,-2.375398E-1,-5.276393E-1,5.7360653E-2,2.309598E-1,-6.174503E-2,-3.7496272E-1,5.4385457E-2,-6.8715066E-2,-2.418586E-2,-2.3788664E-1,1.0514861E-1,-1.3219336E-1,3.407527E-2,9.04571E-3,6.143107E-1,-5.5012703E-2,-8.045366E-2,-5.4892052E-2,3.9683908E-1,-4.1137898E-1,-5.6299046E-2,-6.7812467E-1,-9.3399554E-2,1.5989152E-1,7.916015E-1,7.169381E-1,3.7033617E-1,1.24310195E-1,5.7143545E-1,-6.6142845E-1,-4.7472963E-1,-6.3811386E-1,-1.2919432E-1,-6.610521E-1,1.427874E-2,-9.355711E-2,4.6131772E-1,-1.6569535E-1,3.4402782E-1,-2.8519124E-1,-7.0353234E-1,3.0271402E-1,-1.1841876E-1,-4.3217745E-1,-9.4795665E-3,2.0762546E-1,-2.5465772E-2,1.0822254E-1,-2.785707E-1,3.2945905E-2,-3.733381E-2,1.1203531E-1,5.296771E-1,7.149788E-2,-2.5060007E-1,8.182592E-2,7.4030645E-3,-5.3733474E-1,-2.521837E-1,-1.7195547E-1,1.8124733E-2,-8.046365E-2,-4.925878E-2,-1.6293229E-1,3.616019E-1,-2.539279E-1,2.9466283E-1,1.942693E-2,1.0847307E0,2.9592267E-1,8.593847E-1,2.170938E-1,5.7703936E-1,-1.1387179E-1,1.8363726E-1,2.3097927E-2,8.083243E-2,-7.763282E-2,-4.656639E-2,-4.5702197E-2,-9.734707E-2,-7.7809416E-2,-3.998306E-2,-4.1288357E-2,-4.1255127E-3,-4.9758084E-2,-8.690488E-2,6.089698E-3,-2.7613183E-2,6.6795014E-2,1.7756261E-2,-5.2016515E-2,-2.8657455E-3,1.05980575E-1,2.1294495E-2,-5.731777E-2,-2.2692338E-2,-8.0958806E-2,-3.7600856E-2,6.0526628E-2,-3.5761693E-3,-4.6714798E-2,1.1288318E-2,-2.1285823E-2,-6.3847326E-2,1.7875768E-2,-1.9832034E-2,5.9255324E-3,5.1131215E-2,-3.0257354E-2,3.6906067E-2,-4.5346286E-2,1.3719897E-2,6.7038245E-2,2.6118597E-2,2.1444283E-2,-2.173813E-2,-1.3770232E-2,-6.321227E-2,-6.5375365E-2,-1.3092989E-2,1.9210939E-3,-4.1711543E-2,-3.2109216E-2,9.661209E-4,-2.9098947E-2,4.7279154E-3,5.830986E-2,1.3004993E-2,-4.9461305E-2,1.2412037E-2,1.5396095E-2,8.089012E-2,1.3703753E-1,7.67911E-2,1.381294E-2,7.0474885E-2,7.5137414E-2,1.2423936E-1,2.1574257E-3,5.5257034E-2,6.577433E-3,7.243186E-2,1.4844942E-2,-3.1188527E-2,-1.3414219E-2,2.3908658E-2],"categories":[],"categories_nodes":[],"categories_segments":[],"categories_sizes":[],"default_left":[0,0,0,0,0,0,0,0,0,0,0,0,0,0,0,0,0,0,0,0,0,0,0,0,0,0,0,0,0,0,0,0,0,0,0,0,0,0,0,0,0,0,0,0,0,0,0,0,0,0,0,0,0,0,0,0,0,0,0,0,0,0,0,0,0,0,0,0,0,0,0,0,0,0,0,0,0,0,0,0,0,0,0,0,0,0,0,0,0,0,0,0,0,0,0,0,0,0,0,0,0,0,0,0,0,0,0,0,0,0,0,0,0,0,0,0,0,0,0,0,0,0,0,0,0,0,0,0,0,0,0,0,0,0,0,0,0,0,0,0,0,0,0,0,0,0,0,0,0,0,0,0,0,0,0,0,0,0,0,0,0,0,0,0,0,0,0,0,0,0,0,0,0,0,0,0,0,0,0],"id":4,"left_children":[1,3,5,7,9,11,13,15,17,19,21,23,25,27,29,31,33,35,37,39,41,43,45,47,-1,49,51,53,55,57,59,61,63,65,67,69,-1,71,73,-1,-1,75,77,79,-1,81,83,-1,-1,85,87,89,91,93,95,97,99,101,103,105,107,109,111,113,115,117,-1,119,121,123,125,127,129,131,133,135,137,139,-1,141,143,-1,-1,-1,145,147,149,-1,-1,151,153,155,-1,-1,-1,157,159,161,163,-1,165,167,169,171,173,175,177,-1,-1,-1,-1,-1,-1,-1,-1,-1,-1,-1,-1,-1,-1,-1,-1,-1,-1,-1,-1,-1,-1,-1,-1,-1,-1,-1,-1,-1,-1,-1,-1,-1,-1,-1,-1,-1,-1,-1,-1,-1,-1,-1,-1,-1,-1,-1,-1,-1,-1,-1,-1,-1,-1,-1,-1,-1,-1,-1,-1,-1,-1,-1,-1,-1,-1,-1,-1,-1,-1,-1,-1],"loss_changes":[2.7271094E2,1.0126788E2,1.1992205E2,7.7990265E1,2.610913E1,2.3809086E1,7.74095E1,4.809561E1,5.4005104E1,1.1614002E1,3.181634E1,2.615879E0,2.0101843E1,5.1397125E1,3.410797E1,2.2898254E1,3.655893E1,2.3638863E1,1.9039589E1,4.03553E0,8.0353365E0,7.1161604E0,1.60514E1,9.5059586E-1,0E0,1.2993074E1,8.659391E0,1.794334E1,3.0414703E1,2.8272202E1,1.2341711E1,1.1708374E1,1.3298946E1,1.4278652E1,2.002802E1,1.9463167E1,0E0,1.4141869E1,5.693632E0,0E0,0E0,4.8630023E0,6.7258387E0,6.283369E0,0E0,7.1919503E0,7.6854706E0,0E0,0E0,8.231072E0,1.0657447E1,4.3402023E0,2.798237E0,9.6754074E-1,1.7433407E1,2.0085827E1,1.6795193E1,2.2356613E1,2.018341E1,6.482809E0,5.587536E0,1.1275406E1,8.6367035E0,1.8698463E0,6.068583E0,4.070774E0,0E0,6.770117E0,5.119011E0,4.6803064E0,3.139774E1,6.3066597E0,3.2963676E0,5.590682E0,6.381769E0,2.5444403E0,1.86377E0,6.3413577E0,0E0,7.3942566E0,8.113645E0,0E0,0E0,0E0,6.152916E0,8.409695E0,5.5345335E0,0E0,0E0,5.768467E0,4.5056458E0,1.8517077E0,0E0,0E0,0E0,1.2855889E1,3.6738138E0,8.130852E0,1.9492313E1,0E0,4.824028E0,6.1497383E0,1.0698822E1,2.4243298E1,2.0460426E1,4.8150964E0,6.4898424E0,0E0,0E0,0E0,0E0,0E0,0E0,0E0,0E0,0E0,0E0,0E0,0E0,0E0,0E0,0E0,0E0,0E0,0E0,0E0,0E0,0E0,0E0,0E0,0E0,0E0,0E0,0E0,0E0,0E0,0E0,0E0,0E0,0E0,0E0,0E0,0E0,0E0,0E0,0E0,0E0,0E0,0E0,0E0,0E0,0E0,0E0,0E0,0E0,0E0,0E0,0E0,0E0,0E0,0E0,0E0,0E0,0E0,0E0,0E0,0E0,0E0,0E0,0E0,0E0,0E0,0E0,0E0,0E0,0E0,0E0,0E0,0E0],"parents":[2147483647,0,0,1,1,2,2,3,3,4,4,5,5,6,6,7,7,8,8,9,9,10,10,11,11,12,12,13,13,14,14,15,15,16,16,17,17,18,18,19,19,20,20,21,21,22,22,23,23,25,25,26,26,27,27,28,28,29,29,30,30,31,31,32,32,33,33,34,34,35,35,37,37,38,38,41,41,42,42,43,43,45,45,46,46,49,49,50,50,51,51,52,52,53,53,54,54,55,55,56,56,57,57,58,58,59,59,60,60,61,61,62,62,63,63,64,64,65,65,67,67,68,68,69,69,70,70,71,71,72,72,73,73,74,74,75,75,76,76,77,77,79,79,80,80,84,84,85,85,86,86,89,89,90,90,91,91,95,95,96,96,97,97,98,98,100,100,101,101,102,102,103,103,104,104,105,105,106,106],"right_children":[2,4,6,8,10,12,14,16,18,20,22,24,26,28,30,32,34,36,38,40,42,44,46,48,-1,50,52,54,56,58,60,62,64,66,68,70,-1,72,74,-1,-1,76,78,80,-1,82,84,-1,-1,86,88,90,92,94,96,98,100,102,104,106,108,110,112,114,116,118,-1,120,122,124,126,128,130,132,134,136,138,140,-1,142,144,-1,-1,-1,146,148,150,-1,-1,152,154,156,-1,-1,-1,158,160,162,164,-1,166,168,170,172,174,176,178,-1,-1,-1,-1,-1,-1,-1,-1,-1,-1,-1,-1,-1,-1,-1,-1,-1,-1,-1,-1,-1,-1,-1,-1,-1,-1,-1,-1,-1,-1,-1,-1,-1,-1,-1,-1,-1,-1,-1,-1,-1,-1,-1,-1,-1,-1,-1,-1,-1,-1,-1,-1,-1,-1,-1,-1,-1,-1,-1,-1,-1,-1,-1,-1,-1,-1,-1,-1,-1,-1,-1,-1],"split_conditions":[-1.634E3,2E0,1E0,1E0,-8.05E2,2E0,-1.443E4,-1.3635E4,1E0,1E0,-1.8259E4,1E0,1E0,1E0,1E0,3E0,1E0,1E0,1E0,5.3316E5,-1.339E3,3E0,1E0,2E0,-3.3970114E-2,3E0,1E0,2E0,2E0,2E0,3E0,2.8888888E0,2.2173913E0,3E0,-2.023E3,1E0,-6.174503E-2,2.6775E5,1.71E5,-6.8715066E-2,-2.418586E-2,3.7666297E0,8E0,1.8161E5,3.407527E-2,2.025E5,2E0,-5.5012703E-2,-8.045366E-2,1E0,-1.2827E4,3.3825157E0,-4.02E2,3.7128E0,3E0,1E0,-8.82E2,1.9966667E0,1E0,-1.199E3,2.3076923E0,3.6E5,1E0,3.39988E5,-4.401E3,3.65E0,1.427874E-2,3E0,4E0,-2.0637E4,5.4877E4,1E0,3.825E5,-2.424E3,-3.237E3,1.444E5,5.714286E0,4E0,-2.5465772E-2,2.3688889E0,1.4E1,3.2945905E-2,-3.733381E-2,1.1203531E-1,1E0,1E0,1E0,8.182592E-2,7.4030645E-3,-3.35E2,4.8E0,2.7E5,1.8124733E-2,-8.046365E-2,-4.925878E-2,-5.3E2,6.4008E5,-1.6373E4,-3.42E2,1.942693E-2,1E0,-4.13E2,3E0,1E0,-1.034E3,3E0,-1.355E3,2.3097927E-2,8.083243E-2,-7.763282E-2,-4.656639E-2,-4.5702197E-2,-9.734707E-2,-7.7809416E-2,-3.998306E-2,-4.1288357E-2,-4.1255127E-3,-4.9758084E-2,-8.690488E-2,6.089698E-3,-2.7613183E-2,6.6795014E-2,1.7756261E-2,-5.2016515E-2,-2.8657455E-3,1.05980575E-1,2.1294495E-2,-5.731777E-2,-2.2692338E-2,-8.0958806E-2,-3.7600856E-2,6.0526628E-2,-3.5761693E-3,-4.6714798E-2,1.1288318E-2,-2.1285823E-2,-6.3847326E-2,1.7875768E-2,-1.9832034E-2,5.9255324E-3,5.1131215E-2,-3.0257354E-2,3.6906067E-2,-4.5346286E-2,1.3719897E-2,6.7038245E-2,2.6118597E-2,2.1444283E-2,-2.173813E-2,-1.3770232E-2,-6.321227E-2,-6.5375365E-2,-1.3092989E-2,1.9210939E-3,-4.1711543E-2,-3.2109216E-2,9.661209E-4,-2.9098947E-2,4.7279154E-3,5.830986E-2,1.3004993E-2,-4.9461305E-2,1.2412037E-2,1.5396095E-2,8.089012E-2,1.3703753E-1,7.67911E-2,1.381294E-2,7.0474885E-2,7.5137414E-2,1.2423936E-1,2.1574257E-3,5.5257034E-2,6.577433E-3,7.243186E-2,1.4844942E-2,-3.1188527E-2,-1.3414219E-2,2.3908658E-2],"split_indices":[10,25,40,1,23,17,9,9,2,40,9,25,45,1,2,17,40,0,25,20,23,17,40,22,0,17,1,17,25,24,25,53,53,17,10,28,0,5,5,0,0,53,24,19,0,5,24,0,0,2,9,53,23,53,25,28,23,53,25,23,53,20,0,20,10,53,0,24,22,9,20,13,5,10,10,19,53,25,0,53,22,0,0,0,2,44,30,0,0,23,53,20,0,0,0,23,20,9,23,0,2,10,17,1,23,24,10,0,0,0,0,0,0,0,0,0,0,0,0,0,0,0,0,0,0,0,0,0,0,0,0,0,0,0,0,0,0,0,0,0,0,0,0,0,0,0,0,0,0,0,0,0,0,0,0,0,0,0,0,0,0,0,0,0,0,0,0,0,0,0,0,0,0,0,0,0,0,0,0],"split_type":[0,0,0,0,0,0,0,0,0,0,0,0,0,0,0,0,0,0,0,0,0,0,0,0,0,0,0,0,0,0,0,0,0,0,0,0,0,0,0,0,0,0,0,0,0,0,0,0,0,0,0,0,0,0,0,0,0,0,0,0,0,0,0,0,0,0,0,0,0,0,0,0,0,0,0,0,0,0,0,0,0,0,0,0,0,0,0,0,0,0,0,0,0,0,0,0,0,0,0,0,0,0,0,0,0,0,0,0,0,0,0,0,0,0,0,0,0,0,0,0,0,0,0,0,0,0,0,0,0,0,0,0,0,0,0,0,0,0,0,0,0,0,0,0,0,0,0,0,0,0,0,0,0,0,0,0,0,0,0,0,0,0,0,0,0,0,0,0,0,0,0,0,0,0,0,0,0,0,0],"sum_hessian":[7.7059033E3,4.2543525E3,3.451551E3,3.4177622E3,8.3659033E2,8.492806E2,2.6022705E3,2.3353843E3,1.0823779E3,3.731302E2,4.634601E2,1.1852809E2,7.307525E2,1.05921E3,1.5430604E3,1.8509882E3,4.84396E2,4.662832E2,6.160947E2,8.44776E1,2.886526E2,2.1445926E2,2.4900085E2,8.5930435E1,3.259766E1,4.0882584E2,3.2192667E2,6.0527966E2,4.5393036E2,1.0161675E3,5.26893E2,1.5436641E3,3.0732413E2,1.5758348E2,3.268125E2,4.3169986E2,3.4583344E1,4.852492E2,1.3084554E2,3.728322E1,4.7194378E1,1.0867519E2,1.799774E2,1.7669156E2,3.77677E1,5.66959E1,1.9230496E2,4.1379963E1,4.455047E1,3.3103885E2,7.7786995E1,2.2220982E2,9.9716835E1,5.7105747E1,5.481739E2,3.5780667E2,9.612369E1,3.7602335E2,6.401441E2,4.562969E2,7.05961E1,5.163504E2,1.0273137E3,6.438624E1,2.4293788E2,1.314411E2,2.6142378E1,2.3848373E2,8.8328766E1,9.565746E1,3.360424E2,3.825871E2,1.0266212E2,5.338162E1,7.746391E1,5.8241154E1,5.0434036E1,1.4041002E2,3.9567383E1,6.6965485E1,1.0972608E2,3.0922888E1,2.577301E1,2.5800493E1,1.6650447E2,2.0152618E2,1.2951268E2,3.307431E1,4.471268E1,1.2273008E2,9.9479744E1,6.725021E1,3.246662E1,3.1969757E1,2.5135992E1,4.7606427E2,7.2109634E1,8.768453E1,2.7012213E2,3.2190125E1,6.3933563E1,9.5839E1,2.8018436E2,3.6878806E2,2.7135608E2,9.080804E1,3.6548886E2,2.9776464E1,4.0819633E1,3.2350842E2,1.9284196E2,9.939404E2,3.337326E1,3.9132378E1,2.525386E1,5.6612503E1,1.8632538E2,7.5497475E1,5.5943634E1,1.2955206E2,1.0893166E2,5.0326614E1,3.800215E1,2.5890888E1,6.976657E1,5.091827E1,2.8512415E2,6.289486E1,3.1969223E2,7.643862E1,2.6223495E1,2.777038E1,2.5611238E1,3.0484064E1,4.697985E1,2.9214338E1,2.9026817E1,2.5284117E1,2.5149918E1,9.512873E1,4.5281284E1,2.5944801E1,4.1020683E1,7.71729E1,3.255318E1,1.08268486E2,5.823598E1,1.3498819E2,6.6537994E1,1.0098944E2,2.8523235E1,9.4928276E1,2.7801807E1,3.7937397E1,6.1542347E1,3.65054E1,3.0744814E1,2.956035E2,1.8046078E2,3.6079082E1,3.6030552E1,5.338716E1,3.429737E1,2.1311159E2,5.7010544E1,3.1872194E1,3.206137E1,7.011487E1,2.5724134E1,2.2086186E2,5.9322502E1,2.33668E2,1.3512004E2,6.1010605E1,2.1034547E2,3.9168846E1,5.1639187E1,5.4088566E1,3.114003E2],"tree_param":{"num_deleted":"0","num_feature":"54","num_nodes":"179","size_leaf_vector":"1"}},{"base_weights":[-5.6399252E-2,-1.9628218E-1,1.4291446E-1,-4.3973562E-1,-1.23722784E-1,-1.5376335E-1,2.3820509E-1,-3.881899E-1,-8.690222E-1,-2.1708106E-1,7.70299E-2,-8.7922305E-2,-5.781947E-1,3.1635517E-1,-1.0239917E-1,-2.8138867E-1,-5.633725E-1,-7.283022E-1,-1.0982708E-1,-4.2073765E-1,-1.2815921E-1,1.8143941E-1,-2.2216244E-1,8.4513426E-2,-2.5358534E-1,-8.102073E-2,-3.6014333E-1,3.768937E-1,-1.2364679E-1,-1.8035711E-1,3.6562544E-1,-4.214304E-1,-1.1716656E-1,-4.943053E-1,-8.605876E-1,-9.741866E-2,-5.7062697E-2,-4.4550696E-1,2.2047004E-2,-1.9661964E-1,1.6505627E-1,2.4166998E-1,-4.555615E-1,-6.788465E-2,-1.6399539E-1,-2.0538573E-1,2.7542117E-1,-3.3291337E-1,1.9187789E-1,-6.1677475E-2,-4.958966E-3,2.185918E-1,5.549012E-1,-2.7935645E-1,2.8597027E-1,-2.211819E-1,2.7633492E-2,7.4617765E-3,7.675175E-2,-5.3376174E-1,-2.3523547E-1,7.6011986E-2,-2.50163E-1,-8.826532E-2,-4.5045516E-1,-1.0078301E-1,-6.7271106E-2,-5.2663374E-1,-3.3823487E-1,-6.4816244E-2,-3.2645708E-1,6.875571E-2,5.571937E-1,5.2284336E-1,1.2663247E-1,-7.60613E-2,-1.2038794E-2,-2.1667355E-1,2.9380474E-2,-3.5077333E-1,2.7432216E-2,-3.0056223E-2,4.0319172E-1,-4.0784845E-1,-5.9079673E-2,-3.0375803E-2,6.9625646E-2,-3.4307855E-1,2.6854622E-1,-8.3223775E-2,6.034131E-1,-2.0317176E-1,-6.824402E-2,4.9044214E-2,5.972286E-3,-3.6511236E-1,-4.6923585E-2,-7.45179E-2,-4.154498E-2,-2.8585081E-3,-4.0991884E-2,-1.2560852E-2,5.148626E-2,5.8563952E-3,-3.8362775E-2,-1.01356115E-2,-4.919668E-2,-1.0033329E-1,-4.6696197E-2,-4.2219616E-2,-1.279092E-2,-2.4617223E-2,2.8216511E-2,-4.816654E-2,-2.3009075E-2,-5.928147E-4,5.1069696E-2,7.713361E-2,2.5777677E-2,7.873535E-3,6.3838884E-2,-3.0731706E-2,1.9876255E-2,-3.610347E-2,-8.700294E-3,-2.2769233E-2,-5.4096967E-2,7.81512E-2,2.3080643E-2,-5.704826E-2,-2.4481924E-2,2.4682736E-2,-3.648546E-2,-5.8438104E-2,-3.3413265E-3,-1.3993222E-3,3.719641E-2,-3.7938938E-2,1.5772538E-2,2.0566218E-2,6.672214E-2,-2.808013E-2,1.3194245E-2,-1.1432528E-3,-4.4155765E-2,-4.308134E-2,6.7560533E-3],"categories":[],"categories_nodes":[],"categories_segments":[],"categories_sizes":[],"default_left":[0,0,0,0,0,0,0,0,0,0,0,0,0,0,0,0,0,0,0,0,0,0,0,0,0,0,0,0,0,0,0,0,0,0,0,0,0,0,0,0,0,0,0,0,0,0,0,0,0,0,0,0,0,0,0,0,0,0,0,0,0,0,0,0,0,0,0,0,0,0,0,0,0,0,0,0,0,0,0,0,0,0,0,0,0,0,0,0,0,0,0,0,0,0,0,0,0,0,0,0,0,0,0,0,0,0,0,0,0,0,0,0,0,0,0,0,0,0,0,0,0,0,0,0,0,0,0,0,0,0,0,0,0,0,0,0,0,0,0,0,0,0,0,0,0,0,0],"id":5,"left_children":[1,3,5,7,9,11,13,15,17,19,21,23,25,27,29,31,33,35,-1,37,39,41,43,45,47,-1,49,51,53,55,57,59,61,63,65,-1,-1,67,-1,69,71,73,75,-1,77,79,81,83,85,-1,-1,87,89,91,93,95,-1,-1,-1,97,99,101,103,-1,105,-1,-1,107,109,111,113,115,117,119,121,-1,-1,123,-1,125,-1,-1,127,129,131,-1,-1,133,135,137,139,141,-1,-1,-1,143,145,-1,-1,-1,-1,-1,-1,-1,-1,-1,-1,-1,-1,-1,-1,-1,-1,-1,-1,-1,-1,-1,-1,-1,-1,-1,-1,-1,-1,-1,-1,-1,-1,-1,-1,-1,-1,-1,-1,-1,-1,-1,-1,-1,-1,-1,-1,-1,-1,-1,-1],"loss_changes":[2.1419019E2,7.968565E1,8.960786E1,2.2588806E1,6.5219475E1,2.1490822E1,6.3876038E1,1.7181946E1,2.757141E0,4.295485E1,3.456058E1,1.9118408E1,4.936405E0,5.2018677E1,1.6425438E1,1.323843E1,6.76001E0,2.2080498E0,0E0,1.1555077E1,3.324562E1,3.1560751E1,7.4944897E0,1.8226677E1,1.2121243E1,0E0,4.3587418E0,4.8216385E1,1.5179064E1,7.239625E0,7.468853E0,6.388897E0,6.8869557E0,4.479187E0,1.1105614E0,0E0,0E0,5.8690033E0,0E0,2.2941658E1,1.1809117E1,2.4179115E1,7.1841526E0,0E0,6.220283E0,9.227856E0,1.47207575E1,5.9264793E0,1.326365E1,0E0,0E0,2.5613537E1,2.502568E1,5.1443415E0,3.0099974E0,8.861183E0,0E0,0E0,0E0,4.529888E0,4.2835536E0,9.776779E0,6.5555134E0,0E0,3.7087898E0,0E0,0E0,1.0734764E1,5.279278E0,4.2049644E1,9.995674E0,8.35405E0,3.7581673E0,1.1101173E1,1.6752531E1,0E0,0E0,4.265111E0,0E0,2.2392645E0,0E0,0E0,1.0436317E1,5.8927345E0,6.0275245E0,0E0,0E0,5.5645523E0,2.4428925E1,4.190171E0,1.8895233E1,3.8381257E0,0E0,0E0,0E0,5.2324467E0,7.1168036E0,0E0,0E0,0E0,0E0,0E0,0E0,0E0,0E0,0E0,0E0,0E0,0E0,0E0,0E0,0E0,0E0,0E0,0E0,0E0,0E0,0E0,0E0,0E0,0E0,0E0,0E0,0E0,0E0,0E0,0E0,0E0,0E0,0E0,0E0,0E0,0E0,0E0,0E0,0E0,0E0,0E0,0E0,0E0,0E0,0E0,0E0,0E0,0E0,0E0,0E0],"parents":[2147483647,0,0,1,1,2,2,3,3,4,4,5,5,6,6,7,7,8,8,9,9,10,10,11,11,12,12,13,13,14,14,15,15,16,16,17,17,19,19,20,20,21,21,22,22,23,23,24,24,26,26,27,27,28,28,29,29,30,30,31,31,32,32,33,33,34,34,37,37,39,39,40,40,41,41,42,42,44,44,45,45,46,46,47,47,48,48,51,51,52,52,53,53,54,54,55,55,59,59,60,60,61,61,62,62,64,64,67,67,68,68,69,69,70,70,71,71,72,72,73,73,74,74,77,77,79,79,82,82,83,83,84,84,87,87,88,88,89,89,90,90,91,91,95,95,96,96],"right_children":[2,4,6,8,10,12,14,16,18,20,22,24,26,28,30,32,34,36,-1,38,40,42,44,46,48,-1,50,52,54,56,58,60,62,64,66,-1,-1,68,-1,70,72,74,76,-1,78,80,82,84,86,-1,-1,88,90,92,94,96,-1,-1,-1,98,100,102,104,-1,106,-1,-1,108,110,112,114,116,118,120,122,-1,-1,124,-1,126,-1,-1,128,130,132,-1,-1,134,136,138,140,142,-1,-1,-1,144,146,-1,-1,-1,-1,-1,-1,-1,-1,-1,-1,-1,-1,-1,-1,-1,-1,-1,-1,-1,-1,-1,-1,-1,-1,-1,-1,-1,-1,-1,-1,-1,-1,-1,-1,-1,-1,-1,-1,-1,-1,-1,-1,-1,-1,-1,-1,-1,-1,-1,-1],"split_conditions":[-1.449E3,1E0,1E0,1E0,1E0,1E0,6.795E5,6.795E5,4.32E5,-7.769E3,6.795E5,4.545E5,-3.773E3,1E0,3E0,2.7142856E0,1.3545E6,-5.291E3,-1.0982708E-1,1.5E1,3E0,1E0,-5.77E3,2.81916E5,3E0,-8.102073E-2,8.3457E4,1E0,-2.84E2,-3.74E2,1.47204E5,1E0,4.545E5,3.9775E4,-3.688E3,-9.741866E-2,-5.7062697E-2,-7.26E2,2.2047004E-2,4.545E5,1E0,1E0,-2.172E3,-6.788465E-2,9E0,-3.35E2,1E0,-3.26E2,5.05E0,-6.1677475E-2,-4.958966E-3,1.575E5,2E0,1.98129E5,1E0,1E0,2.7633492E-2,7.4617765E-3,7.675175E-2,-2.97E3,1.16591E5,4.90536E5,1E0,-8.826532E-2,-1.689E3,-1.0078301E-1,-6.7271106E-2,1.65E0,-9.062E3,3.37923E5,-1.034E3,-7.52E2,4.725E5,1.5742285E0,2.115E5,-7.60613E-2,-1.2038794E-2,-4.626E3,2.9380474E-2,1E0,2.7432216E-2,-3.0056223E-2,-4.721E3,-3.9E3,-3.488E3,-3.0375803E-2,6.9625646E-2,-3.82E3,-1.004E3,-5.675E3,2.25E5,1E0,-6.824402E-2,4.9044214E-2,5.972286E-3,4.7049E4,-1.296E3,-7.45179E-2,-4.154498E-2,-2.8585081E-3,-4.0991884E-2,-1.2560852E-2,5.148626E-2,5.8563952E-3,-3.8362775E-2,-1.01356115E-2,-4.919668E-2,-1.0033329E-1,-4.6696197E-2,-4.2219616E-2,-1.279092E-2,-2.4617223E-2,2.8216511E-2,-4.816654E-2,-2.3009075E-2,-5.928147E-4,5.1069696E-2,7.713361E-2,2.5777677E-2,7.873535E-3,6.3838884E-2,-3.0731706E-2,1.9876255E-2,-3.610347E-2,-8.700294E-3,-2.2769233E-2,-5.4096967E-2,7.81512E-2,2.3080643E-2,-5.704826E-2,-2.4481924E-2,2.4682736E-2,-3.648546E-2,-5.8438104E-2,-3.3413265E-3,-1.3993222E-3,3.719641E-2,-3.7938938E-2,1.5772538E-2,2.0566218E-2,6.672214E-2,-2.808013E-2,1.3194245E-2,-1.1432528E-3,-4.4155765E-2,-4.308134E-2,6.7560533E-3],"split_indices":[10,40,40,0,1,0,8,8,8,11,8,8,11,0,17,53,8,11,0,29,17,0,10,6,17,0,19,1,23,11,19,1,8,19,11,0,0,23,0,8,14,32,10,0,29,23,28,23,53,0,0,6,17,19,32,1,0,0,0,10,19,6,29,0,23,0,0,53,11,6,23,11,8,53,8,0,0,11,0,4,0,0,11,11,11,0,0,11,23,11,6,14,0,0,0,19,23,0,0,0,0,0,0,0,0,0,0,0,0,0,0,0,0,0,0,0,0,0,0,0,0,0,0,0,0,0,0,0,0,0,0,0,0,0,0,0,0,0,0,0,0,0,0,0,0,0,0],"split_type":[0,0,0,0,0,0,0,0,0,0,0,0,0,0,0,0,0,0,0,0,0,0,0,0,0,0,0,0,0,0,0,0,0,0,0,0,0,0,0,0,0,0,0,0,0,0,0,0,0,0,0,0,0,0,0,0,0,0,0,0,0,0,0,0,0,0,0,0,0,0,0,0,0,0,0,0,0,0,0,0,0,0,0,0,0,0,0,0,0,0,0,0,0,0,0,0,0,0,0,0,0,0,0,0,0,0,0,0,0,0,0,0,0,0,0,0,0,0,0,0,0,0,0,0,0,0,0,0,0,0,0,0,0,0,0,0,0,0,0,0,0,0,0,0,0,0,0],"sum_hessian":[7.680407E3,4.513056E3,3.167351E3,1.0350765E3,3.4779795E3,7.6985895E2,2.3974922E3,9.258154E2,1.0926114E2,2.373925E3,1.1040543E3,6.6751587E2,1.0234305E2,1.9501178E3,4.4737433E2,5.767824E2,3.49033E2,7.029114E1,3.897E1,7.2036053E2,1.6535646E3,8.1873346E2,2.8532086E2,3.2731223E2,3.4020367E2,4.8268436E1,5.407461E1,1.7143843E3,2.357335E2,3.84023E2,6.3351322E1,3.1046478E2,2.6631763E2,2.8537936E2,6.365365E1,2.5440252E1,4.4850887E1,6.938624E2,2.6498108E1,1.3408339E3,3.1273065E2,7.485739E2,7.0159546E1,3.1029543E1,2.5429134E2,1.299315E2,1.9738072E2,2.8899258E2,5.1211105E1,2.9067846E1,2.5006767E1,9.085974E2,8.0578687E2,1.7103513E2,6.469838E1,3.529846E2,3.1038437E1,3.7432404E1,2.591892E1,1.9247688E2,1.1798789E2,1.08764565E2,1.5755307E2,2.701337E1,2.58366E2,3.3239162E1,3.0414488E1,3.9285123E2,3.010112E2,6.661235E2,6.7471045E2,2.520162E2,6.0714455E1,2.1631479E2,5.3225916E2,3.606573E1,3.4093815E1,2.2852242E2,2.5768915E1,9.9917694E1,3.0013805E1,3.559007E1,1.6179065E2,2.2651651E2,6.247606E1,2.6030027E1,2.5181078E1,7.373038E1,8.34867E2,5.687951E1,7.4890735E2,1.4511227E2,2.5922844E1,3.3371265E1,3.1327112E1,1.9271466E2,1.6026993E2,6.716252E1,1.2531436E2,5.4581562E1,6.340633E1,7.501453E1,3.375004E1,4.772293E1,1.0983015E2,2.7823257E1,2.3054272E2,4.194572E1,3.5090552E2,2.1441151E2,8.659969E1,4.3766208E2,2.2846136E2,2.5691806E2,4.177924E2,2.1642845E2,3.5587757E1,3.447901E1,2.6235445E1,4.500726E1,1.7130753E2,7.539665E1,4.568625E2,1.072915E2,1.2123091E2,6.1995766E1,3.7921925E1,4.953864E1,1.12252014E2,1.121445E2,1.1437202E2,3.1327654E1,3.1148405E1,4.094073E1,3.2789646E1,2.2393562E2,6.109314E2,2.5258345E1,3.1621164E1,1.0411646E2,6.447909E2,1.1795091E2,2.7161366E1,3.4455105E1,1.5825955E2,3.6181732E1,1.24088196E2],"tree_param":{"num_deleted":"0","num_feature":"54","num_nodes":"147","size_leaf_vector":"1"}},{"base_weights":[-5.821156E-2,-1.9740295E-1,1.3034765E-1,-2.6951185E-1,2.9793775E-2,2.555173E-1,-5.9489496E-2,-2.4334769E-1,-6.10944E-1,1.3294126E-1,-3.2706892E-1,3.9726306E-2,4.7439465E-1,-3.7420344E-2,-8.016657E-2,-3.5255376E-1,-1.5017611E-1,-4.927175E-1,-8.984514E-1,2.0533049E-1,-4.6205246E-1,-4.9445683E-1,-1.8851653E-1,1.880739E-1,-1.053588E-1,2.4184151E-1,6.752085E-1,8.137661E-2,-1.5162952E-1,-3.7347803E-1,7.9207174E-2,-6.060278E-2,-3.3190736E-1,-7.665199E-1,-3.14916E-1,-1.05061725E-1,-6.867194E-2,1.2742068E-1,6.511548E-1,-6.521882E-2,-2.6145352E-2,-7.3431075E-1,-2.2359085E-1,-3.286834E-1,4.7870693E-3,-6.09353E-2,2.810745E-1,-3.0712426E-1,3.7142254E-2,3.631635E-1,-3.3405825E-1,5.343662E-1,1.0527498E0,-7.5999886E-2,4.6023706E-1,-2.6639894E-1,-4.607105E-2,-9.375612E-2,-4.009614E-1,-2.6151085E-2,3.9604746E-2,-2.176656E-1,1.0485878E-1,-6.2736577E-1,-2.7025172E-1,-5.7750314E-2,-8.670335E-2,-4.1799927E-1,-4.461859E-4,-1.2465661E-1,2.0533341E-1,1.318802E-1,1.948052E-1,-8.178816E-2,-6.0822733E-2,-4.5495477E-2,1.2251238E-3,-4.6425816E-2,-1.1818999E-2,1.7842221E-1,-2.9873258E-1,1.0155219E-1,4.4401842E-1,-4.4567636E-1,-2.402993E-2,-3.5006866E-2,1.0742982E-1,4.506186E-1,-3.5410903E-2,-7.2605506E-2,-1.3616109E-1,9.536527E-1,4.4736883E-1,6.277879E-2,1.2752827E0,-3.42077E-1,8.66123E-2,6.155203E-3,6.1124223E-1,-3.6119676E-1,3.307413E-2,-3.1461713E-1,2.1513764E-2,-5.695513E-2,4.592788E-3,-7.108118E-2,-3.811197E-2,-4.102022E-2,-5.995999E-3,-2.594018E-2,1.9165179E-2,-7.888827E-2,-4.3344796E-2,-6.101201E-2,-2.1103237E-2,-2.7095115E-2,-5.117779E-2,2.1570697E-3,-4.1608676E-2,3.0509582E-2,-7.2205164E-3,-1.2285343E-2,6.799118E-2,-1.7937649E-2,4.920214E-2,-5.885632E-2,-8.523894E-3,-1.1417554E-2,3.6713365E-2,1.8481253E-2,6.001651E-2,-5.7019513E-2,-4.5732926E-3,4.6814546E-2,-3.2089256E-2,-4.7127684E-3,3.0457437E-2,7.579427E-3,5.538189E-2,-4.1289095E-2,2.0251235E-2,-3.0460795E-2,5.338594E-3,1.24128394E-1,6.456522E-2,1.5239999E-2,5.4939754E-2,1.01313606E-1,1.4713159E-1,-4.0412646E-2,-2.1503792E-4,-2.6823709E-2,2.4841303E-2,1.9040946E-2,7.519939E-2,-5.56512E-2,-1.410559E-2,-3.0853292E-2,2.658527E-2,-8.6176983E-4,-6.665262E-2,1.0596181E-2,-3.6062952E-2],"categories":[],"categories_nodes":[],"categories_segments":[],"categories_sizes":[],"default_left":[0,0,0,0,0,0,0,0,0,0,0,0,0,0,0,0,0,0,0,0,0,0,0,0,0,0,0,0,0,0,0,0,0,0,0,0,0,0,0,0,0,0,0,0,0,0,0,0,0,0,0,0,0,0,0,0,0,0,0,0,0,0,0,0,0,0,0,0,0,0,0,0,0,0,0,0,0,0,0,0,0,0,0,0,0,0,0,0,0,0,0,0,0,0,0,0,0,0,0,0,0,0,0,0,0,0,0,0,0,0,0,0,0,0,0,0,0,0,0,0,0,0,0,0,0,0,0,0,0,0,0,0,0,0,0,0,0,0,0,0,0,0,0,0,0,0,0,0,0,0,0,0,0,0,0,0,0,0,0,0,0,0,0],"id":6,"left_children":[1,3,5,7,9,11,13,15,17,19,21,23,25,27,-1,29,31,33,35,37,39,41,43,45,47,49,51,53,55,57,59,61,63,65,67,-1,-1,69,71,-1,-1,73,75,77,-1,79,81,83,85,87,89,91,93,95,97,99,101,103,105,-1,-1,107,109,111,113,-1,-1,115,-1,117,119,-1,121,-1,-1,-1,-1,-1,-1,123,125,127,129,131,133,-1,135,137,139,-1,141,143,145,-1,147,149,151,-1,153,155,157,159,161,-1,-1,-1,-1,-1,-1,-1,-1,-1,-1,-1,-1,-1,-1,-1,-1,-1,-1,-1,-1,-1,-1,-1,-1,-1,-1,-1,-1,-1,-1,-1,-1,-1,-1,-1,-1,-1,-1,-1,-1,-1,-1,-1,-1,-1,-1,-1,-1,-1,-1,-1,-1,-1,-1,-1,-1,-1,-1,-1,-1],"loss_changes":[2.0091438E2,7.215692E1,7.726988E1,2.971547E1,3.913125E1,9.253232E1,2.1143324E1,3.1557785E1,7.6227646E0,3.5606926E1,5.435667E0,2.1280338E1,4.526204E1,1.7059011E1,0E0,1.294458E1,2.7297844E1,8.051907E0,1.4670181E0,2.5472948E1,3.2522087E0,6.8099747E0,4.3909955E0,1.1336056E1,1.4388283E1,3.1722628E1,2.7163086E1,3.679238E1,7.752473E0,1.0445755E1,7.325921E0,2.9268063E1,9.9196205E0,7.6029587E-1,3.3578224E0,0E0,0E0,1.2350736E1,3.3016323E1,0E0,0E0,9.78241E-2,2.834907E0,2.3143978E0,0E0,7.665013E0,1.0369804E1,8.111862E0,8.037751E0,1.3055004E1,6.04688E0,1.3499504E1,1.2499008E1,1.8912312E1,1.086348E1,8.723425E0,6.088155E0,8.22085E0,7.36084E0,0E0,0E0,1.7515184E1,1.7396812E1,2.6292953E0,9.129139E0,0E0,0E0,9.480076E-1,0E0,6.349722E0,1.3305609E1,0E0,1.0260426E1,0E0,0E0,0E0,0E0,0E0,0E0,7.6365786E0,4.1238995E0,9.821802E0,7.431072E0,6.895218E0,1.0247018E1,0E0,7.6182866E0,1.18269005E1,6.212E0,0E0,1.736455E0,4.9321175E0,9.488396E0,0E0,3.202835E0,3.4950886E0,1.5664673E1,0E0,7.6291847E0,9.946672E0,6.021781E0,7.2559648E0,8.707368E0,0E0,0E0,0E0,0E0,0E0,0E0,0E0,0E0,0E0,0E0,0E0,0E0,0E0,0E0,0E0,0E0,0E0,0E0,0E0,0E0,0E0,0E0,0E0,0E0,0E0,0E0,0E0,0E0,0E0,0E0,0E0,0E0,0E0,0E0,0E0,0E0,0E0,0E0,0E0,0E0,0E0,0E0,0E0,0E0,0E0,0E0,0E0,0E0,0E0,0E0,0E0,0E0,0E0,0E0,0E0,0E0,0E0,0E0,0E0,0E0],"parents":[2147483647,0,0,1,1,2,2,3,3,4,4,5,5,6,6,7,7,8,8,9,9,10,10,11,11,12,12,13,13,15,15,16,16,17,17,18,18,19,19,20,20,21,21,22,22,23,23,24,24,25,25,26,26,27,27,28,28,29,29,30,30,31,31,32,32,33,33,34,34,37,37,38,38,41,41,42,42,43,43,45,45,46,46,47,47,48,48,49,49,50,50,51,51,52,52,53,53,54,54,55,55,56,56,57,57,58,58,61,61,62,62,63,63,64,64,67,67,69,69,70,70,72,72,79,79,80,80,81,81,82,82,83,83,84,84,86,86,87,87,88,88,90,90,91,91,92,92,94,94,95,95,96,96,98,98,99,99,100,100,101,101,102,102],"right_children":[2,4,6,8,10,12,14,16,18,20,22,24,26,28,-1,30,32,34,36,38,40,42,44,46,48,50,52,54,56,58,60,62,64,66,68,-1,-1,70,72,-1,-1,74,76,78,-1,80,82,84,86,88,90,92,94,96,98,100,102,104,106,-1,-1,108,110,112,114,-1,-1,116,-1,118,120,-1,122,-1,-1,-1,-1,-1,-1,124,126,128,130,132,134,-1,136,138,140,-1,142,144,146,-1,148,150,152,-1,154,156,158,160,162,-1,-1,-1,-1,-1,-1,-1,-1,-1,-1,-1,-1,-1,-1,-1,-1,-1,-1,-1,-1,-1,-1,-1,-1,-1,-1,-1,-1,-1,-1,-1,-1,-1,-1,-1,-1,-1,-1,-1,-1,-1,-1,-1,-1,-1,-1,-1,-1,-1,-1,-1,-1,-1,-1,-1,-1,-1,-1,-1,-1],"split_conditions":[-1.487E3,-1.3439E4,4.545E5,1E0,6.795E5,2.264E0,1E0,-1.9479E4,3.96E5,1E0,1E0,1E0,2.1109E4,6.795E5,-8.016657E-2,1.4E1,6.795E5,-7.83E2,3.30862E5,4.8E0,-2.172E3,3.978E4,-1.1376E4,1.0125E4,-6.79E2,3.6E5,5.4E5,7.33315E5,-1.4646E4,3.5158E4,-2.2016E4,-8.11E2,-5.77E3,1E0,4.41391E5,-1.05061725E-1,-6.867194E-2,1.6666666E0,4.545E5,-6.521882E-2,-2.6145352E-2,-2.718E3,-8.34E2,3.22389E5,4.7870693E-3,1.06632E5,1.5742285E0,-1.1732E4,1E0,1E0,1.7095E4,2.2198E4,-8.63E2,-8.28E2,-9.87E2,-4.32E2,2.997E4,-2.108E3,-7.42E3,-2.6151085E-2,3.9604746E-2,2.1919E4,1E0,6.3157897E0,8.3538E5,-5.7750314E-2,-8.670335E-2,9.5823E4,-4.461859E-4,-1.0872E4,4.545E5,1.318802E-1,2.9299E4,-8.178816E-2,-6.0822733E-2,-4.5495477E-2,1.2251238E-3,-4.6425816E-2,-1.1818999E-2,-4.1E2,1.65226E5,-4.93E2,-8.35E2,7.05676E5,-9.02E2,-3.5006866E-2,4E0,-1.6556E4,-7.95E2,-7.2605506E-2,-1.3351E4,3.735E5,-1.5142E4,6.277879E-2,5.47344E5,1E0,2.4178E4,6.155203E-3,-1.7153E4,3.76632E5,1E0,7.74E5,5.2726E4,-5.695513E-2,4.592788E-3,-7.108118E-2,-3.811197E-2,-4.102022E-2,-5.995999E-3,-2.594018E-2,1.9165179E-2,-7.888827E-2,-4.3344796E-2,-6.101201E-2,-2.1103237E-2,-2.7095115E-2,-5.117779E-2,2.1570697E-3,-4.1608676E-2,3.0509582E-2,-7.2205164E-3,-1.2285343E-2,6.799118E-2,-1.7937649E-2,4.920214E-2,-5.885632E-2,-8.523894E-3,-1.1417554E-2,3.6713365E-2,1.8481253E-2,6.001651E-2,-5.7019513E-2,-4.5732926E-3,4.6814546E-2,-3.2089256E-2,-4.7127684E-3,3.0457437E-2,7.579427E-3,5.538189E-2,-4.1289095E-2,2.0251235E-2,-3.0460795E-2,5.338594E-3,1.24128394E-1,6.456522E-2,1.5239999E-2,5.4939754E-2,1.01313606E-1,1.4713159E-1,-4.0412646E-2,-2.1503792E-4,-2.6823709E-2,2.4841303E-2,1.9040946E-2,7.519939E-2,-5.56512E-2,-1.410559E-2,-3.0853292E-2,2.658527E-2,-8.6176983E-4,-6.665262E-2,1.0596181E-2,-3.6062952E-2],"split_indices":[10,9,8,0,8,53,0,9,8,0,46,32,7,8,0,29,8,23,20,53,10,7,9,7,23,8,6,6,9,20,9,23,10,32,20,0,0,53,8,0,0,10,23,20,0,20,53,9,53,0,7,7,10,23,10,23,7,10,10,0,0,7,28,53,6,0,0,20,0,9,8,0,7,0,0,0,0,0,0,23,20,23,10,20,10,0,22,9,10,0,9,8,9,0,6,34,7,0,9,20,28,8,7,0,0,0,0,0,0,0,0,0,0,0,0,0,0,0,0,0,0,0,0,0,0,0,0,0,0,0,0,0,0,0,0,0,0,0,0,0,0,0,0,0,0,0,0,0,0,0,0,0,0,0,0,0,0,0,0,0,0,0,0],"split_type":[0,0,0,0,0,0,0,0,0,0,0,0,0,0,0,0,0,0,0,0,0,0,0,0,0,0,0,0,0,0,0,0,0,0,0,0,0,0,0,0,0,0,0,0,0,0,0,0,0,0,0,0,0,0,0,0,0,0,0,0,0,0,0,0,0,0,0,0,0,0,0,0,0,0,0,0,0,0,0,0,0,0,0,0,0,0,0,0,0,0,0,0,0,0,0,0,0,0,0,0,0,0,0,0,0,0,0,0,0,0,0,0,0,0,0,0,0,0,0,0,0,0,0,0,0,0,0,0,0,0,0,0,0,0,0,0,0,0,0,0,0,0,0,0,0,0,0,0,0,0,0,0,0,0,0,0,0,0,0,0,0,0,0],"sum_hessian":[7.6531196E3,4.402913E3,3.2502068E3,3.342019E3,1.0608938E3,1.9585111E3,1.2916958E3,3.105737E3,2.3628194E2,8.2349774E2,2.3739606E2,9.8680365E2,9.717074E2,1.2554155E3,3.6280285E1,1.4285522E3,1.6771849E3,1.6935493E2,6.6927E1,7.3475903E2,8.8738716E1,1.0634718E2,1.3104886E2,4.877695E2,4.9903412E2,4.5129178E2,5.2041565E2,6.1548944E2,6.3992615E2,1.3626495E3,6.590261E1,1.1243424E3,5.528425E2,6.5373314E1,1.0398162E2,3.6635834E1,3.0291172E1,6.2655206E2,1.0820698E2,4.4401752E1,4.433696E1,5.5494976E1,5.0852207E1,8.20227E1,4.9026173E1,1.3272987E2,3.550396E2,2.0608531E2,2.9294882E2,3.7306863E2,7.822315E1,3.8078033E2,1.3963531E2,4.3541846E2,1.8007097E2,3.058568E2,3.340693E2,1.22300804E2,1.2403488E3,3.1838896E1,3.4063713E1,5.766486E2,5.476937E2,9.3864E1,4.5897855E2,2.5036825E1,4.0336487E1,7.7801865E1,2.6179756E1,1.4779124E2,4.7876083E2,4.3165394E1,6.504159E1,3.0074284E1,2.5420692E1,2.520083E1,2.5651377E1,4.915642E1,3.2866272E1,6.627237E1,6.645751E1,1.6969861E2,1.85341E2,1.3798053E2,6.8104774E1,4.439551E1,2.4855331E2,3.058324E2,6.7236244E1,2.5346899E1,5.287625E1,6.3719658E1,3.1706067E2,4.9303547E1,9.0331764E1,1.6474608E2,2.7067236E2,4.9853912E1,1.3021707E2,2.3216057E2,7.369626E1,6.643536E1,2.6763394E2,2.705794E1,9.524287E1,7.255149E1,1.1677972E3,2.5893005E2,3.177186E2,1.0500609E2,4.4268765E2,4.9536343E1,4.4327656E1,6.672596E1,3.922526E2,3.1810762E1,4.5991104E1,9.902878E1,4.8762463E1,3.5209833E2,1.2666251E2,3.9755527E1,2.5286058E1,3.1154675E1,3.511769E1,2.7443909E1,3.90136E1,9.395252E1,7.5746086E1,7.049755E1,1.1484346E2,1.04896324E2,3.3084206E1,2.5406229E1,4.2698547E1,1.3975168E2,1.0880164E2,6.6400314E1,2.3943208E2,2.5710129E1,4.1526115E1,2.7674986E1,2.5201265E1,3.1382483E1,3.2337173E1,8.212573E1,2.3493494E2,4.1287674E1,4.904409E1,1.3915599E2,2.5590092E1,8.4561195E1,1.8611118E2,3.32264E1,9.699067E1,1.2220703E2,1.0995353E2,2.9734648E1,4.3961605E1,3.608364E1,3.0351723E1,2.1978697E2,4.7846973E1],"tree_param":{"num_deleted":"0","num_feature":"54","num_nodes":"163","size_leaf_vector":"1"}},{"base_weights":[-5.114564E-2,-1.7799075E-1,9.769396E-2,-2.26958E-1,6.268326E-2,-3.56196E-1,1.4687797E-1,-3.011735E-1,-6.696693E-2,-2.4370293E-1,1.539126E-1,-4.6166298E-1,5.9203357E-2,2.2302675E-1,-1.3552037E-1,-6.033022E-1,-2.6565027E-1,1.3793159E-1,-2.2330788E-1,-6.0326047E-2,-9.893626E-2,3.0208287E-1,-7.329192E-2,-6.081941E-1,-2.8871125E-1,4.0513303E-2,-3.2770924E-2,1.4763395E-1,5.2801263E-1,-2.4734482E-1,1.2601471E-1,-7.159339E-1,-3.3909526E-1,-4.3764576E-1,-2.1027628E-1,5.0128454E-1,4.4696122E-2,-6.357974E-1,-1.6837218E-1,1.7489822E-1,-3.364067E-1,-8.009454E-3,3.602303E-1,-1.8616681E-1,8.920195E-2,-8.93878E-2,-4.563E-1,1.6716963E-2,-4.4577408E-1,2.4599408E-1,-1.9846626E-2,-1.865344E-2,5.978871E-1,-1.523955E-1,-4.919171E-1,3.3652675E-1,-2.5947746E-2,-6.1810726E-1,-9.835654E-2,-1.9460913E-2,-5.3812336E-2,-4.7164398E-1,8.594982E-3,-2.4433595E-1,1.6198733E-1,7.5674564E-1,1.3773629E-2,-2.0773399E-1,1.3084832E-1,-3.865949E-2,-8.197746E-2,-9.274101E-2,-4.1046336E-1,-7.0058056E-3,4.0565055E-2,-5.6562778E-2,-3.4049542E-3,-5.037803E-3,4.3037766E-1,-5.5543076E-2,-8.636925E-2,3.5316154E-2,-4.3711074E-2,-8.302863E-2,-3.065034E-1,-2.5820298E-2,-6.4028606E-2,1.6662455E-1,7.6904327E-1,-5.1893455E-1,2.5624208E-2,7.5957656E-1,3.2513785E-1,-8.283047E-2,-6.1525125E-2,-7.233873E-1,-2.8241056E-1,-4.725608E-3,5.333664E-1,2.7570192E-2,-2.0301948E-1,-7.132276E-2,-2.667438E-2,-3.555421E-2,-6.3175015E-2,-4.3099117E-2,-1.8979061E-2,-1.047695E-2,2.6184162E-2,4.8289463E-2,9.905415E-2,-4.3797646E-2,1.3874617E-2,-1.5289555E-2,2.431151E-2,-3.8938817E-2,6.7094556E-4,-8.376163E-3,-5.6159597E-2,5.6733258E-2,1.5741274E-2,6.781488E-3,-2.3964321E-2,-2.9418716E-2,1.6375855E-2,-1.0149967E-2,-5.5006802E-2,2.4050688E-2,-1.9045863E-2,-7.5696125E-3,9.205277E-2,-7.355188E-2,-2.5985334E-2,1.601948E-2,-9.931166E-3,6.335584E-2,1.1253983E-1,-2.8520007E-2,4.5195114E-2,-1.30911665E-2,4.0125497E-2,-5.371299E-2,-8.887641E-2,-5.540256E-2,-1.1224985E-2,2.1383481E-2,8.830991E-2,-4.4242527E-2,3.5196037E-3],"categories":[],"categories_nodes":[],"categories_segments":[],"categories_sizes":[],"default_left":[0,0,0,0,0,0,0,0,0,0,0,0,0,0,0,0,0,0,0,0,0,0,0,0,0,0,0,0,0,0,0,0,0,0,0,0,0,0,0,0,0,0,0,0,0,0,0,0,0,0,0,0,0,0,0,0,0,0,0,0,0,0,0,0,0,0,0,0,0,0,0,0,0,0,0,0,0,0,0,0,0,0,0,0,0,0,0,0,0,0,0,0,0,0,0,0,0,0,0,0,0,0,0,0,0,0,0,0,0,0,0,0,0,0,0,0,0,0,0,0,0,0,0,0,0,0,0,0,0,0,0,0,0,0,0,0,0,0,0,0,0,0,0,0,0,0,0,0,0],"id":7,"left_children":[1,3,5,7,9,11,13,15,17,19,21,23,25,27,29,31,33,35,37,-1,39,41,43,45,47,-1,-1,49,51,53,55,57,59,61,63,65,67,69,71,73,75,-1,77,79,81,-1,83,-1,85,87,89,-1,91,93,95,97,99,101,-1,-1,-1,103,-1,105,107,109,-1,111,113,-1,-1,115,117,-1,-1,-1,-1,-1,119,-1,121,-1,123,-1,125,-1,-1,127,129,131,133,135,137,139,-1,141,143,-1,145,-1,147,-1,-1,-1,-1,-1,-1,-1,-1,-1,-1,-1,-1,-1,-1,-1,-1,-1,-1,-1,-1,-1,-1,-1,-1,-1,-1,-1,-1,-1,-1,-1,-1,-1,-1,-1,-1,-1,-1,-1,-1,-1,-1,-1,-1,-1,-1,-1,-1],"loss_changes":[1.4372478E2,4.844989E1,7.825154E1,4.053224E1,1.9480751E1,1.5043964E1,6.800834E1,2.4876266E1,3.474037E1,8.26802E0,1.808744E1,6.7549133E0,9.540656E0,5.717994E1,1.9684204E1,7.0371017E0,1.9804962E1,1.588492E1,1.3828323E1,0E0,7.553898E0,7.251152E0,3.9164238E0,5.9770393E0,9.191674E0,0E0,0E0,3.291843E1,2.4734863E1,1.0863995E1,6.468439E0,3.8590622E0,2.0525494E0,9.081207E0,2.0101334E1,8.791609E0,8.177469E0,2.980238E0,9.923298E0,3.0914187E0,4.2826405E0,0E0,8.151684E0,4.587659E0,3.0968747E0,0E0,5.2416153E0,0E0,3.29986E0,5.213028E1,1.6810698E1,0E0,1.9575348E1,1.0921492E1,6.162369E0,6.425848E0,6.3695545E0,4.075615E0,0E0,0E0,0E0,8.643135E0,0E0,1.4681168E1,3.5763292E0,3.1091995E0,0E0,7.6989083E0,8.957332E0,0E0,0E0,1.2270467E1,6.332979E0,0E0,0E0,0E0,0E0,0E0,8.9269905E0,0E0,2.3845124E0,0E0,3.130095E0,0E0,3.5209756E0,0E0,0E0,2.8914083E1,2.125727E1,3.2795448E0,1.1437098E1,1.2261566E1,1.3212057E1,6.9747543E0,0E0,1.4241676E0,3.1986437E0,0E0,6.0787144E0,0E0,4.2960634E0,0E0,0E0,0E0,0E0,0E0,0E0,0E0,0E0,0E0,0E0,0E0,0E0,0E0,0E0,0E0,0E0,0E0,0E0,0E0,0E0,0E0,0E0,0E0,0E0,0E0,0E0,0E0,0E0,0E0,0E0,0E0,0E0,0E0,0E0,0E0,0E0,0E0,0E0,0E0,0E0,0E0,0E0,0E0,0E0,0E0,0E0,0E0,0E0],"parents":[2147483647,0,0,1,1,2,2,3,3,4,4,5,5,6,6,7,7,8,8,9,9,10,10,11,11,12,12,13,13,14,14,15,15,16,16,17,17,18,18,20,20,21,21,22,22,23,23,24,24,27,27,28,28,29,29,30,30,31,31,32,32,33,33,34,34,35,35,36,36,37,37,38,38,39,39,40,40,42,42,43,43,44,44,46,46,48,48,49,49,50,50,52,52,53,53,54,54,55,55,56,56,57,57,61,61,63,63,64,64,65,65,67,67,68,68,71,71,72,72,78,78,80,80,82,82,84,84,87,87,88,88,89,89,90,90,91,91,92,92,93,93,95,95,96,96,98,98,100,100],"right_children":[2,4,6,8,10,12,14,16,18,20,22,24,26,28,30,32,34,36,38,-1,40,42,44,46,48,-1,-1,50,52,54,56,58,60,62,64,66,68,70,72,74,76,-1,78,80,82,-1,84,-1,86,88,90,-1,92,94,96,98,100,102,-1,-1,-1,104,-1,106,108,110,-1,112,114,-1,-1,116,118,-1,-1,-1,-1,-1,120,-1,122,-1,124,-1,126,-1,-1,128,130,132,134,136,138,140,-1,142,144,-1,146,-1,148,-1,-1,-1,-1,-1,-1,-1,-1,-1,-1,-1,-1,-1,-1,-1,-1,-1,-1,-1,-1,-1,-1,-1,-1,-1,-1,-1,-1,-1,-1,-1,-1,-1,-1,-1,-1,-1,-1,-1,-1,-1,-1,-1,-1,-1,-1,-1,-1],"split_conditions":[-1.634E3,3E0,2E0,1E0,-3.824E3,1E0,1E0,2E0,1E0,2.5925925E0,-1.648E3,1E0,6.075E5,3E0,1E0,5E0,1E0,2E0,2E0,-6.0326047E-2,7.0173E5,-7.703E3,1E0,-6.85E3,2E0,4.0513303E-2,-3.2770924E-2,4.545E5,9.963E3,1E0,1E0,4.414E4,6.795E5,1.4E1,-6.78E2,3E0,1E0,2.52E5,3.8938E4,2.1919E4,3.8133E4,-8.009454E-3,1.3963E4,2.25E0,2.6364188E0,-8.93878E-2,1E0,1.6716963E-2,-4.69E3,5.01435E5,5.26491E5,-1.865344E-2,4.545E5,1E0,-3.688E3,-1.003E3,-4.562E3,5.3333335E0,-9.835654E-2,-1.9460913E-2,-5.3812336E-2,-4.496E3,8.594982E-3,2.6955E5,-3.075E3,2.1865E4,1.3773629E-2,5E0,3.01464E5,-3.865949E-2,-8.197746E-2,1.6965E4,7.2E5,-7.0058056E-3,4.0565055E-2,-5.6562778E-2,-3.4049542E-3,-5.037803E-3,4E0,-5.5543076E-2,4.815E5,3.5316154E-2,4.344E0,-8.302863E-2,2.16E5,-2.5820298E-2,-6.4028606E-2,1E0,2.5272E4,-3.98E3,6.795E5,3.7128E0,2.4543E4,1E1,-6.1525125E-2,-6.003E3,3E0,-4.725608E-3,1.8E5,2.7570192E-2,2.997E4,-7.132276E-2,-2.667438E-2,-3.555421E-2,-6.3175015E-2,-4.3099117E-2,-1.8979061E-2,-1.047695E-2,2.6184162E-2,4.8289463E-2,9.905415E-2,-4.3797646E-2,1.3874617E-2,-1.5289555E-2,2.431151E-2,-3.8938817E-2,6.7094556E-4,-8.376163E-3,-5.6159597E-2,5.6733258E-2,1.5741274E-2,6.781488E-3,-2.3964321E-2,-2.9418716E-2,1.6375855E-2,-1.0149967E-2,-5.5006802E-2,2.4050688E-2,-1.9045863E-2,-7.5696125E-3,9.205277E-2,-7.355188E-2,-2.5985334E-2,1.601948E-2,-9.931166E-3,6.335584E-2,1.1253983E-1,-2.8520007E-2,4.5195114E-2,-1.30911665E-2,4.0125497E-2,-5.371299E-2,-8.887641E-2,-5.540256E-2,-1.1224985E-2,2.1383481E-2,8.830991E-2,-4.4242527E-2,3.5196037E-3],"split_indices":[10,17,17,1,10,14,45,17,2,53,10,1,8,17,1,29,28,12,17,0,6,11,26,11,12,0,0,8,7,2,2,7,8,22,11,24,28,5,7,7,7,0,7,53,53,0,3,0,11,6,6,0,8,0,11,10,11,53,0,0,0,11,0,6,10,7,0,22,6,0,0,7,8,0,0,0,0,0,24,0,8,0,53,0,5,0,0,0,7,11,8,53,7,22,0,11,22,0,5,0,7,0,0,0,0,0,0,0,0,0,0,0,0,0,0,0,0,0,0,0,0,0,0,0,0,0,0,0,0,0,0,0,0,0,0,0,0,0,0,0,0,0,0,0,0,0,0,0,0],"split_type":[0,0,0,0,0,0,0,0,0,0,0,0,0,0,0,0,0,0,0,0,0,0,0,0,0,0,0,0,0,0,0,0,0,0,0,0,0,0,0,0,0,0,0,0,0,0,0,0,0,0,0,0,0,0,0,0,0,0,0,0,0,0,0,0,0,0,0,0,0,0,0,0,0,0,0,0,0,0,0,0,0,0,0,0,0,0,0,0,0,0,0,0,0,0,0,0,0,0,0,0,0,0,0,0,0,0,0,0,0,0,0,0,0,0,0,0,0,0,0,0,0,0,0,0,0,0,0,0,0,0,0,0,0,0,0,0,0,0,0,0,0,0,0,0,0,0,0,0,0],"sum_hessian":[7.610791E3,4.108889E3,3.5019019E3,3.4142808E3,6.9460864E2,3.4176E2,3.1601418E3,2.3317588E3,1.082522E3,1.589883E2,5.3562036E2,2.724703E2,6.928969E1,2.4891516E3,6.709901E2,2.4363506E2,2.0881238E3,4.6855603E2,6.13966E2,4.4728592E1,1.142597E2,3.2399747E2,2.1162286E2,1.4613919E2,1.26331116E2,3.6557434E1,3.273225E1,1.9969803E3,4.921713E2,4.7006073E2,2.0092941E2,1.6961725E2,7.40178E1,5.0686444E2,1.5812593E3,9.478557E1,3.7377048E2,7.091569E1,5.430503E2,5.3189148E1,6.107055E1,4.273588E1,2.812616E2,1.2479173E2,8.683112E1,4.9032867E1,9.710632E1,3.2355034E1,9.397608E1,1.2578093E3,7.3917096E2,4.3692753E1,4.4847855E2,3.3977454E2,1.302862E2,8.3727715E1,1.1720169E2,1.2663735E2,4.2979904E1,4.4030952E1,2.9986845E1,4.760525E2,3.081194E1,1.4490265E3,1.3223276E2,5.5032974E1,3.975259E1,9.474673E1,2.7902374E2,3.1436007E1,3.947968E1,4.148355E2,1.2821478E2,2.6138296E1,2.705085E1,3.424115E1,2.6829401E1,4.1080173E1,2.4018143E2,2.557932E1,9.921241E1,2.8524866E1,5.8306255E1,2.6472248E1,7.063408E1,4.9026478E1,4.4949608E1,1.093236E3,1.6457335E2,6.0851574E1,6.783194E2,2.8044315E2,1.680354E2,2.9640518E2,4.3369343E1,6.0733204E1,6.955299E1,2.8642561E1,5.5085155E1,4.314509E1,7.40566E1,9.884766E1,2.7789692E1,2.7781442E2,1.9823808E2,3.2612363E2,1.1229028E3,3.6002987E1,9.6229774E1,2.6757122E1,2.827585E1,5.6762756E1,3.798397E1,7.899907E1,2.0002467E2,1.034231E2,3.1141238E2,4.1044205E1,8.717058E1,1.5921828E2,8.096314E1,4.973731E1,4.9475105E1,2.6225946E1,3.208031E1,3.9122307E1,3.1511772E1,9.0608826E2,1.8714778E2,2.510088E1,1.3947246E2,3.214247E1,2.87091E1,3.2643182E2,3.518876E2,2.1062054E2,6.98226E1,2.869253E1,1.3934288E2,2.7028867E2,2.6116522E1,3.056121E1,3.0171991E1,2.5921122E1,4.3631874E1,2.962753E1,2.5457626E1,3.650847E1,3.7548138E1],"tree_param":{"num_deleted":"0","num_feature":"54","num_nodes":"149","size_leaf_vector":"1"}},{"base_weights":[-4.835265E-2,-1.7355636E-1,9.636195E-2,-2.811855E-1,1.7846728E-2,-1.6365296E-1,1.7778945E-1,-4.7901374E-1,-2.2101502E-1,-9.939036E-2,2.0101002E-1,-2.1393132E-1,2.4995707E-1,1.1807353E-1,4.5098746E-1,-5.562393E-1,-2.5419864E-1,6.2283445E-3,-2.703195E-1,-1.8805316E-1,2.0793043E-1,1.2389469E-1,5.384219E-1,-2.708044E-1,6.5926805E-2,-2.5037266E-3,5.631269E-2,-2.4450622E-1,1.587967E-1,2.7387285E-1,6.686853E-1,-5.138131E-1,-8.480187E-2,1.0308634E-2,-3.3985695E-1,-1.9733848E-1,1.4741182E-1,-4.0666848E-1,-1.8087058E-1,-2.6168558E-1,9.101969E-2,-3.1217476E-2,3.3703795E-1,-1.2044714E-1,2.1666843E-1,9.1877036E-2,4.0838942E-1,-2.3298894E-1,-7.316627E-2,-2.6225863E-2,2.079247E-1,2.0942714E-2,-3.918953E-1,6.5174825E-2,3.2129368E-1,9.384705E-2,7.6059455E-1,4.8042193E-1,9.1396964E-1,-6.524904E-1,-4.0319163E-1,-5.503377E-2,-1.9735543E-1,-5.9011217E-2,-5.4197025E-2,-3.4081854E-2,2.460219E-1,-7.904899E-2,-3.732985E-1,-2.8209224E-1,-4.5408063E-2,-3.648858E-1,-1.1386904E-1,2.204256E-1,-4.132509E-2,5.298216E-1,-1.2515756E-2,-4.4039604E-1,5.7394173E-2,4.314434E-1,-3.4173112E-2,5.9720237E-2,8.581715E-3,-2.6872587E-1,1.9296782E-2,-1.1028129E-2,3.8572556E-1,2.6894603E-2,-2.6549304E-2,-6.637444E-2,-2.7316013E-1,2.352634E-1,-4.8721462E-2,4.6143112E-1,8.781358E-2,2.8049397E-1,-1.8939202E-1,1.04829036E-1,4.6253163E-2,8.84285E-3,6.443202E-1,6.6106E-2,1.1191555E-1,-4.3124866E-2,-7.7362075E-2,-2.7411295E-2,-5.92488E-2,1.2856381E-3,-5.4798253E-2,-2.5653461E-2,3.0329425E-2,5.4442015E-2,6.6560134E-3,-3.0289209E-2,-5.1595192E-2,-5.3062927E-2,-2.0142762E-2,-1.8303577E-2,2.0208942E-2,-2.7060434E-2,-6.6158764E-2,4.3449323E-3,-4.2195734E-2,-1.653105E-2,3.2887872E-2,4.8619853E-3,7.2614275E-2,-2.7370138E-2,-7.8100964E-2,6.184058E-3,5.8169276E-2,3.0395618E-2,-2.0454964E-2,-5.235293E-2,-2.1663679E-2,6.7264214E-2,1.41366795E-2,-5.3871132E-2,-1.4966801E-2,-7.278987E-3,3.1489946E-2,-7.967412E-3,3.9247364E-2,-3.7528996E-3,5.1961076E-2,-1.284699E-3,5.8130246E-2,-2.8238093E-2,4.6374712E-2,-4.952516E-2,1.730985E-2,3.1111283E-2,8.829174E-2],"categories":[],"categories_nodes":[],"categories_segments":[],"categories_sizes":[],"default_left":[0,0,0,0,0,0,0,0,0,0,0,0,0,0,0,0,0,0,0,0,0,0,0,0,0,0,0,0,0,0,0,0,0,0,0,0,0,0,0,0,0,0,0,0,0,0,0,0,0,0,0,0,0,0,0,0,0,0,0,0,0,0,0,0,0,0,0,0,0,0,0,0,0,0,0,0,0,0,0,0,0,0,0,0,0,0,0,0,0,0,0,0,0,0,0,0,0,0,0,0,0,0,0,0,0,0,0,0,0,0,0,0,0,0,0,0,0,0,0,0,0,0,0,0,0,0,0,0,0,0,0,0,0,0,0,0,0,0,0,0,0,0,0,0,0,0,0,0,0,0,0,0,0],"id":8,"left_children":[1,3,5,7,9,11,13,15,17,19,21,23,25,27,29,31,33,35,37,39,41,43,45,47,49,-1,-1,51,53,55,57,59,-1,-1,61,63,65,67,69,71,73,-1,75,77,79,-1,81,83,-1,-1,85,87,89,91,93,95,97,99,101,103,105,-1,107,109,-1,-1,111,-1,113,115,117,119,121,123,-1,125,-1,127,-1,129,131,-1,-1,133,-1,-1,135,-1,-1,-1,137,139,141,143,145,147,149,-1,-1,-1,151,-1,-1,-1,-1,-1,-1,-1,-1,-1,-1,-1,-1,-1,-1,-1,-1,-1,-1,-1,-1,-1,-1,-1,-1,-1,-1,-1,-1,-1,-1,-1,-1,-1,-1,-1,-1,-1,-1,-1,-1,-1,-1,-1,-1,-1,-1,-1,-1,-1,-1,-1,-1],"loss_changes":[1.3714352E2,8.3601845E1,7.436978E1,3.0813019E1,3.1403801E1,1.747768E1,4.357657E1,1.0361023E1,2.2337662E1,2.4338734E1,1.47830715E1,1.1917011E1,7.8746324E0,3.246341E1,1.8299393E1,5.1276703E0,4.8249054E0,1.0272086E1,1.9905777E1,1.4256842E1,1.3545393E1,1.05860405E1,4.8609734E0,1.0661308E1,5.9763246E0,0E0,0E0,8.698938E0,3.0023037E1,2.3236645E1,9.458931E0,5.7950134E0,0E0,0E0,3.684866E0,6.9463043E0,1.0243157E1,8.006454E0,1.3575611E1,8.322647E0,9.575451E0,0E0,1.4396858E1,2.887741E1,1.8224339E1,0E0,4.8637743E0,8.817921E0,0E0,0E0,5.0922785E0,5.772363E0,4.4305134E0,2.4308762E1,2.357087E1,1.0379005E1,5.6619873E0,7.86957E0,4.032753E0,4.319069E0,5.269058E0,0E0,5.6805935E0,7.6333365E0,0E0,0E0,9.396234E0,0E0,5.851845E0,1.1260323E1,1.4513928E1,8.840355E0,1.10145855E1,4.9202366E0,0E0,1.0704344E1,0E0,4.8263226E0,0E0,1.0080078E1,9.097387E0,0E0,0E0,6.9436913E0,0E0,0E0,3.9349947E0,0E0,0E0,0E0,3.2362146E0,1.2367355E1,1.0301033E1,1.3103798E1,1.3514449E1,1.2316961E1,8.753928E0,0E0,0E0,0E0,6.6293716E0,0E0,0E0,0E0,0E0,0E0,0E0,0E0,0E0,0E0,0E0,0E0,0E0,0E0,0E0,0E0,0E0,0E0,0E0,0E0,0E0,0E0,0E0,0E0,0E0,0E0,0E0,0E0,0E0,0E0,0E0,0E0,0E0,0E0,0E0,0E0,0E0,0E0,0E0,0E0,0E0,0E0,0E0,0E0,0E0,0E0,0E0,0E0,0E0,0E0,0E0,0E0,0E0],"parents":[2147483647,0,0,1,1,2,2,3,3,4,4,5,5,6,6,7,7,8,8,9,9,10,10,11,11,12,12,13,13,14,14,15,15,16,16,17,17,18,18,19,19,20,20,21,21,22,22,23,23,24,24,27,27,28,28,29,29,30,30,31,31,34,34,35,35,36,36,37,37,38,38,39,39,40,40,42,42,43,43,44,44,46,46,47,47,50,50,51,51,52,52,53,53,54,54,55,55,56,56,57,57,58,58,59,59,60,60,62,62,63,63,66,66,68,68,69,69,70,70,71,71,72,72,73,73,75,75,77,77,79,79,80,80,83,83,86,86,90,90,91,91,92,92,93,93,94,94,95,95,96,96,100,100],"right_children":[2,4,6,8,10,12,14,16,18,20,22,24,26,28,30,32,34,36,38,40,42,44,46,48,50,-1,-1,52,54,56,58,60,-1,-1,62,64,66,68,70,72,74,-1,76,78,80,-1,82,84,-1,-1,86,88,90,92,94,96,98,100,102,104,106,-1,108,110,-1,-1,112,-1,114,116,118,120,122,124,-1,126,-1,128,-1,130,132,-1,-1,134,-1,-1,136,-1,-1,-1,138,140,142,144,146,148,150,-1,-1,-1,152,-1,-1,-1,-1,-1,-1,-1,-1,-1,-1,-1,-1,-1,-1,-1,-1,-1,-1,-1,-1,-1,-1,-1,-1,-1,-1,-1,-1,-1,-1,-1,-1,-1,-1,-1,-1,-1,-1,-1,-1,-1,-1,-1,-1,-1,-1,-1,-1,-1,-1,-1,-1],"split_conditions":[-1.634E3,1E0,1E0,1E0,1.9E1,3E0,3E0,1.6E1,5.2105E4,-5.2E2,3E0,3E0,-5.72E2,2E0,-2.822E3,1.319269E6,1.18482E5,1E0,1.2E1,1E0,-3.824E3,-3.533E3,1.74892E5,1E0,9E0,-2.5037266E-3,5.631269E-2,1.24866E5,1E0,1E0,1.15672E5,2.83E0,-8.480187E-2,1.0308634E-2,-2.97E3,5.792E0,2.16E5,1.8E5,-4.529E3,1.3E1,6.80467E5,-3.1217476E-2,1.444E5,4E0,1E0,9.1877036E-2,-5.81E2,1E0,-7.316627E-2,-2.6225863E-2,9.594E4,1E0,-9.27E2,1E0,4E0,3E0,3.16E0,2.3263333E0,3.235294E0,1E0,1.37547E5,-5.503377E-2,7.5519E5,5.47344E5,-5.4197025E-2,-3.4081854E-2,1E0,-7.904899E-2,1.82956E5,2.76277E5,-6.17E2,6E0,2.1618E5,2.3985E5,-4.132509E-2,-6.468E3,-1.2515756E-2,4.02855E5,5.7394173E-2,2.2E0,2.025E5,5.9720237E-2,8.581715E-3,2E0,1.9296782E-2,-1.1028129E-2,1.66329E5,2.6894603E-2,-2.6549304E-2,-6.637444E-2,2.0763428E0,2.07711E5,3E0,-1.468E3,-1.035E3,-7.067E3,1E0,1.04829036E-1,4.6253163E-2,8.84285E-3,-1.159E3,6.6106E-2,1.1191555E-1,-4.3124866E-2,-7.7362075E-2,-2.7411295E-2,-5.92488E-2,1.2856381E-3,-5.4798253E-2,-2.5653461E-2,3.0329425E-2,5.4442015E-2,6.6560134E-3,-3.0289209E-2,-5.1595192E-2,-5.3062927E-2,-2.0142762E-2,-1.8303577E-2,2.0208942E-2,-2.7060434E-2,-6.6158764E-2,4.3449323E-3,-4.2195734E-2,-1.653105E-2,3.2887872E-2,4.8619853E-3,7.2614275E-2,-2.7370138E-2,-7.8100964E-2,6.184058E-3,5.8169276E-2,3.0395618E-2,-2.0454964E-2,-5.235293E-2,-2.1663679E-2,6.7264214E-2,1.41366795E-2,-5.3871132E-2,-1.4966801E-2,-7.278987E-3,3.1489946E-2,-7.967412E-3,3.9247364E-2,-3.7528996E-3,5.1961076E-2,-1.284699E-3,5.8130246E-2,-2.8238093E-2,4.6374712E-2,-4.952516E-2,1.730985E-2,3.1111283E-2,8.829174E-2],"split_indices":[10,25,40,40,21,25,17,21,20,23,17,17,23,17,11,6,19,28,21,14,10,10,19,36,21,0,0,20,25,14,19,53,0,0,10,53,6,6,11,21,20,0,19,25,37,0,23,51,0,0,19,32,23,32,24,24,53,53,53,32,20,0,6,6,0,0,32,0,20,6,23,24,19,6,0,11,0,19,0,53,19,0,0,17,0,0,19,0,0,0,53,6,26,23,11,11,25,0,0,0,11,0,0,0,0,0,0,0,0,0,0,0,0,0,0,0,0,0,0,0,0,0,0,0,0,0,0,0,0,0,0,0,0,0,0,0,0,0,0,0,0,0,0,0,0,0,0,0,0,0,0,0,0],"split_type":[0,0,0,0,0,0,0,0,0,0,0,0,0,0,0,0,0,0,0,0,0,0,0,0,0,0,0,0,0,0,0,0,0,0,0,0,0,0,0,0,0,0,0,0,0,0,0,0,0,0,0,0,0,0,0,0,0,0,0,0,0,0,0,0,0,0,0,0,0,0,0,0,0,0,0,0,0,0,0,0,0,0,0,0,0,0,0,0,0,0,0,0,0,0,0,0,0,0,0,0,0,0,0,0,0,0,0,0,0,0,0,0,0,0,0,0,0,0,0,0,0,0,0,0,0,0,0,0,0,0,0,0,0,0,0,0,0,0,0,0,0,0,0,0,0,0,0,0,0,0,0,0,0],"sum_hessian":[7.5672036E3,4.0569905E3,3.5102131E3,2.5964783E3,1.4605121E3,8.36878E2,2.673335E3,6.039274E2,1.9925509E3,8.907977E2,5.6971436E2,7.4660376E2,9.0274254E1,2.194985E3,4.7834998E2,4.484184E2,1.5550906E2,3.553987E2,1.6371521E3,6.9164465E2,1.9915309E2,4.648421E2,1.0487224E2,6.2053107E2,1.2607267E2,4.8556694E1,4.1717564E1,2.2113142E2,1.9738536E3,2.6500513E2,2.1334483E2,3.9390372E2,5.451467E1,3.003368E1,1.2547538E2,1.4538138E2,2.1001733E2,6.4714624E2,9.900059E2,5.473029E2,1.4434172E2,3.9323154E1,1.5982993E2,1.27841805E2,3.370003E2,2.5173481E1,7.969876E1,5.7486633E2,4.5664772E1,3.781885E1,8.825382E1,7.925337E1,1.4187805E2,1.2532188E3,7.2063495E2,1.9432292E2,7.068222E1,1.2237604E2,9.0968796E1,1.7261353E2,2.212902E2,4.949993E1,7.597545E1,1.0457757E2,4.0803802E1,3.487765E1,1.751397E2,4.994862E1,5.971976E2,5.65995E2,4.2401093E2,3.2142615E2,2.2587677E2,1.1531298E2,2.9028738E1,1.1268305E2,4.7146873E1,8.7767525E1,4.0074276E1,1.8116426E2,1.5583604E2,4.9735462E1,2.9963297E1,5.307099E2,4.4156418E1,3.177199E1,5.648183E1,4.2509033E1,3.6744335E1,4.1734673E1,1.0014338E2,5.0219437E2,7.5102435E2,4.497272E2,2.7090775E2,1.171403E2,7.718262E1,3.4685818E1,3.5996407E1,3.6535076E1,8.584096E1,4.2636864E1,4.8331932E1,6.2683605E1,1.0992991E2,1.3302815E2,8.8262054E1,4.8100838E1,2.787461E1,6.786859E1,3.6708977E1,6.50105E1,1.1012919E2,4.019426E2,1.95255E2,1.3731953E2,4.2867545E2,2.7265445E2,1.5135646E2,2.4536864E2,7.6057526E1,1.5009373E2,7.578303E1,2.5191147E1,9.012183E1,3.3012924E1,7.967013E1,6.013923E1,2.7628298E1,5.2768665E1,1.283956E2,5.1950676E1,1.0388537E2,8.854162E1,4.4216827E2,2.5172535E1,3.1309294E1,3.0720743E1,6.942264E1,1.0317441E2,3.9901996E2,7.0255505E2,4.8469307E1,4.700008E1,4.027271E2,2.2581961E2,4.5088123E1,2.8637444E1,8.850285E1,4.16626E1,3.552001E1,3.678027E1,4.906069E1],"tree_param":{"num_deleted":"0","num_feature":"54","num_nodes":"153","size_leaf_vector":"1"}},{"base_weights":[-4.712248E-2,-2.732327E-1,1.9785162E-2,-2.2234102E-1,-6.6891086E-1,-1.17432475E-1,1.9118507E-1,-2.835101E-1,2.543033E-2,-5.09098E-1,-8.5199416E-1,-1.922984E-1,1.6281214E-1,2.9006457E-1,1.0132682E-2,-4.674794E-1,-2.3081979E-1,-3.9406776E-1,1.3991159E-1,-6.041812E-1,-2.5845895E-2,-1.0357626E-1,-5.8360934E-2,-2.7432385E-1,-1.2261836E-2,-1.5489359E-1,2.5101754E-1,5.2158284E-1,2.3361254E-1,-8.366535E-2,2.0575328E-1,-8.1631675E-2,-3.862367E-1,-1.4205545E-1,-3.4398723E-1,-6.2708154E-2,-1.2838854E-2,3.8528183E-1,9.146367E-3,-3.8192384E-2,-7.374516E-2,-4.4875854E-1,-2.1131939E-1,-1.8915264E-1,1.0188879E-1,-2.9910356E-1,1.36628365E-2,2.9227884E-2,3.8103592E-1,9.744934E-2,6.056874E-1,1.3550878E-1,3.8931996E-1,-2.3355873E-1,5.972317E-3,3.5802466E-1,2.433733E-2,-2.2792578E-1,-5.9379035E-1,-2.0372603E-2,-3.2827234E-1,-4.7181067E-1,-2.1740216E-1,7.216006E-3,5.7432276E-1,-8.168984E-2,4.234819E-2,-5.1461655E-1,1.4284434E-2,5.5038523E-2,-2.5850958E-1,-1.2255544E-1,-5.739812E-2,-2.1307446E-1,2.043297E-1,-7.238428E-2,-1.18981585E-1,-3.0082699E-2,3.9179552E-2,2.403548E-1,5.8579075E-1,-2.3998013E-2,4.523045E-2,1.6319966E-1,7.656363E-1,1.8942954E-1,-1.0580555E-1,-1.8510787E-2,4.2867392E-1,-1.4620008E-1,-6.000964E-2,2.9668748E-1,-7.067318E-2,2.332345E-1,7.1370535E-2,-2.0531908E-1,2.0599245E-1,1.0594094E-2,-3.2655265E-2,-4.37988E-2,-7.384416E-2,-9.300763E-3,4.0562302E-2,-7.971408E-2,-2.4957191E-2,-7.05674E-2,-3.6760926E-2,3.5386377E-3,-3.3369217E-2,3.164727E-2,8.069531E-2,-3.2869253E-2,7.8162685E-4,-7.328726E-2,-4.4993777E-2,-4.025172E-3,3.7632566E-2,-3.9663453E-2,-1.8295258E-2,-3.0897668E-2,1.1938445E-3,3.1657151E-3,-3.301347E-2,2.5081461E-2,-3.8940962E-2,-2.9312346E-2,1.2008123E-2,2.893932E-2,-1.2599051E-2,3.41E-2,-3.3461746E-2,7.842687E-2,3.6894348E-2,-4.4906074E-3,3.838001E-2,8.926069E-2,1.610833E-2,-2.59596E-3,3.1686E-2,-4.5518033E-2,-5.1100965E-4,5.340298E-2,2.2936141E-2,-3.2235432E-2,2.0361368E-3,-1.1429097E-2,5.4872584E-2,-5.7929385E-2,-7.251361E-4,3.6380527E-4,4.4269886E-2,-4.8815522E-2,6.746083E-3,3.639435E-2,-7.3939147E-3],"categories":[],"categories_nodes":[],"categories_segments":[],"categories_sizes":[],"default_left":[0,0,0,0,0,0,0,0,0,0,0,0,0,0,0,0,0,0,0,0,0,0,0,0,0,0,0,0,0,0,0,0,0,0,0,0,0,0,0,0,0,0,0,0,0,0,0,0,0,0,0,0,0,0,0,0,0,0,0,0,0,0,0,0,0,0,0,0,0,0,0,0,0,0,0,0,0,0,0,0,0,0,0,0,0,0,0,0,0,0,0,0,0,0,0,0,0,0,0,0,0,0,0,0,0,0,0,0,0,0,0,0,0,0,0,0,0,0,0,0,0,0,0,0,0,0,0,0,0,0,0,0,0,0,0,0,0,0,0,0,0,0,0,0,0,0,0,0,0,0,0,0,0,0,0],"id":9,"left_children":[1,3,5,7,9,11,13,15,17,19,21,23,25,27,29,31,33,35,37,39,-1,-1,-1,41,43,45,47,49,51,53,55,-1,57,59,61,-1,-1,63,65,-1,-1,67,69,71,73,75,-1,77,79,81,83,85,87,89,91,93,95,97,99,101,103,105,107,-1,109,111,-1,113,-1,115,117,119,-1,121,123,-1,125,127,-1,129,131,-1,-1,133,135,137,139,-1,141,143,-1,145,147,149,-1,151,153,-1,-1,-1,-1,-1,-1,-1,-1,-1,-1,-1,-1,-1,-1,-1,-1,-1,-1,-1,-1,-1,-1,-1,-1,-1,-1,-1,-1,-1,-1,-1,-1,-1,-1,-1,-1,-1,-1,-1,-1,-1,-1,-1,-1,-1,-1,-1,-1,-1,-1,-1,-1,-1,-1,-1,-1,-1,-1],"loss_changes":[1.1363637E2,3.438858E1,1.3636058E2,2.3062103E1,5.270653E0,6.759163E1,4.6145905E1,1.1718742E1,1.45636425E1,2.3838367E0,3.803833E0,3.7531235E1,1.9078455E1,2.1668182E1,1.6743765E1,7.3554497E0,9.498215E0,3.9453707E0,7.6352963E0,1.9849167E0,0E0,0E0,0E0,1.9095001E1,1.610429E1,6.2736654E0,1.53346405E1,1.1570641E1,2.0449959E1,8.289589E0,8.160567E0,0E0,7.1405106E0,1.2101035E1,6.645897E0,0E0,0E0,4.8563643E0,5.9183683E0,0E0,0E0,1.809082E1,1.6161701E1,7.945902E0,1.5685969E1,7.526392E0,0E0,4.2643237E0,9.520618E0,6.7112303E0,1.9117348E1,1.0754067E1,1.1795052E1,7.304695E0,8.643952E0,6.96649E0,5.716879E0,4.2244186E0,1.8219109E0,1.007014E1,7.5908546E0,4.7768326E0,6.226472E0,0E0,2.83082E0,2.8558364E0,0E0,5.547394E0,0E0,5.9597745E0,1.1318527E1,6.7209563E0,0E0,3.4331622E0,1.0208521E1,0E0,2.9938667E0,5.2723165E0,0E0,1.1716992E1,5.559723E0,0E0,0E0,3.3894448E0,1.5163994E1,1.8525043E1,5.3206987E0,0E0,1.0068802E1,5.515415E0,0E0,8.446043E0,9.900806E0,5.7911625E0,0E0,4.70638E0,3.4070525E0,0E0,0E0,0E0,0E0,0E0,0E0,0E0,0E0,0E0,0E0,0E0,0E0,0E0,0E0,0E0,0E0,0E0,0E0,0E0,0E0,0E0,0E0,0E0,0E0,0E0,0E0,0E0,0E0,0E0,0E0,0E0,0E0,0E0,0E0,0E0,0E0,0E0,0E0,0E0,0E0,0E0,0E0,0E0,0E0,0E0,0E0,0E0,0E0,0E0,0E0,0E0,0E0,0E0,0E0,0E0,0E0,0E0,0E0],"parents":[2147483647,0,0,1,1,2,2,3,3,4,4,5,5,6,6,7,7,8,8,9,9,10,10,11,11,12,12,13,13,14,14,15,15,16,16,17,17,18,18,19,19,23,23,24,24,25,25,26,26,27,27,28,28,29,29,30,30,32,32,33,33,34,34,37,37,38,38,41,41,42,42,43,43,44,44,45,45,47,47,48,48,49,49,50,50,51,51,52,52,53,53,54,54,55,55,56,56,57,57,58,58,59,59,60,60,61,61,62,62,64,64,65,65,67,67,69,69,70,70,71,71,73,73,74,74,76,76,77,77,79,79,80,80,83,83,84,84,85,85,86,86,88,88,89,89,91,91,92,92,93,93,95,95,96,96],"right_children":[2,4,6,8,10,12,14,16,18,20,22,24,26,28,30,32,34,36,38,40,-1,-1,-1,42,44,46,48,50,52,54,56,-1,58,60,62,-1,-1,64,66,-1,-1,68,70,72,74,76,-1,78,80,82,84,86,88,90,92,94,96,98,100,102,104,106,108,-1,110,112,-1,114,-1,116,118,120,-1,122,124,-1,126,128,-1,130,132,-1,-1,134,136,138,140,-1,142,144,-1,146,148,150,-1,152,154,-1,-1,-1,-1,-1,-1,-1,-1,-1,-1,-1,-1,-1,-1,-1,-1,-1,-1,-1,-1,-1,-1,-1,-1,-1,-1,-1,-1,-1,-1,-1,-1,-1,-1,-1,-1,-1,-1,-1,-1,-1,-1,-1,-1,-1,-1,-1,-1,-1,-1,-1,-1,-1,-1,-1,-1,-1,-1],"split_conditions":[1E0,1E0,-1.4646E4,2E0,2.73636E5,2E0,1E0,1E0,-1.162E3,-1.011E4,1.2E1,-5.02E2,-1.155E3,4.2637E4,1.4E1,2.6955E5,1.18482E5,4.86751E5,2.205E4,1E1,-2.5845895E-2,-1.0357626E-1,-5.8360934E-2,1.7509E4,-1.9847E4,1.9E1,-2.0032E4,1.1835E4,1.4E1,2.1775E4,1.8E5,-8.1631675E-2,3.2602E4,1E0,1.5E1,-6.2708154E-2,-1.2838854E-2,2.5128E5,6E0,-3.8192384E-2,-7.374516E-2,2.6E1,4.9837E4,