{"learner":{"attributes":{"best_iteration":"348","best_score":"-0.283805"},"feature_names":[],"feature_types":[],"gradient_booster":{"model":{"gbtree_model_param":{"num_parallel_tree":"1","num_trees":"399"},"iteration_indptr":[0,1,2,3,4,5,6,7,8,9,10,11,12,13,14,15,16,17,18,19,20,21,22,23,24,25,26,27,28,29,30,31,32,33,34,35,36,37,38,39,40,41,42,43,44,45,46,47,48,49,50,51,52,53,54,55,56,57,58,59,60,61,62,63,64,65,66,67,68,69,70,71,72,73,74,75,76,77,78,79,80,81,82,83,84,85,86,87,88,89,90,91,92,93,94,95,96,97,98,99,100,101,102,103,104,105,106,107,108,109,110,111,112,113,114,115,116,117,118,119,120,121,122,123,124,125,126,127,128,129,130,131,132,133,134,135,136,137,138,139,140,141,142,143,144,145,146,147,148,149,150,151,152,153,154,155,156,157,158,159,160,161,162,163,164,165,166,167,168,169,170,171,172,173,174,175,176,177,178,179,180,181,182,183,184,185,186,187,188,189,190,191,192,193,194,195,196,197,198,199,200,201,202,203,204,205,206,207,208,209,210,211,212,213,214,215,216,217,218,219,220,221,222,223,224,225,226,227,228,229,230,231,232,233,234,235,236,237,238,239,240,241,242,243,244,245,246,247,248,249,250,251,252,253,254,255,256,257,258,259,260,261,262,263,264,265,266,267,268,269,270,271,272,273,274,275,276,277,278,279,280,281,282,283,284,285,286,287,288,289,290,291,292,293,294,295,296,297,298,299,300,301,302,303,304,305,306,307,308,309,310,311,312,313,314,315,316,317,318,319,320,321,322,323,324,325,326,327,328,329,330,331,332,333,334,335,336,337,338,339,340,341,342,343,344,345,346,347,348,349,350,351,352,353,354,355,356,357,358,359,360,361,362,363,364,365,366,367,368,369,370,371,372,373,374,375,376,377,378,379,380,381,382,383,384,385,386,387,388,389,390,391,392,393,394,395,396,397,398,399],"tree_info":[0,0,0,0,0,0,0,0,0,0,0,0,0,0,0,0,0,0,0,0,0,0,0,0,0,0,0,0,0,0,0,0,0,0,0,0,0,0,0,0,0,0,0,0,0,0,0,0,0,0,0,0,0,0,0,0,0,0,0,0,0,0,0,0,0,0,0,0,0,0,0,0,0,0,0,0,0,0,0,0,0,0,0,0,0,0,0,0,0,0,0,0,0,0,0,0,0,0,0,0,0,0,0,0,0,0,0,0,0,0,0,0,0,0,0,0,0,0,0,0,0,0,0,0,0,0,0,0,0,0,0,0,0,0,0,0,0,0,0,0,0,0,0,0,0,0,0,0,0,0,0,0,0,0,0,0,0,0,0,0,0,0,0,0,0,0,0,0,0,0,0,0,0,0,0,0,0,0,0,0,0,0,0,0,0,0,0,0,0,0,0,0,0,0,0,0,0,0,0,0,0,0,0,0,0,0,0,0,0,0,0,0,0,0,0,0,0,0,0,0,0,0,0,0,0,0,0,0,0,0,0,0,0,0,0,0,0,0,0,0,0,0,0,0,0,0,0,0,0,0,0,0,0,0,0,0,0,0,0,0,0,0,0,0,0,0,0,0,0,0,0,0,0,0,0,0,0,0,0,0,0,0,0,0,0,0,0,0,0,0,0,0,0,0,0,0,0,0,0,0,0,0,0,0,0,0,0,0,0,0,0,0,0,0,0,0,0,0,0,0,0,0,0,0,0,0,0,0,0,0,0,0,0,0,0,0,0,0,0,0,0,0,0,0,0,0,0,0,0,0,0,0,0,0,0,0,0,0,0,0,0,0,0,0,0,0,0,0,0,0,0,0,0,0,0,0,0,0,0,0,0,0,0,0,0,0,0,0,0,0,0,0,0,0,0,0,0,0,0],"trees":[{"base_weights":[-9.743882E-2,-3.3878845E-1,2.2184947E-1,-4.3470597E-1,7.488916E-2,1.12045705E-1,7.693186E-1,-5.3153723E-1,-1.2422089E-1,-2.0748474E-1,3.223406E-1,-2.7985483E-1,2.4884841E-1,3.1076556E-1,9.165203E-1,-5.855053E-1,-2.5165933E-1,-5.599026E-1,7.984575E-2,-3.16817E-1,1.365236E-1,3.519683E-2,7.3555017E-1,-3.7600237E-1,1.9987531E-1,1.3851837E-3,4.375245E-1,5.868193E-1,-1.0349059E-1,2.5634887E-3,1.0051339E0,-6.318729E-1,-3.4277788E-1,-5.406251E-1,-1.4457075E-1,-3.4466383E-1,-7.3387176E-1,-6.66169E-2,5.06104E-1,-4.3037567E-1,-9.2952125E-2,2.793282E-1,-1.2229354E-2,-1.1972269E-1,2.9121816E-1,2.6894305E-2,8.815148E-1,-8.0744296E-1,-2.771414E-1,-3.6769208E-2,3.5153848E-1,-1.27011E-1,5.3074175E-1,1.7675751E-1,5.8653927E-1,8.1823003E-1,1.9336835E-2,2.0587921E-2,-4.4021618E-2,4.3495005E-1,1.103699E0,-9.0358675E-1,-5.9419847E-1,-6.7388976E-1,-2.3756757E-1,-1.9064445E-2,-6.6621435E-1,-3.4887278E-1,1.5978703E-1,-4.6795487E-1,1.190005E-2,-5.848394E-1,-9.082181E-2,-2.588531E-1,1.5188745E-1,7.313334E-1,1.5701193E-1,-6.5034264E-1,-2.571729E-1,-4.2987194E-2,6.976379E-2,6.146504E-3,4.4001915E-2,-3.7814394E-1,2.4971683E-2,7.671428E-2,5.88979E-2,7.357018E-1,1.4080332E-1,-1.01750575E-1,-6.647074E-1,-7.59869E-2,-5.002891E-1,6.942568E-2,1.524623E-3,-2.7885652E-1,7.815531E-2,2.0944462E-3,7.9063445E-1,9.845567E-2,1.05486855E-1,4.463951E-1,8.473981E-1,5.893473E-2,1.01799965E-1,8.727061E-2,-1.4009984E-2,1.0049504E0,1.737344E-1,-7.136435E-2,-1.02206245E-1,-7.000362E-2,-5.119085E-2,-8.784236E-2,-5.4305203E-2,-2.9861728E-2,2.8397107E-2,-7.601135E-2,-4.1976597E-2,-5.544893E-2,-5.582359E-3,6.397023E-4,5.0776184E-2,-6.6617094E-2,-7.16122E-3,-7.535274E-2,-1.8683994E-2,-3.4780126E-2,1.5423343E-2,-3.386829E-2,2.9046735E-2,8.9951046E-2,3.2771185E-2,-2.1242106E-2,5.3812094E-2,-7.6237455E-2,-4.843467E-2,1.782271E-2,-3.8794633E-2,3.195408E-2,-2.7824787E-2,-1.1110038E-2,-5.8399793E-2,-3.0981896E-2,2.4183927E-2,3.1804774E-2,-2.4552558E-2,1.05222814E-1,4.299834E-2,-5.276255E-2,-8.400549E-2,-1.5002372E-2,2.7042514E-2,-3.7600864E-2,-7.518498E-2,-1.4032497E-2,-4.455735E-2,-3.7938613E-2,2.307416E-2,-3.0916631E-2,2.6643878E-2,9.179496E-2,3.3973433E-2,-3.6885792E-3,3.408246E-2,5.6484725E-2,1.9968117E-2,1.330006E-1,7.290833E-2,1.09628595E-1,4.1814394E-2],"categories":[],"categories_nodes":[],"categories_segments":[],"categories_sizes":[],"default_left":[0,0,0,0,0,0,0,0,0,0,0,0,0,0,0,0,0,0,0,0,0,0,0,0,0,0,0,0,0,0,0,0,0,0,0,0,0,0,0,0,0,0,0,0,0,0,0,0,0,0,0,0,0,0,0,0,0,0,0,0,0,0,0,0,0,0,0,0,0,0,0,0,0,0,0,0,0,0,0,0,0,0,0,0,0,0,0,0,0,0,0,0,0,0,0,0,0,0,0,0,0,0,0,0,0,0,0,0,0,0,0,0,0,0,0,0,0,0,0,0,0,0,0,0,0,0,0,0,0,0,0,0,0,0,0,0,0,0,0,0,0,0,0,0,0,0,0,0,0,0,0,0,0,0,0,0,0,0,0,0,0,0,0,0,0,0,0,0,0,0,0],"id":0,"left_children":[1,3,5,7,9,11,13,15,17,19,21,23,25,27,29,31,33,35,37,39,41,43,45,47,49,51,53,55,57,-1,59,61,63,65,67,69,71,73,75,77,79,81,-1,83,85,-1,87,89,91,-1,93,95,97,99,101,103,-1,-1,-1,105,107,109,111,113,115,-1,117,119,121,123,-1,125,-1,127,129,131,133,135,137,-1,139,-1,-1,141,143,145,-1,147,-1,-1,149,151,153,-1,-1,155,157,159,161,-1,163,165,167,-1,-1,-1,-1,169,-1,-1,-1,-1,-1,-1,-1,-1,-1,-1,-1,-1,-1,-1,-1,-1,-1,-1,-1,-1,-1,-1,-1,-1,-1,-1,-1,-1,-1,-1,-1,-1,-1,-1,-1,-1,-1,-1,-1,-1,-1,-1,-1,-1,-1,-1,-1,-1,-1,-1,-1,-1,-1,-1,-1,-1,-1,-1,-1,-1,-1,-1,-1],"loss_changes":[6.0647754E2,1.7787286E2,2.0359448E2,1.0932477E2,5.9072903E1,1.5143883E2,3.791104E1,4.1740723E1,7.706483E1,1.4900068E1,5.3420834E1,3.3793373E1,9.7738464E1,1.5958812E1,3.3750214E1,2.5941284E1,1.3848965E1,1.0098839E1,3.6920135E1,7.587723E0,3.5809999E0,1.06176405E1,1.2338112E1,2.5765213E1,1.0691399E1,6.1686253E1,4.6050064E1,7.4513645E0,5.9706154E0,0E0,2.1388092E1,1.9426758E1,1.2902008E1,5.2057533E0,2.0558979E1,7.2274265E0,3.4182358E0,1.8547495E1,1.1774296E1,7.4064865E0,5.6358438E0,2.148611E0,0E0,6.2516975E0,6.398037E0,0E0,9.727798E0,2.7138443E0,2.2282063E1,0E0,1.1208175E1,2.2777317E1,2.4339233E1,2.4845116E1,2.7237518E1,1.7921181E0,0E0,0E0,0E0,1.4974561E1,1.897226E1,4.571533E0,1.4583923E1,1.9279175E0,9.193756E0,0E0,1.7378578E0,1.1876305E1,7.102318E0,7.7539215E0,0E0,5.5495834E0,0E0,8.679918E0,1.4160884E1,5.925602E0,8.642696E0,1.2471733E0,6.4959435E0,0E0,6.1575303E0,0E0,0E0,3.2325335E0,7.9131627E0,4.7275577E0,0E0,1.037484E1,0E0,0E0,1.244339E0,6.777857E0,7.081806E0,0E0,0E0,9.637146E0,2.1831299E1,4.9692926E0,6.5063324E0,0E0,1.339258E1,1.4309532E1,1.4041092E1,0E0,0E0,0E0,0E0,1.5022278E1,0E0,0E0,0E0,0E0,0E0,0E0,0E0,0E0,0E0,0E0,0E0,0E0,0E0,0E0,0E0,0E0,0E0,0E0,0E0,0E0,0E0,0E0,0E0,0E0,0E0,0E0,0E0,0E0,0E0,0E0,0E0,0E0,0E0,0E0,0E0,0E0,0E0,0E0,0E0,0E0,0E0,0E0,0E0,0E0,0E0,0E0,0E0,0E0,0E0,0E0,0E0,0E0,0E0,0E0,0E0,0E0,0E0,0E0,0E0,0E0,0E0,0E0,0E0],"parents":[2147483647,0,0,1,1,2,2,3,3,4,4,5,5,6,6,7,7,8,8,9,9,10,10,11,11,12,12,13,13,14,14,15,15,16,16,17,17,18,18,19,19,20,20,21,21,22,22,23,23,24,24,25,25,26,26,27,27,28,28,30,30,31,31,32,32,33,33,34,34,35,35,36,36,37,37,38,38,39,39,40,40,41,41,43,43,44,44,46,46,47,47,48,48,50,50,51,51,52,52,53,53,54,54,55,55,59,59,60,60,61,61,62,62,63,63,64,64,66,66,67,67,68,68,69,69,71,71,73,73,74,74,75,75,76,76,77,77,78,78,80,80,83,83,84,84,85,85,87,87,90,90,91,91,92,92,95,95,96,96,97,97,98,98,100,100,101,101,102,102,107,107],"right_children":[2,4,6,8,10,12,14,16,18,20,22,24,26,28,30,32,34,36,38,40,42,44,46,48,50,52,54,56,58,-1,60,62,64,66,68,70,72,74,76,78,80,82,-1,84,86,-1,88,90,92,-1,94,96,98,100,102,104,-1,-1,-1,106,108,110,112,114,116,-1,118,120,122,124,-1,126,-1,128,130,132,134,136,138,-1,140,-1,-1,142,144,146,-1,148,-1,-1,150,152,154,-1,-1,156,158,160,162,-1,164,166,168,-1,-1,-1,-1,170,-1,-1,-1,-1,-1,-1,-1,-1,-1,-1,-1,-1,-1,-1,-1,-1,-1,-1,-1,-1,-1,-1,-1,-1,-1,-1,-1,-1,-1,-1,-1,-1,-1,-1,-1,-1,-1,-1,-1,-1,-1,-1,-1,-1,-1,-1,-1,-1,-1,-1,-1,-1,-1,-1,-1,-1,-1,-1,-1,-1,-1,-1,-1],"split_conditions":[-1.637E3,2E0,3E0,-1.3785E4,-7.95E2,1E0,1E0,3E0,1E0,2.3E1,-1.6364E4,2E0,-1.4438E4,1E0,-1.8948E4,2.3E1,-3.821E3,1E0,-2.02E3,-1.439E4,1E0,-2.0052E4,1E0,2E0,-1.096E3,2E0,-8.05E2,1.35E5,1E0,2.5634887E-3,-1.256E3,2E0,1E0,1E0,-1.9424E4,1.6E1,3E0,1.2E1,4E0,-2.606E3,1E0,1E0,-1.2229354E-2,2E0,2.4E1,2.6894305E-2,3E0,1E0,1E0,-3.6769208E-2,-1.289E4,-6.04E2,-8.83E2,3.2553E4,1E0,3E0,1.9336835E-2,2.0587921E-2,-4.4021618E-2,4E0,3E0,1E0,-1.9989E4,-3.763E3,-3.01E2,-1.9064445E-2,5E0,-6.1E2,1.8E1,-1.1172E4,1.190005E-2,-2.163E3,-9.082181E-2,1E0,-4.015E3,1E0,-7.99E2,1E1,-1.992E3,-4.2987194E-2,1E0,6.146504E-3,4.4001915E-2,1.68354E5,2.2E1,1.92066E5,5.88979E-2,9E0,1.4080332E-1,-1.01750575E-1,1E0,1E0,4E0,6.942568E-2,1.524623E-3,4E0,1E0,3E0,1E0,9.845567E-2,1E0,1E0,-1.3161E4,5.893473E-2,1.01799965E-1,8.727061E-2,-1.4009984E-2,1E0,1.737344E-1,-7.136435E-2,-1.02206245E-1,-7.000362E-2,-5.119085E-2,-8.784236E-2,-5.4305203E-2,-2.9861728E-2,2.8397107E-2,-7.601135E-2,-4.1976597E-2,-5.544893E-2,-5.582359E-3,6.397023E-4,5.0776184E-2,-6.6617094E-2,-7.16122E-3,-7.535274E-2,-1.8683994E-2,-3.4780126E-2,1.5423343E-2,-3.386829E-2,2.9046735E-2,8.9951046E-2,3.2771185E-2,-2.1242106E-2,5.3812094E-2,-7.6237455E-2,-4.843467E-2,1.782271E-2,-3.8794633E-2,3.195408E-2,-2.7824787E-2,-1.1110038E-2,-5.8399793E-2,-3.0981896E-2,2.4183927E-2,3.1804774E-2,-2.4552558E-2,1.05222814E-1,4.299834E-2,-5.276255E-2,-8.400549E-2,-1.5002372E-2,2.7042514E-2,-3.7600864E-2,-7.518498E-2,-1.4032497E-2,-4.455735E-2,-3.7938613E-2,2.307416E-2,-3.0916631E-2,2.6643878E-2,9.179496E-2,3.3973433E-2,-3.6885792E-3,3.408246E-2,5.6484725E-2,1.9968117E-2,1.330006E-1,7.290833E-2,1.09628595E-1,4.1814394E-2],"split_indices":[10,25,17,9,23,40,40,17,40,21,9,25,9,2,9,21,10,45,10,9,2,9,40,17,23,25,23,19,45,0,23,17,28,32,9,21,12,21,22,10,40,26,0,12,21,0,17,28,45,0,9,23,23,19,25,22,0,0,0,22,25,32,9,10,23,0,22,23,21,9,0,10,0,25,10,2,23,22,10,0,2,0,0,19,21,19,0,22,0,0,4,25,22,0,0,22,28,25,30,0,25,2,9,0,0,0,0,45,0,0,0,0,0,0,0,0,0,0,0,0,0,0,0,0,0,0,0,0,0,0,0,0,0,0,0,0,0,0,0,0,0,0,0,0,0,0,0,0,0,0,0,0,0,0,0,0,0,0,0,0,0,0,0,0,0,0,0,0,0,0,0],"split_type":[0,0,0,0,0,0,0,0,0,0,0,0,0,0,0,0,0,0,0,0,0,0,0,0,0,0,0,0,0,0,0,0,0,0,0,0,0,0,0,0,0,0,0,0,0,0,0,0,0,0,0,0,0,0,0,0,0,0,0,0,0,0,0,0,0,0,0,0,0,0,0,0,0,0,0,0,0,0,0,0,0,0,0,0,0,0,0,0,0,0,0,0,0,0,0,0,0,0,0,0,0,0,0,0,0,0,0,0,0,0,0,0,0,0,0,0,0,0,0,0,0,0,0,0,0,0,0,0,0,0,0,0,0,0,0,0,0,0,0,0,0,0,0,0,0,0,0,0,0,0,0,0,0,0,0,0,0,0,0,0,0,0,0,0,0,0,0,0,0,0,0],"sum_hessian":[7.8682134E3,4.480983E3,3.3872305E3,3.6375176E3,8.434652E2,2.8223645E3,5.648661E2,2.7722283E3,8.652891E2,3.940103E2,4.494549E2,7.3002014E2,2.0923442E3,1.3802158E2,4.268445E2,2.3231667E3,4.4906168E2,2.7545334E2,5.898358E2,2.9904675E2,9.496357E1,2.6581934E2,1.8363556E2,6.083173E2,1.2170279E2,9.055946E2,1.1867496E3,8.257702E1,5.544457E1,3.873255E1,3.8811197E2,1.9492108E3,3.739559E2,1.2032651E2,3.2873517E2,1.2445536E2,1.5099797E2,4.396243E2,1.5021152E2,1.9779161E2,1.0125515E2,6.1146313E1,3.3817253E1,1.6594048E2,9.987887E1,4.44343E1,1.3920125E2,1.1206881E2,4.9624854E2,2.536294E1,9.633985E1,7.294303E2,1.761643E2,4.3234967E2,7.544E2,5.1315716E1,3.12613E1,2.9098568E1,2.6346E1,5.8000523E1,3.3011145E2,2.3455804E2,1.7146527E3,8.88686E1,2.850873E2,3.244097E1,8.788554E1,1.9661194E2,1.3212323E2,9.830597E1,2.6149387E1,8.375668E1,6.724129E1,2.3377159E2,2.058527E2,9.063811E1,5.9573418E1,8.591942E1,1.1187219E2,3.244097E1,6.881418E1,2.6542612E1,3.4603703E1,5.898358E1,1.06956894E2,5.8786972E1,4.1091896E1,1.1088914E2,2.8312119E1,4.2861404E1,6.9207405E1,2.616905E2,2.3455804E2,4.7186867E1,4.9152985E1,4.1898004E2,3.1045026E2,5.8393745E1,1.1777055E2,3.4013866E1,3.983358E2,4.925129E2,2.6188712E2,2.5756165E1,2.5559553E1,3.263758E1,2.536294E1,2.8783987E2,4.227157E1,9.2800835E1,1.417572E2,7.467322E2,9.679206E2,3.244097E1,5.6427628E1,2.5559552E2,2.949179E1,6.212937E1,2.5756165E1,1.1501798E2,8.1593956E1,9.2407616E1,3.971561E1,6.507855E1,3.3227417E1,5.8197136E1,2.5559553E1,1.924831E2,4.128851E1,4.5024136E1,1.6082857E2,6.3112434E1,2.7525671E1,3.0474852E1,2.9098568E1,4.9152985E1,3.6766434E1,2.5756165E1,8.611603E1,4.0108837E1,2.8705343E1,2.6346E1,3.263758E1,4.187834E1,6.507855E1,3.3620644E1,2.5166328E1,5.3281837E1,5.76073E1,4.1091896E1,2.8115507E1,2.1607652E2,4.561397E1,1.5866583E2,7.589221E1,2.2983936E2,1.8914069E2,7.726849E1,2.3318176E2,2.6739223E1,3.1654522E1,9.103133E1,2.6739223E1,2.4871411E2,1.4962169E2,3.3188095E2,1.6063196E2,4.9546207E1,2.123409E2,2.4832088E2,3.9519E1],"tree_param":{"num_deleted":"0","num_feature":"54","num_nodes":"171","size_leaf_vector":"1"}},{"base_weights":[-8.853254E-2,-3.1303027E-1,2.0267497E-1,-4.0135556E-1,5.8218442E-2,-1.611104E-1,3.2430896E-1,-4.8049468E-1,-1.15411565E-1,-1.982875E-1,1.8589742E-1,-8.356597E-2,-6.413816E-1,2.8512113E-2,4.7643974E-1,-5.390275E-1,-2.8467664E-1,-4.948718E-1,6.689898E-2,-4.1792125E-1,2.9063292E-2,-2.1933992E-1,3.1702808E-1,-2.0688823E-1,1.6449142E-1,-7.433009E-1,-2.6173005E-2,-1.0560649E-1,5.6924313E-1,1.1364391E-1,5.563822E-1,-7.4678683E-1,-4.7836268E-1,-5.264068E-1,-1.9622321E-1,-3.5927704E-1,-7.425691E-1,-8.054793E-2,4.6227667E-1,-3.0529037E-1,-8.09299E-2,2.952133E-2,-1.2271486E-1,1.1214724E-2,-5.6059265E-1,1.6378565E-1,5.914857E-1,-1.5112804E-1,-5.013733E-1,4.2087618E-1,-1.706965E-1,-4.7860634E-2,-9.272575E-1,-4.2504603E-1,-4.017272E-3,9.073127E-1,1.4884008E-1,4.0668118E-1,-7.2893076E-2,6.8639725E-1,2.478752E-1,-8.0248123E-1,-3.0462947E-1,-8.4505796E-1,-4.350577E-1,-6.356166E-1,-1.1601534E-2,-3.5476297E-1,7.8766905E-2,-5.0073665E-1,-6.253749E-2,-5.4895192E-2,-8.4960747E-1,-6.386607E-1,1.377125E-2,-8.587718E-3,5.9964794E-1,-1.175029E-1,-6.1688628E-2,-2.9887867E-1,2.3963815E-2,-3.6635038E-2,4.21972E-2,-7.435877E-2,-3.428788E-2,-3.7773198E-1,2.8922543E-1,7.938771E-1,1.871206E-1,-3.2181183E-1,-1.5228874E-2,-8.265927E-2,-2.9948479E-2,6.078954E-1,-1.798754E-2,-3.46836E-1,2.1374904E-2,-1.0709883E-1,-7.328328E-2,-6.1502606E-1,-3.026043E-1,-1.2121923E-1,3.188927E-1,7.1877E-1,1.3836698E-1,-3.6340788E-2,4.9827613E-2,2.2502084E-1,7.7588044E-2,-2.4018155E-1,3.9290797E-2,9.365357E-1,5.5555165E-1,8.853436E-2,3.9460513E-1,-7.5614296E-2,-1.1150551E-1,-1.0867394E-2,-4.6054356E-2,-6.5784544E-2,-1.065035E-1,-5.5672217E-2,-3.2975115E-2,-7.8424506E-2,-4.2680506E-2,-4.760325E-2,-1.2981354E-2,-2.2441685E-2,1.6304042E-2,-6.393628E-2,-3.0655159E-2,-3.8482778E-2,2.4902906E-2,-6.602258E-2,-1.03012875E-1,-8.574443E-2,-4.2716548E-2,-1.02608465E-2,3.2714106E-2,9.5326714E-2,1.8917099E-2,-4.116539E-2,4.154868E-2,-6.5225586E-3,-4.631604E-2,-5.2889407E-2,-2.0349963E-2,5.4475E-2,2.116733E-3,9.743677E-2,3.7998337E-2,4.7933884E-2,-1.0584925E-2,-6.1908048E-2,-2.1943921E-2,8.24543E-3,-3.5070863E-2,1.6700955E-2,7.867478E-2,-5.7448324E-2,-1.9162362E-2,-3.588563E-2,-7.700542E-2,-4.969347E-2,-1.4209879E-2,7.2486303E-3,-4.2844396E-2,-1.8639343E-2,4.702701E-2,4.8444096E-2,1.0744607E-1,7.4569075E-3,-1.4888304E-2,3.9202843E-2,-9.306425E-3,-4.2506058E-2,7.869455E-3,4.795472E-2,1.0754122E-1,4.65849E-2,9.6316226E-2,-5.358768E-3,4.4892155E-2,5.2278686E-2,1.07038645E-2],"categories":[],"categories_nodes":[],"categories_segments":[],"categories_sizes":[],"default_left":[0,0,0,0,0,0,0,0,0,0,0,0,0,0,0,0,0,0,0,0,0,0,0,0,0,0,0,0,0,0,0,0,0,0,0,0,0,0,0,0,0,0,0,0,0,0,0,0,0,0,0,0,0,0,0,0,0,0,0,0,0,0,0,0,0,0,0,0,0,0,0,0,0,0,0,0,0,0,0,0,0,0,0,0,0,0,0,0,0,0,0,0,0,0,0,0,0,0,0,0,0,0,0,0,0,0,0,0,0,0,0,0,0,0,0,0,0,0,0,0,0,0,0,0,0,0,0,0,0,0,0,0,0,0,0,0,0,0,0,0,0,0,0,0,0,0,0,0,0,0,0,0,0,0,0,0,0,0,0,0,0,0,0,0,0,0,0,0,0,0,0,0,0,0,0,0,0,0,0,0,0,0,0,0,0],"id":1,"left_children":[1,3,5,7,9,11,13,15,17,19,21,23,25,27,29,31,33,35,37,39,41,43,45,47,49,51,-1,53,55,57,59,61,63,65,67,69,71,73,75,77,-1,-1,79,81,83,85,87,89,91,93,95,-1,97,99,101,103,105,107,109,111,113,115,117,119,121,123,-1,125,127,129,131,-1,133,135,137,-1,139,141,-1,143,-1,-1,-1,-1,-1,145,147,149,151,153,155,-1,-1,157,-1,159,-1,-1,-1,161,163,165,167,169,-1,171,-1,173,-1,175,-1,177,179,181,183,-1,-1,-1,-1,-1,-1,-1,-1,-1,-1,-1,-1,-1,-1,-1,-1,-1,-1,-1,-1,-1,-1,-1,-1,-1,-1,-1,-1,-1,-1,-1,-1,-1,-1,-1,-1,-1,-1,-1,-1,-1,-1,-1,-1,-1,-1,-1,-1,-1,-1,-1,-1,-1,-1,-1,-1,-1,-1,-1,-1,-1,-1,-1,-1,-1,-1,-1,-1,-1,-1],"loss_changes":[5.128326E2,1.4526694E2,1.511629E2,8.091815E1,2.7945498E1,3.1840399E1,1.1516986E2,3.196576E1,5.378398E1,1.4177836E1,3.033075E1,2.2625162E1,4.4061775E0,6.3183456E1,4.8958496E1,2.6819946E1,1.3730751E1,8.2060585E0,3.0684433E1,6.1164227E0,5.704983E0,1.1006572E1,1.801595E1,8.031145E0,2.1193775E1,4.094002E0,0E0,2.2658043E1,2.4472385E1,1.6781063E1,5.537445E1,1.1712463E1,2.6179077E1,7.6678658E0,2.0748116E1,6.8932896E0,1.3637047E0,2.0210238E1,1.0815367E1,6.580785E0,0E0,0E0,5.821316E0,1.3247327E1,1.991787E0,1.897541E1,1.2448189E1,9.657017E0,4.8848095E0,1.5788162E1,7.3355274E0,0E0,7.2179794E-1,3.7328243E0,2.0126759E1,7.606949E0,5.0892363E0,7.8301487E0,1.4751858E1,3.1346985E1,9.600784E0,5.3939514E0,1.6587257E0,6.5273514E0,1.8998993E1,3.8923912E0,0E0,8.1669655E0,4.498226E0,2.8072891E0,5.5580215E0,0E0,1.2016335E0,2.2017918E0,1.20416765E1,0E0,1.6428898E1,1.1487746E1,0E0,2.3132992E0,0E0,0E0,0E0,0E0,0E0,1.2795577E0,1.547311E1,7.2696533E0,4.55817E0,5.4816E0,7.662809E0,0E0,0E0,8.278275E0,0E0,2.501812E0,0E0,0E0,0E0,2.3073406E0,3.186205E0,2.325021E1,1.092039E1,5.3717537E0,0E0,6.621047E-1,0E0,4.3606877E0,0E0,8.229058E0,0E0,2.0614014E1,2.3015E1,1.0209749E1,7.8421288E0,0E0,0E0,0E0,0E0,0E0,0E0,0E0,0E0,0E0,0E0,0E0,0E0,0E0,0E0,0E0,0E0,0E0,0E0,0E0,0E0,0E0,0E0,0E0,0E0,0E0,0E0,0E0,0E0,0E0,0E0,0E0,0E0,0E0,0E0,0E0,0E0,0E0,0E0,0E0,0E0,0E0,0E0,0E0,0E0,0E0,0E0,0E0,0E0,0E0,0E0,0E0,0E0,0E0,0E0,0E0,0E0,0E0,0E0,0E0,0E0,0E0,0E0,0E0,0E0,0E0,0E0,0E0,0E0,0E0,0E0],"parents":[2147483647,0,0,1,1,2,2,3,3,4,4,5,5,6,6,7,7,8,8,9,9,10,10,11,11,12,12,13,13,14,14,15,15,16,16,17,17,18,18,19,19,20,20,21,21,22,22,23,23,24,24,25,25,27,27,28,28,29,29,30,30,31,31,32,32,33,33,34,34,35,35,36,36,37,37,38,38,39,39,42,42,43,43,44,44,45,45,46,46,47,47,48,48,49,49,50,50,52,52,53,53,54,54,55,55,56,56,57,57,58,58,59,59,60,60,61,61,62,62,63,63,64,64,65,65,67,67,68,68,69,69,70,70,72,72,73,73,74,74,76,76,77,77,79,79,85,85,86,86,87,87,88,88,89,89,90,90,93,93,95,95,99,99,100,100,101,101,102,102,103,103,105,105,107,107,109,109,111,111,112,112,113,113,114,114],"right_children":[2,4,6,8,10,12,14,16,18,20,22,24,26,28,30,32,34,36,38,40,42,44,46,48,50,52,-1,54,56,58,60,62,64,66,68,70,72,74,76,78,-1,-1,80,82,84,86,88,90,92,94,96,-1,98,100,102,104,106,108,110,112,114,116,118,120,122,124,-1,126,128,130,132,-1,134,136,138,-1,140,142,-1,144,-1,-1,-1,-1,-1,146,148,150,152,154,156,-1,-1,158,-1,160,-1,-1,-1,162,164,166,168,170,-1,172,-1,174,-1,176,-1,178,180,182,184,-1,-1,-1,-1,-1,-1,-1,-1,-1,-1,-1,-1,-1,-1,-1,-1,-1,-1,-1,-1,-1,-1,-1,-1,-1,-1,-1,-1,-1,-1,-1,-1,-1,-1,-1,-1,-1,-1,-1,-1,-1,-1,-1,-1,-1,-1,-1,-1,-1,-1,-1,-1,-1,-1,-1,-1,-1,-1,-1,-1,-1,-1,-1,-1,-1,-1,-1,-1,-1,-1],"split_conditions":[-1.637E3,2E0,1E0,-1.3448E4,-1.9927E4,1E0,-1.5342E4,1.9E1,1E0,2.2E1,1E0,1E0,-9.519E3,2E0,2.25E5,1E0,-3.874E3,7.57597E5,-2.02E3,4E0,2.6915555E0,6.696E5,4E0,2.925E5,1E0,1E0,-2.6173005E-2,1E0,4E0,2E0,6.75E5,1.6E1,1.845E5,-1.5342E4,-1.9359E4,-2.163E3,9E0,1.6054E0,1.8421053E0,5.85E5,-8.09299E-2,2.952133E-2,5.8855557E0,1.6E1,1.8E1,-4.669E3,1.89E5,1E0,1E0,7.95294E5,1.9E1,-4.7860634E-2,-1.326E4,-8.73E2,1.8E1,-4.93E2,2.4E1,-4.1E2,1.6E1,2E0,-1.267E4,1E0,4E0,3E0,-1.9557E4,1E0,-1.1601534E-2,2.8E1,1E0,2.56776E0,3.73311E5,-5.4895192E-2,1.082214E6,1E0,1E0,-8.587718E-3,5.47344E5,2.93685E0,-6.1688628E-2,4E0,2.3963815E-2,-3.6635038E-2,4.21972E-2,-7.435877E-2,-3.428788E-2,3.3564E0,4E0,6E0,5.85E5,1E0,-1.0255E4,-8.265927E-2,-2.9948479E-2,2.81493E5,-1.798754E-2,4.52385E5,2.1374904E-2,-1.0709883E-1,-7.328328E-2,-1.875E4,1E0,3E0,-1.9618E4,8E0,1.3836698E-1,3.028E0,4.9827613E-2,1E0,7.7588044E-2,1E0,3.9290797E-2,2.7252E5,3E0,1.7E1,1.04256E6,-7.5614296E-2,-1.1150551E-1,-1.0867394E-2,-4.6054356E-2,-6.5784544E-2,-1.065035E-1,-5.5672217E-2,-3.2975115E-2,-7.8424506E-2,-4.2680506E-2,-4.760325E-2,-1.2981354E-2,-2.2441685E-2,1.6304042E-2,-6.393628E-2,-3.0655159E-2,-3.8482778E-2,2.4902906E-2,-6.602258E-2,-1.03012875E-1,-8.574443E-2,-4.2716548E-2,-1.02608465E-2,3.2714106E-2,9.5326714E-2,1.8917099E-2,-4.116539E-2,4.154868E-2,-6.5225586E-3,-4.631604E-2,-5.2889407E-2,-2.0349963E-2,5.4475E-2,2.116733E-3,9.743677E-2,3.7998337E-2,4.7933884E-2,-1.0584925E-2,-6.1908048E-2,-2.1943921E-2,8.24543E-3,-3.5070863E-2,1.6700955E-2,7.867478E-2,-5.7448324E-2,-1.9162362E-2,-3.588563E-2,-7.700542E-2,-4.969347E-2,-1.4209879E-2,7.2486303E-3,-4.2844396E-2,-1.8639343E-2,4.702701E-2,4.8444096E-2,1.0744607E-1,7.4569075E-3,-1.4888304E-2,3.9202843E-2,-9.306425E-3,-4.2506058E-2,7.869455E-3,4.795472E-2,1.0754122E-1,4.65849E-2,9.6316226E-2,-5.358768E-3,4.4892155E-2,5.2278686E-2,1.07038645E-2],"split_indices":[10,25,40,9,9,0,9,21,40,21,40,25,9,25,6,40,10,6,10,26,53,6,25,5,2,46,0,28,24,24,6,21,6,9,9,10,21,53,53,6,0,0,53,21,21,10,5,46,3,6,21,0,9,10,21,10,21,10,21,24,9,0,22,24,9,46,0,21,28,53,6,0,6,46,14,0,6,53,0,24,0,0,0,0,0,53,24,24,6,28,9,0,0,6,0,6,0,0,0,9,46,24,9,22,0,53,0,34,0,25,0,6,25,21,6,0,0,0,0,0,0,0,0,0,0,0,0,0,0,0,0,0,0,0,0,0,0,0,0,0,0,0,0,0,0,0,0,0,0,0,0,0,0,0,0,0,0,0,0,0,0,0,0,0,0,0,0,0,0,0,0,0,0,0,0,0,0,0,0,0,0,0,0,0,0],"split_type":[0,0,0,0,0,0,0,0,0,0,0,0,0,0,0,0,0,0,0,0,0,0,0,0,0,0,0,0,0,0,0,0,0,0,0,0,0,0,0,0,0,0,0,0,0,0,0,0,0,0,0,0,0,0,0,0,0,0,0,0,0,0,0,0,0,0,0,0,0,0,0,0,0,0,0,0,0,0,0,0,0,0,0,0,0,0,0,0,0,0,0,0,0,0,0,0,0,0,0,0,0,0,0,0,0,0,0,0,0,0,0,0,0,0,0,0,0,0,0,0,0,0,0,0,0,0,0,0,0,0,0,0,0,0,0,0,0,0,0,0,0,0,0,0,0,0,0,0,0,0,0,0,0,0,0,0,0,0,0,0,0,0,0,0,0,0,0,0,0,0,0,0,0,0,0,0,0,0,0,0,0,0,0,0,0],"sum_hessian":[7.842453E3,4.42842E3,3.4140332E3,3.5772588E3,8.511612E2,8.5539026E2,2.5586428E3,2.8012832E3,7.759757E2,2.826888E2,5.684724E2,7.3748944E2,1.17900795E2,8.6940155E2,1.6892413E3,2.1552844E3,6.459987E2,2.5126974E2,5.24706E2,1.4335834E2,1.3933049E2,1.3881503E2,4.2965735E2,4.9270572E2,2.4478372E2,9.219323E1,2.570756E1,6.9726276E2,1.7213878E2,3.054529E2,1.3837885E3,4.845462E2,1.6707382E3,1.7173125E2,4.7426746E2,1.6396326E2,8.730648E1,3.827606E2,1.4194537E2,1.1270428E2,3.0654055E1,5.0257175E1,8.907331E1,8.342154E1,5.53935E1,2.7673828E2,1.5291905E2,4.1553766E2,7.7168076E1,1.3855078E2,1.0623294E2,3.927799E1,5.291524E1,1.6747293E2,5.297898E2,9.477041E1,7.736837E1,1.1835106E2,1.8710187E2,9.7265466E2,4.1113376E2,4.2961655E2,5.4929638E1,1.7451091E2,1.4962273E3,1.3520331E2,3.652793E1,3.0064615E2,1.7362129E2,1.1056705E2,5.339621E1,3.326442E1,5.4042065E1,5.449966E1,3.2826093E2,2.851932E1,1.1342606E2,7.1182365E1,4.1521915E1,6.0052826E1,2.9020487E1,4.3523323E1,3.9898212E1,2.878414E1,2.6609362E1,5.1670006E1,2.2506828E2,1.0126898E2,5.165007E1,1.8358916E2,2.3194849E2,2.8371126E1,4.879695E1,1.0564934E2,3.2901443E1,7.2920944E1,3.3312E1,2.7831781E1,2.508346E1,6.405793E1,1.0341501E2,3.891649E2,1.4062494E2,6.969424E1,2.5076174E1,5.115512E1,2.6213251E1,8.040041E1,3.7950645E1,1.3801817E2,4.9083687E1,3.3193497E2,6.407197E2,1.9786566E2,2.132681E2,3.7712744E2,5.2489113E1,2.5091373E1,2.9838263E1,9.643227E1,7.8078636E1,6.922079E2,8.040194E2,7.7374054E1,5.782926E1,1.9461414E2,1.0603203E2,3.7401627E1,1.3621965E2,6.3174835E1,4.7392212E1,2.613084E1,2.726537E1,2.8646675E1,2.5395388E1,2.5287024E1,2.9212635E1,2.3985559E2,8.8405334E1,6.022278E1,5.320328E1,4.6014908E1,2.5167456E1,2.5368702E1,3.4684124E1,2.6576742E1,2.5093264E1,1.1469953E2,1.1036876E2,6.957473E1,3.1694252E1,2.5539728E1,2.6110342E1,4.57355E1,1.3785365E2,1.802256E2,5.172289E1,3.1047785E1,7.4601555E1,2.8467253E1,4.445369E1,2.540058E1,3.865735E1,4.5830338E1,5.7584667E1,2.3914668E2,1.500182E2,3.236425E1,1.0826069E2,4.3438744E1,2.6255493E1,2.5934353E1,2.522077E1,5.256775E1,2.7832666E1,8.715448E1,5.08637E1,7.840094E1,2.5353401E2,5.2690656E2,1.1381313E2,1.425149E2,5.5350773E1,1.4694841E2,6.631969E1],"tree_param":{"num_deleted":"0","num_feature":"54","num_nodes":"185","size_leaf_vector":"1"}},{"base_weights":[-8.012318E-2,-2.8871593E-1,1.2297183E-1,-4.188581E-1,5.934317E-3,2.9035825E-2,5.5989426E-1,-5.271899E-1,-1.6850655E-1,1.5261362E-1,-2.2863045E-1,-4.247091E-1,8.671395E-2,6.9436723E-1,2.0705967E-1,-6.488041E-1,-4.26968E-1,-6.9323945E-1,-1.17264844E-1,-8.0798194E-2,3.3692867E-1,-6.768203E-2,-4.1584447E-1,-4.7429118E-1,1.6186584E-2,-8.4475204E-2,2.1320054E-1,3.212128E-1,9.235474E-1,-1.2873948E-1,4.6256647E-1,-8.8978773E-1,-6.0371417E-1,-5.275702E-1,-2.006203E-1,-4.8043888E-2,-9.100303E-2,-2.2484E-1,1.2841687E-1,3.0447227E-1,-1.902932E-1,9.103452E-2,6.213107E-1,-3.628539E-1,5.054114E-2,-6.206106E-1,2.0909635E-2,-6.3178277E-1,-2.8399938E-1,-2.3342633E-1,1.219407E-1,-2.2924061E-1,2.647201E-1,1.2206868E-1,7.5949055E-1,4.2193785E-2,9.922027E-1,-3.364194E-1,2.9733688E-2,2.7493608E-1,8.616665E-2,-9.6574116E-1,-5.5514116E-2,-5.4673797E-1,-8.298192E-1,7.817402E-3,-5.5205125E-1,-1.4039958E-1,-8.22525E-2,-3.5437092E-1,-1.5974129E-2,-6.9332354E-2,4.5560032E-1,-7.370647E-3,5.581845E-2,-3.1347436E-1,1.6910596E-1,-1.2558876E-1,2.4698427E-1,3.7722775E-1,1.0718814E0,-5.0366092E-2,-1.0893817E-2,4.553081E-2,-1.10148296E-1,-5.3746605E-1,-8.225467E-2,2.2117624E-2,-2.5945097E-2,-4.5650905E-1,-8.4667534E-1,-1.5027219E-1,-7.18235E-2,3.0500945E-1,-3.0107072E-1,3.912123E-1,5.535962E-3,3.5437025E-2,-3.3938438E-1,-9.688374E-2,3.378453E-1,-1.09025575E-1,4.2262712E-1,1.04877405E-1,4.3447927E-2,6.1128844E-2,1.053716E0,-1.4231346E-2,-5.605179E-2,8.661815E-3,5.6218345E-2,-1.0775781E-1,-5.9175827E-2,-9.5320724E-2,-5.0234716E-2,-5.2682932E-2,-8.928061E-2,-6.1877456E-2,-2.9635409E-2,-2.132939E-2,2.4279315E-2,-1.6113712E-2,-5.1215082E-2,-2.2179294E-2,1.8782528E-2,-3.966193E-2,4.3648775E-3,1.1271846E-2,6.4149186E-2,-6.0689628E-2,-1.8100427E-2,-3.3899408E-2,5.2419644E-2,1.4169894E-2,-7.539029E-2,4.3269947E-2,-3.488105E-2,-6.6127772E-3,5.5223793E-2,6.697444E-2,1.3082933E-1,-5.779471E-2,9.814501E-3,-7.108768E-2,-2.8064294E-2,-7.302862E-2,-1.863668E-2,-1.00532345E-1,-6.855943E-2,-3.737106E-2,2.0026086E-2,-1.8429296E-2,7.79643E-2,-4.2265248E-2,-5.989712E-3,5.727781E-2,-1.5743827E-2,-2.1104248E-2,1.4921739E-2,-2.1617102E-2,-5.5855434E-2,-1.7452454E-2,4.4259075E-2,4.4419993E-2,5.410751E-3,-3.2071635E-2,5.301472E-3,1.4797657E-2,7.156995E-2,5.844597E-2,1.1136118E-1],"categories":[],"categories_nodes":[],"categories_segments":[],"categories_sizes":[],"default_left":[0,0,0,0,0,0,0,0,0,0,0,0,0,0,0,0,0,0,0,0,0,0,0,0,0,0,0,0,0,0,0,0,0,0,0,0,0,0,0,0,0,0,0,0,0,0,0,0,0,0,0,0,0,0,0,0,0,0,0,0,0,0,0,0,0,0,0,0,0,0,0,0,0,0,0,0,0,0,0,0,0,0,0,0,0,0,0,0,0,0,0,0,0,0,0,0,0,0,0,0,0,0,0,0,0,0,0,0,0,0,0,0,0,0,0,0,0,0,0,0,0,0,0,0,0,0,0,0,0,0,0,0,0,0,0,0,0,0,0,0,0,0,0,0,0,0,0,0,0,0,0,0,0,0,0,0,0,0,0,0,0,0,0,0,0,0,0,0,0,0,0],"id":2,"left_children":[1,3,5,7,9,11,13,15,17,19,21,23,25,27,29,31,33,35,37,39,41,43,45,47,-1,49,51,53,55,57,59,61,63,65,67,-1,-1,69,71,73,75,77,79,81,83,85,87,89,91,93,95,97,99,101,103,-1,105,107,-1,109,-1,111,-1,113,115,-1,117,119,-1,121,123,125,127,-1,-1,129,131,133,135,137,139,-1,-1,-1,141,143,-1,-1,-1,145,147,149,-1,151,153,155,157,-1,159,161,163,165,167,-1,-1,-1,169,-1,-1,-1,-1,-1,-1,-1,-1,-1,-1,-1,-1,-1,-1,-1,-1,-1,-1,-1,-1,-1,-1,-1,-1,-1,-1,-1,-1,-1,-1,-1,-1,-1,-1,-1,-1,-1,-1,-1,-1,-1,-1,-1,-1,-1,-1,-1,-1,-1,-1,-1,-1,-1,-1,-1,-1,-1,-1,-1,-1,-1,-1,-1,-1],"loss_changes":[3.2941E2,1.4709195E2,1.616936E2,7.207092E1,4.050123E1,8.4933334E1,3.2933167E1,2.235199E1,2.1565275E1,3.1184914E1,1.3618851E1,1.0721802E1,6.2354797E1,4.2834152E1,1.6687477E1,8.556061E0,2.3137589E1,2.8575516E0,1.9444843E1,1.357259E1,2.8255405E1,8.558593E0,1.872017E1,9.94249E0,0E0,3.7661213E1,3.780561E1,1.678969E1,1.0322968E1,7.5794215E0,8.020937E0,2.7628784E0,8.667999E0,1.0513306E1,1.1707794E1,0E0,0E0,1.3827019E1,1.4547209E1,6.880698E0,1.1124411E1,7.4057593E0,2.0224205E1,2.4518318E0,1.1472918E1,1.9494972E0,3.8604524E0,6.5431366E0,8.878907E0,2.5999016E1,1.6099194E1,1.1256532E1,3.926378E1,9.366406E0,5.208046E0,0E0,5.7671204E0,2.4125185E0,0E0,4.088377E0,0E0,3.7301788E0,0E0,9.778564E0,2.212555E0,0E0,1.1396652E1,8.125147E0,0E0,9.537502E0,8.29478E0,5.2201343E0,5.323082E0,0E0,0E0,7.143112E0,1.1812025E1,1.5563833E1,1.4232353E1,9.59639E0,5.3380203E0,0E0,0E0,0E0,1.2384705E1,4.422615E0,0E0,0E0,0E0,7.518755E0,1.3929787E0,9.441208E0,0E0,1.8696117E1,1.8518639E1,1.553343E1,1.1223583E1,0E0,3.8286686E0,1.0562751E1,3.7223404E1,2.646461E0,4.6055355E0,0E0,0E0,0E0,5.931549E0,0E0,0E0,0E0,0E0,0E0,0E0,0E0,0E0,0E0,0E0,0E0,0E0,0E0,0E0,0E0,0E0,0E0,0E0,0E0,0E0,0E0,0E0,0E0,0E0,0E0,0E0,0E0,0E0,0E0,0E0,0E0,0E0,0E0,0E0,0E0,0E0,0E0,0E0,0E0,0E0,0E0,0E0,0E0,0E0,0E0,0E0,0E0,0E0,0E0,0E0,0E0,0E0,0E0,0E0,0E0,0E0,0E0,0E0,0E0,0E0,0E0,0E0,0E0,0E0],"parents":[2147483647,0,0,1,1,2,2,3,3,4,4,5,5,6,6,7,7,8,8,9,9,10,10,11,11,12,12,13,13,14,14,15,15,16,16,17,17,18,18,19,19,20,20,21,21,22,22,23,23,25,25,26,26,27,27,28,28,29,29,30,30,31,31,32,32,33,33,34,34,37,37,38,38,39,39,40,40,41,41,42,42,43,43,44,44,45,45,46,46,47,47,48,48,49,49,50,50,51,51,52,52,53,53,54,54,56,56,57,57,59,59,61,61,63,63,64,64,66,66,67,67,69,69,70,70,71,71,72,72,75,75,76,76,77,77,78,78,79,79,80,80,84,84,85,85,89,89,90,90,91,91,93,93,94,94,95,95,96,96,98,98,99,99,100,100,101,101,102,102,106,106],"right_children":[2,4,6,8,10,12,14,16,18,20,22,24,26,28,30,32,34,36,38,40,42,44,46,48,-1,50,52,54,56,58,60,62,64,66,68,-1,-1,70,72,74,76,78,80,82,84,86,88,90,92,94,96,98,100,102,104,-1,106,108,-1,110,-1,112,-1,114,116,-1,118,120,-1,122,124,126,128,-1,-1,130,132,134,136,138,140,-1,-1,-1,142,144,-1,-1,-1,146,148,150,-1,152,154,156,158,-1,160,162,164,166,168,-1,-1,-1,170,-1,-1,-1,-1,-1,-1,-1,-1,-1,-1,-1,-1,-1,-1,-1,-1,-1,-1,-1,-1,-1,-1,-1,-1,-1,-1,-1,-1,-1,-1,-1,-1,-1,-1,-1,-1,-1,-1,-1,-1,-1,-1,-1,-1,-1,-1,-1,-1,-1,-1,-1,-1,-1,-1,-1,-1,-1,-1,-1,-1,-1,-1,-1,-1],"split_conditions":[-1.5395E4,1E0,3E0,1.9E1,6.77664E5,2E0,6.75E5,-1.9927E4,2E0,-7.95E2,2.16E5,-9.022E3,-8.05E2,2.76277E5,1E0,2.1564E5,-5.06E2,1.06794E6,9E0,9E4,4E0,-2.0524E4,1.8E1,1E0,1.6186584E-2,1E0,1E0,-3.93E2,-1.4488E4,1E0,-1.1372E4,1.25914E5,1.88167E5,2.394E4,1.22499E6,-4.8043888E-2,-9.100303E-2,-6.1E2,-1.923E4,2.86704E5,7.44498E5,2.95452E5,-3.71E2,1.665E5,-1.9023E4,1.35E6,1.1295E6,2.115E5,-1.488E3,4.6485E4,3E0,2.2752E5,2.0376E5,1E0,7.6008E4,4.2193785E-2,-5.563E3,-2.732E3,2.9733688E-2,1.63271E5,8.616665E-2,-3.63E2,-5.5514116E-2,2E0,-1.0911E4,7.817402E-3,1.5E1,3E0,-8.22525E-2,5.5395E5,-1.9927E4,2.3E1,1E1,-7.370647E-3,5.581845E-2,-7.454E3,5E0,1.395E5,-8.7E1,-7.274E3,-1.968E4,-5.0366092E-2,-1.0893817E-2,4.553081E-2,-1.7666E4,-1.7471E4,-8.225467E-2,2.2117624E-2,-2.5945097E-2,-6.73E2,-1.3359E4,1.2E1,-7.18235E-2,-1.267E4,1.5E1,7.33315E5,-1.354E3,3.5437025E-2,8.51778E5,9E0,6.77664E5,-8.47E2,1.2E1,1.04877405E-1,4.3447927E-2,6.1128844E-2,-1.363E3,-1.4231346E-2,-5.605179E-2,8.661815E-3,5.6218345E-2,-1.0775781E-1,-5.9175827E-2,-9.5320724E-2,-5.0234716E-2,-5.2682932E-2,-8.928061E-2,-6.1877456E-2,-2.9635409E-2,-2.132939E-2,2.4279315E-2,-1.6113712E-2,-5.1215082E-2,-2.2179294E-2,1.8782528E-2,-3.966193E-2,4.3648775E-3,1.1271846E-2,6.4149186E-2,-6.0689628E-2,-1.8100427E-2,-3.3899408E-2,5.2419644E-2,1.4169894E-2,-7.539029E-2,4.3269947E-2,-3.488105E-2,-6.6127772E-3,5.5223793E-2,6.697444E-2,1.3082933E-1,-5.779471E-2,9.814501E-3,-7.108768E-2,-2.8064294E-2,-7.302862E-2,-1.863668E-2,-1.00532345E-1,-6.855943E-2,-3.737106E-2,2.0026086E-2,-1.8429296E-2,7.79643E-2,-4.2265248E-2,-5.989712E-3,5.727781E-2,-1.5743827E-2,-2.1104248E-2,1.4921739E-2,-2.1617102E-2,-5.5855434E-2,-1.7452454E-2,4.4259075E-2,4.4419993E-2,5.410751E-3,-3.2071635E-2,5.301472E-3,1.4797657E-2,7.156995E-2,5.844597E-2,1.1136118E-1],"split_indices":[9,1,17,21,6,17,6,9,17,23,5,9,23,6,46,6,23,20,22,20,22,9,21,1,0,1,21,23,9,26,9,19,19,19,6,0,0,23,9,6,20,6,23,5,9,6,6,5,11,20,22,6,6,1,19,0,11,11,0,19,0,23,0,17,11,0,21,17,0,20,9,21,29,0,0,11,29,5,23,11,9,0,0,0,9,9,0,0,0,23,9,21,0,9,21,6,23,0,6,22,6,23,21,0,0,0,23,0,0,0,0,0,0,0,0,0,0,0,0,0,0,0,0,0,0,0,0,0,0,0,0,0,0,0,0,0,0,0,0,0,0,0,0,0,0,0,0,0,0,0,0,0,0,0,0,0,0,0,0,0,0,0,0,0,0,0,0,0,0,0,0],"split_type":[0,0,0,0,0,0,0,0,0,0,0,0,0,0,0,0,0,0,0,0,0,0,0,0,0,0,0,0,0,0,0,0,0,0,0,0,0,0,0,0,0,0,0,0,0,0,0,0,0,0,0,0,0,0,0,0,0,0,0,0,0,0,0,0,0,0,0,0,0,0,0,0,0,0,0,0,0,0,0,0,0,0,0,0,0,0,0,0,0,0,0,0,0,0,0,0,0,0,0,0,0,0,0,0,0,0,0,0,0,0,0,0,0,0,0,0,0,0,0,0,0,0,0,0,0,0,0,0,0,0,0,0,0,0,0,0,0,0,0,0,0,0,0,0,0,0,0,0,0,0,0,0,0,0,0,0,0,0,0,0,0,0,0,0,0,0,0,0,0,0,0],"sum_hessian":[7.773841E3,3.8348062E3,3.939035E3,2.6596572E3,1.1751488E3,3.242896E3,6.96139E2,1.8555992E3,8.040581E2,7.2323865E2,4.519101E2,3.6501505E2,2.8778809E3,5.0333798E2,1.92801E2,8.3585614E2,1.01974304E3,7.0418564E1,7.336395E2,3.1936484E2,4.038738E2,2.4373337E2,2.0817674E2,3.3674228E2,2.8272749E1,1.222993E3,1.654888E3,1.9242708E2,3.109109E2,8.352483E1,1.0927616E2,1.2879225E2,7.070639E2,7.0504767E2,3.1469537E2,3.7159336E1,3.3259228E1,5.1028778E2,2.2335176E2,7.028356E1,2.4908128E2,2.173016E2,1.8657219E2,6.9111374E1,1.74622E2,1.4144244E2,6.673429E1,1.8298116E2,1.5376114E2,7.103028E2,5.1269025E2,1.7224323E2,1.4826447E3,1.3318785E2,5.9239223E1,3.829145E1,2.7261945E2,5.6295483E1,2.7229355E1,7.547957E1,3.3796597E1,1.0343106E2,2.5361195E1,5.6748224E2,1.3958167E2,2.7302303E1,6.7774536E2,2.8803036E2,2.6664997E1,3.1453073E2,1.9575703E2,1.3970335E2,8.3648415E1,2.8504606E1,4.177895E1,1.8559714E2,6.3484146E1,9.103851E1,1.262631E2,1.2220732E2,6.436487E1,4.3824993E1,2.5286383E1,4.9102444E1,1.25519554E2,1.0278405E2,3.86584E1,3.9050747E1,2.7683546E1,1.0250167E2,8.047948E1,1.1858712E2,3.5174023E1,7.8884995E1,6.314178E2,1.5402751E2,3.5866272E2,2.6994114E1,1.4524911E2,2.4933905E2,1.2333057E3,7.565515E1,5.75327E1,3.0164108E1,2.9075113E1,3.9424564E1,2.3319489E2,3.104258E1,2.5252901E1,4.6376747E1,2.9102818E1,7.8172714E1,2.5258343E1,5.3857483E1,5.1362476E2,2.5634493E1,1.13947174E2,5.363633E2,1.4138208E2,2.423683E2,4.5662067E1,1.4228943E2,1.7224132E2,9.735205E1,9.840498E1,3.5206287E1,1.0449706E2,2.9971516E1,5.36769E1,5.6614452E1,1.2898268E2,2.6134106E1,3.735004E1,6.441188E1,2.6626633E1,9.646709E1,2.9796013E1,3.4763264E1,8.744405E1,2.5249094E1,3.9115772E1,3.8123844E1,8.7395706E1,6.030038E1,4.2483665E1,5.0062366E1,5.2439304E1,3.7905464E1,4.2574017E1,7.238257E1,4.620455E1,3.914347E1,3.974152E1,4.1929037E2,2.1212743E2,1.1569605E2,3.833145E1,1.4285747E2,2.1580527E2,9.424986E1,5.0999245E1,2.1856047E2,3.077858E1,8.9664636E2,3.3665927E2,3.237758E1,4.3277576E1,3.047665E1,2.705605E1,2.7613537E1,2.0558134E2],"tree_param":{"num_deleted":"0","num_feature":"54","num_nodes":"171","size_leaf_vector":"1"}},{"base_weights":[-7.523406E-2,-2.7117163E-1,1.6842662E-1,-3.5079345E-1,5.3364083E-2,2.609606E-1,-1.4574939E-1,-2.915504E-1,-5.737525E-1,-1.255344E-1,3.1063652E-1,-1.3383618E-1,3.4181452E-1,-2.6546484E-1,3.470392E-1,-1.97763E-1,-4.4747078E-1,-6.902178E-1,-3.1639776E-1,-2.6055762E-1,1.0585319E-1,4.524599E-1,1.8783746E-2,-2.1334124E-1,2.7201948E-1,1.9287886E-1,5.9833974E-1,-1.1139464E-1,-3.7638882E-1,4.9299705E-1,-1.1582641E-3,-4.0149775E-1,-7.982755E-2,-6.223841E-1,-3.5384923E-1,-7.499069E-1,-4.0183043E-1,-3.960724E-1,1.4185661E-3,-3.6045864E-1,-5.0999906E-2,-1.3684462E-1,2.6026124E-1,2.6157296E-1,7.522839E-1,2.5489318E-1,-2.8575424E-2,-1.0636881E-1,-3.618348E-1,-6.5201297E-3,5.3106006E-2,-7.011183E-2,2.9147476E-1,4.7034118E-1,8.273278E-1,8.070592E-2,-4.3306288E-1,-4.617065E-1,6.0104672E-2,1.960944E-2,6.5944767E-1,-5.6211406E-1,-3.070925E-1,-3.8057834E-1,-1.2605197E-2,-7.208521E-1,-4.4771874E-1,-3.003985E-1,-7.7373743E-1,-7.773918E-1,-3.3535343E-2,-1.7950329E-1,-8.574892E-2,-3.279151E-1,-7.389712E-2,-4.3032888E-1,-7.3324055E-3,3.161738E-2,-2.0195626E-1,-3.4687884E-2,4.3539433E-3,4.041057E-1,-2.0183468E-2,4.384354E-1,-3.1385045E-2,1.1682838E-1,4.8343298E-1,-5.120221E-3,4.8671775E-2,-3.019617E-1,1.471062E-1,-4.8584837E-1,-1.5531486E-1,1.8191569E-1,-1.691008E-1,4.6910816E-1,5.3734474E-2,1.9892615E-1,6.1073947E-1,9.679943E-1,5.0142056E-1,-8.780248E-2,3.9459017E-1,-2.9560903E-1,-7.3625356E-2,-5.274494E-1,3.1340045E-5,-1.9327309E-2,2.7200103E-2,3.922164E-2,8.785361E-2,-4.28375E-2,-8.284344E-2,-7.839812E-2,-2.6699772E-2,-5.2444603E-2,-1.1828321E-2,7.6766335E-3,-2.3965625E-2,-8.486288E-2,-4.731137E-2,-5.551501E-2,1.2770724E-4,-7.1099917E-3,-3.7327792E-2,-9.287338E-2,-4.6788223E-2,-7.393658E-2,-1.01752736E-1,-4.579778E-2,1.7232565E-2,-5.1996287E-2,6.933884E-4,-5.5787813E-2,-1.49078965E-2,5.4385734E-4,-5.179094E-2,6.8340436E-2,7.151175E-3,-6.9231144E-3,5.9020367E-2,2.7141472E-2,6.6198364E-2,-1.7353823E-2,-5.772084E-2,-1.0747091E-2,3.0740425E-2,-2.4971982E-2,-7.07432E-2,1.4795246E-2,-4.8239216E-2,2.5746466E-3,5.5829138E-2,-3.1863388E-2,2.492169E-3,2.0151332E-2,6.059615E-2,-1.4714867E-2,2.504159E-2,2.7366865E-3,6.1902232E-2,9.564174E-2,4.4919368E-2,5.725785E-2,1.0970443E-1,2.4020797E-2,8.098633E-2,2.017549E-2,-3.5975136E-2,8.245074E-2,4.197278E-3,-6.247818E-2,1.9055031E-2,-7.667341E-2,-4.5931075E-2],"categories":[],"categories_nodes":[],"categories_segments":[],"categories_sizes":[],"default_left":[0,0,0,0,0,0,0,0,0,0,0,0,0,0,0,0,0,0,0,0,0,0,0,0,0,0,0,0,0,0,0,0,0,0,0,0,0,0,0,0,0,0,0,0,0,0,0,0,0,0,0,0,0,0,0,0,0,0,0,0,0,0,0,0,0,0,0,0,0,0,0,0,0,0,0,0,0,0,0,0,0,0,0,0,0,0,0,0,0,0,0,0,0,0,0,0,0,0,0,0,0,0,0,0,0,0,0,0,0,0,0,0,0,0,0,0,0,0,0,0,0,0,0,0,0,0,0,0,0,0,0,0,0,0,0,0,0,0,0,0,0,0,0,0,0,0,0,0,0,0,0,0,0,0,0,0,0,0,0,0,0,0,0,0,0,0,0,0,0,0,0,0,0,0,0],"id":3,"left_children":[1,3,5,7,9,11,13,15,17,19,21,23,25,27,29,31,33,35,37,39,41,43,45,47,49,51,53,55,57,59,-1,61,63,65,67,69,71,73,-1,75,77,79,81,83,85,87,-1,89,91,-1,-1,93,95,97,99,101,103,105,107,-1,109,111,113,115,117,119,121,123,125,127,-1,129,-1,131,-1,133,-1,-1,135,-1,-1,137,-1,139,-1,-1,141,-1,-1,143,145,147,149,151,153,155,157,159,161,163,165,167,169,171,-1,173,-1,-1,-1,-1,-1,-1,-1,-1,-1,-1,-1,-1,-1,-1,-1,-1,-1,-1,-1,-1,-1,-1,-1,-1,-1,-1,-1,-1,-1,-1,-1,-1,-1,-1,-1,-1,-1,-1,-1,-1,-1,-1,-1,-1,-1,-1,-1,-1,-1,-1,-1,-1,-1,-1,-1,-1,-1,-1,-1,-1,-1,-1,-1,-1,-1,-1,-1,-1,-1],"loss_changes":[3.700957E2,1.1104358E2,1.00492874E2,4.5406677E1,3.903787E1,8.526108E1,4.6509247E1,3.9803925E1,2.1460648E1,1.5664659E1,1.4388542E1,1.4723962E1,8.455127E1,1.0786156E1,8.077967E0,4.0939247E1,1.6545303E1,8.255493E0,5.989599E0,6.6045322E0,6.973933E0,1.3197586E1,8.326827E0,6.007534E0,6.5766473E0,3.6413696E1,2.3455872E1,1.6511003E1,1.3730598E1,5.288553E0,0E0,9.303192E0,2.185502E1,5.793579E0,1.4786385E1,4.4188232E0,8.699975E0,4.0369835E0,0E0,4.2630215E0,5.789059E0,2.7674682E0,7.6259503E0,1.4846313E1,9.557636E0,4.650735E0,0E0,1.1083285E1,3.9957561E0,0E0,0E0,9.598666E0,4.3092888E1,1.9852318E1,1.2826889E1,8.908969E0,3.9437027E0,9.352737E0,3.3301444E0,0E0,3.7434444E0,7.8419647E0,7.358555E0,7.390461E0,1.7971828E1,6.7454987E0,6.312191E0,9.920876E0,3.1177177E0,2.7578278E0,0E0,5.957745E0,0E0,9.94162E0,0E0,6.085697E0,0E0,0E0,4.839271E0,0E0,0E0,8.022588E0,0E0,8.59057E0,0E0,0E0,1.9660969E0,0E0,0E0,4.353894E0,4.018013E0,4.99543E0,6.1330967E0,6.3710318E0,8.011967E0,2.127391E1,1.7332886E1,1.296916E1,1.8834885E1,9.667313E0,7.0261364E0,8.733755E0,8.877907E0,1.1381332E1,0E0,4.0427628E0,0E0,0E0,0E0,0E0,0E0,0E0,0E0,0E0,0E0,0E0,0E0,0E0,0E0,0E0,0E0,0E0,0E0,0E0,0E0,0E0,0E0,0E0,0E0,0E0,0E0,0E0,0E0,0E0,0E0,0E0,0E0,0E0,0E0,0E0,0E0,0E0,0E0,0E0,0E0,0E0,0E0,0E0,0E0,0E0,0E0,0E0,0E0,0E0,0E0,0E0,0E0,0E0,0E0,0E0,0E0,0E0,0E0,0E0,0E0,0E0,0E0,0E0,0E0,0E0,0E0,0E0,0E0,0E0,0E0],"parents":[2147483647,0,0,1,1,2,2,3,3,4,4,5,5,6,6,7,7,8,8,9,9,10,10,11,11,12,12,13,13,14,14,15,15,16,16,17,17,18,18,19,19,20,20,21,21,22,22,23,23,24,24,25,25,26,26,27,27,28,28,29,29,31,31,32,32,33,33,34,34,35,35,36,36,37,37,39,39,40,40,41,41,42,42,43,43,44,44,45,45,47,47,48,48,51,51,52,52,53,53,54,54,55,55,56,56,57,57,58,58,60,60,61,61,62,62,63,63,64,64,65,65,66,66,67,67,68,68,69,69,71,71,73,73,75,75,78,78,81,81,83,83,86,86,89,89,90,90,91,91,92,92,93,93,94,94,95,95,96,96,97,97,98,98,99,99,100,100,101,101,102,102,103,103,105,105],"right_children":[2,4,6,8,10,12,14,16,18,20,22,24,26,28,30,32,34,36,38,40,42,44,46,48,50,52,54,56,58,60,-1,62,64,66,68,70,72,74,-1,76,78,80,82,84,86,88,-1,90,92,-1,-1,94,96,98,100,102,104,106,108,-1,110,112,114,116,118,120,122,124,126,128,-1,130,-1,132,-1,134,-1,-1,136,-1,-1,138,-1,140,-1,-1,142,-1,-1,144,146,148,150,152,154,156,158,160,162,164,166,168,170,172,-1,174,-1,-1,-1,-1,-1,-1,-1,-1,-1,-1,-1,-1,-1,-1,-1,-1,-1,-1,-1,-1,-1,-1,-1,-1,-1,-1,-1,-1,-1,-1,-1,-1,-1,-1,-1,-1,-1,-1,-1,-1,-1,-1,-1,-1,-1,-1,-1,-1,-1,-1,-1,-1,-1,-1,-1,-1,-1,-1,-1,-1,-1,-1,-1,-1,-1,-1,-1,-1,-1],"split_conditions":[-1.637E3,2E0,1E0,1E0,-6.52E2,1E0,2E0,1E0,-2.539E3,2E1,1E0,2E0,-4.75E2,2E0,1.017612E6,-3.704E3,2.857143E0,1E0,1E0,4E0,2.6915555E0,-2.477E3,3.4605715E0,1E0,1.5E1,2.7252E5,1E0,1E0,2E1,-7.78E2,-1.1582641E-3,-5.916E3,1E0,1.6E1,4.3528E4,2.6E1,3.5613E4,1.18512E6,1.4185661E-3,1E0,1E1,2.5E1,1E0,1.1623E6,3E0,2.2E1,-2.8575424E-2,-2.35E2,1E0,-6.5201297E-3,5.3106006E-2,2E0,6.47046E5,2.264E0,1E0,2.9335E4,9.86553E5,-3.39E2,1E0,1.960944E-2,-8.06E2,7.87131E5,1.2735E0,1.3E1,7.57597E5,2.655E5,-3.63E2,7.5204E4,1.5E1,7.32915E5,-3.3535343E-2,-4.087E3,-8.574892E-2,2.9862E4,-7.389712E-2,-9.42E2,-7.3324055E-3,3.161738E-2,5.66055E5,-3.4687884E-2,4.3539433E-3,-1.911E3,-2.0183468E-2,1.7831666E0,-3.1385045E-2,1.1682838E-1,1.8E1,-5.120221E-3,4.8671775E-2,-8.64E2,-7.3E2,5.715E5,-5.74E2,2E0,1E0,2.1208E4,-9.09E2,-2.55E2,7.9555E4,1.4913E4,1.5E1,5.1993E4,7.8192E5,2.6154E4,-7.3625356E-2,1.6155E4,3.1340045E-5,-1.9327309E-2,2.7200103E-2,3.922164E-2,8.785361E-2,-4.28375E-2,-8.284344E-2,-7.839812E-2,-2.6699772E-2,-5.2444603E-2,-1.1828321E-2,7.6766335E-3,-2.3965625E-2,-8.486288E-2,-4.731137E-2,-5.551501E-2,1.2770724E-4,-7.1099917E-3,-3.7327792E-2,-9.287338E-2,-4.6788223E-2,-7.393658E-2,-1.01752736E-1,-4.579778E-2,1.7232565E-2,-5.1996287E-2,6.933884E-4,-5.5787813E-2,-1.49078965E-2,5.4385734E-4,-5.179094E-2,6.8340436E-2,7.151175E-3,-6.9231144E-3,5.9020367E-2,2.7141472E-2,6.6198364E-2,-1.7353823E-2,-5.772084E-2,-1.0747091E-2,3.0740425E-2,-2.4971982E-2,-7.07432E-2,1.4795246E-2,-4.8239216E-2,2.5746466E-3,5.5829138E-2,-3.1863388E-2,2.492169E-3,2.0151332E-2,6.059615E-2,-1.4714867E-2,2.504159E-2,2.7366865E-3,6.1902232E-2,9.564174E-2,4.4919368E-2,5.725785E-2,1.0970443E-1,2.4020797E-2,8.098633E-2,2.017549E-2,-3.5975136E-2,8.245074E-2,4.197278E-3,-6.247818E-2,1.9055031E-2,-7.667341E-2,-4.5931075E-2],"split_indices":[10,25,45,45,23,28,25,37,10,21,37,25,23,24,20,10,53,25,25,25,53,10,53,2,21,6,25,2,21,23,0,10,28,21,7,21,7,6,0,14,22,21,45,20,24,21,0,23,4,0,0,24,6,53,2,7,6,23,46,0,10,6,53,21,6,6,23,20,21,20,0,10,0,7,0,23,0,0,6,0,0,10,0,53,0,0,21,0,0,23,10,6,10,22,25,7,23,23,20,7,21,20,6,7,0,7,0,0,0,0,0,0,0,0,0,0,0,0,0,0,0,0,0,0,0,0,0,0,0,0,0,0,0,0,0,0,0,0,0,0,0,0,0,0,0,0,0,0,0,0,0,0,0,0,0,0,0,0,0,0,0,0,0,0,0,0,0,0,0,0,0,0,0,0,0],"split_type":[0,0,0,0,0,0,0,0,0,0,0,0,0,0,0,0,0,0,0,0,0,0,0,0,0,0,0,0,0,0,0,0,0,0,0,0,0,0,0,0,0,0,0,0,0,0,0,0,0,0,0,0,0,0,0,0,0,0,0,0,0,0,0,0,0,0,0,0,0,0,0,0,0,0,0,0,0,0,0,0,0,0,0,0,0,0,0,0,0,0,0,0,0,0,0,0,0,0,0,0,0,0,0,0,0,0,0,0,0,0,0,0,0,0,0,0,0,0,0,0,0,0,0,0,0,0,0,0,0,0,0,0,0,0,0,0,0,0,0,0,0,0,0,0,0,0,0,0,0,0,0,0,0,0,0,0,0,0,0,0,0,0,0,0,0,0,0,0,0,0,0,0,0,0,0],"sum_hessian":[7.749993E3,4.2956064E3,3.4543865E3,3.4492773E3,8.463291E2,2.668581E3,7.858054E2,2.7269895E3,7.222879E2,4.9950348E2,3.4682565E2,4.535098E2,2.2150713E3,6.325889E2,1.5321649E2,1.7041797E3,1.02280975E3,4.9609802E2,2.261899E2,3.153557E2,1.8414777E2,2.330343E2,1.1379135E2,3.7961877E2,7.3891045E1,1.40253E3,8.1254126E2,2.6563452E2,3.6695444E2,1.0862983E2,4.4586666E1,6.239298E2,1.0802499E3,3.5462167E2,6.681881E2,4.0969986E2,8.639817E1,1.821028E2,4.4087097E1,2.1306335E2,1.0229235E2,7.164704E1,1.12500725E2,1.4352782E2,8.9506485E1,6.418866E1,4.960269E1,2.2165694E2,1.5796184E2,3.2426414E1,4.146463E1,3.8251474E2,1.02001526E3,5.2316125E2,2.8937997E2,1.6678154E2,9.8852974E1,3.0690796E2,6.0046467E1,3.9805588E1,6.882424E1,2.2913571E2,3.9479413E2,1.9649144E2,8.837584E2,2.2477637E2,1.298453E2,5.9425616E2,7.393194E1,3.8340482E2,2.6295015E1,5.9003063E1,2.739511E1,1.5354024E2,2.8562569E1,1.7096313E2,4.2100212E1,2.9483839E1,7.280851E1,3.2676464E1,3.8970573E1,8.5889824E1,2.6610897E1,1.09966515E2,3.35613E1,3.3824097E1,5.568239E1,2.7998829E1,3.618983E1,1.2500561E2,9.665132E1,9.7850716E1,6.0111115E1,1.0763543E2,2.748793E2,5.832516E2,4.367637E2,1.7918382E2,3.4397745E2,2.0075916E2,8.862082E1,1.08990425E2,5.779111E1,6.937588E1,2.9477098E1,2.6855273E2,3.8355225E1,2.7386545E1,3.2659924E1,3.2262516E1,3.6561726E1,1.542726E2,7.486312E1,2.9179438E1,3.656147E2,1.2624643E2,7.024501E1,6.3462146E2,2.4913696E2,1.466914E2,7.808496E1,1.0458483E2,2.5260471E1,1.4379945E2,4.5045673E2,4.771513E1,2.621681E1,3.345129E2,4.8891914E1,3.2766495E1,2.6236567E1,9.722528E1,5.6314953E1,1.1694432E2,5.401882E1,4.454893E1,2.8259579E1,4.611206E1,3.9777767E1,2.5433846E1,8.453267E1,2.6607578E1,2.907481E1,8.634813E1,3.8657475E1,3.747114E1,5.9180183E1,4.8400333E1,4.9450382E1,3.1475016E1,2.86361E1,7.682635E1,3.0809082E1,1.5487495E2,1.2000435E2,1.9819174E2,3.8505984E2,2.1619846E2,2.2056526E2,1.2798311E2,5.120072E1,1.0798637E2,2.3599109E2,5.073657E1,1.5002258E2,4.8947315E1,3.9673504E1,5.2911285E1,5.607914E1,2.5438185E1,3.2352924E1,4.1196842E1,2.8179037E1,5.725082E1,2.1130191E2],"tree_param":{"num_deleted":"0","num_feature":"54","num_nodes":"175","size_leaf_vector":"1"}},{"base_weights":[-6.66228E-2,-2.3432174E-1,1.6757792E-1,-3.4595475E-1,-2.8867427E-2,8.02777E-2,5.84901E-1,-2.7631047E-1,-6.043093E-1,-1.7553093E-1,2.0136252E-1,-2.2033691E-1,1.7982431E-1,3.1028914E-1,6.986783E-1,-3.7096417E-1,1.0265961E-2,-7.0514506E-1,-3.8917756E-1,-2.7738255E-1,4.3800995E-2,-1.23350464E-1,4.393978E-1,-2.9709196E-1,1.3137628E-1,3.5356525E-2,3.5064113E-1,-1.921827E-2,5.541904E-1,-4.5800325E-3,7.7060723E-1,-4.8097694E-1,-1.1601878E-1,-4.766226E-1,9.7958036E-2,-6.695709E-1,-9.712901E-2,-3.2016718E-1,-7.746481E-2,-3.3756974E-1,7.24587E-2,2.9983678E-1,-1.308491E-1,-2.3377818E-1,3.2311407E-1,-2.792809E-2,5.7675683E-1,-6.8729055E-1,-2.1151268E-1,3.4713492E-1,-1.6999146E-2,-1.9439568E-1,1.9820848E-1,5.981266E-1,1.15108564E-1,-2.1320336E-2,2.6383003E-2,3.7078688E-1,9.2071235E-2,6.103984E-1,1.0431031E0,-5.372669E-1,-1.9731443E-1,1.5321425E-1,-3.3736247E-1,-2.1334255E-2,-6.2438595E-1,2.5015387E-1,-1.7341353E-1,-4.814144E-1,-7.1526843E-1,-4.2068687E-1,2.3759289E-2,-3.9132383E-1,-5.127346E-4,-1.5835758E-1,5.013299E-2,-1.7587682E-2,4.2339498E-1,7.959241E-2,-3.4795535E-1,-3.4759146E-1,9.874279E-2,1.4017792E-2,4.8918E-2,2.3177098E-1,-4.4489797E-2,4.4703338E-1,1.0948114E0,-4.892127E-2,-8.266667E-1,-6.749518E-2,-3.8093784E-1,4.488772E-3,7.159754E-2,-3.7386304E-1,-5.9313327E-2,1.0158995E-1,5.84481E-1,4.602117E-2,6.683802E-1,-5.6094423E-2,3.9322785E-1,9.987155E-3,6.3672185E-2,5.1271963E-1,1.2723489E-1,6.522222E-2,1.2613959E0,-6.8158574E-2,-4.7630034E-2,-6.539758E-2,-9.46693E-3,5.8744024E-2,2.7476314E-3,-2.0132378E-2,-5.5600155E-2,-8.160283E-2,-4.075535E-2,-2.8025184E-2,3.4393188E-2,-2.830506E-2,2.8316138E-2,-2.4052234E-2,-6.358886E-2,-7.535247E-2,-3.837254E-2,-5.648088E-2,-2.5331426E-2,-5.4419782E-2,-2.5604485E-2,-4.8238177E-2,2.6767945E-2,-3.3968892E-2,8.493552E-3,7.7840894E-2,2.3380874E-2,-2.4119621E-2,4.0865522E-2,-2.1935608E-2,-6.0987454E-2,-2.2388348E-2,-7.301991E-2,3.3877905E-2,-1.6848909E-2,1.38385715E-2,3.1614028E-2,-4.8631644E-3,5.4653544E-2,1.5093537E-1,6.139943E-2,-6.799205E-2,-9.484305E-2,-3.8692396E-2,6.6712783E-3,-5.1677894E-2,-6.983352E-3,-4.6937827E-2,-1.7354662E-2,-1.5245385E-2,5.1839273E-2,4.8362236E-2,-1.5029499E-4,1.8879227E-2,7.7559374E-2,4.2178046E-2,-3.267007E-2,6.102581E-2,1.3459428E-1,-3.6469515E-2,4.5450963E-3,-9.829634E-3,6.533854E-2,2.8383384E-2,7.1988866E-2,1.57221E-1,8.6090386E-2],"categories":[],"categories_nodes":[],"categories_segments":[],"categories_sizes":[],"default_left":[0,0,0,0,0,0,0,0,0,0,0,0,0,0,0,0,0,0,0,0,0,0,0,0,0,0,0,0,0,0,0,0,0,0,0,0,0,0,0,0,0,0,0,0,0,0,0,0,0,0,0,0,0,0,0,0,0,0,0,0,0,0,0,0,0,0,0,0,0,0,0,0,0,0,0,0,0,0,0,0,0,0,0,0,0,0,0,0,0,0,0,0,0,0,0,0,0,0,0,0,0,0,0,0,0,0,0,0,0,0,0,0,0,0,0,0,0,0,0,0,0,0,0,0,0,0,0,0,0,0,0,0,0,0,0,0,0,0,0,0,0,0,0,0,0,0,0,0,0,0,0,0,0,0,0,0,0,0,0,0,0,0,0,0,0,0,0,0,0,0,0,0,0,0,0,0,0],"id":4,"left_children":[1,3,5,7,9,11,13,15,17,19,21,23,25,27,29,31,33,35,37,39,41,43,45,47,49,51,53,55,57,-1,59,61,63,65,67,69,-1,71,-1,73,75,77,79,81,83,85,87,89,91,93,-1,95,97,99,101,-1,-1,103,-1,105,107,109,111,113,115,-1,117,119,121,123,125,127,-1,129,131,133,-1,-1,135,137,139,141,143,-1,-1,145,-1,147,149,-1,151,153,155,-1,-1,157,159,161,163,165,167,169,171,-1,-1,173,-1,-1,175,-1,-1,-1,-1,-1,-1,-1,-1,-1,-1,-1,-1,-1,-1,-1,-1,-1,-1,-1,-1,-1,-1,-1,-1,-1,-1,-1,-1,-1,-1,-1,-1,-1,-1,-1,-1,-1,-1,-1,-1,-1,-1,-1,-1,-1,-1,-1,-1,-1,-1,-1,-1,-1,-1,-1,-1,-1,-1,-1,-1,-1,-1,-1,-1,-1,-1,-1,-1],"loss_changes":[3.026364E2,1.02972885E2,1.170985E2,5.2178833E1,5.344926E1,7.964979E1,1.715866E1,6.2212463E1,1.3107498E1,2.1610651E1,4.7669174E1,1.7916824E1,4.931958E1,1.3247932E1,2.1048203E1,4.829718E1,2.439981E1,3.3146362E0,5.048294E0,1.3929333E1,1.3787869E1,1.2960825E1,2.2847511E1,1.8017624E1,7.817952E0,4.060368E1,5.3319008E1,3.956104E0,6.023367E0,0E0,1.4987183E1,1.9118439E1,3.1099312E1,3.2599869E0,2.0039934E1,2.8595734E0,0E0,9.663164E0,0E0,1.0211563E1,9.75656E0,7.420827E0,8.410415E0,7.985983E0,1.5185852E0,8.955407E0,1.7986809E1,2.2842941E0,1.089402E1,7.7569475E0,0E0,1.0892479E1,2.363789E1,1.7282867E1,2.2425518E1,0E0,0E0,4.6035547E0,0E0,1.4076134E1,1.0363281E1,8.509674E0,9.356918E0,1.2855796E1,8.401772E0,0E0,1.9673595E0,1.5545792E1,8.8181E0,2.6704178E0,3.4874115E0,3.3518639E0,0E0,9.913391E0,1.0277085E1,2.8661742E0,0E0,0E0,6.5154915E0,1.0019301E1,2.9143124E0,7.255932E0,3.5437505E0,0E0,0E0,3.5832262E-1,0E0,1.0953922E1,9.909599E0,0E0,3.5071182E-1,1.0448202E1,8.644676E0,0E0,0E0,3.6142693E0,1.3964879E1,2.005243E1,9.444904E0,7.345201E0,1.4770142E1,9.170473E0,2.3005077E1,0E0,0E0,9.287483E0,0E0,0E0,8.984207E0,0E0,0E0,0E0,0E0,0E0,0E0,0E0,0E0,0E0,0E0,0E0,0E0,0E0,0E0,0E0,0E0,0E0,0E0,0E0,0E0,0E0,0E0,0E0,0E0,0E0,0E0,0E0,0E0,0E0,0E0,0E0,0E0,0E0,0E0,0E0,0E0,0E0,0E0,0E0,0E0,0E0,0E0,0E0,0E0,0E0,0E0,0E0,0E0,0E0,0E0,0E0,0E0,0E0,0E0,0E0,0E0,0E0,0E0,0E0,0E0,0E0,0E0,0E0,0E0,0E0,0E0,0E0,0E0],"parents":[2147483647,0,0,1,1,2,2,3,3,4,4,5,5,6,6,7,7,8,8,9,9,10,10,11,11,12,12,13,13,14,14,15,15,16,16,17,17,18,18,19,19,20,20,21,21,22,22,23,23,24,24,25,25,26,26,27,27,28,28,30,30,31,31,32,32,33,33,34,34,35,35,37,37,39,39,40,40,41,41,42,42,43,43,44,44,45,45,46,46,47,47,48,48,49,49,51,51,52,52,53,53,54,54,57,57,59,59,60,60,61,61,62,62,63,63,64,64,66,66,67,67,68,68,69,69,70,70,71,71,73,73,74,74,75,75,78,78,79,79,80,80,81,81,82,82,85,85,87,87,88,88,90,90,91,91,92,92,95,95,96,96,97,97,98,98,99,99,100,100,101,101,102,102,105,105,108,108],"right_children":[2,4,6,8,10,12,14,16,18,20,22,24,26,28,30,32,34,36,38,40,42,44,46,48,50,52,54,56,58,-1,60,62,64,66,68,70,-1,72,-1,74,76,78,80,82,84,86,88,90,92,94,-1,96,98,100,102,-1,-1,104,-1,106,108,110,112,114,116,-1,118,120,122,124,126,128,-1,130,132,134,-1,-1,136,138,140,142,144,-1,-1,146,-1,148,150,-1,152,154,156,-1,-1,158,160,162,164,166,168,170,172,-1,-1,174,-1,-1,176,-1,-1,-1,-1,-1,-1,-1,-1,-1,-1,-1,-1,-1,-1,-1,-1,-1,-1,-1,-1,-1,-1,-1,-1,-1,-1,-1,-1,-1,-1,-1,-1,-1,-1,-1,-1,-1,-1,-1,-1,-1,-1,-1,-1,-1,-1,-1,-1,-1,-1,-1,-1,-1,-1,-1,-1,-1,-1,-1,-1,-1,-1,-1,-1,-1,-1,-1,-1],"split_conditions":[-1.49E3,1E0,3E0,1E0,-6.52E2,1E0,2.264E0,-1.399E4,-2.447E3,1E0,-1.875E4,2E0,1E0,-7.81E2,-1.8948E4,1E0,1.6603076E0,1E0,-2.35E2,3E0,1E0,1E0,1E0,2E0,-1.2369E4,-1.4649E4,1E0,1E0,-3.35E2,-4.5800325E-3,1E0,3E0,1E0,6.736E4,1E0,6.0646E4,-9.712901E-2,-3.93E2,-7.746481E-2,-1.2369E4,7.9083E5,1.8181819E0,2.025E5,1.3E1,-2.1277E4,2.205E5,3E0,-6.1E2,1E0,-5.8E2,-1.6999146E-2,-1.7731E4,2E0,2E0,1E0,-2.1320336E-2,2.6383003E-2,1E0,9.2071235E-2,3E0,-7.32E2,2.73E0,2.1052632E0,5.3365E4,1E0,-2.1334255E-2,1E0,1E0,3E0,1.53E5,1E0,1E0,2.3759289E-2,2E0,1E0,3.7293334E0,5.013299E-2,-1.7587682E-2,2.8684285E0,-1.105E3,1E0,9.52272E5,3.125E0,1.4017792E-2,4.8918E-2,-1.3161E4,-4.4489797E-2,-4.493E3,1.41007E5,-4.892127E-2,1E0,2.0464964E0,1E0,4.488772E-3,7.159754E-2,1.57635E5,3E0,5.1993E4,2.0791795E0,1.02139E5,4E0,1E0,-9.09E2,9.987155E-3,6.3672185E-2,-1.2726E4,1.2723489E-1,6.522222E-2,1E0,-6.8158574E-2,-4.7630034E-2,-6.539758E-2,-9.46693E-3,5.8744024E-2,2.7476314E-3,-2.0132378E-2,-5.5600155E-2,-8.160283E-2,-4.075535E-2,-2.8025184E-2,3.4393188E-2,-2.830506E-2,2.8316138E-2,-2.4052234E-2,-6.358886E-2,-7.535247E-2,-3.837254E-2,-5.648088E-2,-2.5331426E-2,-5.4419782E-2,-2.5604485E-2,-4.8238177E-2,2.6767945E-2,-3.3968892E-2,8.493552E-3,7.7840894E-2,2.3380874E-2,-2.4119621E-2,4.0865522E-2,-2.1935608E-2,-6.0987454E-2,-2.2388348E-2,-7.301991E-2,3.3877905E-2,-1.6848909E-2,1.38385715E-2,3.1614028E-2,-4.8631644E-3,5.4653544E-2,1.5093537E-1,6.139943E-2,-6.799205E-2,-9.484305E-2,-3.8692396E-2,6.6712783E-3,-5.1677894E-2,-6.983352E-3,-4.6937827E-2,-1.7354662E-2,-1.5245385E-2,5.1839273E-2,4.8362236E-2,-1.5029499E-4,1.8879227E-2,7.7559374E-2,4.2178046E-2,-3.267007E-2,6.102581E-2,1.3459428E-1,-3.6469515E-2,4.5450963E-3,-9.829634E-3,6.533854E-2,2.8383384E-2,7.1988866E-2,1.57221E-1,8.6090386E-2],"split_indices":[10,25,17,45,23,40,53,9,10,1,9,25,1,10,9,1,53,0,23,17,2,1,40,17,9,9,2,25,23,0,1,17,2,19,2,20,0,23,0,9,20,53,5,22,9,5,17,23,45,23,0,9,25,17,25,0,0,1,0,25,23,53,53,20,44,0,2,28,17,5,34,40,0,25,40,53,0,0,53,23,45,20,53,0,0,9,0,10,19,0,1,53,1,0,0,5,25,20,53,19,25,28,23,0,0,9,0,0,2,0,0,0,0,0,0,0,0,0,0,0,0,0,0,0,0,0,0,0,0,0,0,0,0,0,0,0,0,0,0,0,0,0,0,0,0,0,0,0,0,0,0,0,0,0,0,0,0,0,0,0,0,0,0,0,0,0,0,0,0,0,0,0,0,0,0,0,0],"split_type":[0,0,0,0,0,0,0,0,0,0,0,0,0,0,0,0,0,0,0,0,0,0,0,0,0,0,0,0,0,0,0,0,0,0,0,0,0,0,0,0,0,0,0,0,0,0,0,0,0,0,0,0,0,0,0,0,0,0,0,0,0,0,0,0,0,0,0,0,0,0,0,0,0,0,0,0,0,0,0,0,0,0,0,0,0,0,0,0,0,0,0,0,0,0,0,0,0,0,0,0,0,0,0,0,0,0,0,0,0,0,0,0,0,0,0,0,0,0,0,0,0,0,0,0,0,0,0,0,0,0,0,0,0,0,0,0,0,0,0,0,0,0,0,0,0,0,0,0,0,0,0,0,0,0,0,0,0,0,0,0,0,0,0,0,0,0,0,0,0,0,0,0,0,0,0,0,0],"sum_hessian":[7.7035317E3,4.489112E3,3.21442E3,2.9082427E3,1.5808693E3,2.6593088E3,5.55111E2,2.292363E3,6.158797E2,9.658383E2,6.150309E2,6.612444E2,1.9980645E3,1.6370982E2,3.914012E2,1.7229825E3,5.6938055E2,4.177812E2,1.980985E2,6.5937726E2,3.064611E2,2.6035397E2,3.546769E2,5.429177E2,1.18326675E2,1.0831776E3,9.1488684E2,7.002635E1,9.368348E1,3.451608E1,3.5688513E2,1.2029883E3,5.199942E2,8.622155E1,4.8315903E2,3.716241E2,4.615707E1,1.6957097E2,2.852753E1,5.6261865E2,9.675863E1,1.2398425E2,1.8247682E2,2.0910957E2,5.12444E1,8.0748665E1,2.7392825E2,9.639118E1,4.4652652E2,6.886919E1,4.9457485E1,4.4922104E2,6.3395654E2,4.4537274E2,4.6951413E2,4.1696632E1,2.8329721E1,6.37802E1,2.9903275E1,2.267889E2,1.3009625E2,1.0030493E3,1.9993903E2,2.3475546E2,2.8523874E2,3.1873741E1,5.434781E1,3.096009E2,1.7355815E2,7.4873215E1,2.9675092E2,1.438856E2,2.568535E1,4.850944E2,7.752423E1,6.331407E1,3.3444553E1,2.5475842E1,9.8508415E1,9.298231E1,8.949452E1,1.5575378E2,5.3355793E1,2.5261148E1,2.5983252E1,5.003179E1,3.0716873E1,2.2056148E2,5.3366783E1,4.167448E1,5.4716698E1,2.4211684E2,2.0440968E2,3.8468105E1,3.0401083E1,1.9215738E2,2.5706366E2,5.081226E2,1.2583395E2,5.046172E1,3.94911E2,2.9111166E2,1.7840245E2,3.227565E1,3.1504555E1,1.9917308E2,2.7615816E1,4.804803E1,8.204822E1,2.948669E2,7.081824E2,3.5707497E1,1.6423154E2,5.1888992E1,1.8286647E2,1.7701785E2,1.0822088E2,2.7382778E1,2.6965033E1,4.6215992E1,2.633849E2,1.402581E2,3.3300045E1,3.0252893E1,4.4620323E1,2.649105E2,3.1840399E1,7.603689E1,6.7848724E1,2.2631789E2,2.5877652E2,2.7434032E1,5.0090202E1,3.6049458E1,2.7264616E1,3.321155E1,6.529686E1,4.7218307E1,4.5764E1,6.1256023E1,2.8238499E1,1.1889635E2,3.6857437E1,2.7967108E1,2.5388685E1,2.500021E1,2.5031584E1,3.695969E1,1.8360178E2,2.7509768E1,2.5857016E1,2.7798573E1,2.6918127E1,7.107293E1,1.710439E2,1.4182283E2,6.2586857E1,1.29206E2,6.29514E1,2.2200677E2,3.5056885E1,1.0719561E2,4.0092697E2,4.16297E1,8.420425E1,2.5062925E1,2.5398794E1,3.6546194E2,2.9449081E1,7.143283E1,2.1967883E2,6.196053E1,1.16441925E2,9.575284E1,1.0342024E2,4.4548946E1,3.749927E1],"tree_param":{"num_deleted":"0","num_feature":"54","num_nodes":"177","size_leaf_vector":"1"}},{"base_weights":[-6.300568E-2,-2.2625881E-1,1.335689E-1,-6.4327896E-1,-1.8422781E-1,-1.6488667E-1,2.2987674E-1,-7.4828786E-1,-4.3200722E-1,-4.147464E-1,-1.1795081E-1,-1.0578514E-1,-5.5198836E-1,3.5971916E-1,1.9171014E-2,-7.043169E-1,-1.04357496E-1,-8.9436996E-4,-6.2032545E-1,-2.2970207E-1,-4.9724144E-1,-2.9347566E-1,-2.7548594E-2,4.8534185E-2,-2.4699803E-1,-7.474427E-2,-3.8432074E-1,2.2803178E-1,7.116891E-1,-1.793294E-1,1.233882E-1,-7.7971953E-1,-2.5947222E-2,-7.692772E-1,-3.293519E-2,-3.7342754E-1,2.4858074E-1,-4.4930795E-1,-8.801901E-1,-4.9067786E-1,-2.1621089E-1,-1.0287746E-1,2.7004912E-1,-2.4273942E-1,2.4203844E-1,-7.340015E-2,-2.0920916E-1,-1.1396773E-2,-5.7618197E-2,7.7332824E-2,4.1867384E-1,6.0559064E-1,1.1346728E0,-6.2388457E-2,-1.2642369E-1,1.697884E-1,-4.7197413E-2,-8.557105E-1,-6.0925394E-1,-8.7059185E-2,-6.0920563E-2,-5.0613075E-1,-1.3004446E-1,-7.6527693E-3,6.574032E-2,-2.6386023E-1,-5.5664563E-1,-1.11729026E-1,-5.6424122E-2,-6.924286E-1,-2.9332653E-1,2.3341613E-2,-3.2813382E-1,3.1939037E-2,-2.487575E-1,-3.6398634E-2,3.360118E-1,-3.6287174E-1,1.7456258E-2,-2.6813015E-2,3.5173187E-1,-2.4935235E-1,2.6606176E-2,-1.3168211E-1,2.5794715E-1,7.214793E-2,5.5664474E-1,1.2578361E-2,6.820059E-1,1.3813509E-1,8.1652336E-2,-3.2926068E-1,4.4580497E-4,-1.7656979E-1,2.4414302E-1,-9.1626234E-2,-6.462854E-2,-7.679923E-2,-4.1597493E-2,-6.1892517E-2,-1.5288355E-2,-4.291158E-2,7.527867E-3,-3.6955237E-2,1.7699324E-2,-5.212593E-2,-8.223824E-2,-8.127674E-2,-2.2789925E-2,-1.0969811E-2,-5.187405E-2,-2.022016E-2,3.315487E-2,4.9756886E-3,-3.7142646E-2,-2.019021E-2,3.187182E-2,-3.7456345E-2,-1.6965123E-2,5.4566402E-2,1.2525961E-2,-9.0398155E-3,-4.6064284E-2,2.2964612E-2,7.431158E-2,-6.2701195E-3,-3.6004435E-2,-2.168825E-2,2.791856E-2,1.0280407E-2,4.939589E-2,3.302001E-2,-2.0316437E-2,7.2547905E-2,3.1298984E-2,2.231159E-2,7.6590024E-2,-2.347884E-2,-5.1365264E-2,5.39969E-2,-1.8465586E-2,-3.1980358E-2,1.0087077E-2,1.1360739E-2,4.117861E-2],"categories":[],"categories_nodes":[],"categories_segments":[],"categories_sizes":[],"default_left":[0,0,0,0,0,0,0,0,0,0,0,0,0,0,0,0,0,0,0,0,0,0,0,0,0,0,0,0,0,0,0,0,0,0,0,0,0,0,0,0,0,0,0,0,0,0,0,0,0,0,0,0,0,0,0,0,0,0,0,0,0,0,0,0,0,0,0,0,0,0,0,0,0,0,0,0,0,0,0,0,0,0,0,0,0,0,0,0,0,0,0,0,0,0,0,0,0,0,0,0,0,0,0,0,0,0,0,0,0,0,0,0,0,0,0,0,0,0,0,0,0,0,0,0,0,0,0,0,0,0,0,0,0,0,0,0,0,0,0,0,0,0,0,0,0],"id":5,"left_children":[1,3,5,7,9,11,13,15,17,19,21,23,25,27,29,31,-1,-1,33,35,37,39,41,43,45,-1,47,49,51,53,55,57,-1,59,-1,61,63,65,67,69,71,73,75,77,79,-1,81,-1,-1,83,85,87,89,-1,91,93,-1,95,97,-1,-1,99,101,-1,-1,103,105,-1,-1,107,109,111,113,115,117,-1,119,121,-1,-1,123,125,-1,127,129,131,133,-1,135,-1,-1,137,139,141,143,-1,-1,-1,-1,-1,-1,-1,-1,-1,-1,-1,-1,-1,-1,-1,-1,-1,-1,-1,-1,-1,-1,-1,-1,-1,-1,-1,-1,-1,-1,-1,-1,-1,-1,-1,-1,-1,-1,-1,-1,-1,-1,-1,-1,-1,-1,-1,-1,-1,-1],"loss_changes":[2.4643414E2,7.341016E1,1.0018662E2,8.189148E0,5.8195496E1,1.9401934E1,7.207207E1,2.5751038E0,1.0332245E1,1.2875259E1,4.699828E1,1.6119951E1,3.3971863E0,7.539014E1,2.0824408E1,7.3437653E0,0E0,0E0,3.6375465E0,1.8256863E1,1.0392044E1,1.5236687E1,4.3886013E1,2.0012922E1,6.9527187E0,0E0,3.1800823E0,3.4089558E1,1.920932E1,8.072882E0,1.8311752E1,1.9640503E0,0E0,4.2046356E-1,0E0,6.5093575E0,8.245213E0,1.0290543E1,4.1889305E0,1.1051971E1,1.9453384E1,3.0726913E1,1.6661444E1,7.1727257E0,1.202638E1,0E0,6.9296885E0,0E0,0E0,2.5122007E1,2.5018745E1,1.2988281E1,5.7596207E0,0E0,8.003077E0,1.5829601E1,0E0,1.0593491E0,1.6020966E0,0E0,0E0,5.1409454E0,4.525997E0,0E0,0E0,9.110924E0,2.6859055E0,0E0,0E0,7.5876007E0,5.929782E0,1.6186588E1,8.106617E0,5.456089E1,7.4035454E0,0E0,1.5781296E1,2.9004765E0,0E0,0E0,8.235113E0,6.8416233E0,0E0,1.0867767E1,1.30151615E1,1.075268E1,1.5188049E1,0E0,1.16623535E1,0E0,0E0,1.964015E0,1.9306097E1,4.360486E0,1.1005899E1,0E0,0E0,0E0,0E0,0E0,0E0,0E0,0E0,0E0,0E0,0E0,0E0,0E0,0E0,0E0,0E0,0E0,0E0,0E0,0E0,0E0,0E0,0E0,0E0,0E0,0E0,0E0,0E0,0E0,0E0,0E0,0E0,0E0,0E0,0E0,0E0,0E0,0E0,0E0,0E0,0E0,0E0,0E0,0E0,0E0,0E0,0E0,0E0,0E0,0E0],"parents":[2147483647,0,0,1,1,2,2,3,3,4,4,5,5,6,6,7,7,8,8,9,9,10,10,11,11,12,12,13,13,14,14,15,15,18,18,19,19,20,20,21,21,22,22,23,23,24,24,26,26,27,27,28,28,29,29,30,30,31,31,33,33,35,35,36,36,37,37,38,38,39,39,40,40,41,41,42,42,43,43,44,44,46,46,49,49,50,50,51,51,52,52,54,54,55,55,57,57,58,58,61,61,62,62,65,65,66,66,69,69,70,70,71,71,72,72,73,73,74,74,76,76,77,77,80,80,81,81,83,83,84,84,85,85,86,86,88,88,91,91,92,92,93,93,94,94],"right_children":[2,4,6,8,10,12,14,16,18,20,22,24,26,28,30,32,-1,-1,34,36,38,40,42,44,46,-1,48,50,52,54,56,58,-1,60,-1,62,64,66,68,70,72,74,76,78,80,-1,82,-1,-1,84,86,88,90,-1,92,94,-1,96,98,-1,-1,100,102,-1,-1,104,106,-1,-1,108,110,112,114,116,118,-1,120,122,-1,-1,124,126,-1,128,130,132,134,-1,136,-1,-1,138,140,142,144,-1,-1,-1,-1,-1,-1,-1,-1,-1,-1,-1,-1,-1,-1,-1,-1,-1,-1,-1,-1,-1,-1,-1,-1,-1,-1,-1,-1,-1,-1,-1,-1,-1,-1,-1,-1,-1,-1,-1,-1,-1,-1,-1,-1,-1,-1,-1,-1,-1,-1],"split_conditions":[-1.637E3,2E0,1E0,1E0,1E0,1E0,4.545E5,1.26E6,1E0,1E0,-6.901E3,4.545E5,-4.106E3,4.22892E5,-9.7E2,5.78325E0,-1.04357496E-1,-8.9436996E-4,4E0,1E0,1E0,2.844E5,3E0,2.81493E5,5.28633E5,-7.474427E-2,1E0,1E0,3E0,2E0,1.26E6,5E0,-2.5947222E-2,-2.509E3,-3.293519E-2,1.5847E5,2.9648223E0,4.545E5,9.5706E4,-7.78E2,4.545E5,4.545E5,1.845E5,-3.35E2,1E0,-7.340015E-2,4.76523E5,-1.1396773E-2,-5.7618197E-2,-5.75E2,2.025E5,-1.337E3,1.07721E5,-6.2388457E-2,7.33315E5,1E0,-4.7197413E-2,1E0,2.7086666E0,-8.7059185E-2,-6.0920563E-2,-1.963E3,3E0,-7.6527693E-3,6.574032E-2,3E0,1.3545E6,-1.11729026E-1,-5.6424122E-2,2.9068666E0,2.25E5,4.07727E5,3.5944E4,3.01464E5,-1.057E3,-3.6398634E-2,4.59E5,-1.139E3,1.7456258E-2,-2.6813015E-2,-3.59E2,6.795E5,2.6606176E-2,3E0,2.4752E0,1E0,2.565E5,1.2578361E-2,1E0,1.3813509E-1,8.1652336E-2,4.9504E0,6.795E5,1.34182E5,1E0,-9.1626234E-2,-6.462854E-2,-7.679923E-2,-4.1597493E-2,-6.1892517E-2,-1.5288355E-2,-4.291158E-2,7.527867E-3,-3.6955237E-2,1.7699324E-2,-5.212593E-2,-8.223824E-2,-8.127674E-2,-2.2789925E-2,-1.0969811E-2,-5.187405E-2,-2.022016E-2,3.315487E-2,4.9756886E-3,-3.7142646E-2,-2.019021E-2,3.187182E-2,-3.7456345E-2,-1.6965123E-2,5.4566402E-2,1.2525961E-2,-9.0398155E-3,-4.6064284E-2,2.2964612E-2,7.431158E-2,-6.2701195E-3,-3.6004435E-2,-2.168825E-2,2.791856E-2,1.0280407E-2,4.939589E-2,3.302001E-2,-2.0316437E-2,7.2547905E-2,3.1298984E-2,2.231159E-2,7.6590024E-2,-2.347884E-2,-5.1365264E-2,5.39969E-2,-1.8465586E-2,-3.1980358E-2,1.0087077E-2,1.1360739E-2,4.117861E-2],"split_indices":[10,17,40,1,40,0,8,8,32,32,11,8,11,6,23,53,0,0,29,1,0,6,17,6,6,0,32,1,17,17,8,29,0,10,0,19,53,8,19,23,8,8,6,23,28,0,19,0,0,23,6,10,19,0,6,28,0,4,53,0,0,11,29,0,0,17,8,0,0,53,8,6,19,6,23,0,8,10,0,0,23,8,0,17,53,32,8,0,28,0,0,53,8,19,1,0,0,0,0,0,0,0,0,0,0,0,0,0,0,0,0,0,0,0,0,0,0,0,0,0,0,0,0,0,0,0,0,0,0,0,0,0,0,0,0,0,0,0,0,0,0,0,0,0,0],"split_type":[0,0,0,0,0,0,0,0,0,0,0,0,0,0,0,0,0,0,0,0,0,0,0,0,0,0,0,0,0,0,0,0,0,0,0,0,0,0,0,0,0,0,0,0,0,0,0,0,0,0,0,0,0,0,0,0,0,0,0,0,0,0,0,0,0,0,0,0,0,0,0,0,0,0,0,0,0,0,0,0,0,0,0,0,0,0,0,0,0,0,0,0,0,0,0,0,0,0,0,0,0,0,0,0,0,0,0,0,0,0,0,0,0,0,0,0,0,0,0,0,0,0,0,0,0,0,0,0,0,0,0,0,0,0,0,0,0,0,0,0,0,0,0,0,0],"sum_hessian":[7.677188E3,4.19398E3,3.4832078E3,3.8269373E2,3.8112864E3,8.496017E2,2.633606E3,2.53937E2,1.2875673E2,8.499187E2,2.9613677E3,7.38173E2,1.1142876E2,1.6290409E3,1.0045652E3,2.2397089E2,2.996611E1,3.9982388E1,8.8774345E1,2.632371E2,5.8668164E2,1.0059568E3,1.9554108E3,3.5303162E2,3.8514136E2,4.9854393E1,6.1574364E1,1.1866943E3,4.423465E2,3.4559552E2,6.5896967E2,1.9086575E2,3.310513E1,5.762952E1,3.1144827E1,2.025803E2,6.0656776E1,5.233477E2,6.33339E1,2.8167905E2,7.242778E2,1.560952E3,3.9445877E2,1.4081477E2,2.1221684E2,2.6406332E1,3.5873502E2,2.6220655E1,3.5353706E1,6.6356464E2,5.2312976E2,3.5558545E2,8.676105E1,3.5606815E1,3.099887E2,6.1198846E2,4.6981163E1,1.2923491E2,6.1630844E1,3.2573757E1,2.5055767E1,1.3040057E2,7.217973E1,3.424048E1,2.6416296E1,1.9313167E2,3.3021603E2,3.4732784E1,2.8601116E1,1.3804655E2,1.436325E2,2.3088919E2,4.9338858E2,8.116441E2,7.49308E2,3.6745132E1,3.5771362E2,1.0943982E2,3.1374949E1,3.72992E1,1.7491765E2,3.3123315E2,2.7501863E1,3.0772385E2,3.558408E2,1.4940616E2,3.737236E2,4.921477E1,3.0637067E2,4.6987392E1,3.977366E1,1.1866833E2,1.9132037E2,1.0791674E2,5.0407175E2,9.7631294E1,3.1603613E1,3.2206474E1,2.942437E1,9.827011E1,3.213046E1,2.8938412E1,4.3241318E1,1.5591393E2,3.7217747E1,2.9402438E2,3.619167E1,1.0904755E2,2.8999002E1,7.997186E1,6.3660645E1,1.3352252E2,9.736666E1,5.0699097E1,4.4268948E2,4.4725015E2,3.6439395E2,2.8782822E2,4.6147974E2,1.7852814E2,1.7918549E2,2.9408169E1,8.0031654E1,1.3453761E2,4.0380035E1,1.2389136E2,2.0734178E2,2.552629E2,5.2460968E1,2.1557045E2,1.4027034E2,7.7017624E1,7.238853E1,2.195882E2,1.5413539E2,4.791916E1,2.584515E2,7.996961E1,3.869871E1,4.8382072E1,1.429383E2,7.1071884E1,3.6844856E1,2.8434418E2,2.1972755E2],"tree_param":{"num_deleted":"0","num_feature":"54","num_nodes":"145","size_leaf_vector":"1"}},{"base_weights":[-5.2266404E-2,-2.0700666E-1,1.3089973E-1,-2.769335E-1,2.666759E-2,2.5591448E-1,-5.5011705E-2,-2.4946983E-1,-6.365368E-1,1.09039105E-1,-3.901483E-1,2.6717031E-2,4.5550174E-1,-3.551564E-2,-7.965801E-2,-2.156192E-1,-5.7164043E-1,-1.127069E-1,-5.477693E-1,-1.5555917E-1,2.5632325E-1,-7.3589005E-2,-3.051385E-1,-1.3766776E-1,2.2290437E-1,1.757963E-1,6.04646E-1,8.2542606E-2,-1.4393723E-1,-3.7232506E-1,-1.4847541E-1,-6.149535E-1,-2.6823005E-2,-4.4140586E-1,-8.861899E-2,-6.464844E-2,-9.631985E-2,1.1213818E-1,5.479203E-1,-1.2455751E-1,-4.6842602E-1,-6.712044E-2,-3.6965457E-1,7.7005215E-2,4.6043473E-1,3.5024482E-1,-2.1845517E-1,5.1232743E-1,9.0346503E-1,-7.754406E-2,4.7536594E-1,-2.8082147E-1,-1.3116159E-2,-6.3510704E-1,-2.886694E-1,-2.9171914E-1,-5.5466644E-2,-7.948507E-1,-5.2621305E-1,-6.281578E-1,-3.0098608E-1,-2.0971306E-1,2.0947461E-1,2.389586E-1,-4.1696858E-2,7.4315965E-1,2.4363753E-1,6.401761E-3,-3.701174E-2,-2.3016322E-2,-7.046029E-2,-3.8874915E-1,1.4618163E-2,-5.192696E-1,-1.4197533E-2,4.243389E-1,-5.5872835E-2,2.8894198E-1,9.1059364E-2,-6.962717E-2,4.8695987E-1,-5.2757528E-2,-3.5590753E-2,8.9654887E-1,4.2026013E-1,2.5928402E-2,1.0462029E0,-3.416316E-1,8.733553E-2,5.3380266E-2,7.134877E-1,-6.203179E-1,-2.1003589E-1,-1.4223452E-1,1.5032241E-1,-4.70372E-2,-7.215073E-2,9.458917E-3,-3.308352E-2,-5.055488E-2,-2.4644567E-2,5.07836E-3,-2.4528362E-2,-6.389438E-2,-1.0030953E-1,-3.1343292E-2,-6.455472E-2,-8.107124E-2,-4.0145975E-2,-4.2144585E-2,-5.361129E-4,-1.2157274E-2,-6.2761515E-2,7.227748E-2,-1.0629973E-2,1.29908E-2,7.826423E-2,-4.157337E-2,1.1994565E-2,2.1648599E-2,9.8728925E-2,-3.3278745E-3,4.9853493E-2,-2.6020134E-2,-6.487003E-2,6.4865337E-3,-4.979399E-2,-3.3494722E-2,-6.9859646E-2,2.3627873E-3,6.456546E-2,-3.5318147E-2,1.5529262E-2,1.6565787E-3,6.0704004E-2,1.7617373E-2,-3.1845666E-2,3.20477E-2,7.2930925E-2,2.6427934E-2,-2.4333384E-2,5.11746E-2,1.075027E-1,4.8615366E-2,-1.5578277E-2,6.700831E-2,1.1387982E-1,-4.2484354E-2,-1.621178E-2,-2.1260079E-2,2.8162811E-2,5.1289506E-2,-2.1616483E-2,2.4191294E-2,8.841907E-2,-8.151449E-2,-3.8385388E-2,-1.2162989E-2,-4.0474236E-2,-2.2194816E-2,3.1116087E-2,3.5165086E-2,-6.4707138E-3],"categories":[],"categories_nodes":[],"categories_segments":[],"categories_sizes":[],"default_left":[0,0,0,0,0,0,0,0,0,0,0,0,0,0,0,0,0,0,0,0,0,0,0,0,0,0,0,0,0,0,0,0,0,0,0,0,0,0,0,0,0,0,0,0,0,0,0,0,0,0,0,0,0,0,0,0,0,0,0,0,0,0,0,0,0,0,0,0,0,0,0,0,0,0,0,0,0,0,0,0,0,0,0,0,0,0,0,0,0,0,0,0,0,0,0,0,0,0,0,0,0,0,0,0,0,0,0,0,0,0,0,0,0,0,0,0,0,0,0,0,0,0,0,0,0,0,0,0,0,0,0,0,0,0,0,0,0,0,0,0,0,0,0,0,0,0,0,0,0,0,0,0,0,0,0,0,0,0,0,0,0,0,0],"id":6,"left_children":[1,3,5,7,9,11,13,15,17,19,21,23,25,27,-1,29,31,-1,33,35,37,-1,39,41,43,45,47,49,51,53,55,57,-1,59,-1,-1,61,63,65,67,69,71,73,75,77,79,81,83,85,87,89,91,93,95,97,99,101,103,105,107,109,111,113,115,117,119,121,-1,-1,-1,-1,123,125,127,-1,129,131,133,-1,135,137,-1,139,141,143,-1,145,147,149,151,153,155,157,159,161,-1,-1,-1,-1,-1,-1,-1,-1,-1,-1,-1,-1,-1,-1,-1,-1,-1,-1,-1,-1,-1,-1,-1,-1,-1,-1,-1,-1,-1,-1,-1,-1,-1,-1,-1,-1,-1,-1,-1,-1,-1,-1,-1,-1,-1,-1,-1,-1,-1,-1,-1,-1,-1,-1,-1,-1,-1,-1,-1,-1,-1,-1,-1,-1,-1,-1,-1,-1],"loss_changes":[2.1670494E2,6.772633E1,8.1393814E1,3.1344543E1,3.284694E1,9.576831E1,2.0337671E1,3.2214203E1,9.209816E0,3.116131E1,4.4157524E0,3.149612E1,4.6579895E1,1.7594341E1,0E0,2.8194466E1,3.5321426E0,0E0,6.5578117E0,8.260544E0,2.1523624E1,0E0,3.7286177E0,8.673384E0,1.5392735E1,2.6941914E1,1.9661835E1,4.1429756E1,1.2825132E1,1.750576E1,2.5046963E1,3.4994965E0,0E0,3.7150612E0,0E0,0E0,8.939587E0,6.736551E0,9.89492E0,2.910799E0,3.6126842E0,1.0751921E1,4.1404476E0,1.2807623E1,1.2798809E1,1.5600426E1,6.789226E0,1.9419998E1,1.544043E1,2.0429766E1,1.9126095E1,8.281631E0,7.7737823E0,2.4143448E0,9.924564E0,7.0427475E0,2.30412E1,1.9274712E0,4.045746E0,2.2808418E0,3.0923524E0,6.835479E0,1.1406255E1,1.1111997E1,9.521019E0,1.30075E1,4.800775E0,0E0,0E0,0E0,0E0,2.6003618E0,8.451395E0,2.221199E0,0E0,6.792225E0,1.2688225E1,1.0732449E1,0E0,4.18367E0,8.025116E0,0E0,4.8452106E0,6.818863E0,1.7283455E1,0E0,4.097E0,2.624094E0,1.6914557E1,8.766106E0,9.594093E0,2.4457436E0,4.9625425E0,7.5049624E0,7.062793E0,0E0,0E0,0E0,0E0,0E0,0E0,0E0,0E0,0E0,0E0,0E0,0E0,0E0,0E0,0E0,0E0,0E0,0E0,0E0,0E0,0E0,0E0,0E0,0E0,0E0,0E0,0E0,0E0,0E0,0E0,0E0,0E0,0E0,0E0,0E0,0E0,0E0,0E0,0E0,0E0,0E0,0E0,0E0,0E0,0E0,0E0,0E0,0E0,0E0,0E0,0E0,0E0,0E0,0E0,0E0,0E0,0E0,0E0,0E0,0E0,0E0,0E0,0E0,0E0,0E0,0E0,0E0,0E0],"parents":[2147483647,0,0,1,1,2,2,3,3,4,4,5,5,6,6,7,7,8,8,9,9,10,10,11,11,12,12,13,13,15,15,16,16,18,18,19,19,20,20,22,22,23,23,24,24,25,25,26,26,27,27,28,28,29,29,30,30,31,31,33,33,36,36,37,37,38,38,39,39,40,40,41,41,42,42,43,43,44,44,45,45,46,46,47,47,48,48,49,49,50,50,51,51,52,52,53,53,54,54,55,55,56,56,57,57,58,58,59,59,60,60,61,61,62,62,63,63,64,64,65,65,66,66,71,71,72,72,73,73,75,75,76,76,77,77,79,79,80,80,82,82,83,83,84,84,86,86,87,87,88,88,89,89,90,90,91,91,92,92,93,93,94,94],"right_children":[2,4,6,8,10,12,14,16,18,20,22,24,26,28,-1,30,32,-1,34,36,38,-1,40,42,44,46,48,50,52,54,56,58,-1,60,-1,-1,62,64,66,68,70,72,74,76,78,80,82,84,86,88,90,92,94,96,98,100,102,104,106,108,110,112,114,116,118,120,122,-1,-1,-1,-1,124,126,128,-1,130,132,134,-1,136,138,-1,140,142,144,-1,146,148,150,152,154,156,158,160,162,-1,-1,-1,-1,-1,-1,-1,-1,-1,-1,-1,-1,-1,-1,-1,-1,-1,-1,-1,-1,-1,-1,-1,-1,-1,-1,-1,-1,-1,-1,-1,-1,-1,-1,-1,-1,-1,-1,-1,-1,-1,-1,-1,-1,-1,-1,-1,-1,-1,-1,-1,-1,-1,-1,-1,-1,-1,-1,-1,-1,-1,-1,-1,-1,-1,-1,-1,-1],"split_conditions":[-1.637E3,-1.3448E4,4.545E5,1E0,8.955E5,2.81493E5,1E0,4.6701E4,-5.916E3,2.1532445E0,7.6495E4,-4.97E2,2.0767E4,6.795E5,-7.965801E-2,-1.169E3,3E0,-1.127069E-1,4.41E5,1E0,-2.131E3,-7.3589005E-2,1E0,1E0,4E0,3.285E5,5.4E5,7.33315E5,-1.4595E4,2.86704E5,-2.0583E4,5.0629E4,-2.6823005E-2,-7E2,-8.861899E-2,-6.464844E-2,-2.02E3,4.545E5,4.545E5,4E0,1.18512E6,1.00512E0,-1.0456E4,4.2858E4,-2.61E2,2.0464964E0,1.6911E4,2.2495E4,2.4752E0,-8.47E2,3.0393E4,8.84124E5,6.0499E0,3E0,3.9933E4,2.2752E5,6.705E5,-7.6E2,9.045E5,-1.7601E4,3.825E5,1E0,-1.84E3,5.4E5,-1.236E3,1.8522E4,-7.9E2,6.401761E-3,-3.701174E-2,-2.3016322E-2,-7.046029E-2,1.417E4,2.475E5,1E0,-1.4197533E-2,-7.42E2,1.5508889E0,2.87685E5,9.1059364E-2,1.6272857E0,1.76508E5,-5.2757528E-2,3.735E5,-1.4079E4,8.17191E5,2.5928402E-2,2.6284E4,3.141E4,5.66055E5,4.9009233E0,3.49E0,-7.81E2,4.5855E4,-2.69E2,1.0035E6,-4.70372E-2,-7.215073E-2,9.458917E-3,-3.308352E-2,-5.055488E-2,-2.4644567E-2,5.07836E-3,-2.4528362E-2,-6.389438E-2,-1.0030953E-1,-3.1343292E-2,-6.455472E-2,-8.107124E-2,-4.0145975E-2,-4.2144585E-2,-5.361129E-4,-1.2157274E-2,-6.2761515E-2,7.227748E-2,-1.0629973E-2,1.29908E-2,7.826423E-2,-4.157337E-2,1.1994565E-2,2.1648599E-2,9.8728925E-2,-3.3278745E-3,4.9853493E-2,-2.6020134E-2,-6.487003E-2,6.4865337E-3,-4.979399E-2,-3.3494722E-2,-6.9859646E-2,2.3627873E-3,6.456546E-2,-3.5318147E-2,1.5529262E-2,1.6565787E-3,6.0704004E-2,1.7617373E-2,-3.1845666E-2,3.20477E-2,7.2930925E-2,2.6427934E-2,-2.4333384E-2,5.11746E-2,1.075027E-1,4.8615366E-2,-1.5578277E-2,6.700831E-2,1.1387982E-1,-4.2484354E-2,-1.621178E-2,-2.1260079E-2,2.8162811E-2,5.1289506E-2,-2.1616483E-2,2.4191294E-2,8.841907E-2,-8.151449E-2,-3.8385388E-2,-1.2162989E-2,-4.0474236E-2,-2.2194816E-2,3.1116087E-2,3.5165086E-2,-6.4707138E-3],"split_indices":[10,9,8,0,8,6,0,7,10,53,20,23,7,8,0,23,26,0,8,38,10,0,4,0,22,8,6,6,9,6,9,7,0,23,0,0,10,8,8,29,6,53,9,20,23,53,7,7,53,23,7,6,53,22,20,6,8,23,8,9,20,0,10,6,23,7,23,0,0,0,0,7,8,4,0,10,53,20,0,53,20,0,8,9,20,0,7,7,6,53,53,10,7,10,8,0,0,0,0,0,0,0,0,0,0,0,0,0,0,0,0,0,0,0,0,0,0,0,0,0,0,0,0,0,0,0,0,0,0,0,0,0,0,0,0,0,0,0,0,0,0,0,0,0,0,0,0,0,0,0,0,0,0,0,0,0,0,0,0,0,0,0,0],"split_type":[0,0,0,0,0,0,0,0,0,0,0,0,0,0,0,0,0,0,0,0,0,0,0,0,0,0,0,0,0,0,0,0,0,0,0,0,0,0,0,0,0,0,0,0,0,0,0,0,0,0,0,0,0,0,0,0,0,0,0,0,0,0,0,0,0,0,0,0,0,0,0,0,0,0,0,0,0,0,0,0,0,0,0,0,0,0,0,0,0,0,0,0,0,0,0,0,0,0,0,0,0,0,0,0,0,0,0,0,0,0,0,0,0,0,0,0,0,0,0,0,0,0,0,0,0,0,0,0,0,0,0,0,0,0,0,0,0,0,0,0,0,0,0,0,0,0,0,0,0,0,0,0,0,0,0,0,0,0,0,0,0,0,0],"sum_hessian":[7.6437983E3,4.1433403E3,3.5004583E3,3.188884E3,9.544561E2,2.0927964E3,1.4076619E3,2.964196E3,2.246881E2,7.975767E2,1.568794E2,9.746658E2,1.1181305E3,1.372623E3,3.50388E1,2.6838699E3,2.8032626E2,3.2637146E1,1.9205096E2,2.8518365E2,5.1239307E2,2.9449472E1,1.27429924E2,5.304781E2,4.441877E2,3.8961838E2,7.2851215E2,6.5722345E2,7.1539966E2,8.0366455E2,1.8802052E3,2.4440904E2,3.591722E1,1.4787811E2,4.417285E1,2.9639933E1,2.5554372E2,3.4378656E2,1.686065E2,6.1347755E1,6.608217E1,4.0776566E2,1.22712425E2,2.7598972E2,1.68198E2,2.7018045E2,1.1943793E2,5.5863824E2,1.6987392E2,4.675046E2,1.8971881E2,3.4903806E2,3.663616E2,1.9247229E2,6.1119226E2,7.393651E2,1.1408401E3,7.8108444E1,1.6630058E2,6.197747E1,8.590064E1,1.8664656E2,6.889716E1,1.8813565E2,1.5565091E2,1.01827675E2,6.6778824E1,3.5118313E1,2.6229443E1,3.387874E1,3.2203426E1,8.186876E1,3.2589688E2,7.32783E1,4.9434128E1,7.5761406E1,2.0022832E2,1.2298676E2,4.521123E1,6.648524E1,2.0369522E2,4.369291E1,7.574502E1,1.0629652E2,4.5234174E2,3.1324017E1,1.385499E2,1.7927998E2,2.8822464E2,6.88792E1,1.208396E2,5.887982E1,2.9015823E2,2.0474245E2,1.6161916E2,6.8434875E1,1.2403741E2,6.04549E1,5.5073737E2,1.2741395E2,6.119511E2,7.318941E2,4.0894598E2,4.6993755E1,3.1114693E1,6.1057625E1,1.05242966E2,3.2904263E1,2.9073206E1,6.072934E1,2.5171297E1,1.5520332E2,3.1443237E1,2.5750347E1,4.3146816E1,1.5773627E2,3.0399376E1,4.6493694E1,1.0915722E2,3.2848545E1,6.897913E1,3.24237E1,3.435512E1,5.611863E1,2.5750134E1,2.975963E2,2.8300562E1,3.755004E1,3.5728256E1,2.7349516E1,4.841189E1,8.287401E1,1.1735432E2,6.682173E1,5.6165024E1,3.359305E1,3.289219E1,1.2212401E2,8.157121E1,3.0887629E1,4.4857388E1,3.490589E1,7.1390625E1,4.0604974E2,4.629197E1,2.8997896E1,1.09552E2,1.2156364E2,5.7716343E1,1.132706E2,1.7495404E2,2.5131958E1,4.3747246E1,3.275888E1,8.808073E1,3.0940306E1,2.7939514E1,2.0066945E2,8.94888E1,1.7456229E2,3.018016E1,8.314064E1,7.847851E1],"tree_param":{"num_deleted":"0","num_feature":"54","num_nodes":"163","size_leaf_vector":"1"}},{"base_weights":[-5.1206615E-2,-1.903207E-1,1.1570357E-1,-5.8402556E-1,-1.5177304E-1,4.483861E-2,4.438701E-1,-6.703323E-1,-3.613241E-1,-2.3164345E-1,2.3637798E-2,1.1505459E-1,-2.1337974E-1,2.886062E-1,6.642398E-1,-4.001389E-1,-7.634232E-1,-4.8535615E-1,-6.9992156E-3,-2.900863E-1,1.8371684E-2,2.3710692E-1,-1.3687003E-1,-2.462535E-3,2.6326776E-1,-4.9464625E-1,-1.4752354E-1,3.8029826E-1,-4.187238E-2,8.7504995E-1,4.4944692E-1,-6.951144E-2,-2.1978555E-2,-6.638247E-1,-9.0024567E-1,-7.746706E-2,-3.1503845E-2,-4.7870633E-1,-2.2982629E-1,-2.5734547E-1,1.3385251E-1,-3.7185054E-2,2.8264594E-1,-5.4465037E-2,-5.6536657E-1,-2.0770268E-1,9.0942845E-2,4.5361105E-1,7.2175734E-2,-7.105636E-1,-2.5499645E-1,-3.7130448E-1,-2.755775E-2,-7.3239985E-3,4.6779177E-1,2.0385398E-2,-3.243873E-2,1.0662305E0,5.2960236E-2,2.6234826E-1,6.0829425E-1,-7.739591E-1,-3.409634E-2,-7.981988E-2,-9.988943E-2,-4.2443684E-1,-6.5246004E-1,-4.8562217E-1,-1.9427297E-1,-5.2549607E-1,-1.04398966E-1,4.9549818E-1,-2.6014872E-2,4.423119E-1,8.743163E-2,-3.3327553E-1,1.3802786E-2,-1.8900221E-2,-7.48668E-1,-2.7364472E-1,2.2420084E-1,-2.0648819E-1,1.4957552E-1,5.317442E-1,-2.3635651E-1,-5.6356966E-2,1.2227196E-1,-4.122935E-2,-1.0187208E-1,-5.209827E-2,4.8908056E-3,-2.786387E-1,-5.9293456E-2,1.7659247E-1,-1.7563167E-1,7.428303E-3,5.567469E-1,7.765763E-2,1.2019236E0,5.118552E-2,4.6451916E-3,3.3583958E-2,8.8276446E-2,-6.2866114E-2,-9.7737946E-2,-3.573464E-2,-6.334117E-2,-7.322165E-2,-3.9789863E-2,-5.7314944E-2,-4.5014126E-3,-5.74464E-3,-3.0364543E-2,-7.275771E-2,-3.0542586E-2,-4.271503E-2,1.9537857E-2,-5.8013E-3,6.860726E-2,-3.8096722E-2,9.739975E-3,1.4492606E-2,7.003797E-2,-3.6571693E-2,2.0617453E-2,-6.0610928E-2,-2.0145081E-2,-6.826219E-3,3.3007126E-2,-9.24829E-2,-6.1688084E-2,-5.8930643E-2,-2.2061734E-2,-1.2412327E-3,4.539717E-2,9.403999E-3,-3.7189484E-2,3.30912E-3,2.9496262E-2,6.234028E-2,2.1098422E-2,-3.5357576E-2,-1.1003773E-2,-2.6315464E-2,1.6841665E-2,-4.9152263E-2,-1.3032486E-2,-2.2561563E-2,2.8800586E-2,-6.8418525E-2,-8.821758E-3,6.912372E-2,1.1894813E-2,9.567205E-2,1.3890633E-1],"categories":[],"categories_nodes":[],"categories_segments":[],"categories_sizes":[],"default_left":[0,0,0,0,0,0,0,0,0,0,0,0,0,0,0,0,0,0,0,0,0,0,0,0,0,0,0,0,0,0,0,0,0,0,0,0,0,0,0,0,0,0,0,0,0,0,0,0,0,0,0,0,0,0,0,0,0,0,0,0,0,0,0,0,0,0,0,0,0,0,0,0,0,0,0,0,0,0,0,0,0,0,0,0,0,0,0,0,0,0,0,0,0,0,0,0,0,0,0,0,0,0,0,0,0,0,0,0,0,0,0,0,0,0,0,0,0,0,0,0,0,0,0,0,0,0,0,0,0,0,0,0,0,0,0,0,0,0,0,0,0,0,0,0,0,0,0,0,0,0,0,0,0,0,0],"id":7,"left_children":[1,3,5,7,9,11,13,15,17,19,21,23,25,27,29,31,33,35,-1,37,39,41,43,45,47,49,51,53,55,57,59,-1,-1,61,63,-1,-1,65,67,69,71,-1,73,75,77,79,81,83,85,87,89,91,93,-1,95,-1,-1,97,-1,99,101,103,-1,-1,-1,105,107,109,111,113,115,117,119,121,123,125,127,-1,129,131,133,135,137,139,141,-1,143,-1,-1,-1,-1,145,-1,147,149,-1,151,-1,153,-1,-1,-1,-1,-1,-1,-1,-1,-1,-1,-1,-1,-1,-1,-1,-1,-1,-1,-1,-1,-1,-1,-1,-1,-1,-1,-1,-1,-1,-1,-1,-1,-1,-1,-1,-1,-1,-1,-1,-1,-1,-1,-1,-1,-1,-1,-1,-1,-1,-1,-1,-1,-1,-1,-1,-1],"loss_changes":[1.7664471E2,6.2880554E1,8.040892E1,6.862976E0,5.2970596E1,5.1614594E1,2.081961E1,6.36615E0,3.7752342E0,3.796286E1,4.0590675E1,3.897648E1,1.12014675E1,1.0986256E1,1.1065308E1,3.5749598E0,2.07576E0,3.3910007E0,0E0,2.382315E1,1.5735852E1,1.4203915E1,2.384985E1,2.3964834E1,3.5963066E1,5.7721024E0,1.3268261E1,1.1283985E1,5.5872664E0,7.800125E0,3.6267872E0,0E0,0E0,3.9084854E0,6.385803E-3,0E0,0E0,4.5217896E0,1.4436058E1,5.929475E0,2.0145329E1,0E0,1.4723042E1,1.0822103E1,7.3766556E0,1.1196634E1,1.5013299E1,2.6842926E1,1.5834895E1,5.0914173E0,4.5593824E0,3.378294E0,9.7974415E0,0E0,8.28233E0,0E0,0E0,2.2324371E0,0E0,3.2221155E0,4.799402E0,1.9483032E0,0E0,0E0,0E0,5.2505875E0,2.129921E0,7.467598E0,2.0999905E1,2.1236563E0,9.194232E0,1.13050785E1,1.0656836E1,1.9873444E1,1.1607928E1,3.8998775E0,1.1896876E1,0E0,1.1230202E0,5.555151E0,2.8510058E0,7.0882936E0,1.215374E1,1.2966072E1,7.178128E-1,0E0,8.220163E0,0E0,0E0,0E0,0E0,3.836999E0,0E0,6.173645E0,8.286391E0,0E0,1.1328182E1,0E0,1.104248E0,0E0,0E0,0E0,0E0,0E0,0E0,0E0,0E0,0E0,0E0,0E0,0E0,0E0,0E0,0E0,0E0,0E0,0E0,0E0,0E0,0E0,0E0,0E0,0E0,0E0,0E0,0E0,0E0,0E0,0E0,0E0,0E0,0E0,0E0,0E0,0E0,0E0,0E0,0E0,0E0,0E0,0E0,0E0,0E0,0E0,0E0,0E0,0E0,0E0,0E0,0E0,0E0,0E0,0E0,0E0,0E0],"parents":[2147483647,0,0,1,1,2,2,3,3,4,4,5,5,6,6,7,7,8,8,9,9,10,10,11,11,12,12,13,13,14,14,15,15,16,16,17,17,19,19,20,20,21,21,22,22,23,23,24,24,25,25,26,26,27,27,28,28,29,29,30,30,33,33,34,34,37,37,38,38,39,39,40,40,42,42,43,43,44,44,45,45,46,46,47,47,48,48,49,49,50,50,51,51,52,52,54,54,57,57,59,59,60,60,61,61,65,65,66,66,67,67,68,68,69,69,70,70,71,71,72,72,73,73,74,74,75,75,76,76,78,78,79,79,80,80,81,81,82,82,83,83,84,84,86,86,91,91,93,93,94,94,96,96,98,98],"right_children":[2,4,6,8,10,12,14,16,18,20,22,24,26,28,30,32,34,36,-1,38,40,42,44,46,48,50,52,54,56,58,60,-1,-1,62,64,-1,-1,66,68,70,72,-1,74,76,78,80,82,84,86,88,90,92,94,-1,96,-1,-1,98,-1,100,102,104,-1,-1,-1,106,108,110,112,114,116,118,120,122,124,126,128,-1,130,132,134,136,138,140,142,-1,144,-1,-1,-1,-1,146,-1,148,150,-1,152,-1,154,-1,-1,-1,-1,-1,-1,-1,-1,-1,-1,-1,-1,-1,-1,-1,-1,-1,-1,-1,-1,-1,-1,-1,-1,-1,-1,-1,-1,-1,-1,-1,-1,-1,-1,-1,-1,-1,-1,-1,-1,-1,-1,-1,-1,-1,-1,-1,-1,-1,-1,-1,-1,-1,-1,-1,-1],"split_conditions":[-1.599E3,2E0,3E0,5E0,1E0,6.795E5,1E0,2E0,1E0,3E0,1E0,1E0,2E0,1E0,1E0,2.3941817E0,1E0,1E0,-6.9992156E-3,1E0,1.7743E4,1.1517E0,9.09E5,2.0464964E0,1E0,1E0,9.58131E5,-6.676E3,5.34204E5,3E0,2.4907E4,-6.951144E-2,-2.1978555E-2,1E0,6.885E5,-7.746706E-2,-3.1503845E-2,1E0,2.0376E5,-6.184E3,4.545E5,-3.7185054E-2,4.545E5,1E0,3.8938E4,3E0,1E0,1E0,8.888889E-1,9.72E5,-6.6E2,1E0,1.0035E6,-7.3239985E-3,1.9781926E0,2.0385398E-2,-3.243873E-2,2.3076923E0,5.2960236E-2,-3.346E3,-2.886E3,2.205E5,-3.409634E-2,-7.981988E-2,-9.988943E-2,-2.615E3,1E0,1.44E5,4.545E5,3E0,2.1532445E0,2.844E5,-3.874E3,1.8522E4,-4.328E3,2.1141176E0,-1.992E3,-1.8900221E-2,1E0,1.215E5,1.5E0,1E0,2.4907E4,4.545E5,-4.106E3,-5.6356966E-2,2E0,-4.122935E-2,-1.0187208E-1,-5.209827E-2,4.8908056E-3,1E0,-5.9293456E-2,3.141E4,3.5424E4,7.428303E-3,6.75E5,7.765763E-2,-3.592E3,5.118552E-2,4.6451916E-3,3.3583958E-2,8.8276446E-2,-6.2866114E-2,-9.7737946E-2,-3.573464E-2,-6.334117E-2,-7.322165E-2,-3.9789863E-2,-5.7314944E-2,-4.5014126E-3,-5.74464E-3,-3.0364543E-2,-7.275771E-2,-3.0542586E-2,-4.271503E-2,1.9537857E-2,-5.8013E-3,6.860726E-2,-3.8096722E-2,9.739975E-3,1.4492606E-2,7.003797E-2,-3.6571693E-2,2.0617453E-2,-6.0610928E-2,-2.0145081E-2,-6.826219E-3,3.3007126E-2,-9.24829E-2,-6.1688084E-2,-5.8930643E-2,-2.2061734E-2,-1.2412327E-3,4.539717E-2,9.403999E-3,-3.7189484E-2,3.30912E-3,2.9496262E-2,6.234028E-2,2.1098422E-2,-3.5357576E-2,-1.1003773E-2,-2.6315464E-2,1.6841665E-2,-4.9152263E-2,-1.3032486E-2,-2.2561563E-2,2.8800586E-2,-6.8418525E-2,-8.821758E-3,6.912372E-2,1.1894813E-2,9.567205E-2,1.3890633E-1],"split_indices":[10,17,17,29,1,8,1,12,1,17,2,1,17,2,2,53,2,28,0,28,7,53,8,53,2,1,6,11,6,24,7,0,0,1,8,0,0,45,6,11,8,0,8,38,7,26,28,0,53,8,10,45,8,0,53,0,0,53,0,11,11,5,0,0,0,11,14,5,8,29,53,6,10,7,10,53,10,0,28,8,53,24,7,8,11,0,17,0,0,0,0,46,0,7,7,0,8,0,11,0,0,0,0,0,0,0,0,0,0,0,0,0,0,0,0,0,0,0,0,0,0,0,0,0,0,0,0,0,0,0,0,0,0,0,0,0,0,0,0,0,0,0,0,0,0,0,0,0,0,0,0,0,0,0,0],"split_type":[0,0,0,0,0,0,0,0,0,0,0,0,0,0,0,0,0,0,0,0,0,0,0,0,0,0,0,0,0,0,0,0,0,0,0,0,0,0,0,0,0,0,0,0,0,0,0,0,0,0,0,0,0,0,0,0,0,0,0,0,0,0,0,0,0,0,0,0,0,0,0,0,0,0,0,0,0,0,0,0,0,0,0,0,0,0,0,0,0,0,0,0,0,0,0,0,0,0,0,0,0,0,0,0,0,0,0,0,0,0,0,0,0,0,0,0,0,0,0,0,0,0,0,0,0,0,0,0,0,0,0,0,0,0,0,0,0,0,0,0,0,0,0,0,0,0,0,0,0,0,0,0,0,0,0],"sum_hessian":[7.6056343E3,4.1481494E3,3.4574849E3,3.6866418E2,3.7794854E3,2.8443967E3,6.1308826E2,2.642468E2,1.0441739E2,2.5967688E3,1.1827164E3,2.236729E3,6.076677E2,3.6103015E2,2.5205809E2,6.907044E1,1.9517636E2,7.2770134E1,3.1647253E1,2.104635E3,4.9213388E2,5.0740732E2,6.753091E2,1.2481017E3,9.8862726E2,1.140516E2,4.9361612E2,2.8249933E2,7.8530846E1,1.256571E2,1.26401E2,2.5124346E1,4.39461E1,1.1633972E2,7.883664E1,2.5650272E1,4.711986E1,5.0790277E2,1.5967322E3,1.4491425E2,3.4721964E2,3.480618E1,4.7260114E2,5.673316E2,1.079775E2,3.8997778E2,8.581239E2,4.945957E2,4.9403156E2,5.8962833E1,5.5088764E1,1.7153822E2,3.2207788E2,4.5711018E1,2.367883E2,4.214891E1,3.638193E1,7.954699E1,4.6110107E1,5.9256817E1,6.714418E1,8.5706375E1,3.0633347E1,4.3219566E1,3.5617073E1,3.8964532E2,1.18257454E2,1.9330437E2,1.4034279E3,5.1749535E1,9.316471E1,1.0579498E2,2.4142464E2,2.5927448E2,2.1332664E2,1.1082653E2,4.5650507E2,3.6029953E1,7.194755E1,3.3864124E2,5.1336548E1,1.408912E2,7.172327E2,4.4449017E2,5.010555E1,3.5337086E1,4.5869446E2,3.1150097E1,2.7812738E1,2.8996162E1,2.6092604E1,1.2255426E2,4.8983963E1,1.3531956E2,1.8675832E2,4.3996593E1,1.927917E2,2.7521616E1,5.202537E1,2.685278E1,3.2404037E1,3.4811703E1,3.2332478E1,5.238182E1,3.332455E1,2.9700363E2,9.264169E1,8.861664E1,2.9640818E1,1.6101729E2,3.228707E1,6.241421E2,7.7928577E2,2.5775179E1,2.5974358E1,4.4658676E1,4.850604E1,2.727425E1,7.852073E1,6.1747116E1,1.7967752E2,1.2118632E2,1.3808817E2,4.3861557E1,1.6946509E2,3.4931664E1,7.589487E1,3.6307812E2,9.342693E1,2.8214888E1,4.373266E1,4.725116E1,2.9139008E2,2.5757744E1,2.5578804E1,5.0169476E1,9.0721725E1,3.9887845E2,3.1835428E2,3.4496997E2,9.9520195E1,2.50557E1,2.5049847E1,4.8541927E1,4.1015253E2,4.9372635E1,7.318163E1,2.9130814E1,1.0618875E2,2.6391596E1,1.6036671E2,1.4704199E2,4.5749714E1,2.5164911E1,2.6860462E1],"tree_param":{"num_deleted":"0","num_feature":"54","num_nodes":"155","size_leaf_vector":"1"}},{"base_weights":[-4.65845E-2,-1.7045331E-1,9.582629E-2,-2.7736938E-1,2.0745361E-2,-1.5342714E-1,1.7486455E-1,-4.7273627E-1,-2.1634069E-1,-1.672357E-1,1.532926E-1,-4.958171E-1,-9.8499455E-2,1.13802865E-1,4.5243046E-1,-5.634068E-1,-2.8675264E-1,-3.391451E-1,-1.11606896E-1,-4.0774006E-1,-9.858857E-2,8.650177E-2,1.2591143E-1,-6.116623E-1,-1.9538289E-2,7.3305434E-3,-2.556131E-1,4.7087803E-2,3.6769262E-1,2.1368906E-1,5.353793E-1,-6.1837083E-1,-2.671792E-1,1.1667977E-2,-4.086554E-1,-1.2040722E-1,-4.118361E-1,-4.9982214E-1,-6.818275E-2,-6.101964E-1,-2.2307907E-1,-2.6397528E-2,-3.3929056E-1,-3.3675697E-1,1.6676657E-1,-4.321395E-2,-7.427499E-2,-4.0867642E-1,7.6842725E-2,-3.2594144E-1,3.1781472E-2,1.0511037E-1,-1.7398052E-1,6.4941853E-1,2.0286246E-1,4.1635284E-1,-5.4640565E-3,6.1768223E-2,6.193933E-1,-4.981261E-1,-7.933474E-1,-1.0644886E-2,-4.3349296E-2,-4.991127E-1,-3.999473E-3,-3.1809095E-1,8.685489E-2,-4.810955E-1,-2.2053158E-1,-3.6966193E-1,-8.63812E-2,-1.3483526E-1,2.1139196E-1,-8.3028615E-2,-4.009719E-2,-3.9078947E-2,6.468049E-3,-1.7807043E-1,1.1137828E-1,-5.4628533E-1,1.2346691E-2,-6.1903544E-2,-1.5130566E-2,9.388885E-2,3.9306986E-1,-1.7918034E-2,-6.487947E-2,-4.0206797E-2,3.1793615E-1,-5.4104143E-1,-2.591144E-1,-2.7164403E-2,3.172992E-2,1.851466E-1,-5.3425923E-2,-2.4938712E-1,3.3967298E-2,1.6536526E-2,7.5660044E-1,-1.16586216E-1,3.1339875E-1,6.934252E-2,-1.8863908E-4,-3.3721384E-2,2.4940202E-2,-1.6497849E-2,2.8859407E-2,4.241731E-1,8.0255556E-1,-1.670689E-2,-5.8489185E-2,-8.9889884E-2,-7.279321E-2,-1.8541126E-2,-5.9984524E-2,-4.397584E-2,-5.983846E-3,-2.1215208E-2,4.1810524E-2,-2.407383E-2,-5.5099208E-2,-4.796082E-2,-1.5022068E-2,-5.3018827E-2,-8.060158E-3,-1.7620547E-2,3.0132104E-2,4.6490025E-2,-1.1771708E-2,-4.7037564E-3,-4.7937345E-2,3.1062663E-3,5.023996E-2,-3.557888E-2,-7.8347415E-2,-1.027388E-2,2.4460716E-2,6.0936213E-2,7.6883705E-3,-1.3874903E-2,3.2815203E-2,-2.8656304E-2,4.900963E-2,-3.645174E-2,-7.08521E-2,-3.3198565E-2,3.5890022E-3,3.393055E-2,8.088808E-3,-3.2474563E-2,1.270811E-3,-3.0335367E-2,2.2066576E-2,3.379911E-2,8.570963E-2,-4.4755515E-2,1.1352327E-2,4.279726E-2,4.158722E-3,3.0431673E-2,8.154871E-2,8.991456E-2,2.9185107E-2],"categories":[],"categories_nodes":[],"categories_segments":[],"categories_sizes":[],"default_left":[0,0,0,0,0,0,0,0,0,0,0,0,0,0,0,0,0,0,0,0,0,0,0,0,0,0,0,0,0,0,0,0,0,0,0,0,0,0,0,0,0,0,0,0,0,0,0,0,0,0,0,0,0,0,0,0,0,0,0,0,0,0,0,0,0,0,0,0,0,0,0,0,0,0,0,0,0,0,0,0,0,0,0,0,0,0,0,0,0,0,0,0,0,0,0,0,0,0,0,0,0,0,0,0,0,0,0,0,0,0,0,0,0,0,0,0,0,0,0,0,0,0,0,0,0,0,0,0,0,0,0,0,0,0,0,0,0,0,0,0,0,0,0,0,0,0,0,0,0,0,0,0,0,0,0,0,0,0,0,0,0,0,0],"id":8,"left_children":[1,3,5,7,9,11,13,15,17,19,21,23,25,27,29,31,33,35,37,39,41,-1,43,45,-1,47,49,51,53,55,57,59,61,-1,63,65,67,69,71,73,75,77,79,81,83,-1,-1,85,87,89,91,93,95,97,99,101,103,105,107,109,111,-1,-1,113,-1,115,117,119,121,123,-1,125,127,-1,-1,-1,-1,129,131,133,-1,-1,-1,135,137,-1,-1,139,141,143,145,-1,-1,147,149,151,-1,-1,153,155,157,-1,-1,-1,-1,-1,-1,159,161,-1,-1,-1,-1,-1,-1,-1,-1,-1,-1,-1,-1,-1,-1,-1,-1,-1,-1,-1,-1,-1,-1,-1,-1,-1,-1,-1,-1,-1,-1,-1,-1,-1,-1,-1,-1,-1,-1,-1,-1,-1,-1,-1,-1,-1,-1,-1,-1,-1,-1,-1,-1,-1,-1],"loss_changes":[1.3335791E2,8.265374E1,6.931233E1,3.0815079E1,3.6177208E1,1.5885237E1,4.521283E1,1.0232559E1,2.5399033E1,9.873556E0,1.6483925E1,3.9484406E0,1.216267E1,3.7084824E1,9.415802E0,6.5645447E0,1.0082663E1,1.4416992E1,1.7984995E1,4.8367844E0,8.131184E0,0E0,1.5576383E1,1.6531315E0,0E0,1.269675E1,5.960615E0,2.228292E1,2.1027851E1,5.587576E0,1.4146408E1,6.92424E0,1.7301698E0,0E0,5.213051E0,9.38376E0,8.936523E0,4.7677536E0,1.796416E1,2.5623322E0,3.4585867E0,7.5731635E0,1.0412436E1,3.4111881E0,1.2416895E1,0E0,0E0,3.3479671E0,1.0626753E1,3.2608643E0,5.179258E0,1.7463493E1,1.4076587E1,8.577408E0,1.0238697E1,7.5740023E0,5.2761083E0,2.8671527E0,1.0482063E1,5.9020844E0,3.123474E-1,0E0,0E0,3.8677444E0,0E0,3.6528044E0,1.1207728E1,8.271233E0,3.2660837E0,3.708375E0,0E0,1.4088033E1,1.5546534E1,0E0,0E0,0E0,0E0,6.785345E0,5.952035E0,3.1011906E0,0E0,0E0,0E0,1.6991207E1,1.2511108E1,0E0,0E0,9.268385E0,1.2944886E1,1.3726292E0,3.9338675E0,0E0,0E0,1.4667383E1,8.29828E0,8.072147E0,0E0,0E0,5.475769E0,5.7629695E0,6.6754265E0,0E0,0E0,0E0,0E0,0E0,0E0,6.7229156E0,7.3853226E0,0E0,0E0,0E0,0E0,0E0,0E0,0E0,0E0,0E0,0E0,0E0,0E0,0E0,0E0,0E0,0E0,0E0,0E0,0E0,0E0,0E0,0E0,0E0,0E0,0E0,0E0,0E0,0E0,0E0,0E0,0E0,0E0,0E0,0E0,0E0,0E0,0E0,0E0,0E0,0E0,0E0,0E0,0E0,0E0,0E0,0E0,0E0,0E0,0E0,0E0,0E0,0E0,0E0,0E0],"parents":[2147483647,0,0,1,1,2,2,3,3,4,4,5,5,6,6,7,7,8,8,9,9,10,10,11,11,12,12,13,13,14,14,15,15,16,16,17,17,18,18,19,19,20,20,22,22,23,23,25,25,26,26,27,27,28,28,29,29,30,30,31,31,32,32,34,34,35,35,36,36,37,37,38,38,39,39,40,40,41,41,42,42,43,43,44,44,47,47,48,48,49,49,50,50,51,51,52,52,53,53,54,54,55,55,56,56,57,57,58,58,59,59,60,60,63,63,65,65,66,66,67,67,68,68,69,69,71,71,72,72,77,77,78,78,79,79,83,83,84,84,87,87,88,88,89,89,90,90,93,93,94,94,95,95,98,98,99,99,100,100,107,107,108,108],"right_children":[2,4,6,8,10,12,14,16,18,20,22,24,26,28,30,32,34,36,38,40,42,-1,44,46,-1,48,50,52,54,56,58,60,62,-1,64,66,68,70,72,74,76,78,80,82,84,-1,-1,86,88,90,92,94,96,98,100,102,104,106,108,110,112,-1,-1,114,-1,116,118,120,122,124,-1,126,128,-1,-1,-1,-1,130,132,134,-1,-1,-1,136,138,-1,-1,140,142,144,146,-1,-1,148,150,152,-1,-1,154,156,158,-1,-1,-1,-1,-1,-1,160,162,-1,-1,-1,-1,-1,-1,-1,-1,-1,-1,-1,-1,-1,-1,-1,-1,-1,-1,-1,-1,-1,-1,-1,-1,-1,-1,-1,-1,-1,-1,-1,-1,-1,-1,-1,-1,-1,-1,-1,-1,-1,-1,-1,-1,-1,-1,-1,-1,-1,-1,-1,-1,-1,-1],"split_conditions":[-1.637E3,1E0,1E0,1E0,-9.16E2,2E0,3E0,1.3E1,-5.511E3,1E0,3.6783E4,1E0,1E0,2E0,2.0791795E0,3E0,1.20607E5,7.2612E4,1.9188E5,-2.926E3,7E0,8.650177E-2,2E0,-5.24E2,-1.9538289E-2,2.0376E5,1.9E1,4E0,3E0,1E0,-7.06E3,1.32075E5,6.696E5,1.1667977E-2,2.8E1,3.9933333E0,2E1,4E0,1E0,-4.488E3,1.7E1,-5.02E3,4.3333335E0,1.8384E5,4E0,-4.321395E-2,-7.427499E-2,-6.31E2,1E0,-1.182E3,2.792E0,1E0,2.1E1,1.5228572E0,-6.184E3,1.0125E5,9.4149E4,1.62E5,-5.95E2,2E0,-5.608E3,-1.0644886E-2,-4.3349296E-2,3.13839E5,-3.999473E-3,3.9096E5,7E0,9E0,2.844E5,8.754E4,-8.63812E-2,2.5E1,6.75E5,-8.3028615E-2,-4.009719E-2,-3.9078947E-2,6.468049E-3,1E0,3E0,2.56776E0,1.2346691E-2,-6.1903544E-2,-1.5130566E-2,-5.051E3,5E0,-1.7918034E-2,-6.487947E-2,3E0,-1.079E3,-1.379E3,1E0,-2.7164403E-2,3.172992E-2,8.3389E4,-7.332E3,-4.28E2,3.3967298E-2,1.6536526E-2,8E0,3E0,2.29101E5,6.934252E-2,-1.8863908E-4,-3.3721384E-2,2.4940202E-2,-1.6497849E-2,2.8859407E-2,4.79844E5,7.65E5,-1.670689E-2,-5.8489185E-2,-8.9889884E-2,-7.279321E-2,-1.8541126E-2,-5.9984524E-2,-4.397584E-2,-5.983846E-3,-2.1215208E-2,4.1810524E-2,-2.407383E-2,-5.5099208E-2,-4.796082E-2,-1.5022068E-2,-5.3018827E-2,-8.060158E-3,-1.7620547E-2,3.0132104E-2,4.6490025E-2,-1.1771708E-2,-4.7037564E-3,-4.7937345E-2,3.1062663E-3,5.023996E-2,-3.557888E-2,-7.8347415E-2,-1.027388E-2,2.4460716E-2,6.0936213E-2,7.6883705E-3,-1.3874903E-2,3.2815203E-2,-2.8656304E-2,4.900963E-2,-3.645174E-2,-7.08521E-2,-3.3198565E-2,3.5890022E-3,3.393055E-2,8.088808E-3,-3.2474563E-2,1.270811E-3,-3.0335367E-2,2.2066576E-2,3.379911E-2,8.570963E-2,-4.4755515E-2,1.1352327E-2,4.279726E-2,4.158722E-3,3.0431673E-2,8.154871E-2,8.991456E-2,2.9185107E-2],"split_indices":[10,25,40,40,23,17,17,21,11,40,19,25,2,25,53,17,19,20,6,10,24,0,17,23,0,6,21,24,24,32,11,20,6,0,21,53,21,24,14,11,21,11,53,19,25,0,0,10,25,10,53,2,21,53,11,19,19,20,23,12,11,0,0,20,0,6,21,21,6,19,0,21,6,0,0,0,0,2,17,53,0,0,0,11,24,0,0,17,23,10,14,0,0,20,11,23,0,0,21,25,19,0,0,0,0,0,0,20,6,0,0,0,0,0,0,0,0,0,0,0,0,0,0,0,0,0,0,0,0,0,0,0,0,0,0,0,0,0,0,0,0,0,0,0,0,0,0,0,0,0,0,0,0,0,0,0,0,0,0,0,0,0,0],"split_type":[0,0,0,0,0,0,0,0,0,0,0,0,0,0,0,0,0,0,0,0,0,0,0,0,0,0,0,0,0,0,0,0,0,0,0,0,0,0,0,0,0,0,0,0,0,0,0,0,0,0,0,0,0,0,0,0,0,0,0,0,0,0,0,0,0,0,0,0,0,0,0,0,0,0,0,0,0,0,0,0,0,0,0,0,0,0,0,0,0,0,0,0,0,0,0,0,0,0,0,0,0,0,0,0,0,0,0,0,0,0,0,0,0,0,0,0,0,0,0,0,0,0,0,0,0,0,0,0,0,0,0,0,0,0,0,0,0,0,0,0,0,0,0,0,0,0,0,0,0,0,0,0,0,0,0,0,0,0,0,0,0,0,0],"sum_hessian":[7.5579375E3,4.042006E3,3.5159312E3,2.5920894E3,1.4499166E3,8.462557E2,2.6696755E3,6.1537756E2,1.9767119E3,5.9947205E2,8.5044464E2,1.1588201E2,7.3037366E2,2.1894326E3,4.8024295E2,4.1232968E2,2.030479E2,9.088326E2,1.0678793E3,1.3201598E2,4.6745605E2,3.037253E1,8.200721E2,8.288589E1,3.2996124E1,4.3698126E2,2.933924E2,1.7347697E3,4.5466302E2,1.247543E2,3.5548865E2,3.4687988E2,6.5449814E1,4.7126724E1,1.5592119E2,2.273524E2,6.814802E2,1.063743E2,9.6150494E2,6.1874435E1,7.014155E1,3.604577E2,1.0699836E2,6.595176E1,7.5412036E2,3.6793785E1,4.6092106E1,6.186441E1,3.7511685E2,2.3560365E2,5.778873E1,1.3745292E3,3.6024045E2,1.6673738E2,2.8792566E2,6.434805E1,6.040625E1,5.3820736E1,3.016679E2,2.0787445E2,1.3900542E2,3.4117622E1,3.133219E1,1.24916824E2,3.1004358E1,1.16091354E2,1.1126105E2,4.9922665E2,1.8225356E2,7.9839745E1,2.6534555E1,7.768229E2,1.846821E2,2.8707613E1,3.3166824E1,4.4088245E1,2.60533E1,1.7143643E2,1.8902126E2,7.380455E1,3.3193813E1,2.522238E1,4.072938E1,5.7149384E2,1.826265E2,3.2524715E1,2.9339699E1,2.5308078E2,1.2203608E2,5.4164665E1,1.81439E2,2.8039343E1,2.9749388E1,9.132911E2,4.612381E2,3.1457407E2,4.5666378E1,3.0687927E1,1.3604945E2,7.400301E1,2.1392264E2,3.8310444E1,2.6037605E1,2.6104233E1,3.430202E1,2.705142E1,2.6769316E1,1.4763242E2,1.5403549E2,4.3775043E1,1.640994E2,4.8311214E1,9.069421E1,3.1052792E1,9.386403E1,7.8435936E1,3.7655415E1,5.8665497E1,5.259555E1,1.13471176E2,3.8575546E2,3.766115E1,1.445924E2,5.0796383E1,2.9043364E1,7.100677E2,6.675519E1,1.040902E2,8.0591896E1,1.20283E2,5.115344E1,1.5770763E2,3.1313639E1,4.2317535E1,3.1487013E1,2.4811737E2,3.2337646E2,1.07893196E2,7.47333E1,2.0015836E2,5.292243E1,2.6904129E1,9.513195E1,2.7916779E1,2.6247885E1,1.4539784E2,3.6041157E1,3.6755774E2,5.4573334E2,8.962688E1,3.716112E2,2.8249554E2,3.2078537E1,2.7183113E1,1.0886635E2,2.9962568E1,4.4040447E1,1.5008456E2,6.3838074E1,1.1437725E2,3.3255154E1,1.2889656E2,2.5138937E1],"tree_param":{"num_deleted":"0","num_feature":"54","num_nodes":"163","size_leaf_vector":"1"}},{"base_weights":[-3.687134E-2,-1.7758514E-1,9.0819694E-2,-2.4968918E-1,1.0325935E-1,-1.9280161E-1,1.9136709E-1,-2.755844E-1,1.9446816E-1,-1.7295034E-1,1.8337592E-1,-1.3365503E-1,-5.917538E-1,9.68753E-2,3.5461837E-1,-4.1308096E-1,-2.0698155E-1,6.35379E-2,8.420467E-2,-3.0584282E-1,1.6241793E-2,2.6485397E-2,3.554879E-1,-2.0804769E-1,6.706346E-2,-6.8805385E-1,-1.7977802E-2,2.6588264E-1,8.767153E-3,1.06319435E-1,4.478318E-1,-8.13122E-2,-4.577831E-1,-2.6596722E-1,-5.155098E-3,2.190275E-1,-2.093534E-2,-1.02146365E-1,-5.124748E-1,2.270745E-1,-2.2883613E-1,-8.2823515E-2,4.6278128E-1,-1.0622325E-1,-3.481609E-1,2.1867509E-1,-1.8849024E-1,-8.17327E-1,-5.5028504E-1,7.8328855E-2,3.8846335E-1,-1.90934E-1,9.7142585E-2,4.7435075E-1,2.1851718E-2,1.05887495E-1,4.984976E-1,2.345956E-2,-2.8229117E-1,-4.2870134E-1,-6.944235E-1,-4.6910477E-1,-2.1218044E-1,-3.972942E-1,2.1539503E-1,-9.783319E-3,3.5504663E-1,-3.4586575E-2,2.3549518E-2,-2.7353307E-2,-7.091605E-2,2.879494E-2,4.3880054E-1,-4.42119E-1,-4.869775E-3,-2.732418E-2,1.2548608E-2,3.284138E-1,8.8256013E-1,-4.242154E-2,-5.0028646E-1,-5.8849353E-2,-2.9691344E-1,-4.2882897E-2,5.126675E-1,5.3555025E-3,-2.8202605E-1,-6.394604E-2,-9.584955E-2,-6.87844E-2,-3.8597908E-2,-4.9861103E-2,1.4998245E-1,3.0215064E-1,6.6903794E-1,-4.3511695E-1,-9.857695E-2,1.405296E-1,-2.718555E-1,2.2823552E-2,7.112818E-2,-1.623104E-1,1.6271079E-1,-8.722512E-2,4.4194013E-2,5.7093E-1,1.6177095E-1,-4.5807615E-2,-1.117619E-2,-4.75725E-2,-2.4226537E-2,-8.990177E-2,-5.3374626E-2,-5.5329736E-2,-2.971161E-2,-1.4728471E-2,-4.7152746E-2,-7.6111644E-3,-4.8234846E-2,9.011653E-2,6.205223E-3,1.4215002E-2,5.674277E-2,-3.338559E-2,2.073587E-2,1.3684525E-2,5.7356443E-2,-7.289581E-2,-1.952924E-2,-2.3447093E-2,1.9007664E-2,8.218549E-3,5.7770967E-2,1.2387039E-1,4.9767993E-2,-1.3355123E-2,1.8863356E-2,-7.5991325E-2,-2.0186834E-2,2.0823928E-3,-3.4811083E-2,1.8688401E-2,-3.2841753E-2,2.5985872E-2,8.43447E-2,-5.3401887E-2,-1.1248512E-2,2.2860888E-2,-4.0344138E-2,3.6655776E-2,-1.3010099E-2,8.24111E-2,2.777001E-2,-5.6429382E-2,-3.7511003E-3,6.0697077E-3,-2.6915798E-2,3.0846158E-3,3.273591E-2,-1.2289759E-2,-6.0670596E-2,-1.4682931E-3,-5.585233E-2,3.3409156E-2,-1.6653854E-2,-2.9138131E-2,2.0531476E-2,5.1417287E-2,1.1641891E-1,-1.8409826E-2,3.1335153E-2],"categories":[],"categories_nodes":[],"categories_segments":[],"categories_sizes":[],"default_left":[0,0,0,0,0,0,0,0,0,0,0,0,0,0,0,0,0,0,0,0,0,0,0,0,0,0,0,0,0,0,0,0,0,0,0,0,0,0,0,0,0,0,0,0,0,0,0,0,0,0,0,0,0,0,0,0,0,0,0,0,0,0,0,0,0,0,0,0,0,0,0,0,0,0,0,0,0,0,0,0,0,0,0,0,0,0,0,0,0,0,0,0,0,0,0,0,0,0,0,0,0,0,0,0,0,0,0,0,0,0,0,0,0,0,0,0,0,0,0,0,0,0,0,0,0,0,0,0,0,0,0,0,0,0,0,0,0,0,0,0,0,0,0,0,0,0,0,0,0,0,0,0,0,0,0,0,0,0,0,0,0,0,0,0,0,0,0,0,0,0,0],"id":9,"left_children":[1,3,5,7,9,11,13,15,17,19,21,23,25,27,29,31,33,35,-1,37,-1,39,41,43,45,47,-1,49,51,53,55,57,59,61,63,65,-1,67,69,71,73,75,77,79,81,83,85,87,89,91,93,95,97,99,101,103,105,-1,107,109,111,113,115,117,119,-1,121,-1,-1,-1,-1,123,125,127,129,-1,-1,131,133,135,137,-1,139,141,143,-1,145,-1,-1,-1,-1,-1,147,149,151,153,155,157,159,-1,-1,161,163,165,-1,167,169,-1,-1,-1,-1,-1,-1,-1,-1,-1,-1,-1,-1,-1,-1,-1,-1,-1,-1,-1,-1,-1,-1,-1,-1,-1,-1,-1,-1,-1,-1,-1,-1,-1,-1,-1,-1,-1,-1,-1,-1,-1,-1,-1,-1,-1,-1,-1,-1,-1,-1,-1,-1,-1,-1,-1,-1,-1,-1,-1,-1,-1,-1,-1,-1],"loss_changes":[1.3485297E2,7.232742E1,1.122492E2,3.2733307E1,1.6188438E1,2.4234001E1,4.4785797E1,2.5243225E1,1.3267935E1,7.388866E0,1.5286066E1,1.3432135E1,5.1425934E0,2.7422155E1,2.4597443E1,1.3203751E1,2.1348946E1,5.637223E0,0E0,4.9263573E0,0E0,1.5283464E1,1.273761E1,9.320257E0,9.485354E0,1.4601212E0,0E0,1.4478298E1,2.1401968E1,9.065315E0,1.3354507E1,6.874189E0,5.115448E0,1.5063637E1,3.525268E1,3.6736856E0,0E0,5.08593E0,2.5539598E0,7.00054E0,6.2721314E0,2.1743095E0,1.1954807E1,9.564675E0,3.2196388E0,1.1821798E1,2.08213E0,7.2449875E-1,9.7701263E-1,1.0438064E1,9.034035E0,8.34722E0,1.3495696E1,3.012722E0,6.213252E0,6.601941E0,1.6340012E1,0E0,1.9269094E0,6.0487823E0,2.2970848E0,4.030613E0,1.8428715E1,3.9714584E0,2.737952E1,0E0,2.600131E0,0E0,0E0,0E0,0E0,5.724892E0,3.2061596E0,4.6201687E0,2.9575782E0,0E0,0E0,1.0144695E1,6.5175514E0,6.957571E0,3.9556913E0,0E0,3.735342E0,5.449498E0,5.8288E0,0E0,2.760161E0,0E0,0E0,0E0,0E0,0E0,9.82884E0,8.218447E0,5.166191E0,5.207678E0,7.385395E0,1.5416434E1,4.3535824E0,0E0,0E0,6.066868E0,7.7091637E0,3.9456642E0,0E0,1.8057968E1,6.3838162E0,0E0,0E0,0E0,0E0,0E0,0E0,0E0,0E0,0E0,0E0,0E0,0E0,0E0,0E0,0E0,0E0,0E0,0E0,0E0,0E0,0E0,0E0,0E0,0E0,0E0,0E0,0E0,0E0,0E0,0E0,0E0,0E0,0E0,0E0,0E0,0E0,0E0,0E0,0E0,0E0,0E0,0E0,0E0,0E0,0E0,0E0,0E0,0E0,0E0,0E0,0E0,0E0,0E0,0E0,0E0,0E0,0E0,0E0,0E0,0E0,0E0,0E0,0E0,0E0],"parents":[2147483647,0,0,1,1,2,2,3,3,4,4,5,5,6,6,7,7,8,8,9,9,10,10,11,11,12,12,13,13,14,14,15,15,16,16,17,17,19,19,21,21,22,22,23,23,24,24,25,25,27,27,28,28,29,29,30,30,31,31,32,32,33,33,34,34,35,35,37,37,38,38,39,39,40,40,41,41,42,42,43,43,44,44,45,45,46,46,47,47,48,48,49,49,50,50,51,51,52,52,53,53,54,54,55,55,56,56,58,58,59,59,60,60,61,61,62,62,63,63,64,64,66,66,71,71,72,72,73,73,74,74,77,77,78,78,79,79,80,80,82,82,83,83,84,84,86,86,92,92,93,93,94,94,95,95,96,96,97,97,98,98,101,101,102,102,103,103,105,105,106,106],"right_children":[2,4,6,8,10,12,14,16,18,20,22,24,26,28,30,32,34,36,-1,38,-1,40,42,44,46,48,-1,50,52,54,56,58,60,62,64,66,-1,68,70,72,74,76,78,80,82,84,86,88,90,92,94,96,98,100,102,104,106,-1,108,110,112,114,116,118,120,-1,122,-1,-1,-1,-1,124,126,128,130,-1,-1,132,134,136,138,-1,140,142,144,-1,146,-1,-1,-1,-1,-1,148,150,152,154,156,158,160,-1,-1,162,164,166,-1,168,170,-1,-1,-1,-1,-1,-1,-1,-1,-1,-1,-1,-1,-1,-1,-1,-1,-1,-1,-1,-1,-1,-1,-1,-1,-1,-1,-1,-1,-1,-1,-1,-1,-1,-1,-1,-1,-1,-1,-1,-1,-1,-1,-1,-1,-1,-1,-1,-1,-1,-1,-1,-1,-1,-1,-1,-1,-1,-1,-1,-1,-1,-1,-1,-1],"split_conditions":[-1.5395E4,2.4E1,1E0,4E0,1E0,1E0,1E0,-2.0524E4,-3.93E2,3E0,-1.9618E4,1.6E1,-9.519E3,8.0865E4,-1.027E3,3.5329E4,-3.75E2,2.31956E5,8.420467E-2,9E5,1.6241793E-2,3.07609E5,1E0,1E0,2.205E5,7.6632E4,-1.7977802E-2,-1.267E4,-1.013E3,1.03257E5,1.845E5,-2.02E2,2.80683E5,1.6911E4,1E0,1E0,-2.093534E-2,2.6703E4,6.4008E5,2.8E1,1.1623E6,6.57E5,-1.6418E4,2E0,5E0,1E0,5.094E5,1.53E5,1.665E5,1.845E5,2.997E4,3.12768E5,1E0,2.3494E4,1.2E1,3E0,9E5,2.345956E-2,5.08495E5,1.7E1,1.665E5,1E0,4.1773E4,2E0,3.9915E4,-9.783319E-3,1.3725E5,-3.4586575E-2,2.3549518E-2,-2.7353307E-2,-7.091605E-2,2.12395E5,-6.47E2,2.3184E4,